{"channel_n": 16, "hidden_n": 128, "fire_rate": 0.5, "alpha_channel": 3, "living_threshold": 0.1, "identity_kernel": [[0.0, 0.0, 0.0], [0.0, 1.0, 0.0], [0.0, 0.0, 0.0]], "dx_kernel": [[-0.125, 0.0, 0.125], [-0.25, 0.0, 0.25], [-0.125, 0.0, 0.125]], "dy_kernel": [[-0.125, -0.25, -0.125], [0.0, 0.0, 0.0], [0.125, 0.25, 0.125]], "conv1_weight": [[[[0.07057251781225204]], [[0.01321705523878336]], [[0.16827382147312164]], [[-0.34341996908187866]], [[0.05675341933965683]], [[-0.21127524971961975]], [[-0.08303991705179214]], [[0.2748520076274872]], [[-0.1396895945072174]], [[0.015662433579564095]], [[0.0841306746006012]], [[-0.0054901656694710255]], [[-0.18581657111644745]], [[0.10578826069831848]], [[-0.05471210181713104]], [[-0.032032210379838943]], [[0.07347259670495987]], [[-0.07356536388397217]], [[-0.015122928656637669]], [[-0.10345543175935745]], [[0.11829287558794022]], [[0.36610928177833557]], [[0.10715759545564651]], [[0.08498237282037735]], [[0.010949535295367241]], [[-0.14255037903785706]], [[0.02945069596171379]], [[-0.29686373472213745]], [[-0.4662308096885681]], [[0.004027751740068197]], [[-0.11442611366510391]], [[0.2648760974407196]], [[-0.06691853702068329]], [[-0.08573976904153824]], [[0.034528590738773346]], [[-0.21255940198898315]], [[-0.13228411972522736]], [[0.03719078376889229]], [[0.023524979129433632]], [[0.06627902388572693]], [[-0.12144118547439575]], [[-0.017313795164227486]], [[0.13559158146381378]], [[0.1129961684346199]], [[0.06356805562973022]], [[-0.03051767684519291]], [[-0.05925106629729271]], [[0.23222976922988892]]], [[[-0.18643732368946075]], [[0.032393768429756165]], [[-0.05851547420024872]], [[0.05536603927612305]], [[0.06187849119305611]], [[-0.05792505666613579]], [[0.06946774572134018]], [[-0.08183997124433517]], [[0.20272763073444366]], [[-0.21073439717292786]], [[0.05821199342608452]], [[-0.3025134801864624]], [[0.02575724571943283]], [[0.21057650446891785]], [[0.012573727406561375]], [[0.07387026399374008]], [[0.22877083718776703]], [[-0.037690598517656326]], [[-0.020097486674785614]], [[0.5095191597938538]], [[0.38160058856010437]], [[0.12292354553937912]], [[-0.36967629194259644]], [[0.32508450746536255]], [[0.16556015610694885]], [[0.06829383969306946]], [[0.3254954218864441]], [[0.07329147309064865]], [[-0.027043551206588745]], [[0.14098888635635376]], [[-0.059691473841667175]], [[-0.003091784892603755]], [[0.08661981672048569]], [[0.2428998351097107]], [[-0.14020299911499023]], [[-0.09728618711233139]], [[0.09531395882368088]], [[0.5241677761077881]], [[-0.012442167848348618]], [[-0.2860819101333618]], [[-0.23452946543693542]], [[0.3911837935447693]], [[0.08369917422533035]], [[-0.15549123287200928]], [[-0.21991053223609924]], [[0.2665678560733795]], [[-0.5473085045814514]], [[0.11920610070228577]]], [[[-0.041448261588811874]], [[0.010063030757009983]], [[-0.04658108204603195]], [[-0.17991414666175842]], [[0.18429811298847198]], [[0.1836700588464737]], [[-0.10573185235261917]], [[0.35776862502098083]], [[0.08833157271146774]], [[-0.18839149177074432]], [[-0.03563046455383301]], [[-0.15042763948440552]], [[-0.014580179937183857]], [[-0.3145716190338135]], [[0.16552972793579102]], [[0.054487742483615875]], [[0.08335579931735992]], [[0.012262294068932533]], [[0.1439787745475769]], [[0.16063429415225983]], [[-0.44949421286582947]], [[0.1476069688796997]], [[-0.12528200447559357]], [[0.05568777769804001]], [[0.09054215252399445]], [[0.17379267513751984]], [[-0.2761542499065399]], [[0.01211134996265173]], [[-0.3297980725765228]], [[0.0974411889910698]], [[-0.3395705223083496]], [[-0.18286441266536713]], [[0.0848512202501297]], [[-0.12721824645996094]], [[-0.12496532499790192]], [[0.32316896319389343]], [[-0.0546749085187912]], [[0.08537077903747559]], [[0.1027665063738823]], [[-0.20705871284008026]], [[0.057225462049245834]], [[-0.062045734375715256]], [[0.13795045018196106]], [[0.26324766874313354]], [[0.09811808913946152]], [[0.18894264101982117]], [[0.48414379358291626]], [[-0.08845877647399902]]], [[[-0.2593757212162018]], [[0.03756004944443703]], [[0.3779851794242859]], [[0.11540725082159042]], [[-0.029285520315170288]], [[-0.2257188856601715]], [[-0.22557039558887482]], [[-0.4590834379196167]], [[0.03899607062339783]], [[0.06006644666194916]], [[0.06663268059492111]], [[-0.1845329999923706]], [[-0.07996813207864761]], [[-0.1396772712469101]], [[-0.06058391183614731]], [[-0.14441841840744019]], [[0.003952867351472378]], [[-0.16797268390655518]], [[-0.25078079104423523]], [[-0.016700178384780884]], [[0.21057380735874176]], [[0.13376618921756744]], [[0.10928088426589966]], [[-0.14184890687465668]], [[-0.09217555075883865]], [[0.045117128640413284]], [[0.026301944628357887]], [[-0.13953302800655365]], [[0.19673877954483032]], [[0.2239290326833725]], [[-0.09777484089136124]], [[0.06941229850053787]], [[0.22587592899799347]], [[-0.02719241939485073]], [[0.2259676158428192]], [[-0.2728317677974701]], [[-0.08615940064191818]], [[-0.0026272328104823828]], [[-0.050555795431137085]], [[0.00918201170861721]], [[-0.20330438017845154]], [[0.1977546513080597]], [[-0.018651477992534637]], [[0.08692999184131622]], [[-0.02122606337070465]], [[-0.009002801030874252]], [[0.49443408846855164]], [[-0.11436079442501068]]], [[[0.019867802038788795]], [[0.028889866545796394]], [[0.28788119554519653]], [[-0.24606367945671082]], [[-0.06875178217887878]], [[-0.1988869458436966]], [[-1.5073480606079102]], [[0.047290217131376266]], [[-0.23067080974578857]], [[0.0038204877637326717]], [[-0.29750362038612366]], [[0.062139447778463364]], [[-0.12560734152793884]], [[0.02374356985092163]], [[0.045283347368240356]], [[0.05814487859606743]], [[0.13156616687774658]], [[-0.06101914495229721]], [[-0.0359656885266304]], [[-0.0947154313325882]], [[0.05356096848845482]], [[0.01820133626461029]], [[0.14848606288433075]], [[-0.07924283295869827]], [[0.031111830845475197]], [[-0.09325776249170303]], [[0.14735111594200134]], [[-0.01764879934489727]], [[-0.10914488136768341]], [[0.1484849601984024]], [[-0.04983954131603241]], [[-0.12801723182201385]], [[-0.15464040637016296]], [[0.043726563453674316]], [[0.1455181986093521]], [[-0.06973567605018616]], [[-0.1486930102109909]], [[-0.02728431113064289]], [[-0.03131605684757233]], [[-0.0062652952037751675]], [[0.07090549916028976]], [[0.0021722770761698484]], [[0.107921302318573]], [[-0.022275878116488457]], [[0.017696434631943703]], [[0.01937406323850155]], [[-0.024532349780201912]], [[0.19099333882331848]]], [[[0.03856203705072403]], [[0.10583265125751495]], [[-0.3681383728981018]], [[-0.05857980623841286]], [[0.16140267252922058]], [[-0.3184761703014374]], [[0.009580948390066624]], [[-0.30452561378479004]], [[0.19795425236225128]], [[-0.13032710552215576]], [[0.045411791652441025]], [[-0.10064062476158142]], [[0.13833792507648468]], [[-0.2291993796825409]], [[-0.41991063952445984]], [[-0.07029721885919571]], [[-0.3348281979560852]], [[0.4443790316581726]], [[-0.1597960889339447]], [[-0.009894220158457756]], [[-0.20856380462646484]], [[0.08467812091112137]], [[0.17019639909267426]], [[0.18015632033348083]], [[0.1716533750295639]], [[-0.29448792338371277]], [[0.19736197590827942]], [[0.029992762953042984]], [[-0.08769960701465607]], [[0.47309112548828125]], [[-0.2609516382217407]], [[0.2641371190547943]], [[-0.24626317620277405]], [[0.16809459030628204]], [[-0.10266280919313431]], [[-0.06983160972595215]], [[0.17277196049690247]], [[-0.22721591591835022]], [[0.3336288332939148]], [[0.037552766501903534]], [[0.08093521744012833]], [[-0.0846700370311737]], [[-0.18619871139526367]], [[0.13046589493751526]], [[0.25797533988952637]], [[0.24725215137004852]], [[0.32563158869743347]], [[0.06276014447212219]]], [[[-0.2894846200942993]], [[0.14250756800174713]], [[-0.22650927305221558]], [[-0.20622888207435608]], [[-0.0756869688630104]], [[0.45485901832580566]], [[0.07250979542732239]], [[-0.4456586539745331]], [[0.3933623731136322]], [[-0.2856806218624115]], [[-0.1205996572971344]], [[0.12054487317800522]], [[-0.030994120985269547]], [[0.24043254554271698]], [[0.15098723769187927]], [[-0.08855166286230087]], [[-0.12015873193740845]], [[-0.04959414154291153]], [[0.07978353649377823]], [[0.12881340086460114]], [[0.0006005993345752358]], [[0.06563341617584229]], [[-0.1483953297138214]], [[0.16778644919395447]], [[-0.04299302026629448]], [[0.30413109064102173]], [[-0.25025665760040283]], [[-0.11437541246414185]], [[-0.3711102306842804]], [[0.16347870230674744]], [[0.10342617332935333]], [[0.17949174344539642]], [[-0.0762638971209526]], [[-0.07553143799304962]], [[-0.41032934188842773]], [[0.30766910314559937]], [[0.1558019518852234]], [[-0.06031656637787819]], [[-0.17957405745983124]], [[-0.17714644968509674]], [[0.4536495804786682]], [[-0.16567790508270264]], [[-0.21200545132160187]], [[-0.38236674666404724]], [[0.013354187831282616]], [[-0.038520921021699905]], [[0.08607831597328186]], [[0.09865729510784149]]], [[[-0.019383860751986504]], [[-0.03490511327981949]], [[0.14397083222866058]], [[0.004342868458479643]], [[0.07096754759550095]], [[-0.11478821188211441]], [[0.11894571036100388]], [[0.46773484349250793]], [[-0.34838905930519104]], [[0.08394034206867218]], [[-0.06877242773771286]], [[0.07080698758363724]], [[-0.08382827043533325]], [[0.05128255859017372]], [[-0.35334882140159607]], [[0.2790903151035309]], [[0.3538512885570526]], [[0.1676083356142044]], [[0.14287741482257843]], [[0.1965755671262741]], [[0.08477462083101273]], [[0.1851651519536972]], [[-0.026589687913656235]], [[-0.39718806743621826]], [[-0.11774127930402756]], [[-0.02141888067126274]], [[0.18481899797916412]], [[-0.055222198367118835]], [[0.2908436357975006]], [[0.2970767915248871]], [[0.06958737969398499]], [[-0.23387432098388672]], [[-0.20800650119781494]], [[-0.1449245810508728]], [[0.025692936033010483]], [[-0.004810587968677282]], [[-0.056559376418590546]], [[0.23647990822792053]], [[-0.1316961795091629]], [[0.047789737582206726]], [[0.43139389157295227]], [[0.08415480703115463]], [[0.12433671206235886]], [[-0.017355218529701233]], [[0.19054795801639557]], [[-0.05085398256778717]], [[-0.17698365449905396]], [[0.5458986759185791]]], [[[0.07359623163938522]], [[0.11672431230545044]], [[0.16272997856140137]], [[0.06717600673437119]], [[-0.12085384130477905]], [[0.07144250720739365]], [[0.13185356557369232]], [[-0.2774423062801361]], [[-0.4170375168323517]], [[-0.1096610501408577]], [[-0.07979804277420044]], [[0.361423522233963]], [[0.16669882833957672]], [[-0.11374950408935547]], [[0.02564994804561138]], [[0.2049204707145691]], [[-0.16433309018611908]], [[-0.04485693201422691]], [[-0.1616978794336319]], [[0.13309453427791595]], [[0.1625094711780548]], [[-0.12210138887166977]], [[-0.15386034548282623]], [[-0.013733169063925743]], [[0.09999462217092514]], [[-0.17710398137569427]], [[-0.2733554542064667]], [[-0.015330765396356583]], [[0.042866725474596024]], [[-0.1709410399198532]], [[-0.2702307403087616]], [[0.19736121594905853]], [[0.009990847669541836]], [[0.16231843829154968]], [[-0.3778369724750519]], [[-0.14551903307437897]], [[0.07469058781862259]], [[-0.41029471158981323]], [[-0.4780727028846741]], [[-0.05564875900745392]], [[-0.004461973439902067]], [[0.007429224438965321]], [[0.0034026794601231813]], [[0.09763119369745255]], [[0.14396953582763672]], [[-0.06540464609861374]], [[-0.1209043562412262]], [[0.16245251893997192]]], [[[0.16796264052391052]], [[0.20306997001171112]], [[-0.3121851980686188]], [[-5.828078428748995e-05]], [[0.03161666542291641]], [[-0.24949583411216736]], [[-0.08030182868242264]], [[-0.46944767236709595]], [[-0.3964599072933197]], [[-0.28202369809150696]], [[-0.48885267972946167]], [[0.10629475861787796]], [[-0.13994815945625305]], [[0.17030449211597443]], [[0.02178807370364666]], [[0.0818820372223854]], [[0.015620831400156021]], [[-0.15351440012454987]], [[0.21624425053596497]], [[0.3098811209201813]], [[-0.1150805652141571]], [[0.1123347282409668]], [[-0.0633784607052803]], [[0.11346451938152313]], [[-0.03402285277843475]], [[0.07866358757019043]], [[0.019225353375077248]], [[-0.04819726571440697]], [[-0.09273340553045273]], [[-0.17642708122730255]], [[-0.001029707258567214]], [[-0.10468527674674988]], [[-0.055971190333366394]], [[0.05085781589150429]], [[-0.0755792185664177]], [[-0.12683819234371185]], [[-0.12402883172035217]], [[-0.015437588095664978]], [[-0.012322947382926941]], [[-0.021274568513035774]], [[0.17457909882068634]], [[-0.030243633314967155]], [[0.06552794575691223]], [[-0.2364535927772522]], [[-0.09949246793985367]], [[0.03887913376092911]], [[-0.24171650409698486]], [[-0.0017203782917931676]]], [[[-0.34386932849884033]], [[-0.24245797097682953]], [[-0.14700986444950104]], [[0.11711373925209045]], [[-0.07571045309305191]], [[0.09473925083875656]], [[0.3575216233730316]], [[0.14351491630077362]], [[-0.06421596556901932]], [[-0.1066160574555397]], [[-0.11212531477212906]], [[0.10442440211772919]], [[0.16081343591213226]], [[0.08017497509717941]], [[0.15173974633216858]], [[-0.15044377744197845]], [[0.04670102149248123]], [[-0.06805998831987381]], [[0.1994026005268097]], [[0.10968971252441406]], [[-0.2515532374382019]], [[0.04841839149594307]], [[0.20563267171382904]], [[0.011867955327033997]], [[0.135691300034523]], [[0.11753793060779572]], [[0.0987100899219513]], [[0.07791244238615036]], [[0.2538677752017975]], [[0.09643962979316711]], [[-0.11974956840276718]], [[0.23574692010879517]], [[-0.32433977723121643]], [[-0.0887293890118599]], [[-0.031338728964328766]], [[-0.04290115088224411]], [[-0.10841451585292816]], [[0.026732612401247025]], [[0.11977064609527588]], [[-0.0991889238357544]], [[-0.045405566692352295]], [[0.1744370013475418]], [[0.061647944152355194]], [[-0.030275123193860054]], [[0.019968673586845398]], [[-0.15343451499938965]], [[0.15747074782848358]], [[-0.0760493054986]]], [[[-0.058623481541872025]], [[0.04768477752804756]], [[0.024761095643043518]], [[0.38356631994247437]], [[-0.08247604221105576]], [[-0.16185161471366882]], [[-0.2127716988325119]], [[-0.06888958066701889]], [[-0.0830569639801979]], [[-0.08967524766921997]], [[-0.05782577767968178]], [[-0.08147063851356506]], [[-0.17616915702819824]], [[0.013309638015925884]], [[0.06951972842216492]], [[0.027070285752415657]], [[0.12459667772054672]], [[0.27849021553993225]], [[0.09845880419015884]], [[-0.1678803414106369]], [[-0.19338209927082062]], [[0.0757392942905426]], [[-0.2916536331176758]], [[-0.044718727469444275]], [[0.14982448518276215]], [[-0.11753810197114944]], [[0.11510270833969116]], [[0.03840905427932739]], [[0.00013449140533339232]], [[-0.07224477827548981]], [[0.02356700226664543]], [[-0.18350593745708466]], [[-0.13871870934963226]], [[-0.15216900408267975]], [[-0.17426703870296478]], [[0.2656163275241852]], [[-0.1228635162115097]], [[-0.16380658745765686]], [[0.0027134728152304888]], [[0.16551995277404785]], [[0.07432783395051956]], [[-0.22432288527488708]], [[0.2774870991706848]], [[0.16790415346622467]], [[-0.16956983506679535]], [[-0.03220226243138313]], [[0.020527120679616928]], [[0.27560749650001526]]], [[[-0.288766473531723]], [[0.03095574490725994]], [[-0.20219644904136658]], [[-0.05048323795199394]], [[0.016895035281777382]], [[-0.13384687900543213]], [[-0.2577672600746155]], [[-0.251524418592453]], [[-0.08297841995954514]], [[-0.24750758707523346]], [[0.018299447372555733]], [[0.10775305330753326]], [[0.34604108333587646]], [[0.2404525876045227]], [[0.19901102781295776]], [[0.037751708179712296]], [[-0.185435950756073]], [[-0.02943888120353222]], [[-0.025471258908510208]], [[-0.0375240221619606]], [[-0.23120157420635223]], [[0.23007163405418396]], [[0.059700917452573776]], [[-0.09760809689760208]], [[-0.2341318577528]], [[0.08584550023078918]], [[0.004801676142960787]], [[0.055943023413419724]], [[-0.2183978408575058]], [[-0.13981132209300995]], [[0.01599831134080887]], [[-0.06950034946203232]], [[0.020555153489112854]], [[0.07876326888799667]], [[0.09399081021547318]], [[-0.6626259088516235]], [[0.08934426307678223]], [[0.008455685339868069]], [[0.3762185573577881]], [[0.004305595066398382]], [[-0.0008181511075235903]], [[0.1467636227607727]], [[0.2707310616970062]], [[-0.1107284426689148]], [[-0.45348531007766724]], [[0.10532152652740479]], [[-0.08849034458398819]], [[-0.08965785801410675]]], [[[-0.22212006151676178]], [[0.115275077521801]], [[0.2036173939704895]], [[-0.10570572316646576]], [[-0.06810307502746582]], [[0.03755660355091095]], [[0.3211727440357208]], [[-0.23758310079574585]], [[0.01451333612203598]], [[-0.09181847423315048]], [[3.180840622007963e-07]], [[-0.18370269238948822]], [[-0.1014036238193512]], [[-0.13386034965515137]], [[-0.06242049112915993]], [[0.08674652129411697]], [[-0.11453064531087875]], [[0.3834938108921051]], [[0.05563781037926674]], [[-0.03669806942343712]], [[0.01126015279442072]], [[0.2157725840806961]], [[-0.2889803349971771]], [[0.2150813639163971]], [[-0.12947240471839905]], [[-0.3096994459629059]], [[0.10572103410959244]], [[-0.09607171267271042]], [[0.21163220703601837]], [[-0.1584414690732956]], [[-0.18471896648406982]], [[0.021986380219459534]], [[-0.3817424774169922]], [[0.03884996473789215]], [[-0.3692268431186676]], [[0.2223375141620636]], [[0.20564232766628265]], [[-0.21925148367881775]], [[0.5157414674758911]], [[-0.2171335220336914]], [[-0.2555404603481293]], [[0.03221497684717178]], [[-0.15211273729801178]], [[0.026845140382647514]], [[0.2508431077003479]], [[0.17291070520877838]], [[-0.5911828279495239]], [[0.13937821984291077]]], [[[-0.03461439535021782]], [[0.2371569722890854]], [[0.029217418283224106]], [[0.07947888225317001]], [[-0.04411853849887848]], [[-0.23217281699180603]], [[0.20374687016010284]], [[-0.5370789766311646]], [[0.04641236364841461]], [[-0.19179187715053558]], [[-0.03860066831111908]], [[0.25316402316093445]], [[0.06199011951684952]], [[0.4227249324321747]], [[-0.05806494876742363]], [[0.13229142129421234]], [[0.19019317626953125]], [[-0.3316126763820648]], [[0.2807668447494507]], [[-0.03772497922182083]], [[0.10758469253778458]], [[0.08914145082235336]], [[-0.08784658461809158]], [[0.11149449646472931]], [[0.25353050231933594]], [[0.09098490327596664]], [[-0.19571568071842194]], [[-0.11079879850149155]], [[0.07988633960485458]], [[-0.022751476615667343]], [[-0.13956421613693237]], [[0.045174866914749146]], [[-0.16998641192913055]], [[-0.08215956389904022]], [[-0.3711833655834198]], [[-0.27331623435020447]], [[0.04597994312644005]], [[0.15063273906707764]], [[-0.08948332816362381]], [[-0.20086807012557983]], [[-0.2776831388473511]], [[-0.14380347728729248]], [[0.22905467450618744]], [[0.10903257876634598]], [[0.010361293330788612]], [[-0.06939294189214706]], [[-0.4230828881263733]], [[-0.1095392033457756]]], [[[0.17745062708854675]], [[-0.17683885991573334]], [[0.014851375482976437]], [[-0.3475121855735779]], [[-0.013195294886827469]], [[-0.002194802975282073]], [[0.3000025153160095]], [[0.046187885105609894]], [[-0.3390326201915741]], [[-0.12204001098871231]], [[-0.16980428993701935]], [[0.12695330381393433]], [[-0.07843081653118134]], [[0.044021762907505035]], [[0.005229229107499123]], [[0.2391277253627777]], [[0.13968391716480255]], [[-0.29165831208229065]], [[0.05668538808822632]], [[-0.2105879783630371]], [[0.09761196374893188]], [[0.06268073618412018]], [[0.32733654975891113]], [[0.06158619001507759]], [[0.00966378953307867]], [[0.22506101429462433]], [[0.06928058713674545]], [[-0.1769912838935852]], [[-0.027121493592858315]], [[0.16947433352470398]], [[-0.21462883055210114]], [[0.04067028686404228]], [[0.18135695159435272]], [[-0.023903382942080498]], [[-0.10147687792778015]], [[0.04408029839396477]], [[-0.0903797298669815]], [[0.6331765055656433]], [[-0.32675960659980774]], [[-0.13464561104774475]], [[-0.15053850412368774]], [[0.008844917640089989]], [[-0.17579792439937592]], [[0.072389155626297]], [[0.019310131669044495]], [[-0.25870412588119507]], [[-0.05232759937644005]], [[0.10435139387845993]]], [[[-0.09683939069509506]], [[-0.009876878000795841]], [[0.20163342356681824]], [[-0.07558166980743408]], [[-0.021508386358618736]], [[0.29705214500427246]], [[0.18142041563987732]], [[-0.319486141204834]], [[0.378154456615448]], [[-0.02326386235654354]], [[0.21336661279201508]], [[0.013332377187907696]], [[-0.12924957275390625]], [[0.03270961716771126]], [[0.08722057193517685]], [[0.0008917083032429218]], [[-0.11546195298433304]], [[-0.13496188819408417]], [[0.0361800491809845]], [[-0.2509521245956421]], [[0.09927713871002197]], [[-0.03556819632649422]], [[0.31145143508911133]], [[-0.044859807938337326]], [[0.10965687781572342]], [[1.971981873793993e-05]], [[-0.1535145342350006]], [[-0.11619313806295395]], [[-0.10366803407669067]], [[0.22288694977760315]], [[-0.08046727627515793]], [[0.05300803855061531]], [[-0.43356677889823914]], [[-0.09122689813375473]], [[-0.046919748187065125]], [[-0.02780316397547722]], [[-0.02589648962020874]], [[0.32416045665740967]], [[0.35841286182403564]], [[-0.11417770385742188]], [[-0.10175073891878128]], [[0.6152349710464478]], [[0.05393360182642937]], [[0.09498685598373413]], [[0.18931914865970612]], [[-0.20704534649848938]], [[0.32433077692985535]], [[-0.39951470494270325]]], [[[-0.14811807870864868]], [[0.11024994403123856]], [[0.14512711763381958]], [[0.19742467999458313]], [[0.22635138034820557]], [[0.04179956018924713]], [[0.029940525069832802]], [[-0.19104737043380737]], [[0.05432775989174843]], [[-0.003748033195734024]], [[0.19440588355064392]], [[0.04301733896136284]], [[-0.019498009234666824]], [[0.24639195203781128]], [[0.45942795276641846]], [[0.14214995503425598]], [[-0.15977346897125244]], [[-0.0586966872215271]], [[-0.14314821362495422]], [[0.5067003965377808]], [[0.08988108485937119]], [[-0.09925031661987305]], [[-0.4171653985977173]], [[-0.030024917796254158]], [[-0.1887408047914505]], [[0.08290495723485947]], [[0.16869111359119415]], [[-0.04617296904325485]], [[0.27268683910369873]], [[-0.24070841073989868]], [[-0.03359246999025345]], [[0.1809409111738205]], [[-0.1452709138393402]], [[0.13938631117343903]], [[0.09159372001886368]], [[0.018850814551115036]], [[0.052037227898836136]], [[-0.22651943564414978]], [[0.30900323390960693]], [[-0.12201841175556183]], [[0.12269952148199081]], [[0.21715471148490906]], [[0.20907160639762878]], [[-0.16171851754188538]], [[0.4224162697792053]], [[0.029830943793058395]], [[-0.07481589168310165]], [[-0.3039953112602234]]], [[[0.09942550957202911]], [[-0.07223621010780334]], [[0.08059811592102051]], [[-0.12591838836669922]], [[-0.11644270271062851]], [[0.0008813882013782859]], [[0.04920513927936554]], [[-0.05332253873348236]], [[-0.3801572024822235]], [[-0.04573061317205429]], [[-0.07481031119823456]], [[0.03734980896115303]], [[0.1985526829957962]], [[0.10679921507835388]], [[-0.27158084511756897]], [[0.0371297150850296]], [[0.3265663981437683]], [[0.022531207650899887]], [[-0.1605551391839981]], [[-0.14589978754520416]], [[0.17856977880001068]], [[0.02648787386715412]], [[0.25385528802871704]], [[-0.038052748888731]], [[0.05149027705192566]], [[0.34542110562324524]], [[-0.12668462097644806]], [[-0.039343077689409256]], [[-0.23470142483711243]], [[0.276138037443161]], [[-0.0605076402425766]], [[0.14937449991703033]], [[0.2940440773963928]], [[0.2698412835597992]], [[0.20415684580802917]], [[-0.13190793991088867]], [[0.181997612118721]], [[0.6767120957374573]], [[0.27260515093803406]], [[0.04669961705803871]], [[-0.2292652130126953]], [[0.09670695662498474]], [[-0.107326440513134]], [[-0.1403358280658722]], [[-0.12078281491994858]], [[0.064109206199646]], [[-0.005247820168733597]], [[-0.32741430401802063]]], [[[-0.6103618144989014]], [[0.006291233003139496]], [[0.1578589379787445]], [[-0.20298291742801666]], [[-0.23335511982440948]], [[-0.2984245717525482]], [[0.12144176661968231]], [[-0.014886093325912952]], [[-0.4870433509349823]], [[-1.595686912536621]], [[0.08590347319841385]], [[-0.056504372507333755]], [[0.007201565429568291]], [[-0.04063906520605087]], [[0.009889846667647362]], [[-0.19313496351242065]], [[0.13959278166294098]], [[0.3214707374572754]], [[0.06156299263238907]], [[0.05368891730904579]], [[0.1254172921180725]], [[0.07352665811777115]], [[-0.04254193976521492]], [[0.23561246693134308]], [[0.217681884765625]], [[-0.043831076472997665]], [[-0.13342581689357758]], [[0.10389743000268936]], [[0.19378750026226044]], [[0.04333576560020447]], [[0.05172504484653473]], [[-0.11484846472740173]], [[0.017432386055588722]], [[-0.0215484369546175]], [[0.11254997551441193]], [[-0.42219531536102295]], [[-0.065575510263443]], [[-0.07869330048561096]], [[-0.020831573754549026]], [[-0.10474667698144913]], [[0.05016617849469185]], [[-0.20980104804039001]], [[-0.033507101237773895]], [[-0.061327286064624786]], [[-0.052434131503105164]], [[0.09266035258769989]], [[-0.043553777039051056]], [[0.18559777736663818]]], [[[-0.04681815952062607]], [[-0.025525828823447227]], [[-0.017336169257760048]], [[-0.4311802089214325]], [[-0.010273635387420654]], [[-0.10114940255880356]], [[0.4652976095676422]], [[-0.1044633612036705]], [[-0.015761004760861397]], [[0.07375868409872055]], [[0.21542993187904358]], [[-0.09730026125907898]], [[0.0904717817902565]], [[0.012270956300199032]], [[-0.1818363070487976]], [[-0.053674425929784775]], [[-0.03777771443128586]], [[0.14867845177650452]], [[-0.1002802699804306]], [[0.29489457607269287]], [[-0.289905846118927]], [[-0.08458276093006134]], [[0.0766078308224678]], [[-0.23496954143047333]], [[-0.08819914609193802]], [[-0.15751561522483826]], [[-0.0033286188263446093]], [[-0.07176513224840164]], [[-0.18333977460861206]], [[0.13537073135375977]], [[0.011816339567303658]], [[0.11161366105079651]], [[-0.14950989186763763]], [[-0.033885326236486435]], [[0.40337494015693665]], [[-0.0754009559750557]], [[-0.05692201480269432]], [[0.020057154819369316]], [[0.2634466886520386]], [[-0.14945892989635468]], [[0.02370579168200493]], [[0.02162911556661129]], [[-0.032536957412958145]], [[-0.19939753413200378]], [[0.019473519176244736]], [[0.009018601849675179]], [[-0.1462896466255188]], [[-0.1683666706085205]]], [[[-0.13936637341976166]], [[0.06273514032363892]], [[0.015108862891793251]], [[-0.015522302128374577]], [[0.16985875368118286]], [[-0.17210295796394348]], [[-0.008523240685462952]], [[0.055205415934324265]], [[-0.12336401641368866]], [[-0.06550801545381546]], [[-0.07715213298797607]], [[0.035660047084093094]], [[0.14691215753555298]], [[0.13074825704097748]], [[-0.4015897810459137]], [[0.09929954260587692]], [[0.25294744968414307]], [[-0.4011804759502411]], [[-0.16205091774463654]], [[-0.18034125864505768]], [[-0.2073458582162857]], [[0.2916278839111328]], [[-0.1426916867494583]], [[0.1419517993927002]], [[0.21895137429237366]], [[-0.2727337181568146]], [[0.283588171005249]], [[-0.09586858749389648]], [[-0.2812274396419525]], [[0.39570027589797974]], [[-0.22412875294685364]], [[0.248239666223526]], [[-0.17670828104019165]], [[0.44478875398635864]], [[-0.08209826052188873]], [[-0.26590850949287415]], [[0.16224172711372375]], [[-0.16282498836517334]], [[0.17549295723438263]], [[0.011559153907001019]], [[-0.26455530524253845]], [[0.15992216765880585]], [[0.05688819661736488]], [[-0.1761644035577774]], [[0.3525911867618561]], [[0.23881815373897552]], [[-0.03454280272126198]], [[-0.0062544820830225945]]], [[[0.13539676368236542]], [[0.5028848052024841]], [[-0.16729816794395447]], [[-0.14814308285713196]], [[0.11138669401407242]], [[-0.10126792639493942]], [[0.032629773020744324]], [[0.23256072402000427]], [[-0.18045374751091003]], [[-0.21532756090164185]], [[0.14624519646167755]], [[-0.15202470123767853]], [[0.06650133430957794]], [[-0.03430323675274849]], [[-0.042013056576251984]], [[0.14208854734897614]], [[0.41098031401634216]], [[-0.012982945889234543]], [[0.21577663719654083]], [[-0.186497300863266]], [[-0.13272322714328766]], [[0.010540740564465523]], [[0.05701490491628647]], [[-0.347401887178421]], [[0.1369345337152481]], [[-0.34781068563461304]], [[0.12281089276075363]], [[-0.1788819283246994]], [[-0.031453024595975876]], [[0.3166464865207672]], [[-0.053742993623018265]], [[0.29619815945625305]], [[-0.07640150934457779]], [[-0.04510942101478577]], [[-0.2245452105998993]], [[-0.055870477110147476]], [[0.07163350284099579]], [[0.22608202695846558]], [[0.10024689137935638]], [[-0.08250830322504044]], [[0.09506117552518845]], [[-0.20811553299427032]], [[-0.08087549358606339]], [[-0.21172481775283813]], [[-0.16228747367858887]], [[-0.13271240890026093]], [[0.08248727023601532]], [[-0.019793448969721794]]], [[[-0.02169059030711651]], [[-0.08542788028717041]], [[0.06149142608046532]], [[-0.1437903195619583]], [[0.2756999135017395]], [[0.20979644358158112]], [[-1.1467833518981934]], [[0.20837931334972382]], [[-0.04499530419707298]], [[0.006589466240257025]], [[-0.1450149565935135]], [[-0.027171678841114044]], [[0.055064115673303604]], [[0.11512233316898346]], [[-0.12715241312980652]], [[0.05535978451371193]], [[-0.01626625657081604]], [[-0.4653427004814148]], [[-0.11895577609539032]], [[0.04148678481578827]], [[-0.1682209074497223]], [[-0.1044967845082283]], [[-0.03707560896873474]], [[-0.009307707659900188]], [[0.08822367340326309]], [[-0.06438849121332169]], [[-0.09799022972583771]], [[0.0817265659570694]], [[-0.00817118026316166]], [[-0.04393523558974266]], [[-0.2894992232322693]], [[-0.026338467374444008]], [[0.11801794171333313]], [[0.17196284234523773]], [[-0.2510390877723694]], [[-0.09524882584810257]], [[0.03190555423498154]], [[-0.053789280354976654]], [[-0.4254664480686188]], [[-0.07892608642578125]], [[0.1600026786327362]], [[-0.08396404981613159]], [[-0.057906053960323334]], [[-0.11487674713134766]], [[0.13922570645809174]], [[-0.07982112467288971]], [[-0.027709467336535454]], [[-0.1898435801267624]]], [[[-0.03565662354230881]], [[-0.0970776230096817]], [[0.03246266022324562]], [[-0.10720938444137573]], [[-0.13853588700294495]], [[-0.010363569483160973]], [[-0.002893544500693679]], [[-0.3252671957015991]], [[-0.4588978588581085]], [[-0.025578845292329788]], [[-0.2625899314880371]], [[0.16733741760253906]], [[0.025674309581518173]], [[0.001258510397747159]], [[-0.11439352482557297]], [[0.14759907126426697]], [[0.44803956151008606]], [[-0.35966575145721436]], [[-0.033056601881980896]], [[0.10675384849309921]], [[0.19736264646053314]], [[-0.11601760238409042]], [[0.11968198418617249]], [[-0.1979561299085617]], [[-0.022015778347849846]], [[-0.00660564424470067]], [[0.1897982954978943]], [[-0.10673656314611435]], [[-0.29166069626808167]], [[-0.20681551098823547]], [[0.22104057669639587]], [[-0.028357239440083504]], [[0.0121708819642663]], [[-0.17610913515090942]], [[0.20824606716632843]], [[0.40511423349380493]], [[-0.13198281824588776]], [[-0.043875038623809814]], [[-0.5156747698783875]], [[0.1728218048810959]], [[-0.38244202733039856]], [[0.07803243398666382]], [[0.005928665399551392]], [[-0.26342856884002686]], [[0.49961036443710327]], [[-0.011007659137248993]], [[0.024914652109146118]], [[-0.24889735877513885]]], [[[0.145674467086792]], [[0.12318054586648941]], [[0.21476233005523682]], [[-0.27981114387512207]], [[-0.19411695003509521]], [[0.1513293981552124]], [[-0.4870777130126953]], [[0.3054930865764618]], [[0.0022759372368454933]], [[-0.3607640862464905]], [[-0.27075353264808655]], [[-0.09554886072874069]], [[0.10913696140050888]], [[-0.018136650323867798]], [[0.10372108966112137]], [[-0.060141421854496]], [[0.03720765560865402]], [[0.31287622451782227]], [[0.09513963013887405]], [[0.2388666719198227]], [[-0.13327206671237946]], [[0.06817083060741425]], [[0.0342273935675621]], [[0.3139883577823639]], [[-0.103233203291893]], [[-0.022268157452344894]], [[-0.20110642910003662]], [[-0.020603545010089874]], [[0.042177584022283554]], [[0.6006574034690857]], [[0.05965713784098625]], [[0.0021701916120946407]], [[-0.0694926455616951]], [[-0.17344030737876892]], [[0.13056795299053192]], [[0.10762208700180054]], [[0.13316233456134796]], [[-0.17166778445243835]], [[0.19472520053386688]], [[-0.302243173122406]], [[0.143437922000885]], [[0.3863467872142792]], [[0.03381640836596489]], [[0.07202591747045517]], [[-0.0523243173956871]], [[0.014599542133510113]], [[-0.05877060443162918]], [[0.0978604182600975]]], [[[0.26050591468811035]], [[-0.004081199411302805]], [[0.11178121715784073]], [[0.2273222953081131]], [[0.14122681319713593]], [[0.021369047462940216]], [[-0.046472080051898956]], [[0.34445899724960327]], [[-0.057906556874513626]], [[-0.2903006374835968]], [[0.006485948339104652]], [[0.05084576457738876]], [[-0.07671845704317093]], [[-0.053028739988803864]], [[0.068851999938488]], [[-0.17816664278507233]], [[0.1284518539905548]], [[-0.4231018126010895]], [[0.0050704823806881905]], [[0.31115099787712097]], [[0.2625078856945038]], [[0.09296121448278427]], [[0.11383450776338577]], [[-0.16979901492595673]], [[-0.07387842237949371]], [[-0.20836570858955383]], [[0.08272993564605713]], [[-0.12953336536884308]], [[0.06222009286284447]], [[0.18648174405097961]], [[-0.011830445379018784]], [[0.1740942895412445]], [[-0.2528177797794342]], [[-0.022533971816301346]], [[-0.0517628937959671]], [[-0.17151688039302826]], [[0.04639015346765518]], [[0.07924796640872955]], [[-0.23173028230667114]], [[0.05204305425286293]], [[0.21962785720825195]], [[-0.18882882595062256]], [[0.2961207926273346]], [[-0.20925232768058777]], [[-0.11616487056016922]], [[0.027315841987729073]], [[0.1709960699081421]], [[-0.1064995676279068]]], [[[-0.11397790163755417]], [[-0.00254567782394588]], [[0.2816636860370636]], [[-0.2802010774612427]], [[0.05104071646928787]], [[0.1393474042415619]], [[-0.04564131051301956]], [[0.27466273307800293]], [[-0.02546444535255432]], [[-0.0861678346991539]], [[-0.1291065216064453]], [[-0.1402195394039154]], [[-0.11200522631406784]], [[0.2340618073940277]], [[0.3167063295841217]], [[-0.17582765221595764]], [[0.2773517668247223]], [[0.40611085295677185]], [[-0.10410527139902115]], [[0.04062853381037712]], [[0.009628569707274437]], [[0.1380896121263504]], [[-0.0673062726855278]], [[-0.35989388823509216]], [[0.1268301159143448]], [[-0.1899784356355667]], [[-0.02170679345726967]], [[-0.21242213249206543]], [[-0.2144242227077484]], [[0.5355715751647949]], [[-0.11062732338905334]], [[-0.057064324617385864]], [[-0.0746716633439064]], [[0.11930526047945023]], [[0.13377141952514648]], [[-0.007983259856700897]], [[0.20746418833732605]], [[-0.2791500389575958]], [[0.13929562270641327]], [[-0.0639796182513237]], [[0.12546375393867493]], [[-0.008610372431576252]], [[-0.052043329924345016]], [[0.08954580128192902]], [[0.029793059453368187]], [[-0.008109817281365395]], [[-0.16173726320266724]], [[0.40616971254348755]]], [[[-0.05793829634785652]], [[-0.025352098047733307]], [[0.0019988268613815308]], [[-0.1333974301815033]], [[-0.13104833662509918]], [[0.2837938964366913]], [[-0.12113316357135773]], [[-0.5352904200553894]], [[0.548410177230835]], [[0.18637403845787048]], [[0.025014033541083336]], [[0.043751057237386703]], [[-0.11419906467199326]], [[-0.06425677239894867]], [[0.2035393863916397]], [[-0.10611351579427719]], [[0.4598694145679474]], [[0.12409263104200363]], [[-0.014336540363729]], [[-0.0601968839764595]], [[0.07237152010202408]], [[-0.03589102625846863]], [[0.036389876157045364]], [[-0.04493869096040726]], [[-0.12864534556865692]], [[-0.1247052326798439]], [[-0.5765132308006287]], [[0.015819959342479706]], [[-0.05261354148387909]], [[-0.059717807918787]], [[0.07589253783226013]], [[-0.3216942548751831]], [[0.3960643708705902]], [[0.06389118731021881]], [[0.20318226516246796]], [[-0.2984521687030792]], [[0.14850299060344696]], [[-0.052186544984579086]], [[-0.2321184128522873]], [[-0.11184854805469513]], [[0.1806023269891739]], [[0.6634368896484375]], [[-0.053812865167856216]], [[0.006496356800198555]], [[-0.3136920630931854]], [[0.09513575583696365]], [[0.04192258045077324]], [[-0.12524065375328064]]], [[[0.1287669539451599]], [[0.04745674878358841]], [[0.11850850284099579]], [[-0.1508127748966217]], [[0.0193647313863039]], [[-0.02380642108619213]], [[0.08356466889381409]], [[0.16528373956680298]], [[-0.22514760494232178]], [[-0.1729273647069931]], [[-0.2656324505805969]], [[0.07753986120223999]], [[0.24660024046897888]], [[0.0468161478638649]], [[0.012854401022195816]], [[0.05546567216515541]], [[-0.091216541826725]], [[-0.16563671827316284]], [[0.14234818518161774]], [[0.3123351037502289]], [[-0.08048509061336517]], [[0.2296077311038971]], [[-0.03403244540095329]], [[0.24416954815387726]], [[0.13262324035167694]], [[-0.20229998230934143]], [[-0.08088855445384979]], [[-0.18132586777210236]], [[-0.04688689485192299]], [[0.36513862013816833]], [[0.05964330583810806]], [[-0.13840140402317047]], [[-0.28105050325393677]], [[-0.0999261736869812]], [[0.00733342207968235]], [[-0.11274193972349167]], [[-0.13326454162597656]], [[-0.15698063373565674]], [[0.1324879229068756]], [[0.04807930812239647]], [[0.4022899568080902]], [[0.10641053318977356]], [[0.03289596363902092]], [[-0.03495395556092262]], [[0.19169920682907104]], [[-0.138244166970253]], [[-0.28495463728904724]], [[-0.008604013361036777]]], [[[0.010311726480722427]], [[0.19864553213119507]], [[-0.04814768582582474]], [[-0.10917027294635773]], [[0.08346796780824661]], [[0.04914062097668648]], [[-0.04512489214539528]], [[-0.2837469279766083]], [[0.254599392414093]], [[-0.11401325464248657]], [[0.3668370246887207]], [[0.34572917222976685]], [[0.11200522631406784]], [[-0.29453447461128235]], [[0.3784011900424957]], [[0.1144443228840828]], [[-0.19516485929489136]], [[-0.3110257685184479]], [[-0.03674693405628204]], [[0.4186696410179138]], [[0.25115978717803955]], [[0.009319701232016087]], [[-0.3614337146282196]], [[-0.2687096893787384]], [[0.28795772790908813]], [[-0.0028519865591078997]], [[-0.23994040489196777]], [[0.08454674482345581]], [[0.18869714438915253]], [[-0.01116406824439764]], [[-0.04310600832104683]], [[-0.2944045960903168]], [[0.040892988443374634]], [[0.3526471257209778]], [[-0.2883397340774536]], [[-0.08158289641141891]], [[-0.0006403189618140459]], [[-0.20869719982147217]], [[-0.023878170177340508]], [[-0.2887817621231079]], [[0.33305954933166504]], [[0.24234163761138916]], [[-0.1422671675682068]], [[-0.16783839464187622]], [[0.36278751492500305]], [[0.2553856670856476]], [[0.0592537522315979]], [[-0.37184420228004456]]], [[[-0.04491982236504555]], [[-0.06010740250349045]], [[-0.3285163640975952]], [[-0.11249340325593948]], [[-0.07664588838815689]], [[-0.3191462457180023]], [[-0.1157684400677681]], [[0.05170649290084839]], [[-0.23011715710163116]], [[-0.292837917804718]], [[-0.5164484977722168]], [[-0.33332082629203796]], [[0.1654801219701767]], [[-0.1320265382528305]], [[0.04805020987987518]], [[-0.17563706636428833]], [[0.2114305943250656]], [[0.24808289110660553]], [[0.0782008245587349]], [[-0.036554377526044846]], [[0.07208201289176941]], [[0.29266980290412903]], [[0.2707381546497345]], [[-0.14104528725147247]], [[0.05226047337055206]], [[0.09398754686117172]], [[-0.048457082360982895]], [[-0.23001059889793396]], [[-0.08802983909845352]], [[0.095242939889431]], [[-0.07319114357233047]], [[-0.1474718302488327]], [[-0.3368431329727173]], [[0.2212098389863968]], [[0.20377203822135925]], [[-0.5219565033912659]], [[0.269263356924057]], [[-0.19031932950019836]], [[-0.13573040068149567]], [[-0.19726809859275818]], [[0.24012354016304016]], [[-0.13943658769130707]], [[0.17497684061527252]], [[-0.31248241662979126]], [[0.20506614446640015]], [[-0.011120159178972244]], [[0.08792682737112045]], [[-0.09834090620279312]]], [[[-0.07527051120996475]], [[0.029966721311211586]], [[0.05588321015238762]], [[-0.12845152616500854]], [[0.2906220257282257]], [[-0.113376185297966]], [[0.03253377228975296]], [[0.21927541494369507]], [[0.10653231292963028]], [[0.14681588113307953]], [[-0.2720549404621124]], [[0.02788836881518364]], [[-0.02794681116938591]], [[-0.010652508586645126]], [[-0.09357660263776779]], [[0.09131918847560883]], [[0.21184498071670532]], [[-0.15362751483917236]], [[-0.03075321950018406]], [[0.21925431489944458]], [[-0.331089586019516]], [[-0.1535511612892151]], [[-0.2510741651058197]], [[-0.17853863537311554]], [[-0.0007359912269748747]], [[-0.11051347851753235]], [[-0.20063722133636475]], [[-0.039491839706897736]], [[0.15521778166294098]], [[-0.33687013387680054]], [[-0.240801602602005]], [[0.11904103308916092]], [[-0.47838976979255676]], [[0.2500500977039337]], [[-0.017722154036164284]], [[-0.18118038773536682]], [[0.1520536243915558]], [[0.034182943403720856]], [[0.09091844409704208]], [[-0.24055646359920502]], [[0.3441406190395355]], [[-0.07543265074491501]], [[-0.008233120664954185]], [[-0.060964662581682205]], [[0.14197438955307007]], [[0.044038575142621994]], [[0.10636524111032486]], [[-0.05816169083118439]]], [[[0.0335715226829052]], [[0.024017395451664925]], [[-0.23421399295330048]], [[0.05751649662852287]], [[0.229448139667511]], [[0.030751021578907967]], [[-0.13725411891937256]], [[-0.29314881563186646]], [[0.24899166822433472]], [[-0.15304754674434662]], [[-0.025078078731894493]], [[-0.2167758047580719]], [[-0.1978684812784195]], [[-0.3794102966785431]], [[0.28586435317993164]], [[-0.018861355260014534]], [[-0.023432252928614616]], [[0.4679122269153595]], [[0.03876609727740288]], [[0.05329349264502525]], [[-0.3023293912410736]], [[0.031815558671951294]], [[0.17253291606903076]], [[-0.07408730685710907]], [[-0.037980176508426666]], [[0.004698697943240404]], [[0.09686769545078278]], [[-0.010959773324429989]], [[0.11795361340045929]], [[0.02495182678103447]], [[-0.25884220004081726]], [[0.07405901700258255]], [[0.41295212507247925]], [[-0.06908624619245529]], [[-0.333635538816452]], [[0.18274065852165222]], [[0.041082534939050674]], [[-0.2624882161617279]], [[-0.0479578860104084]], [[-0.029141413047909737]], [[0.29753372073173523]], [[0.2367791086435318]], [[0.17812184989452362]], [[0.16074010729789734]], [[0.44973814487457275]], [[0.19729067385196686]], [[0.3204057514667511]], [[0.20467743277549744]]], [[[0.23881788551807404]], [[0.05681978911161423]], [[-0.05899166315793991]], [[-0.21068666875362396]], [[-0.025275859981775284]], [[0.13013674318790436]], [[0.08560075610876083]], [[-0.3223460614681244]], [[0.015470168553292751]], [[-0.18924535810947418]], [[-0.0920109823346138]], [[-0.3662334680557251]], [[0.0006528956000693142]], [[0.008452356792986393]], [[0.15766564011573792]], [[-0.01578052155673504]], [[-0.28045985102653503]], [[-0.5508446097373962]], [[-0.017167849466204643]], [[0.10639235377311707]], [[-0.29692980647087097]], [[-0.10961484909057617]], [[0.2604907751083374]], [[0.10193297266960144]], [[-0.025020375847816467]], [[-0.1884394884109497]], [[0.1632387489080429]], [[0.05614743381738663]], [[-0.1689731925725937]], [[0.01397976465523243]], [[-0.01092427596449852]], [[0.10215818136930466]], [[0.12100963294506073]], [[0.10695268958806992]], [[-0.26639264822006226]], [[0.03113028034567833]], [[0.014331883750855923]], [[-0.30474087595939636]], [[0.05357563868165016]], [[0.0422564260661602]], [[-0.10921578854322433]], [[0.32932886481285095]], [[0.03566882014274597]], [[-0.3349153399467468]], [[0.22601263225078583]], [[-0.13923193514347076]], [[-0.04665866121649742]], [[-0.2651146650314331]]], [[[-0.1230572834610939]], [[0.0728190690279007]], [[0.08178030699491501]], [[0.02146434783935547]], [[0.011471077799797058]], [[-0.13330848515033722]], [[-0.14366640150547028]], [[0.318271666765213]], [[-0.3309386372566223]], [[-0.010877079330384731]], [[0.2059118151664734]], [[0.017833644524216652]], [[-0.0666733980178833]], [[-0.06132371351122856]], [[-0.2549387514591217]], [[0.29097041487693787]], [[0.19955846667289734]], [[0.46451058983802795]], [[-0.08726546913385391]], [[0.5441446304321289]], [[-0.19203363358974457]], [[-0.17932777106761932]], [[-0.24171586334705353]], [[-0.08308058977127075]], [[-0.06472703814506531]], [[0.010634134523570538]], [[0.2451258897781372]], [[0.015941841527819633]], [[-0.036218687891960144]], [[0.17920541763305664]], [[0.062239740043878555]], [[-0.03624666482210159]], [[-0.29339325428009033]], [[-0.10151436179876328]], [[0.46562284231185913]], [[0.19287100434303284]], [[0.1261226385831833]], [[0.07004640996456146]], [[0.17512080073356628]], [[-0.20601144433021545]], [[0.09185511618852615]], [[0.2990725338459015]], [[-0.11855731159448624]], [[0.03614530712366104]], [[0.31743431091308594]], [[-0.02671746537089348]], [[0.27574124932289124]], [[-0.035114556550979614]]], [[[0.048994217067956924]], [[-0.18303826451301575]], [[-0.3121843636035919]], [[0.1583198606967926]], [[0.23385606706142426]], [[-0.22560758888721466]], [[0.08546564728021622]], [[0.1939772218465805]], [[-0.08663181215524673]], [[-0.17369207739830017]], [[-0.02254895120859146]], [[0.0679887980222702]], [[-0.0821755975484848]], [[0.3108130693435669]], [[-0.27676114439964294]], [[-0.12523001432418823]], [[0.2903893291950226]], [[-0.18123091757297516]], [[0.19738277792930603]], [[-0.02216729149222374]], [[-0.05691475793719292]], [[0.17950844764709473]], [[-0.2704266607761383]], [[0.0005625803605653346]], [[0.23660840094089508]], [[-0.023796819150447845]], [[-0.15123826265335083]], [[-0.1931643933057785]], [[0.13217176496982574]], [[-0.1318136602640152]], [[-0.06802280992269516]], [[-0.0060006543062627316]], [[-0.5244733691215515]], [[0.30135679244995117]], [[-0.1344664990901947]], [[-0.2755681872367859]], [[0.16987740993499756]], [[0.15100723505020142]], [[0.19757729768753052]], [[0.08702930063009262]], [[0.18035706877708435]], [[-0.15104138851165771]], [[-0.07912147045135498]], [[-0.023164935410022736]], [[-0.23944257199764252]], [[-0.00905865803360939]], [[0.20515799522399902]], [[-0.004329130984842777]]], [[[-0.1095193400979042]], [[0.0567549429833889]], [[0.06354310363531113]], [[0.06814994663000107]], [[0.24858787655830383]], [[0.06794954836368561]], [[-0.3193730413913727]], [[0.16754896938800812]], [[0.3008175194263458]], [[-0.18996553122997284]], [[-0.237840935587883]], [[0.15452899038791656]], [[-0.23599748313426971]], [[0.10838203877210617]], [[0.03768424317240715]], [[0.18150506913661957]], [[0.2821301221847534]], [[-0.3764965534210205]], [[-0.04652290418744087]], [[-0.007797563448548317]], [[0.08398430794477463]], [[0.0964212566614151]], [[0.043471209704875946]], [[0.06582862883806229]], [[0.04091665521264076]], [[-0.06610487401485443]], [[-0.2540716230869293]], [[-0.06862466037273407]], [[-0.22214701771736145]], [[-0.08451937139034271]], [[-0.07877229154109955]], [[0.6333961486816406]], [[0.05130238085985184]], [[0.1539570391178131]], [[-0.23340892791748047]], [[-0.09044843167066574]], [[0.015276062302291393]], [[0.14659927785396576]], [[-0.06438468396663666]], [[0.013717888854444027]], [[0.11896243691444397]], [[0.27597200870513916]], [[0.25651901960372925]], [[-0.1949845850467682]], [[-0.23515167832374573]], [[0.24767953157424927]], [[0.12125731259584427]], [[-0.42744529247283936]]], [[[-0.15074436366558075]], [[-0.1091807410120964]], [[-0.22950518131256104]], [[0.291771799325943]], [[-0.12857617437839508]], [[-0.006065517198294401]], [[-0.16435521841049194]], [[-0.3309704661369324]], [[0.07181460410356522]], [[0.0584428571164608]], [[-0.010319596156477928]], [[-0.15648972988128662]], [[0.11291978508234024]], [[0.028121579438447952]], [[-0.008641846477985382]], [[0.06112916022539139]], [[-0.21193549036979675]], [[-0.06062523275613785]], [[-0.1594342440366745]], [[-0.11227624863386154]], [[-0.2693665027618408]], [[-0.14336873590946198]], [[-0.06222831457853317]], [[0.372537225484848]], [[0.11216916143894196]], [[0.05165645480155945]], [[-0.1502923220396042]], [[-0.2053416520357132]], [[0.0621117502450943]], [[-0.4380740821361542]], [[0.060542263090610504]], [[0.3116796314716339]], [[0.11967567354440689]], [[-0.0034355248790234327]], [[0.03689359128475189]], [[-0.09901199489831924]], [[-0.08327584713697433]], [[-0.3292953670024872]], [[0.37382999062538147]], [[0.13000477850437164]], [[-0.4016720950603485]], [[-0.12156740576028824]], [[0.0225831251591444]], [[0.1612180918455124]], [[0.34616655111312866]], [[0.08117175102233887]], [[-0.01974969170987606]], [[-0.24275846779346466]]], [[[0.09254207462072372]], [[0.22926998138427734]], [[-0.17038260400295258]], [[-0.07856954634189606]], [[0.1690259575843811]], [[-0.2257550060749054]], [[-0.1916554570198059]], [[0.10894633829593658]], [[0.20335738360881805]], [[-0.20339885354042053]], [[-0.08967752009630203]], [[-0.21440331637859344]], [[0.044117510318756104]], [[0.044488318264484406]], [[0.07804696261882782]], [[0.01364887785166502]], [[0.05391429737210274]], [[-0.015406729653477669]], [[0.06569612771272659]], [[0.3372930884361267]], [[0.32735779881477356]], [[0.03570716455578804]], [[-0.5283491611480713]], [[-0.21190394461154938]], [[-0.1303233802318573]], [[0.18389999866485596]], [[0.16563181579113007]], [[0.09593714028596878]], [[-0.0704069659113884]], [[0.4682685434818268]], [[-0.06151190772652626]], [[-0.05722363293170929]], [[-0.053806059062480927]], [[-0.11585953086614609]], [[0.08215964585542679]], [[0.22265836596488953]], [[-0.14096981287002563]], [[0.1740114539861679]], [[0.05066696181893349]], [[-0.1244782879948616]], [[0.1026831790804863]], [[0.047486744821071625]], [[-0.008709070272743702]], [[0.24691207706928253]], [[-0.07344727218151093]], [[0.06139232590794563]], [[0.11379444599151611]], [[-0.1373519003391266]]], [[[-0.1183864027261734]], [[-0.11756770312786102]], [[-0.12653201818466187]], [[0.20040865242481232]], [[-0.10197686403989792]], [[0.23884962499141693]], [[-0.03173714131116867]], [[0.2042914479970932]], [[0.12172447890043259]], [[0.005428244825452566]], [[-0.4858138859272003]], [[-0.09276224672794342]], [[0.05295488238334656]], [[0.10119535028934479]], [[0.2667667865753174]], [[0.13620948791503906]], [[0.3645656406879425]], [[0.3024995028972626]], [[-0.23253434896469116]], [[-0.3024650514125824]], [[-0.13795508444309235]], [[-0.002090972848236561]], [[0.15877194702625275]], [[-0.007259685546159744]], [[-0.06083742901682854]], [[0.3407420516014099]], [[0.038675982505083084]], [[0.12598565220832825]], [[0.24343156814575195]], [[-0.1793385148048401]], [[-0.04197995737195015]], [[-0.336208313703537]], [[-0.11843269318342209]], [[0.23123688995838165]], [[0.1486324518918991]], [[-0.0644538626074791]], [[0.2705151438713074]], [[0.19428911805152893]], [[0.11819019168615341]], [[-0.08032604306936264]], [[0.0004607022274285555]], [[-0.1478097140789032]], [[-0.1800985038280487]], [[0.09588838368654251]], [[0.034773390740156174]], [[0.10729553550481796]], [[-0.3012920022010803]], [[-0.009660907089710236]]], [[[-0.15562836825847626]], [[-0.106376513838768]], [[0.0072580925188958645]], [[-0.11155875027179718]], [[0.08913794904947281]], [[0.0985623374581337]], [[-0.2643800377845764]], [[-0.3812514543533325]], [[0.22823265194892883]], [[0.1891184151172638]], [[0.15745487809181213]], [[-0.2818273603916168]], [[0.22313803434371948]], [[0.02719014324247837]], [[-0.0843874141573906]], [[0.04229240119457245]], [[-0.0346570648252964]], [[0.006392329465597868]], [[0.4292410612106323]], [[-0.05974395573139191]], [[0.12598048150539398]], [[0.2600003778934479]], [[0.17102625966072083]], [[0.08469223231077194]], [[0.38376787304878235]], [[0.21915322542190552]], [[-0.2033805251121521]], [[0.15976783633232117]], [[0.2440100759267807]], [[0.031033607199788094]], [[0.07682818919420242]], [[0.15706004202365875]], [[0.22085556387901306]], [[0.05009371042251587]], [[-0.07747869938611984]], [[0.1441836655139923]], [[0.08970783650875092]], [[-0.028713734820485115]], [[0.049620725214481354]], [[0.2404695302248001]], [[0.17676076292991638]], [[0.3606477379798889]], [[0.13505129516124725]], [[0.26405659317970276]], [[-0.3319884240627289]], [[0.30313798785209656]], [[0.10686556249856949]], [[-0.04047601297497749]]], [[[-0.13146069645881653]], [[0.0758548229932785]], [[-0.06824791431427002]], [[-0.2513691484928131]], [[-0.21925024688243866]], [[0.022568650543689728]], [[0.011842308565974236]], [[-0.23003722727298737]], [[0.03895691782236099]], [[-0.2095281481742859]], [[0.15150724351406097]], [[-0.18627876043319702]], [[-0.09146212786436081]], [[0.18504726886749268]], [[-0.3522953689098358]], [[0.27074217796325684]], [[-0.3906855881214142]], [[0.20445118844509125]], [[0.016876045614480972]], [[-0.40784382820129395]], [[0.07212220877408981]], [[-0.12565268576145172]], [[0.159015953540802]], [[-0.31405019760131836]], [[0.015084771439433098]], [[-0.028933104127645493]], [[0.2211841493844986]], [[-0.1558288037776947]], [[-0.16383469104766846]], [[0.0774550586938858]], [[0.011060611344873905]], [[-0.014093078672885895]], [[-0.27586352825164795]], [[-0.15556961297988892]], [[-0.14741764962673187]], [[0.1867881864309311]], [[0.01926342025399208]], [[0.13121949136257172]], [[0.05300713703036308]], [[0.025391459465026855]], [[-0.09851419180631638]], [[0.47340327501296997]], [[-0.14915010333061218]], [[0.1326117068529129]], [[0.15671329200267792]], [[0.25669729709625244]], [[-0.2425570785999298]], [[0.1782517284154892]]], [[[0.04748108983039856]], [[0.21539373695850372]], [[-0.2829195559024811]], [[-0.07681673020124435]], [[0.04081886261701584]], [[-0.11150307208299637]], [[-0.019406868144869804]], [[0.3700871765613556]], [[0.07950982451438904]], [[0.08409874886274338]], [[0.1925196647644043]], [[-0.4528117775917053]], [[0.07131288200616837]], [[0.4899226725101471]], [[0.04656895250082016]], [[-0.060526493936777115]], [[0.18216831982135773]], [[-0.15716908872127533]], [[0.03983435034751892]], [[0.12200912833213806]], [[0.025322861969470978]], [[-0.02598981373012066]], [[-0.44332656264305115]], [[0.07782173156738281]], [[-0.0496077798306942]], [[0.1155327782034874]], [[-0.01674327626824379]], [[-0.025102665647864342]], [[0.1660764217376709]], [[-0.009407447651028633]], [[0.0030136180575937033]], [[0.0841619148850441]], [[0.12199318408966064]], [[0.029700351879000664]], [[-0.07056716084480286]], [[-0.14801396429538727]], [[-0.005062892101705074]], [[0.10731365531682968]], [[0.13546159863471985]], [[-0.10345438122749329]], [[0.17369385063648224]], [[-0.03798684850335121]], [[0.1472967118024826]], [[0.23999565839767456]], [[0.06805118173360825]], [[0.10878077894449234]], [[0.22111085057258606]], [[-0.33765724301338196]]], [[[0.14856642484664917]], [[0.17369674146175385]], [[-0.12339406460523605]], [[0.004536194261163473]], [[-0.13872039318084717]], [[0.049573663622140884]], [[0.20653462409973145]], [[0.02740589715540409]], [[0.09675835072994232]], [[0.226899191737175]], [[0.13402141630649567]], [[0.0796561986207962]], [[0.03357855603098869]], [[0.22983531653881073]], [[0.16389302909374237]], [[0.14392685890197754]], [[0.011512677185237408]], [[-0.09354075789451599]], [[0.05864411219954491]], [[0.07731392979621887]], [[0.23552629351615906]], [[0.021544981747865677]], [[0.10237292945384979]], [[-0.0034640473313629627]], [[0.006386196240782738]], [[0.17825128138065338]], [[0.2156231552362442]], [[-0.09305834770202637]], [[0.11519406735897064]], [[0.09679736196994781]], [[-0.23548555374145508]], [[0.18648557364940643]], [[-0.24779942631721497]], [[-0.033557940274477005]], [[-0.2238667756319046]], [[0.12506434321403503]], [[-0.13387268781661987]], [[0.2890780568122864]], [[-0.0918254479765892]], [[-0.032889436930418015]], [[-0.08640297502279282]], [[0.061969026923179626]], [[-0.008849273435771465]], [[0.024876577779650688]], [[-0.06096317619085312]], [[-0.15123333036899567]], [[0.018871992826461792]], [[-0.15849927067756653]]], [[[0.0946153923869133]], [[-0.015002133324742317]], [[-0.06277541071176529]], [[0.049058880656957626]], [[-0.22521929442882538]], [[0.0002744650701060891]], [[0.09973135590553284]], [[-0.20911438763141632]], [[-0.11955498903989792]], [[0.023231206461787224]], [[-0.06987571716308594]], [[0.11381199210882187]], [[0.2681043744087219]], [[0.2714446783065796]], [[0.1282450407743454]], [[0.24996085464954376]], [[-0.018544325605034828]], [[-0.19080881774425507]], [[-0.04547347500920296]], [[-0.013757654465734959]], [[0.13691814243793488]], [[-0.030583975836634636]], [[0.07730916887521744]], [[0.3100792169570923]], [[0.12267465889453888]], [[0.2961202561855316]], [[-0.10860113799571991]], [[-0.10933081060647964]], [[0.3060385584831238]], [[-0.17492738366127014]], [[-0.15132103860378265]], [[0.030204063281416893]], [[-0.04208701103925705]], [[0.16444367170333862]], [[0.08008600771427155]], [[-0.043807435780763626]], [[0.14823924005031586]], [[-0.13335077464580536]], [[0.22532294690608978]], [[-0.08798062056303024]], [[0.3165891170501709]], [[-0.13715064525604248]], [[0.12914957106113434]], [[-0.25643473863601685]], [[-0.019898613914847374]], [[0.10701664537191391]], [[0.23060673475265503]], [[-0.1845443993806839]]], [[[-0.03269277140498161]], [[-0.4124967157840729]], [[0.10843547433614731]], [[-0.08712267875671387]], [[0.2515498399734497]], [[0.03289603814482689]], [[0.20514509081840515]], [[-0.08463434129953384]], [[0.39657464623451233]], [[0.006337700877338648]], [[-0.14140452444553375]], [[0.09838354587554932]], [[-0.031975921243429184]], [[0.020985374227166176]], [[0.085649773478508]], [[0.13922922313213348]], [[-0.3008011281490326]], [[-0.6464940905570984]], [[0.04713520407676697]], [[-0.22459867596626282]], [[0.408658891916275]], [[-0.09744381904602051]], [[0.16122467815876007]], [[-0.16130249202251434]], [[0.06283880770206451]], [[-0.032294489443302155]], [[-0.4743155837059021]], [[0.19646604359149933]], [[0.0446101650595665]], [[-0.190289705991745]], [[0.02719300612807274]], [[-0.32752546668052673]], [[0.21763719618320465]], [[-0.11094017326831818]], [[-0.26117947697639465]], [[-0.2820664048194885]], [[0.049074601382017136]], [[0.08106722682714462]], [[-0.3543567359447479]], [[0.05105052515864372]], [[-0.19782887399196625]], [[0.17974895238876343]], [[0.10316243022680283]], [[0.1494383066892624]], [[0.07643651217222214]], [[0.10671616345643997]], [[-0.18738678097724915]], [[-0.4997730851173401]]], [[[-0.040961917489767075]], [[0.09283208847045898]], [[0.08528970181941986]], [[0.11005284637212753]], [[0.1333315223455429]], [[0.08300720155239105]], [[0.22068986296653748]], [[0.07049187272787094]], [[0.3624594211578369]], [[-0.2345142364501953]], [[0.19436302781105042]], [[0.41180357336997986]], [[0.026357457041740417]], [[0.052345938980579376]], [[0.20773214101791382]], [[0.31454506516456604]], [[0.0011863273102790117]], [[0.10116782039403915]], [[0.1455797255039215]], [[-0.09748891741037369]], [[0.21664926409721375]], [[-0.09510726481676102]], [[0.3847670257091522]], [[-0.023226061835885048]], [[0.05375097692012787]], [[-0.036876171827316284]], [[-0.06121286377310753]], [[-0.08690626174211502]], [[-0.0009502606117166579]], [[0.06976932287216187]], [[-0.20406422019004822]], [[0.23977641761302948]], [[-0.21696384251117706]], [[0.018746821209788322]], [[-0.5863398909568787]], [[-0.23814214766025543]], [[0.24771098792552948]], [[0.16004514694213867]], [[-0.06507998704910278]], [[0.2791738510131836]], [[0.16964808106422424]], [[0.03825312852859497]], [[0.13990099728107452]], [[-0.19532954692840576]], [[-0.21001651883125305]], [[-0.20654959976673126]], [[-0.17719766497612]], [[-0.19413480162620544]]], [[[-0.3439490795135498]], [[-0.0010157687356695533]], [[0.27703145146369934]], [[-0.2772255539894104]], [[0.2056342214345932]], [[0.07326775044202805]], [[0.22652567923069]], [[0.09268144518136978]], [[-0.5189851522445679]], [[-0.20799222588539124]], [[0.15633989870548248]], [[-0.041753966361284256]], [[-0.1220272108912468]], [[-0.2594575583934784]], [[-0.019361279904842377]], [[-0.07339254766702652]], [[-0.05171119049191475]], [[-0.05239769443869591]], [[0.27115145325660706]], [[0.16301865875720978]], [[0.017848020419478416]], [[0.008078095503151417]], [[-0.2824782431125641]], [[0.10239268839359283]], [[0.03817135840654373]], [[0.02823186106979847]], [[0.2399688959121704]], [[-0.10006668418645859]], [[-0.1356869488954544]], [[0.1489327996969223]], [[-0.15564845502376556]], [[-0.2258443832397461]], [[-0.01897432655096054]], [[0.15148262679576874]], [[0.19864146411418915]], [[-0.019067516550421715]], [[0.0036726484540849924]], [[-0.3145955204963684]], [[-0.20854800939559937]], [[0.16772086918354034]], [[0.19977793097496033]], [[0.03634659945964813]], [[0.09364567697048187]], [[-0.18154913187026978]], [[0.16703705489635468]], [[-0.21854020655155182]], [[0.0410543754696846]], [[0.14319606125354767]]], [[[0.06892324984073639]], [[-0.021423915401101112]], [[0.0334295779466629]], [[-0.1610938459634781]], [[0.0882328674197197]], [[0.12138134986162186]], [[-0.139083132147789]], [[-0.14904753863811493]], [[-0.21929162740707397]], [[-0.1547287106513977]], [[0.19897113740444183]], [[-0.05055348202586174]], [[-0.30153629183769226]], [[0.02297891303896904]], [[0.09495746344327927]], [[-0.015301615931093693]], [[-0.15380705893039703]], [[0.037824325263500214]], [[-0.37150800228118896]], [[-0.011291849426925182]], [[0.07770644128322601]], [[0.10653948038816452]], [[-0.28943511843681335]], [[0.10312414914369583]], [[0.0518190860748291]], [[-0.2332659214735031]], [[-0.08626332879066467]], [[0.13866430521011353]], [[-0.10501929372549057]], [[-0.015782250091433525]], [[-0.5423766374588013]], [[0.09439872205257416]], [[0.28819990158081055]], [[0.023648366332054138]], [[0.1728481650352478]], [[-0.00980136264115572]], [[0.02069404534995556]], [[0.01936633512377739]], [[0.19915908575057983]], [[-0.2470829039812088]], [[-0.32509806752204895]], [[0.04859018325805664]], [[0.1392713338136673]], [[0.12525218725204468]], [[0.042462605983018875]], [[-0.06099679693579674]], [[-0.1269126534461975]], [[-0.06324928998947144]]], [[[0.1483525186777115]], [[0.23784223198890686]], [[0.03808601573109627]], [[0.12319156527519226]], [[0.0030219939071685076]], [[0.3694104254245758]], [[-0.25208914279937744]], [[-0.33243340253829956]], [[0.5112497806549072]], [[0.006738278083503246]], [[0.061346590518951416]], [[0.1094171553850174]], [[0.05626588314771652]], [[-0.17405831813812256]], [[0.5167919397354126]], [[-0.10982656478881836]], [[-0.055955011397600174]], [[-0.13836468756198883]], [[-0.1920841485261917]], [[0.3381844758987427]], [[0.41055625677108765]], [[-0.20778962969779968]], [[-0.3891652226448059]], [[0.009855242446064949]], [[-0.10894209146499634]], [[0.04841293394565582]], [[-0.23319892585277557]], [[-0.10277823358774185]], [[0.06818495690822601]], [[0.08502430468797684]], [[0.11861392110586166]], [[0.018050065264105797]], [[-0.19921375811100006]], [[0.16884957253932953]], [[-0.02196572721004486]], [[-0.04267092049121857]], [[0.14888505637645721]], [[-0.13648566603660583]], [[0.26070916652679443]], [[-0.019751209765672684]], [[0.056008461862802505]], [[0.06237345561385155]], [[0.026653049513697624]], [[0.3276257812976837]], [[-0.07490714639425278]], [[0.13568460941314697]], [[-0.03155115619301796]], [[-0.3351787328720093]]], [[[-0.16314296424388885]], [[-0.031094543635845184]], [[0.11457419395446777]], [[0.08114223182201385]], [[0.11830253154039383]], [[0.0969279557466507]], [[0.11586914211511612]], [[-0.07748806476593018]], [[0.2069016844034195]], [[-0.06327743828296661]], [[0.19253922998905182]], [[0.4063500761985779]], [[0.18375474214553833]], [[0.019610829651355743]], [[0.4528566598892212]], [[0.09766153246164322]], [[-0.08116206526756287]], [[-0.43032556772232056]], [[0.013358598574995995]], [[0.07788022607564926]], [[0.4784936308860779]], [[0.12780214846134186]], [[0.04307319596409798]], [[-0.3239484131336212]], [[0.014946200884878635]], [[0.10394281148910522]], [[-0.17156140506267548]], [[-0.139278843998909]], [[0.23164448142051697]], [[0.10580180585384369]], [[-0.3430759310722351]], [[0.41417020559310913]], [[0.3760337233543396]], [[0.1842905879020691]], [[-0.19914083182811737]], [[0.11954104900360107]], [[0.015970829874277115]], [[0.12109580636024475]], [[0.2246095985174179]], [[-0.013808454386889935]], [[0.15985235571861267]], [[0.19544768333435059]], [[-0.13962368667125702]], [[0.2024865597486496]], [[-0.1071036234498024]], [[0.28390178084373474]], [[-0.3463541269302368]], [[-0.35225972533226013]]], [[[0.1804170459508896]], [[0.07338744401931763]], [[-0.2434474229812622]], [[0.5038102269172668]], [[0.11978324502706528]], [[0.060024674981832504]], [[-0.31633108854293823]], [[0.1749233454465866]], [[-0.07966512441635132]], [[-0.4440550208091736]], [[0.05980110913515091]], [[0.1971464604139328]], [[-0.08178316056728363]], [[0.009976527653634548]], [[0.007707224693149328]], [[0.07127595692873001]], [[0.19998030364513397]], [[0.45185965299606323]], [[-0.22596269845962524]], [[0.14925308525562286]], [[-0.15908236801624298]], [[0.005304061342030764]], [[-0.20612786710262299]], [[0.22361016273498535]], [[-0.10376065969467163]], [[0.022923018783330917]], [[0.09644394367933273]], [[-0.3320304751396179]], [[0.07173479348421097]], [[-0.20218536257743835]], [[0.019688479602336884]], [[-0.21488681435585022]], [[-0.14657635986804962]], [[0.13929329812526703]], [[0.15218742191791534]], [[0.1757928729057312]], [[-0.028239106759428978]], [[0.21412739157676697]], [[0.06115945056080818]], [[-0.11094527691602707]], [[0.023266252130270004]], [[0.08295418322086334]], [[-0.010513834655284882]], [[-0.38294747471809387]], [[0.26671233773231506]], [[-0.158396914601326]], [[0.0717976838350296]], [[-0.1569957286119461]]], [[[-0.12255369871854782]], [[-0.2423562854528427]], [[0.2677706182003021]], [[0.2576759159564972]], [[-0.21700942516326904]], [[0.20879507064819336]], [[-0.22222328186035156]], [[0.15332917869091034]], [[-0.08018019795417786]], [[0.018284007906913757]], [[0.0774192065000534]], [[0.4790748059749603]], [[-0.1713344305753708]], [[0.18070128560066223]], [[0.1905040591955185]], [[-0.06198728829622269]], [[-0.09952898323535919]], [[0.015905890613794327]], [[-0.0038472802843898535]], [[0.23567958176136017]], [[0.06725963950157166]], [[-0.01322668232023716]], [[-0.05934188887476921]], [[-0.057817526161670685]], [[0.1359565109014511]], [[0.11965714395046234]], [[0.19716407358646393]], [[-0.1907583624124527]], [[0.02318255975842476]], [[0.18440672755241394]], [[0.03512023016810417]], [[0.013913847506046295]], [[-0.043438173830509186]], [[0.004010555800050497]], [[-0.016856374219059944]], [[-0.04867120459675789]], [[-0.13195683062076569]], [[0.19049757719039917]], [[0.040993012487888336]], [[-0.15188056230545044]], [[-0.2607734501361847]], [[0.12069180607795715]], [[0.3335620164871216]], [[0.1497817188501358]], [[0.04453029856085777]], [[0.0443788506090641]], [[0.04151974245905876]], [[-0.013150947168469429]]], [[[-0.30893462896347046]], [[0.2390194833278656]], [[-0.25097426772117615]], [[0.0005310830310918391]], [[0.34061044454574585]], [[0.1147250086069107]], [[0.1530454158782959]], [[-0.22375047206878662]], [[0.2537866532802582]], [[-0.0836561769247055]], [[0.06969213485717773]], [[-0.06566082686185837]], [[-0.00687466049566865]], [[0.4877718389034271]], [[-0.075822614133358]], [[-0.1591111421585083]], [[0.05721314251422882]], [[-0.08789236843585968]], [[-0.24938230216503143]], [[0.19635474681854248]], [[0.012111412361264229]], [[0.05475247651338577]], [[-0.22169403731822968]], [[-0.18024304509162903]], [[0.13524793088436127]], [[-0.06548180431127548]], [[-0.033166997134685516]], [[0.27116212248802185]], [[-0.09744833409786224]], [[-0.22152937948703766]], [[-0.1650758981704712]], [[0.10903717577457428]], [[0.09579388797283173]], [[-0.18941320478916168]], [[0.01314218807965517]], [[-0.17759478092193604]], [[-0.029988840222358704]], [[0.06753230094909668]], [[-0.16975460946559906]], [[0.05274774134159088]], [[0.015043772757053375]], [[-0.05991390720009804]], [[0.11281407624483109]], [[-0.10461030900478363]], [[-0.04536355659365654]], [[0.19730032980442047]], [[-0.16795724630355835]], [[-0.2714376449584961]]], [[[-0.0964869037270546]], [[0.12971919775009155]], [[-0.19137758016586304]], [[-0.0038346308283507824]], [[0.22252009809017181]], [[0.19835984706878662]], [[-0.1142769381403923]], [[-0.3478829264640808]], [[0.5226022005081177]], [[-0.17212247848510742]], [[0.12216665595769882]], [[-0.07072469592094421]], [[0.1064084991812706]], [[0.01989813894033432]], [[-0.15713444352149963]], [[0.15410669147968292]], [[-0.5279743075370789]], [[-0.17457355558872223]], [[0.2048671841621399]], [[0.16838352382183075]], [[0.21727728843688965]], [[0.19261768460273743]], [[0.22270746529102325]], [[0.139857679605484]], [[0.13307024538516998]], [[0.23989802598953247]], [[-0.2901409864425659]], [[-0.0042130914516747]], [[0.2311280518770218]], [[0.1185331717133522]], [[-0.06352827697992325]], [[0.4633848965167999]], [[0.2621093690395355]], [[-0.07412654161453247]], [[-0.39349210262298584]], [[0.16256706416606903]], [[0.08482103794813156]], [[-0.29676973819732666]], [[-0.01311784889549017]], [[0.11785738915205002]], [[0.4493979513645172]], [[0.04601812735199928]], [[0.09619341790676117]], [[0.19372312724590302]], [[-0.20665384829044342]], [[-0.016631312668323517]], [[0.16346785426139832]], [[-0.008786959573626518]]], [[[0.017752567306160927]], [[-0.005322016775608063]], [[0.40336906909942627]], [[-0.08104698359966278]], [[-0.06353600323200226]], [[0.18103881180286407]], [[0.0043297274969518185]], [[-0.007487679366022348]], [[-0.001918065594509244]], [[-0.1696985810995102]], [[0.18877863883972168]], [[0.20493564009666443]], [[0.17918507754802704]], [[-0.31631121039390564]], [[0.37218332290649414]], [[0.03419480472803116]], [[-0.1758834719657898]], [[-0.2383236140012741]], [[-0.06814602017402649]], [[0.3156770169734955]], [[-0.38935673236846924]], [[0.20992912352085114]], [[-0.15293975174427032]], [[-0.07916200906038284]], [[0.08964381366968155]], [[0.018225152045488358]], [[-0.05801022797822952]], [[-0.10466856509447098]], [[0.007124810479581356]], [[0.40425509214401245]], [[-0.26031067967414856]], [[0.017783425748348236]], [[-0.40947821736335754]], [[0.314937949180603]], [[0.1467326134443283]], [[0.1267114281654358]], [[0.16128180921077728]], [[0.6318793296813965]], [[-0.19116947054862976]], [[-0.15700668096542358]], [[0.0031534309964627028]], [[0.6474952697753906]], [[0.041671767830848694]], [[-0.06119237467646599]], [[0.3663404583930969]], [[-0.07701991498470306]], [[-0.11181434988975525]], [[-0.38596343994140625]]], [[[-0.11837144941091537]], [[-0.026004353538155556]], [[-0.031084248796105385]], [[0.0833902508020401]], [[0.12102092802524567]], [[0.050217051059007645]], [[-0.13478867709636688]], [[-0.23342712223529816]], [[0.14046184718608856]], [[-0.15366166830062866]], [[0.18766821920871735]], [[-0.026052270084619522]], [[0.20182713866233826]], [[-0.2469252347946167]], [[-0.1615481823682785]], [[0.004874092061072588]], [[0.04567502439022064]], [[-0.10756022483110428]], [[-0.17256025969982147]], [[0.5093666315078735]], [[-0.24910691380500793]], [[0.17392893135547638]], [[-0.18049512803554535]], [[0.05412088707089424]], [[0.17050324380397797]], [[-0.3666714131832123]], [[0.2544892728328705]], [[-0.11197323352098465]], [[0.07291636615991592]], [[-0.18172141909599304]], [[-0.008175219409167767]], [[0.25999128818511963]], [[0.12690414488315582]], [[0.1538907289505005]], [[-0.26070988178253174]], [[0.1606348752975464]], [[0.11722660809755325]], [[-0.3828415870666504]], [[-0.058113738894462585]], [[-0.073140949010849]], [[0.05843731388449669]], [[0.6171901226043701]], [[-0.03353909030556679]], [[0.005736975464969873]], [[0.338077187538147]], [[0.08919331431388855]], [[0.0011242354521527886]], [[0.23974941670894623]]], [[[0.04252224415540695]], [[0.0483451671898365]], [[-0.28858351707458496]], [[0.2065104991197586]], [[0.12154670059680939]], [[-0.0808071494102478]], [[0.04651431366801262]], [[0.5007401704788208]], [[-0.19328531622886658]], [[-0.26206982135772705]], [[-0.11218339204788208]], [[-0.011124998331069946]], [[-0.07449769228696823]], [[0.31142932176589966]], [[-0.17706994712352753]], [[-0.023639030754566193]], [[-0.2271774858236313]], [[-0.01915779523551464]], [[0.1287335753440857]], [[0.0973106101155281]], [[-0.12314937263727188]], [[0.08178097009658813]], [[0.02637484110891819]], [[-0.09455815702676773]], [[0.0017810979625210166]], [[0.026643550023436546]], [[0.23879331350326538]], [[0.09885390102863312]], [[-0.30011045932769775]], [[0.06848277151584625]], [[0.009343886747956276]], [[0.15152524411678314]], [[-0.18857339024543762]], [[-0.1099509745836258]], [[0.04064316675066948]], [[-0.0794653668999672]], [[-0.11937759071588516]], [[0.05782587081193924]], [[-0.015307354740798473]], [[-0.0224092286080122]], [[-0.03944280743598938]], [[-0.058365579694509506]], [[0.04291103780269623]], [[-0.034205082803964615]], [[0.0502551905810833]], [[-0.0848240926861763]], [[-0.13348087668418884]], [[0.020605120807886124]]], [[[0.08548048138618469]], [[-0.1055128276348114]], [[-0.14033165574073792]], [[0.08856670558452606]], [[-0.11202367395162582]], [[0.21100860834121704]], [[0.022509248927235603]], [[0.1656205952167511]], [[-0.15906010568141937]], [[-0.24748456478118896]], [[-0.24127726256847382]], [[0.018716000020503998]], [[-0.011030232533812523]], [[0.37305715680122375]], [[-0.1221567690372467]], [[0.15996645390987396]], [[0.009159996174275875]], [[0.033043649047613144]], [[0.019043484702706337]], [[0.31100723147392273]], [[-0.29620829224586487]], [[-0.06352125853300095]], [[0.009075933136045933]], [[-0.10032636672258377]], [[-0.13191449642181396]], [[-0.0711093470454216]], [[0.06073378771543503]], [[0.005269305780529976]], [[-0.023702416568994522]], [[0.11029350012540817]], [[-0.08392666280269623]], [[0.3857901394367218]], [[-0.017352290451526642]], [[-0.2617453932762146]], [[0.13112188875675201]], [[-0.34042075276374817]], [[-0.053154610097408295]], [[-0.112743079662323]], [[-0.05948958173394203]], [[-0.1721469908952713]], [[-0.2514815926551819]], [[-0.08350802212953568]], [[-0.11270225048065186]], [[-0.46886080503463745]], [[0.3120538890361786]], [[-0.16934801638126373]], [[-0.13030637800693512]], [[-0.18868422508239746]]], [[[-0.02523615024983883]], [[-0.09250716865062714]], [[-0.08508408069610596]], [[0.016390979290008545]], [[0.1395416110754013]], [[0.042343467473983765]], [[-0.12755398452281952]], [[-0.002882351167500019]], [[-0.023440804332494736]], [[-0.0588189959526062]], [[0.2836729884147644]], [[-0.032216913998126984]], [[-0.011620636098086834]], [[0.016144244000315666]], [[0.005375380162149668]], [[0.24881459772586823]], [[0.2958461344242096]], [[-0.6374120116233826]], [[0.1874113380908966]], [[-0.15965138375759125]], [[0.2807599902153015]], [[0.03470563143491745]], [[-0.02938668243587017]], [[0.257888525724411]], [[0.04721029847860336]], [[-0.02556961216032505]], [[-0.34804147481918335]], [[-0.2607990801334381]], [[0.05703337863087654]], [[0.06276813894510269]], [[0.07102511078119278]], [[-0.27378925681114197]], [[0.18379667401313782]], [[-0.060584135353565216]], [[-0.07717791199684143]], [[0.13968446850776672]], [[-0.12700389325618744]], [[0.17661893367767334]], [[-0.5025697350502014]], [[-0.08972573280334473]], [[-0.10597551614046097]], [[0.4040634036064148]], [[0.20614799857139587]], [[-0.2658657729625702]], [[0.3811455965042114]], [[-0.09707975387573242]], [[-0.06222880631685257]], [[0.17386315762996674]]], [[[0.2054922729730606]], [[0.018805544823408127]], [[-0.2722042500972748]], [[-0.25734835863113403]], [[0.025516720488667488]], [[0.02039671503007412]], [[-0.1437211036682129]], [[-0.25457581877708435]], [[0.717541515827179]], [[0.14753572642803192]], [[0.24246427416801453]], [[-0.12437757104635239]], [[-0.003977377433329821]], [[-0.00047594570787623525]], [[0.33601173758506775]], [[-0.01788444072008133]], [[-0.06882999837398529]], [[-0.042028509080410004]], [[0.10251089930534363]], [[0.11647111177444458]], [[-0.12995421886444092]], [[-0.07566893845796585]], [[-0.1941778063774109]], [[0.27676263451576233]], [[0.08302250504493713]], [[0.04128970578312874]], [[-0.0245454590767622]], [[-0.03882233798503876]], [[0.1439230591058731]], [[-0.22125990688800812]], [[0.10884115844964981]], [[-0.5303333401679993]], [[0.07342075556516647]], [[-0.0721772164106369]], [[0.0033572991378605366]], [[0.0851907730102539]], [[0.06424674391746521]], [[0.04795065522193909]], [[0.23533031344413757]], [[-0.11014058440923691]], [[-0.17485272884368896]], [[0.390128493309021]], [[0.22364261746406555]], [[0.023398661985993385]], [[-0.2514444589614868]], [[0.006833102088421583]], [[-0.12271983176469803]], [[-0.292579710483551]]], [[[0.01510346308350563]], [[-0.14544899761676788]], [[-0.026984741911292076]], [[0.09338224679231644]], [[0.4535418152809143]], [[0.36118781566619873]], [[0.007403613068163395]], [[0.4036378264427185]], [[0.2416170835494995]], [[-0.10463079065084457]], [[0.3028802275657654]], [[0.39041513204574585]], [[-0.005435664672404528]], [[0.1576814502477646]], [[-0.013787169009447098]], [[0.11972486972808838]], [[0.19834092259407043]], [[-0.3738224506378174]], [[0.054694198071956635]], [[-0.030607566237449646]], [[0.14309491217136383]], [[-0.07067490369081497]], [[0.07687696069478989]], [[0.14511917531490326]], [[0.04348032549023628]], [[-0.2574055790901184]], [[-0.3297426104545593]], [[-0.13917574286460876]], [[0.1502905637025833]], [[0.13537287712097168]], [[-0.2049492746591568]], [[0.19110116362571716]], [[0.527280330657959]], [[0.13695953786373138]], [[-0.1582874208688736]], [[-0.23858147859573364]], [[-0.04362410306930542]], [[0.14004066586494446]], [[-0.38638827204704285]], [[0.1103367879986763]], [[-0.04618900269269943]], [[0.47537723183631897]], [[-0.007812676951289177]], [[-0.10071054846048355]], [[0.17967577278614044]], [[0.013865741901099682]], [[0.01913408935070038]], [[0.002246689284220338]]], [[[-0.02122015692293644]], [[0.08096890151500702]], [[0.15640510618686676]], [[-0.11722664535045624]], [[-0.2685432732105255]], [[-0.07793717086315155]], [[0.15363526344299316]], [[-0.19706690311431885]], [[-0.3394448459148407]], [[-0.20250539481639862]], [[0.18637152016162872]], [[0.03275895118713379]], [[-0.16121479868888855]], [[-0.06248047202825546]], [[0.2132914960384369]], [[-0.034312810748815536]], [[-0.09997136890888214]], [[0.23720304667949677]], [[-0.06900283694267273]], [[-0.06546851992607117]], [[-0.2696557343006134]], [[0.0009744695853441954]], [[-0.18801790475845337]], [[-0.015980031341314316]], [[-0.12019255012273788]], [[-0.07026603817939758]], [[-0.07059552520513535]], [[0.17208771407604218]], [[-0.18262386322021484]], [[0.2825608551502228]], [[0.14931221306324005]], [[0.13154347240924835]], [[-0.16239948570728302]], [[-0.05933723971247673]], [[-0.3236796259880066]], [[0.21881632506847382]], [[0.1709967851638794]], [[-0.0023648396600037813]], [[0.02506444975733757]], [[0.14899562299251556]], [[-0.28899115324020386]], [[-0.22191782295703888]], [[0.024700956419110298]], [[0.41218090057373047]], [[0.07229017466306686]], [[-0.06511424481868744]], [[0.2201700061559677]], [[-0.05971391871571541]]], [[[0.37809523940086365]], [[0.04046732559800148]], [[0.08093877881765366]], [[-0.46869534254074097]], [[-0.022534934803843498]], [[0.013580908067524433]], [[0.14454293251037598]], [[-0.2684415578842163]], [[-0.019449617713689804]], [[-0.03395402431488037]], [[0.26573967933654785]], [[0.04872306436300278]], [[-0.06095587834715843]], [[0.08412973582744598]], [[0.1664472073316574]], [[-0.15332598984241486]], [[-0.13429540395736694]], [[0.10394738614559174]], [[-0.08545748144388199]], [[0.25210559368133545]], [[-0.025142695754766464]], [[-0.05472235009074211]], [[-0.1792299598455429]], [[0.060810379683971405]], [[-0.09653285890817642]], [[-0.015608054585754871]], [[-0.06350840628147125]], [[0.05790553614497185]], [[0.007432475220412016]], [[0.015546190552413464]], [[-0.011144356802105904]], [[0.226342111825943]], [[-0.051043592393398285]], [[-0.08458208292722702]], [[0.06906791776418686]], [[-0.006157564464956522]], [[-0.03783922642469406]], [[-0.06558549404144287]], [[-0.003966072108596563]], [[-0.1395731270313263]], [[0.07254256308078766]], [[0.05068487301468849]], [[0.05563069134950638]], [[-0.0823044553399086]], [[0.0834813117980957]], [[0.024760419502854347]], [[0.3165595233440399]], [[-0.17005129158496857]]], [[[0.09241645783185959]], [[-0.1435278207063675]], [[-0.15189671516418457]], [[-0.3543643057346344]], [[0.15149392187595367]], [[0.05297961086034775]], [[0.04858318343758583]], [[-0.18444575369358063]], [[0.3512057065963745]], [[-0.11994942277669907]], [[-0.05576343461871147]], [[-0.06286278367042542]], [[-0.0962054431438446]], [[0.02410116232931614]], [[-0.24167931079864502]], [[0.09635322540998459]], [[-0.005504775792360306]], [[-0.03588920831680298]], [[0.049792926758527756]], [[0.16205796599388123]], [[-0.5151796340942383]], [[0.3038243055343628]], [[0.3311038017272949]], [[-0.4214146137237549]], [[0.24365578591823578]], [[0.06752964109182358]], [[-0.23281657695770264]], [[0.07940520346164703]], [[0.1462075263261795]], [[0.03209437429904938]], [[-0.13564684987068176]], [[0.2936830520629883]], [[-0.34966322779655457]], [[-0.019886819645762444]], [[0.05477351322770119]], [[0.11361121386289597]], [[0.2568376958370209]], [[0.12385432422161102]], [[-0.1629178673028946]], [[-0.039453648030757904]], [[0.17829522490501404]], [[0.015770109370350838]], [[0.025806376710534096]], [[-0.04660848155617714]], [[0.18938079476356506]], [[0.1892484575510025]], [[0.26910400390625]], [[-0.1576964408159256]]], [[[-0.2167418748140335]], [[-0.06948170065879822]], [[-0.006215118337422609]], [[-0.05951725319027901]], [[-0.10522125661373138]], [[-0.05814756825566292]], [[0.13632835447788239]], [[0.43213164806365967]], [[0.20319047570228577]], [[0.017955686897039413]], [[0.0007236528908833861]], [[-0.21596413850784302]], [[0.18217094242572784]], [[0.24249188601970673]], [[-0.2539328336715698]], [[0.11167345196008682]], [[0.194613516330719]], [[-0.2021006941795349]], [[-0.03348156064748764]], [[0.026961466297507286]], [[-0.14338211715221405]], [[0.007427939213812351]], [[0.07159875333309174]], [[-0.14020614326000214]], [[0.24071568250656128]], [[0.12416348606348038]], [[0.14069271087646484]], [[-0.1414281576871872]], [[-0.05769810453057289]], [[0.2948051393032074]], [[-0.07839053124189377]], [[-0.20961833000183105]], [[-0.3076985776424408]], [[0.04106362164020538]], [[0.04099828749895096]], [[0.12100820988416672]], [[-0.0735325738787651]], [[0.08797745406627655]], [[-0.19462908804416656]], [[-0.15252089500427246]], [[0.20540361106395721]], [[0.10703547298908234]], [[0.35750311613082886]], [[-0.2637147009372711]], [[-0.21775875985622406]], [[0.015924744307994843]], [[0.06794067472219467]], [[0.008205042220652103]]], [[[-0.04018610343337059]], [[0.039480239152908325]], [[0.3801845610141754]], [[-0.041012682020664215]], [[0.08921435475349426]], [[0.4202585220336914]], [[0.17913146317005157]], [[0.1808525025844574]], [[-0.01970306970179081]], [[-0.29297924041748047]], [[-0.07235091179609299]], [[0.09514220803976059]], [[0.16995041072368622]], [[0.1935955286026001]], [[0.1339791864156723]], [[-0.13762100040912628]], [[0.11644566059112549]], [[-0.2509826719760895]], [[0.1676589548587799]], [[-0.060329556465148926]], [[-0.02400103211402893]], [[0.055318113416433334]], [[0.05898692086338997]], [[0.07649843394756317]], [[0.08857777714729309]], [[0.14570428431034088]], [[0.11992169171571732]], [[0.07467971742153168]], [[0.11706023663282394]], [[0.08246435970067978]], [[-0.24063841998577118]], [[0.2354343682527542]], [[0.10351099818944931]], [[0.23715640604496002]], [[-0.09054653346538544]], [[-0.11704815924167633]], [[-0.08655699342489243]], [[-0.03435822203755379]], [[0.035391323268413544]], [[0.2251853495836258]], [[-0.24783527851104736]], [[-0.29070809483528137]], [[-0.004753411281853914]], [[-0.3422745168209076]], [[0.3696575164794922]], [[-0.030258908867836]], [[0.25506460666656494]], [[-0.4448055028915405]]], [[[0.25198766589164734]], [[0.04164344072341919]], [[-0.23957794904708862]], [[-0.12743648886680603]], [[0.0009996135486289859]], [[-0.08782532811164856]], [[-0.09398222714662552]], [[-0.0740753784775734]], [[0.43203005194664]], [[-0.10805431008338928]], [[-0.20675984025001526]], [[-0.26725637912750244]], [[0.054901622235774994]], [[0.22738543152809143]], [[0.37009650468826294]], [[-0.11204749345779419]], [[0.5448980927467346]], [[0.3201405107975006]], [[-0.1762092113494873]], [[-0.058448441326618195]], [[-0.2686636447906494]], [[0.06270722299814224]], [[-0.21007151901721954]], [[-0.1280185878276825]], [[0.1014174297451973]], [[-0.3061334192752838]], [[0.3731473982334137]], [[0.15382370352745056]], [[-0.06904034316539764]], [[0.007832110859453678]], [[0.097057044506073]], [[0.3033991754055023]], [[-0.24875856935977936]], [[0.09072398394346237]], [[-0.18011409044265747]], [[0.243275448679924]], [[-0.018170682713389397]], [[0.41962215304374695]], [[-0.15357713401317596]], [[-0.14417347311973572]], [[0.1673501878976822]], [[0.5238556265830994]], [[-0.07010350376367569]], [[0.07250339537858963]], [[0.2886314392089844]], [[0.10273803025484085]], [[0.20884297788143158]], [[0.12752903997898102]]], [[[-0.023767417296767235]], [[0.43977978825569153]], [[0.1385425329208374]], [[-0.2580471336841583]], [[-0.03386535495519638]], [[0.04778527468442917]], [[-0.028575090691447258]], [[0.023578502237796783]], [[0.09018915891647339]], [[-0.3089572787284851]], [[0.03572313115000725]], [[0.17035149037837982]], [[-0.12391754984855652]], [[-0.061069369316101074]], [[0.14538544416427612]], [[0.02458975650370121]], [[-0.09795886278152466]], [[-0.12831386923789978]], [[0.08596004545688629]], [[-0.016989899799227715]], [[0.25822654366493225]], [[-0.1511450707912445]], [[-0.09879393130540848]], [[-0.07869154214859009]], [[0.14761929214000702]], [[0.007830356247723103]], [[-0.08258224278688431]], [[-0.10172997415065765]], [[0.03757664933800697]], [[0.47248438000679016]], [[-0.07518528401851654]], [[-0.039913665503263474]], [[-0.08108842372894287]], [[-0.03327341377735138]], [[0.02587854489684105]], [[0.18917259573936462]], [[-0.16510699689388275]], [[-0.1278618723154068]], [[-0.0509057380259037]], [[0.07275543361902237]], [[-0.08892391622066498]], [[0.03350174427032471]], [[0.10270097106695175]], [[-0.12266334891319275]], [[0.06369192153215408]], [[-0.007737013977020979]], [[0.005334719084203243]], [[0.06500483304262161]]], [[[-0.007330785039812326]], [[-0.1875186413526535]], [[-0.3668861985206604]], [[-0.08188190311193466]], [[-0.07276251912117004]], [[-0.10397469997406006]], [[-0.07628998905420303]], [[-0.21466994285583496]], [[0.5130937099456787]], [[-0.0536947026848793]], [[0.012136612087488174]], [[-0.10580342262983322]], [[0.035081155598163605]], [[-0.23149508237838745]], [[0.07093098759651184]], [[0.10001342743635178]], [[0.02976708859205246]], [[0.4962823987007141]], [[-0.004865036346018314]], [[-0.1295676827430725]], [[-0.10394970327615738]], [[0.28675541281700134]], [[0.14847970008850098]], [[0.27150049805641174]], [[0.029718736186623573]], [[0.19071200489997864]], [[0.3319244682788849]], [[-0.08603186905384064]], [[0.2448551207780838]], [[0.024951783940196037]], [[-0.19831743836402893]], [[-0.3248063027858734]], [[-0.19852454960346222]], [[0.09947231411933899]], [[0.7157488465309143]], [[0.32455238699913025]], [[0.18706369400024414]], [[0.15065978467464447]], [[0.21738238632678986]], [[0.020021812990307808]], [[0.083405502140522]], [[-0.14215205609798431]], [[-0.03206520155072212]], [[-0.17040711641311646]], [[0.0439133457839489]], [[0.31880179047584534]], [[0.12306027114391327]], [[-0.13076108694076538]]], [[[-0.12223824113607407]], [[-0.14535290002822876]], [[-0.060336288064718246]], [[-0.24474512040615082]], [[-0.06479769200086594]], [[-0.2393408864736557]], [[0.11310218274593353]], [[0.20784778892993927]], [[-0.03294791653752327]], [[-0.522395133972168]], [[-0.3991992771625519]], [[0.1818234622478485]], [[-0.126041978597641]], [[-0.14545254409313202]], [[-0.14123588800430298]], [[-0.1334041953086853]], [[-0.0007609408348798752]], [[0.225189208984375]], [[-0.19733291864395142]], [[0.04992622509598732]], [[0.3062092363834381]], [[0.29584547877311707]], [[0.2230171114206314]], [[0.257763534784317]], [[0.03125659376382828]], [[0.06715366989374161]], [[0.194459468126297]], [[0.17434953153133392]], [[0.29503580927848816]], [[0.21460385620594025]], [[-0.04241032153367996]], [[-0.08828552067279816]], [[0.14107394218444824]], [[-0.08831628412008286]], [[0.17556132376194]], [[0.007974546402692795]], [[0.08328705281019211]], [[-0.19613541662693024]], [[-0.10894547402858734]], [[-0.05585165321826935]], [[0.2755911648273468]], [[-0.104594387114048]], [[0.07958313822746277]], [[-0.23195451498031616]], [[0.1264488250017166]], [[0.003661809489130974]], [[0.015116702765226364]], [[0.27117857336997986]]], [[[-0.28588634729385376]], [[-0.07506386935710907]], [[-0.06944406777620316]], [[-0.09631511569023132]], [[0.25465354323387146]], [[0.09681129455566406]], [[-0.1266147494316101]], [[0.17095068097114563]], [[0.44197744131088257]], [[-0.1698419600725174]], [[-0.24103336036205292]], [[-0.5504459142684937]], [[0.13398756086826324]], [[-0.28298220038414]], [[-0.48541659116744995]], [[0.06043797731399536]], [[0.10060522705316544]], [[-0.14775525033473969]], [[0.08995597809553146]], [[-0.18630678951740265]], [[-0.42646557092666626]], [[0.08865505456924438]], [[-0.06165985018014908]], [[-0.09493435174226761]], [[0.2093159556388855]], [[-0.08195901662111282]], [[-0.028901582583785057]], [[0.02234322763979435]], [[-0.08550498634576797]], [[-0.4332069754600525]], [[-0.1159123107790947]], [[-0.35488948225975037]], [[-0.5254877805709839]], [[0.11008656769990921]], [[-0.10234643518924713]], [[0.07085840404033661]], [[0.17363645136356354]], [[0.06997650861740112]], [[0.1956479698419571]], [[0.13526038825511932]], [[-0.26130715012550354]], [[-0.49890801310539246]], [[0.08325078338384628]], [[0.11981373280286789]], [[-0.19108614325523376]], [[0.1681338995695114]], [[-0.019197743386030197]], [[-0.5191206336021423]]], [[[-0.0163437370210886]], [[0.0030326726846396923]], [[-0.01454980205744505]], [[0.1943664848804474]], [[0.03768010810017586]], [[0.07269801944494247]], [[-0.12735703587532043]], [[-0.07477420568466187]], [[0.018551763147115707]], [[-0.10691015422344208]], [[-0.19007398188114166]], [[0.09809263050556183]], [[-0.14852094650268555]], [[-0.02576376497745514]], [[0.44638779759407043]], [[0.08373086899518967]], [[0.11226287484169006]], [[0.018307069316506386]], [[-0.13451388478279114]], [[-0.23579302430152893]], [[0.14078553020954132]], [[0.053997691720724106]], [[0.030314847826957703]], [[0.14935460686683655]], [[-0.06914042681455612]], [[-0.19162675738334656]], [[0.2105252593755722]], [[-0.17670829594135284]], [[-0.48925915360450745]], [[0.3889777958393097]], [[-0.020026179030537605]], [[-0.14647753536701202]], [[-0.058062151074409485]], [[0.14872564375400543]], [[-0.08264457434415817]], [[0.2787318229675293]], [[0.0027623833157122135]], [[0.5096142888069153]], [[0.20922015607357025]], [[0.004120801575481892]], [[-0.61165851354599]], [[0.30771636962890625]], [[-0.051436979323625565]], [[-0.08374117314815521]], [[0.13220934569835663]], [[0.12714548408985138]], [[-0.1264050155878067]], [[-0.0955333411693573]]], [[[0.007977229543030262]], [[-0.07371143996715546]], [[-0.10096057504415512]], [[-0.010442238301038742]], [[0.04966995492577553]], [[-0.0878332331776619]], [[-0.1757967323064804]], [[-0.05264832824468613]], [[-0.1413899064064026]], [[-0.24379347264766693]], [[0.06004896014928818]], [[0.3558284640312195]], [[0.09924088418483734]], [[-0.13565251231193542]], [[-0.1822003275156021]], [[-0.08695842325687408]], [[-0.20941820740699768]], [[-0.5575026273727417]], [[-0.24363774061203003]], [[0.131323903799057]], [[0.3305448293685913]], [[0.3402557075023651]], [[-0.19552819430828094]], [[-0.11589978635311127]], [[0.22626543045043945]], [[-0.1673663854598999]], [[0.10172849893569946]], [[0.03875820338726044]], [[-0.22381377220153809]], [[0.0803711786866188]], [[-0.08676915615797043]], [[-0.0719490796327591]], [[0.12952594459056854]], [[-0.19824190437793732]], [[-0.007768750190734863]], [[0.002844329224899411]], [[0.22257530689239502]], [[-0.0824747085571289]], [[-0.08368749916553497]], [[0.042408738285303116]], [[0.042298976331949234]], [[0.20020617544651031]], [[0.0455787368118763]], [[0.01767471618950367]], [[-0.040985357016325]], [[0.12385603040456772]], [[-0.15714071691036224]], [[-0.24126036465168]]], [[[-0.41222676634788513]], [[-0.12709151208400726]], [[0.0015006925677880645]], [[0.5622149705886841]], [[0.19198836386203766]], [[-0.050234317779541016]], [[-0.02606511116027832]], [[0.06012033298611641]], [[-0.23081783950328827]], [[-0.08397070318460464]], [[-0.07166750729084015]], [[-0.012748326174914837]], [[-0.012356559745967388]], [[-0.014231069013476372]], [[-0.1695903092622757]], [[0.134578138589859]], [[-0.1409951150417328]], [[0.07365460693836212]], [[0.1442849189043045]], [[-0.07887730747461319]], [[-0.06106108799576759]], [[0.05876385420560837]], [[0.3135581314563751]], [[-0.22837351262569427]], [[-0.030812891200184822]], [[0.004802132956683636]], [[-0.015314732678234577]], [[-0.06892486661672592]], [[-0.13938745856285095]], [[0.12661418318748474]], [[-0.09704415500164032]], [[0.1402323842048645]], [[0.04018201678991318]], [[-0.09146839380264282]], [[0.0471588596701622]], [[-0.03379381448030472]], [[-0.09320761263370514]], [[0.4276646077632904]], [[-0.09826570004224777]], [[-0.1519470363855362]], [[0.11588228493928909]], [[-0.050088800489902496]], [[-0.12539063394069672]], [[0.023622076958417892]], [[-0.04502769932150841]], [[-0.11810284852981567]], [[0.2043912708759308]], [[-0.14154405891895294]]], [[[0.021438047289848328]], [[0.09627018123865128]], [[-0.0787721648812294]], [[-0.1839405745267868]], [[0.128874734044075]], [[0.10438642650842667]], [[-0.14063861966133118]], [[0.0236095879226923]], [[0.06703498214483261]], [[-0.01005437970161438]], [[0.19304335117340088]], [[0.18402773141860962]], [[-0.04324028640985489]], [[0.05762382224202156]], [[-0.2705603241920471]], [[0.12065255641937256]], [[-0.2516576051712036]], [[0.00024603758356533945]], [[0.18761010468006134]], [[0.3501532971858978]], [[0.14364053308963776]], [[-0.02149849385023117]], [[-0.019969141110777855]], [[-0.23009070754051208]], [[0.003040000796318054]], [[-0.14191564917564392]], [[-0.19247399270534515]], [[-0.08363348245620728]], [[0.1405198872089386]], [[0.046410031616687775]], [[0.1252378523349762]], [[0.2548172175884247]], [[-0.025615425780415535]], [[-0.025672560557723045]], [[0.06480621546506882]], [[-0.15695323050022125]], [[0.02143416553735733]], [[-0.20522822439670563]], [[0.44844624400138855]], [[0.14724154770374298]], [[-0.14017000794410706]], [[-0.07703055441379547]], [[-0.10972975939512253]], [[-0.507881224155426]], [[0.12185166776180267]], [[0.025922298431396484]], [[-0.3079074025154114]], [[-0.17361313104629517]]], [[[-0.05990924313664436]], [[-0.015209460631012917]], [[-0.0999264344573021]], [[-0.14963363111019135]], [[0.09232476353645325]], [[-0.017498323693871498]], [[-0.07500442117452621]], [[0.06031153351068497]], [[0.26466667652130127]], [[-0.13895076513290405]], [[0.15176652371883392]], [[0.15480174124240875]], [[-0.2335035800933838]], [[0.3465421497821808]], [[0.07595733553171158]], [[0.03603844717144966]], [[0.2307414412498474]], [[-0.5416340231895447]], [[-0.015592994168400764]], [[0.362378865480423]], [[0.12115776538848877]], [[0.20890599489212036]], [[0.02839851938188076]], [[0.07232443243265152]], [[0.2965276837348938]], [[0.3100816309452057]], [[-0.10277814418077469]], [[-0.13148555159568787]], [[-0.1325421929359436]], [[-0.07035690546035767]], [[-0.13624195754528046]], [[0.22291138768196106]], [[-0.037036340683698654]], [[-0.1614387184381485]], [[0.12794964015483856]], [[0.12168774008750916]], [[-0.13588035106658936]], [[0.11659502238035202]], [[0.2508145272731781]], [[-0.015952114015817642]], [[-0.21491515636444092]], [[0.22690434753894806]], [[0.2595849335193634]], [[-0.1655506044626236]], [[-0.06599347293376923]], [[0.29324230551719666]], [[-0.1591995507478714]], [[-0.18216338753700256]]], [[[-0.046014633029699326]], [[-0.09068100154399872]], [[0.16540974378585815]], [[-0.16766954958438873]], [[0.3497147560119629]], [[-0.22337159514427185]], [[0.0792657658457756]], [[0.11416679620742798]], [[-0.08746477961540222]], [[0.07318948954343796]], [[-0.08821606636047363]], [[0.20254504680633545]], [[-0.07735411077737808]], [[0.08203091472387314]], [[0.13487590849399567]], [[-0.0018219038611277938]], [[0.4240589439868927]], [[0.09661296010017395]], [[0.07594501972198486]], [[0.003554375609382987]], [[-0.16249707341194153]], [[0.04637952521443367]], [[-0.145420104265213]], [[0.25249719619750977]], [[0.08717793226242065]], [[0.012478070333600044]], [[-0.05335795506834984]], [[-0.1427200436592102]], [[-0.4678559899330139]], [[-0.03591989725828171]], [[-0.06741251051425934]], [[-0.15955889225006104]], [[-0.187191903591156]], [[-0.06965240836143494]], [[-0.11708888411521912]], [[0.41578930616378784]], [[-0.07557827979326248]], [[0.2333618700504303]], [[0.006877409294247627]], [[0.08132945001125336]], [[-0.042498283088207245]], [[-0.05489753931760788]], [[0.16373495757579803]], [[-0.1322356015443802]], [[-0.021072184666991234]], [[0.19992461800575256]], [[0.3370940387248993]], [[-0.020397493615746498]]], [[[0.12418832629919052]], [[0.06975772231817245]], [[0.1444396823644638]], [[-0.10329465568065643]], [[0.10473630577325821]], [[0.1662197858095169]], [[-0.1383502036333084]], [[0.11804615706205368]], [[-0.6829074621200562]], [[0.02819855883717537]], [[-0.1974167376756668]], [[0.17467676103115082]], [[-0.22794543206691742]], [[0.10831885039806366]], [[0.02594616264104843]], [[0.17544670403003693]], [[0.25061413645744324]], [[0.04286026209592819]], [[-0.0395912267267704]], [[0.11348873376846313]], [[-0.1556355357170105]], [[-0.06001725420355797]], [[0.2724340260028839]], [[-0.03244047239422798]], [[-0.08637232333421707]], [[-0.055509816855192184]], [[0.14143379032611847]], [[-0.30750733613967896]], [[0.3079072833061218]], [[-0.04855438694357872]], [[-0.11663345247507095]], [[0.01270969957113266]], [[-0.3044987916946411]], [[-0.12472641468048096]], [[0.0860978290438652]], [[0.23230554163455963]], [[-0.0033186988439410925]], [[0.07586304098367691]], [[0.0005366033874452114]], [[0.04699651151895523]], [[-0.524444580078125]], [[0.07830952852964401]], [[-0.1682664304971695]], [[-0.5775797963142395]], [[0.4455649256706238]], [[0.04223939776420593]], [[-0.2272394746541977]], [[0.05272300913929939]]], [[[-0.19636312127113342]], [[-0.32699233293533325]], [[0.05155179277062416]], [[0.02110040932893753]], [[-0.07270989567041397]], [[-0.0579727366566658]], [[-0.18979279696941376]], [[0.17403069138526917]], [[-0.13404284417629242]], [[0.1292857527732849]], [[0.17678779363632202]], [[0.07532051205635071]], [[0.17611046135425568]], [[0.138543963432312]], [[0.11556748300790787]], [[0.2129003256559372]], [[-0.06516586989164352]], [[-0.1004948616027832]], [[0.3048084080219269]], [[0.15498115122318268]], [[0.1581287831068039]], [[0.10748700052499771]], [[0.05070732906460762]], [[0.03923061490058899]], [[0.36346864700317383]], [[0.03604617714881897]], [[-0.14754024147987366]], [[0.09558045864105225]], [[-0.0007389726233668625]], [[-0.029145462438464165]], [[0.027334263548254967]], [[-0.07836078852415085]], [[0.37621140480041504]], [[0.22461345791816711]], [[-0.0972883552312851]], [[-0.12282604724168777]], [[0.15221910178661346]], [[-0.0581074133515358]], [[-0.002215791493654251]], [[-0.1969490796327591]], [[0.06716330349445343]], [[0.12967252731323242]], [[0.39963388442993164]], [[0.06231360509991646]], [[-0.037674855440855026]], [[0.33016330003738403]], [[0.21928514540195465]], [[0.3183706998825073]]], [[[0.08716610074043274]], [[0.0229442548006773]], [[0.14139872789382935]], [[-0.12567327916622162]], [[0.11745596677064896]], [[-0.014737661927938461]], [[-0.18561337888240814]], [[-0.4248100817203522]], [[-0.12287116050720215]], [[0.08318432420492172]], [[-0.23183321952819824]], [[-0.08770812302827835]], [[0.23960471153259277]], [[-0.26813170313835144]], [[0.09178059548139572]], [[0.0984564870595932]], [[-0.05102074518799782]], [[-0.37199315428733826]], [[0.11645461618900299]], [[-0.37640380859375]], [[0.04033026471734047]], [[0.06279390305280685]], [[0.11881189048290253]], [[-0.12276731431484222]], [[0.25950151681900024]], [[-0.12460798025131226]], [[0.14415167272090912]], [[0.04764501377940178]], [[0.1614389717578888]], [[0.2997186481952667]], [[-0.2838258147239685]], 