{"channel_n": 16, "hidden_n": 128, "fire_rate": 0.5, "alpha_channel": 3, "living_threshold": 0.1, "identity_kernel": [[0.0, 0.0, 0.0], [0.0, 1.0, 0.0], [0.0, 0.0, 0.0]], "dx_kernel": [[-0.125, 0.0, 0.125], [-0.25, 0.0, 0.25], [-0.125, 0.0, 0.125]], "dy_kernel": [[-0.125, -0.25, -0.125], [0.0, 0.0, 0.0], [0.125, 0.25, 0.125]], "conv1_weight": [[[[-0.19416813552379608]], [[0.17785045504570007]], [[-0.25548142194747925]], [[-0.2726081907749176]], [[0.11810511350631714]], [[-0.08724696189165115]], [[-0.1963689774274826]], [[0.2846162021160126]], [[-0.044452767819166183]], [[-0.15601998567581177]], [[0.05875241011381149]], [[-0.0679464191198349]], [[-0.05433908477425575]], [[-0.23276971280574799]], [[-0.5382336378097534]], [[0.14026591181755066]], [[0.28179675340652466]], [[-0.2504618763923645]], [[-0.2413507103919983]], [[-0.24842630326747894]], [[0.38938507437705994]], [[0.1485355645418167]], [[-0.37422484159469604]], [[0.3159625828266144]], [[0.01392875425517559]], [[-0.23765656352043152]], [[-0.30278703570365906]], [[-0.2519960105419159]], [[-0.27284908294677734]], [[-0.05509014427661896]], [[-0.006035820115357637]], [[0.4416508078575134]], [[-0.15683361887931824]], [[-0.19813059270381927]], [[-0.20413441956043243]], [[0.022859744727611542]], [[-0.11539749801158905]], [[0.05537153407931328]], [[-0.26228514313697815]], [[-0.06577181816101074]], [[0.19652271270751953]], [[0.4435172379016876]], [[0.016079653054475784]], [[-0.06663791090250015]], [[-0.11388251930475235]], [[-0.05714550241827965]], [[0.07940027862787247]], [[-0.01817469671368599]]], [[[-0.32284635305404663]], [[-0.19925029575824738]], [[-0.009119000285863876]], [[-0.1269310563802719]], [[-0.09764641523361206]], [[0.06954684853553772]], [[-0.17385485768318176]], [[-0.18864205479621887]], [[0.1905423104763031]], [[-0.22611695528030396]], [[-0.08342942595481873]], [[-0.22903402149677277]], [[0.20337261259555817]], [[0.14458785951137543]], [[-0.5790203213691711]], [[0.16087275743484497]], [[0.1153809055685997]], [[-0.34466084837913513]], [[0.03206838667392731]], [[-0.06003793329000473]], [[-0.047667160630226135]], [[0.3685535788536072]], [[-0.1998164802789688]], [[-0.19684822857379913]], [[0.6911842226982117]], [[0.39738577604293823]], [[0.08133403211832047]], [[0.05789409577846527]], [[-0.017999645322561264]], [[-0.19819292426109314]], [[0.4197838604450226]], [[-0.08599095791578293]], [[-0.1104300245642662]], [[0.04916662350296974]], [[0.10879643261432648]], [[-0.3618028163909912]], [[-0.0036121464800089598]], [[0.04318646341562271]], [[-0.24174202978610992]], [[-0.14473363757133484]], [[0.23505285382270813]], [[0.10046771168708801]], [[0.37655767798423767]], [[-0.16420023143291473]], [[-0.08922605961561203]], [[0.19094251096248627]], [[0.07446976751089096]], [[-0.24917101860046387]]], [[[0.049637168645858765]], [[-0.039319030940532684]], [[-0.03272102028131485]], [[-0.11803053319454193]], [[-0.04781342297792435]], [[0.03503316268324852]], [[-0.1087476834654808]], [[-0.22670382261276245]], [[-0.2083112746477127]], [[-0.03762704133987427]], [[-0.19386513531208038]], [[-0.16254788637161255]], [[-0.06420706957578659]], [[0.44022634625434875]], [[0.19726243615150452]], [[0.08707176148891449]], [[0.3421069085597992]], [[0.337573766708374]], [[-0.003300248645246029]], [[-0.3042359948158264]], [[-0.26122769713401794]], [[0.10273222625255585]], [[0.08045122027397156]], [[-0.09186048805713654]], [[0.07783138006925583]], [[0.10213717818260193]], [[0.09372682869434357]], [[0.02673150785267353]], [[-0.4645833373069763]], [[-0.40754613280296326]], [[0.06197952851653099]], [[-0.3092772960662842]], [[0.16677050292491913]], [[-0.15972347557544708]], [[-0.37056437134742737]], [[-0.185426265001297]], [[-0.179494246840477]], [[0.07888901233673096]], [[0.2739216685295105]], [[0.0006858290289528668]], [[-0.0786430761218071]], [[-0.263202428817749]], [[0.027350841090083122]], [[0.15155789256095886]], [[0.29605820775032043]], [[0.04991797357797623]], [[0.6235750317573547]], [[-0.13458041846752167]]], [[[-0.3575076162815094]], [[-0.06111757084727287]], [[0.04724622890353203]], [[-0.07561623305082321]], [[-0.20282989740371704]], [[-0.17450584471225739]], [[-0.294460654258728]], [[-0.38115543127059937]], [[-0.09726943075656891]], [[0.02102348394691944]], [[0.006264303810894489]], [[-0.3177831768989563]], [[0.2490263283252716]], [[0.001792374299839139]], [[0.0981995016336441]], [[-0.0054263281635940075]], [[-0.22310788929462433]], [[-0.1069617047905922]], [[-0.015471793711185455]], [[0.18532364070415497]], [[-0.05626191198825836]], [[0.03620193153619766]], [[-0.06285625696182251]], [[0.18915978074073792]], [[0.04168686643242836]], [[-0.18482539057731628]], [[0.2166311889886856]], [[-0.06343402713537216]], [[0.014858609065413475]], [[0.048415035009384155]], [[-0.4034915864467621]], [[0.06940121948719025]], [[-0.13379967212677002]], [[-0.19388940930366516]], [[0.2261194884777069]], [[-0.08336193859577179]], [[-0.02889450639486313]], [[-0.2671670615673065]], [[0.2429174780845642]], [[-0.06000736728310585]], [[0.12533961236476898]], [[0.10890989750623703]], [[-0.16109904646873474]], [[0.16738981008529663]], [[-0.12539738416671753]], [[0.08605596423149109]], [[0.2391434907913208]], [[-0.019506217911839485]]], [[[-0.6538187265396118]], [[-0.037958644330501556]], [[0.09608712047338486]], [[-0.4731813073158264]], [[-0.23561091721057892]], [[0.047002267092466354]], [[-0.5111042857170105]], [[-0.21015718579292297]], [[0.10388653725385666]], [[-0.09568443149328232]], [[-0.23124058544635773]], [[-0.3024892508983612]], [[-0.07798890769481659]], [[-0.011539414525032043]], [[-0.03151163086295128]], [[0.057575471699237823]], [[-0.08521664887666702]], [[-0.3129693269729614]], [[-0.0689360722899437]], [[-0.06012466549873352]], [[0.021725941449403763]], [[0.4225022494792938]], [[0.016968734562397003]], [[0.1991974264383316]], [[-0.27815479040145874]], [[-0.21056605875492096]], [[0.03656364977359772]], [[-0.25783973932266235]], [[0.14205248653888702]], [[0.03926900401711464]], [[-0.10558927804231644]], [[0.1618977040052414]], [[0.13457128405570984]], [[0.4104725420475006]], [[0.034153636544942856]], [[0.024847637861967087]], [[-0.07865104079246521]], [[-0.06139219179749489]], [[0.33275216817855835]], [[0.061656929552555084]], [[-0.12977652251720428]], [[0.2555820643901825]], [[0.19827258586883545]], [[0.028015470132231712]], [[-0.16405656933784485]], [[0.014508920721709728]], [[-0.28469380736351013]], [[-0.10096904635429382]]], [[[0.23553906381130219]], [[0.11011946946382523]], [[-0.21742480993270874]], [[-0.034893374890089035]], [[-0.04123206064105034]], [[-0.2577006220817566]], [[0.3500244915485382]], [[-0.23884260654449463]], [[-0.3390681743621826]], [[0.05401894077658653]], [[-0.23163431882858276]], [[-0.22656483948230743]], [[0.437444806098938]], [[0.03718692436814308]], [[-0.10470545291900635]], [[0.05402762442827225]], [[0.03048286959528923]], [[0.09881424903869629]], [[-0.14493151009082794]], [[-0.06199679151177406]], [[-0.20113344490528107]], [[-0.04067980498075485]], [[0.027384750545024872]], [[0.06363973021507263]], [[0.028982263058423996]], [[0.13352924585342407]], [[0.3365272283554077]], [[0.12081281840801239]], [[-0.2414758950471878]], [[0.010144064202904701]], [[-0.09490738809108734]], [[-0.10291799157857895]], [[-0.06812302023172379]], [[-0.05660836026072502]], [[-0.24410893023014069]], [[-0.0166764073073864]], [[0.17697949707508087]], [[0.03489276021718979]], [[0.22451908886432648]], [[0.02726689912378788]], [[-0.28291717171669006]], [[0.01975150592625141]], [[-0.2150721251964569]], [[-0.2438180297613144]], [[-0.23087336122989655]], [[0.025256318971514702]], [[0.013878701254725456]], [[0.03531799092888832]]], [[[-0.0033640689216554165]], [[-0.12991434335708618]], [[0.014693062752485275]], [[0.0569550059735775]], [[0.06858956068754196]], [[-0.054053060710430145]], [[-0.016334054991602898]], [[-0.046250782907009125]], [[-0.05875464528799057]], [[-0.08190949261188507]], [[0.17470486462116241]], [[-0.043430861085653305]], [[-0.032777171581983566]], [[0.4060794711112976]], [[0.06002780422568321]], [[0.04106849431991577]], [[0.17335844039916992]], [[0.05267481878399849]], [[0.115950807929039]], [[0.17385432124137878]], [[0.20466217398643494]], [[0.10782571882009506]], [[0.26630911231040955]], [[0.04544474929571152]], [[0.11424863338470459]], [[-0.3412618935108185]], [[0.07951768487691879]], [[0.12132284790277481]], [[-0.13148446381092072]], [[-0.01667463779449463]], [[0.04001140221953392]], [[0.027574582025408745]], [[-0.022516679018735886]], [[0.029772525653243065]], [[-0.17864637076854706]], [[0.20577460527420044]], [[0.07785741984844208]], [[0.1422039270401001]], [[0.2420087605714798]], [[-0.10053950548171997]], [[0.10258030146360397]], [[-0.3017176389694214]], [[-0.13054585456848145]], [[-0.015062123537063599]], [[0.2770289182662964]], [[0.05660508573055267]], [[-0.034499067813158035]], [[-0.14176000654697418]]], [[[-0.06019413098692894]], [[0.5428942441940308]], [[0.48428264260292053]], [[-0.0710500106215477]], [[0.13124579191207886]], [[0.33167630434036255]], [[-0.06910566985607147]], [[0.3401297926902771]], [[0.277645081281662]], [[-0.015478940680623055]], [[0.1052377000451088]], [[0.45397770404815674]], [[0.0028386046178638935]], [[-0.01923833228647709]], [[-0.1553824543952942]], [[0.08403909206390381]], [[-0.18912208080291748]], [[-0.33601057529449463]], [[-0.0715281292796135]], [[-0.15269842743873596]], [[0.05338233336806297]], [[0.12903918325901031]], [[-0.22686627507209778]], [[0.05075320973992348]], [[-0.11054621636867523]], [[-0.2978202998638153]], [[-0.3522700071334839]], [[-0.06517589837312698]], [[0.1324223279953003]], [[0.17869354784488678]], [[0.20555508136749268]], [[0.4038441777229309]], [[0.025372304022312164]], [[-0.0850914865732193]], [[0.15547743439674377]], [[0.20405313372612]], [[-0.14826884865760803]], [[0.1776580661535263]], [[-0.3617408573627472]], [[-0.11142406612634659]], [[0.17981021106243134]], [[0.23707957565784454]], [[0.17708374559879303]], [[0.3853905498981476]], [[0.334389328956604]], [[-0.07313616573810577]], [[-0.13641566038131714]], [[0.4818842113018036]]], [[[0.1034412756562233]], [[-0.11886759102344513]], [[-0.057411450892686844]], [[0.32744064927101135]], [[-0.21150729060173035]], [[0.006076768506318331]], [[0.17213174700737]], [[-0.24105635285377502]], [[-0.2684306204319]], [[-0.15032923221588135]], [[-0.34768325090408325]], [[-0.12012127041816711]], [[0.15973277390003204]], [[-0.028818093240261078]], [[-0.02531394548714161]], [[0.2110503762960434]], [[-0.02011231519281864]], [[0.11596634984016418]], [[-0.131461039185524]], [[-0.03878849372267723]], [[-0.04806538671255112]], [[-0.1114937886595726]], [[0.049360696226358414]], [[0.10567031055688858]], [[-0.1321186125278473]], [[0.08383974432945251]], [[0.03922392055392265]], [[-0.07739768922328949]], [[-0.19107501208782196]], [[-0.03622336685657501]], [[-0.05234351009130478]], [[-0.05022827908396721]], [[0.010184413753449917]], [[-0.11270730942487717]], [[0.023276137188076973]], [[0.02951432578265667]], [[-0.09469790011644363]], [[-0.21133482456207275]], [[-0.023602887988090515]], [[0.07762306928634644]], [[-0.021950284019112587]], [[0.09133908152580261]], [[-0.2768752872943878]], [[0.04367665573954582]], [[-0.10378401726484299]], [[0.05429590865969658]], [[-0.3694292902946472]], [[0.1567641645669937]]], [[[-0.07060487568378448]], [[0.14115403592586517]], [[-0.14916875958442688]], [[-0.23982882499694824]], [[0.10937180370092392]], [[-0.2081584930419922]], [[-0.13480445742607117]], [[-0.14645181596279144]], [[-0.21960847079753876]], [[-0.27437931299209595]], [[0.052357982844114304]], [[0.023159272968769073]], [[-0.23205286264419556]], [[0.24012768268585205]], [[0.0035164032597094774]], [[0.006177768111228943]], [[0.3654000163078308]], [[-0.0862104743719101]], [[0.10050571709871292]], [[0.018363695591688156]], [[0.23235847055912018]], [[0.16507558524608612]], [[-0.02310377173125744]], [[0.13081029057502747]], [[0.2180035412311554]], [[-0.4530840814113617]], [[0.4062456488609314]], [[-0.18233197927474976]], [[-0.16941671073436737]], [[-0.03484584763646126]], [[0.06911750137805939]], [[0.0910085141658783]], [[-0.3720412850379944]], [[-0.023194413632154465]], [[0.17139802873134613]], [[-0.055405184626579285]], [[-0.053696587681770325]], [[0.2900482714176178]], [[-0.02369680069386959]], [[-0.09119489043951035]], [[0.11750205606222153]], [[-0.1883234828710556]], [[0.0358646921813488]], [[-0.48799940943717957]], [[0.19960880279541016]], [[0.15851527452468872]], [[0.11024195700883865]], [[-0.21837931871414185]]], [[[-0.16748663783073425]], [[0.07693716138601303]], [[-0.1482066810131073]], [[0.007931937463581562]], [[0.046093422919511795]], [[0.0789981409907341]], [[0.07556583732366562]], [[0.10178624838590622]], [[-0.12478530406951904]], [[-0.13064663112163544]], [[0.06097555160522461]], [[-0.014213327318429947]], [[0.11468852311372757]], [[0.1622876077890396]], [[0.13475674390792847]], [[0.008636663667857647]], [[-0.01604081690311432]], [[-0.009932361543178558]], [[-0.13252004981040955]], [[0.3601836860179901]], [[-0.2672360837459564]], [[0.27133288979530334]], [[-0.0824461579322815]], [[0.07632307708263397]], [[0.31746307015419006]], [[-0.2611696124076843]], [[0.2899452745914459]], [[-0.1658681184053421]], [[0.027451060712337494]], [[0.18220964074134827]], [[0.09337376058101654]], [[-0.018673786893486977]], [[-0.19812221825122833]], [[-0.18921689689159393]], [[0.29521286487579346]], [[-0.13297384977340698]], [[-0.1692924201488495]], [[0.12171032279729843]], [[0.38829225301742554]], [[-0.07353243976831436]], [[0.12373895943164825]], [[-0.053528979420661926]], [[0.21987009048461914]], [[-0.3038020133972168]], [[-0.2740083336830139]], [[-0.0321783684194088]], [[0.22581903636455536]], [[0.18775320053100586]]], [[[-0.27266982197761536]], [[0.00996281486004591]], [[0.1464877724647522]], [[-0.15310633182525635]], [[-0.01596628502011299]], [[-0.11202505975961685]], [[-0.3971484303474426]], [[0.1389058232307434]], [[0.06276356428861618]], [[-0.0969090536236763]], [[-0.24440708756446838]], [[0.2972049117088318]], [[0.10008665174245834]], [[-0.4291926324367523]], [[0.2820775508880615]], [[0.05050084739923477]], [[-0.5237191915512085]], [[0.38167130947113037]], [[0.07514061033725739]], [[-0.18135082721710205]], [[0.1717105507850647]], [[0.8247650265693665]], [[-0.3796350359916687]], [[0.1957143247127533]], [[1.0965209007263184]], [[0.009158908389508724]], [[0.13222002983093262]], [[-0.019490163773298264]], [[-0.09059750288724899]], [[0.1081598773598671]], [[0.6434943675994873]], [[-0.2525905966758728]], [[0.15266923606395721]], [[-0.1422891914844513]], [[-0.22464095056056976]], [[0.18341925740242004]], [[-0.09763320535421371]], [[0.004335510078817606]], [[0.09808260947465897]], [[-0.12048006802797318]], [[-0.13911058008670807]], [[0.38536006212234497]], [[0.4929918348789215]], [[-0.11457006633281708]], [[0.13414962589740753]], [[0.05443621799349785]], [[-0.4308006465435028]], [[0.45543602108955383]]], [[[-0.08922175318002701]], [[-0.22815638780593872]], [[0.02073892205953598]], [[0.18480072915554047]], [[0.02996758185327053]], [[-0.03470636159181595]], [[-0.31602588295936584]], [[0.15424460172653198]], [[0.04391894489526749]], [[-0.13190676271915436]], [[0.16729937493801117]], [[0.17991289496421814]], [[0.06625670939683914]], [[0.3190072178840637]], [[0.17575816810131073]], [[-0.16602641344070435]], [[-0.1921733021736145]], [[0.24115519225597382]], [[0.11471761018037796]], [[0.011828801594674587]], [[-0.15356400609016418]], [[0.052159104496240616]], [[0.3535178303718567]], [[-0.11002446711063385]], [[-0.023744529113173485]], [[0.0410517118871212]], [[0.015318004414439201]], [[0.2304411381483078]], [[-0.027110537514090538]], [[-0.1324639916419983]], [[-0.1453501433134079]], [[-0.3564581871032715]], [[0.06346715241670609]], [[-0.14395298063755035]], [[-0.017018267884850502]], [[0.1261969357728958]], [[0.03259000554680824]], [[-0.280611515045166]], [[-0.10362310707569122]], [[-0.007900039665400982]], [[0.22759802639484406]], [[-0.03324252367019653]], [[0.20905783772468567]], [[0.18679773807525635]], [[-0.15827405452728271]], [[0.0648120567202568]], [[-0.24396933615207672]], [[-0.05578159913420677]]], [[[-0.08683616667985916]], [[-0.09295455366373062]], [[0.2064768224954605]], [[-0.07071913778781891]], [[-0.04809270054101944]], [[-0.06827925145626068]], [[0.056199200451374054]], [[0.10917689651250839]], [[0.018279502168297768]], [[0.027866743505001068]], [[0.1878662407398224]], [[-0.2003423273563385]], [[-0.11231855303049088]], [[0.09782558679580688]], [[-0.22055301070213318]], [[-0.18397928774356842]], [[0.32212603092193604]], [[-0.05418655648827553]], [[0.2423408180475235]], [[-0.06503242999315262]], [[0.20070259273052216]], [[0.1754664033651352]], [[-0.1169339120388031]], [[0.21085867285728455]], [[-0.038597747683525085]], [[0.047850124537944794]], [[-0.05174208804965019]], [[-0.05901224538683891]], [[0.1982274055480957]], [[-0.045211538672447205]], [[-0.2283407598733902]], [[-0.12260283529758453]], [[-0.003987748641520739]], [[0.12817642092704773]], [[0.054158348590135574]], [[0.02127189002931118]], [[-0.07966367155313492]], [[-0.11896912008523941]], [[0.1527423858642578]], [[-0.1379568725824356]], [[0.09570164233446121]], [[-0.17154864966869354]], [[0.026586521416902542]], [[0.28484562039375305]], [[-0.04935118183493614]], [[0.05907249450683594]], [[0.21257930994033813]], [[0.19332070648670197]]], [[[-0.035515714436769485]], [[-0.11674540489912033]], [[0.07317131757736206]], [[0.031901102513074875]], [[-0.08711177855730057]], [[0.013776089996099472]], [[0.002618666971102357]], [[-0.01492525264620781]], [[0.05390126630663872]], [[-0.2540651559829712]], [[-0.020163819193840027]], [[-0.07693140208721161]], [[-0.1099882572889328]], [[-0.2058437466621399]], [[0.13096977770328522]], [[-0.12486019730567932]], [[0.13153187930583954]], [[-0.022731050848960876]], [[-0.05429265275597572]], [[-0.1942857801914215]], [[0.15324734151363373]], [[0.11270225048065186]], [[0.03420083969831467]], [[-0.14151683449745178]], [[0.18450014293193817]], [[-0.19330927729606628]], [[0.20501600205898285]], [[0.030760135501623154]], [[-0.22240005433559418]], [[0.18843869864940643]], [[-0.06119292601943016]], [[0.2052479237318039]], [[-0.10316640883684158]], [[0.04960562288761139]], [[-0.3213884234428406]], [[0.3415862023830414]], [[0.01594139263033867]], [[-0.3168512284755707]], [[0.049689628183841705]], [[-0.138725146651268]], [[-0.32931625843048096]], [[0.02414868213236332]], [[0.1628849357366562]], [[-0.000287497736280784]], [[0.026128023862838745]], [[0.008594057522714138]], [[-0.40742790699005127]], [[0.31643208861351013]]], [[[0.06977774202823639]], [[-0.09839542210102081]], [[-0.06551002711057663]], [[-0.24938218295574188]], [[-0.14787255227565765]], [[-0.02664053812623024]], [[0.027748821303248405]], [[-0.10818390548229218]], [[0.061107974499464035]], [[-0.32461681962013245]], [[-0.15021346509456635]], [[0.16658005118370056]], [[0.034162044525146484]], [[-0.03913795202970505]], [[-0.07659830152988434]], [[-0.17670321464538574]], [[-0.24649564921855927]], [[0.037211086601018906]], [[0.06217613071203232]], [[-0.09292636811733246]], [[0.050313785672187805]], [[0.16651040315628052]], [[-0.09742294996976852]], [[0.538936972618103]], [[0.00159803731366992]], [[0.1458156704902649]], [[0.2774466276168823]], [[-0.26047343015670776]], [[0.20217527449131012]], [[-0.12635119259357452]], [[-0.09723959118127823]], [[0.09818040579557419]], [[0.2658403217792511]], [[0.19546596705913544]], [[-0.14423473179340363]], [[-0.018864409998059273]], [[-0.09642539173364639]], [[0.07104911655187607]], [[0.05333616957068443]], [[-0.2536812424659729]], [[-0.08829307556152344]], [[0.14913812279701233]], [[-0.1302018016576767]], [[-0.01625657081604004]], [[-0.0800851359963417]], [[-0.04577252268791199]], [[0.10791599750518799]], [[0.3555079400539398]]], [[[-0.3937358260154724]], [[0.009809295646846294]], [[0.10088081657886505]], [[-0.47290027141571045]], [[0.171549454331398]], [[0.12775424122810364]], [[-0.27182087302207947]], [[0.06892892718315125]], [[0.3481806516647339]], [[-0.25144243240356445]], [[0.4528425633907318]], [[0.14594149589538574]], [[-0.16379357874393463]], [[0.1503847986459732]], [[0.08580340445041656]], [[-0.04048248380422592]], [[0.27497565746307373]], [[0.2259850949048996]], [[-0.0971008762717247]], [[0.05802619829773903]], [[0.28249824047088623]], [[0.4223540723323822]], [[0.13440465927124023]], [[0.27732065320014954]], [[0.790923535823822]], [[0.13775861263275146]], [[0.12710416316986084]], [[-0.29161760210990906]], [[0.11881417036056519]], [[0.08315391838550568]], [[0.5019688010215759]], [[0.6136700510978699]], [[0.4164275825023651]], [[-0.14793092012405396]], [[0.23519718647003174]], [[0.014975015074014664]], [[-0.031240127980709076]], [[0.22245590388774872]], [[0.2066245675086975]], [[-0.14542989432811737]], [[0.21019966900348663]], [[0.31226471066474915]], [[0.3914918899536133]], [[0.4597763121128082]], [[0.30464473366737366]], [[0.09498845785856247]], [[0.13716396689414978]], [[0.3801053762435913]]], [[[-0.188942089676857]], [[0.38019055128097534]], [[0.04714030772447586]], [[-0.1367579698562622]], [[0.16002443432807922]], [[0.047206662595272064]], [[-0.08356332778930664]], [[0.031143134459853172]], [[0.10459225624799728]], [[-0.32667186856269836]], [[0.23244184255599976]], [[0.22712062299251556]], [[-0.0548061728477478]], [[0.018997402861714363]], [[0.08236511051654816]], [[-0.08062203228473663]], [[0.3028390407562256]], [[0.2544052004814148]], [[-0.43517962098121643]], [[0.14173731207847595]], [[0.21504823863506317]], [[-0.2315371036529541]], [[0.009843057952821255]], [[0.19869500398635864]], [[0.24685418605804443]], [[0.03365548327565193]], [[0.151752308011055]], [[-0.22639738023281097]], [[0.17287294566631317]], [[0.056961242109537125]], [[0.06166510283946991]], [[0.5471121668815613]], [[0.22322209179401398]], [[-0.3316851854324341]], [[0.055218685418367386]], [[0.2052055448293686]], [[-0.22349736094474792]], [[0.18832959234714508]], [[0.10451098531484604]], [[-0.26094841957092285]], [[0.16967090964317322]], [[0.1619821935892105]], [[0.06903998553752899]], [[0.2838154435157776]], [[0.36696308851242065]], [[-0.01777893491089344]], [[0.41666361689567566]], [[0.3782977759838104]]], [[[0.03418609872460365]], [[0.10684188455343246]], [[-0.08554484695196152]], [[-0.1605149656534195]], [[0.07413417845964432]], [[-0.042889390140771866]], [[-0.05557863041758537]], [[-0.08856373280286789]], [[-0.35317161679267883]], [[-0.15524516999721527]], [[-0.05847296118736267]], [[-0.02590624801814556]], [[-0.16813121736049652]], [[0.31968092918395996]], [[-0.11318868398666382]], [[0.15723511576652527]], [[0.045409269630908966]], [[-0.11712077260017395]], [[-0.25187915563583374]], [[-0.004163180477917194]], [[0.2024918645620346]], [[0.11102978885173798]], [[0.09015468508005142]], [[-0.08929303288459778]], [[0.1615137755870819]], [[0.16963253915309906]], [[-0.1130988672375679]], [[0.03248753026127815]], [[0.06512214988470078]], [[0.21894732117652893]], [[-0.03420926630496979]], [[0.04550893232226372]], [[-0.27671995759010315]], [[-0.02838950976729393]], [[0.36759471893310547]], [[0.10364603996276855]], [[-0.042504046112298965]], [[0.2525259256362915]], [[0.4714612662792206]], [[-0.03793206438422203]], [[0.07430903613567352]], [[0.08382105082273483]], [[-0.004594697616994381]], [[-0.29627278447151184]], [[-0.11281304061412811]], [[-0.1353110820055008]], [[0.08307119458913803]], [[0.09715365618467331]]], [[[-0.1425979733467102]], [[0.027683334425091743]], [[0.1868351399898529]], [[-0.1499481052160263]], [[-0.22921285033226013]], [[-0.006339763756841421]], [[-0.09278879314661026]], [[-0.05825056508183479]], [[0.1649915874004364]], [[-0.43131646513938904]], [[-0.18921998143196106]], [[0.30600255727767944]], [[-0.04382866248488426]], [[-0.04785022512078285]], [[-0.1427537202835083]], [[-0.3209686875343323]], [[0.41561317443847656]], [[0.3396228849887848]], [[-0.020528629422187805]], [[-0.21831579506397247]], [[-0.3749634921550751]], [[0.04333760216832161]], [[0.05381827428936958]], [[0.42744481563568115]], [[0.2913447916507721]], [[-0.004637379664927721]], [[0.2286761850118637]], [[-0.09327740967273712]], [[-0.05928812548518181]], [[-0.16117875277996063]], [[-0.05594857409596443]], [[0.03532791882753372]], [[0.2331363409757614]], [[-0.05569516867399216]], [[-0.19100432097911835]], [[-0.3205910325050354]], [[0.04333372786641121]], [[-0.1914483904838562]], [[-0.4189150631427765]], [[-0.16096892952919006]], [[0.002565013477578759]], [[-0.275876522064209]], [[0.006084898952394724]], [[0.08769111335277557]], [[0.14053606986999512]], [[-0.05804724246263504]], [[-0.18919314444065094]], [[0.1655261367559433]]], [[[-0.26437512040138245]], [[-0.14520464837551117]], [[0.0984930768609047]], [[-0.20488829910755157]], [[-0.19958926737308502]], [[-0.03489445894956589]], [[0.11008382588624954]], [[-0.2041335552930832]], [[-0.04938100650906563]], [[0.14855533838272095]], [[0.041443318128585815]], [[-0.009239419363439083]], [[0.14712749421596527]], [[0.6148436665534973]], [[0.3435631990432739]], [[-0.1506347507238388]], [[-0.017572833225131035]], [[0.48106783628463745]], [[-0.12418200820684433]], [[0.2539055049419403]], [[0.10266851633787155]], [[-0.0047225733287632465]], [[-0.030451128259301186]], [[-0.26723039150238037]], [[0.1225990280508995]], [[-0.3843609690666199]], [[-0.12646855413913727]], [[-0.15770864486694336]], [[-0.07644065469503403]], [[0.07341688126325607]], [[-0.08524513244628906]], [[-0.15984591841697693]], [[0.12876829504966736]], [[-0.10241810977458954]], [[0.17627698183059692]], [[0.02010972797870636]], [[-0.2328912317752838]], [[0.019823620095849037]], [[0.12712016701698303]], [[-0.1331413984298706]], [[-0.29486629366874695]], [[-0.32827281951904297]], [[0.09428827464580536]], [[0.07729969173669815]], [[0.019818579778075218]], [[0.14677631855010986]], [[-0.40813761949539185]], [[-0.3383226692676544]]], [[[-0.3218129277229309]], [[-0.07967301458120346]], [[0.09106562286615372]], [[-0.14605629444122314]], [[-0.038979049772024155]], [[-0.1997772604227066]], [[-0.2372036725282669]], [[-0.05645005777478218]], [[-0.005415141116827726]], [[-0.21910013258457184]], [[-0.2132640779018402]], [[-0.06354692578315735]], [[-0.013601770624518394]], [[0.07180655747652054]], [[-0.23765882849693298]], [[-0.018237246200442314]], [[0.2181611806154251]], [[0.038511600345373154]], [[-0.017398688942193985]], [[0.05023576319217682]], [[0.21907202899456024]], [[0.0714016929268837]], [[0.201867014169693]], [[0.2695247530937195]], [[0.20129914581775665]], [[-0.1221841499209404]], [[0.15596282482147217]], [[0.023817898705601692]], [[-0.2341294139623642]], [[0.054126959294080734]], [[-0.02422299236059189]], [[0.058897338807582855]], [[-0.3169233202934265]], [[-0.04421096667647362]], [[-0.1858448088169098]], [[-0.17841936647891998]], [[-0.08348815888166428]], [[0.36238008737564087]], [[0.104301318526268]], [[-0.025862636044621468]], [[-0.07476042956113815]], [[-0.20578645169734955]], [[0.1899503916501999]], [[-0.12899433076381683]], [[0.3558114767074585]], [[0.173705592751503]], [[-0.12026260793209076]], [[-0.3382972776889801]]], [[[0.4247712194919586]], [[0.25677359104156494]], [[-0.05901581421494484]], [[-0.088480144739151]], [[0.06543198227882385]], [[0.030152281746268272]], [[0.052049580961465836]], [[0.17502188682556152]], [[-0.1334550380706787]], [[-0.27796170115470886]], [[0.002794926054775715]], [[-0.3401002883911133]], [[-0.2343248426914215]], [[0.05116692930459976]], [[-0.04920320585370064]], [[-0.19789399206638336]], [[0.05409017577767372]], [[-0.1879090964794159]], [[0.29643791913986206]], [[-0.13553807139396667]], [[0.09275222569704056]], [[0.08075688779354095]], [[-0.19027665257453918]], [[0.01285602431744337]], [[0.06494864076375961]], [[-0.09869933128356934]], [[-0.03361520543694496]], [[-0.01841498725116253]], [[0.20109465718269348]], [[-0.057368699461221695]], [[0.05750453844666481]], [[-0.019853420555591583]], [[-0.11114956438541412]], [[0.029199795797467232]], [[0.047734666615724564]], [[-0.044422343373298645]], [[-0.06284614652395248]], [[-0.0009587596287019551]], [[-0.31558260321617126]], [[-0.12429196387529373]], [[-0.043932098895311356]], [[-0.029154261574149132]], [[0.07804229855537415]], [[-0.030864011496305466]], [[-0.14202918112277985]], [[-0.13785140216350555]], [[0.03295750170946121]], [[-0.1038593128323555]]], [[[-0.012962866574525833]], [[0.2919517159461975]], [[-0.2446759045124054]], [[-0.008861753158271313]], [[0.2150244563817978]], [[-0.09611690789461136]], [[0.08524814248085022]], [[0.02460109069943428]], [[-0.13783493638038635]], [[0.16961368918418884]], [[-0.06294769793748856]], [[-0.33418944478034973]], [[-0.003814227180555463]], [[-0.31780096888542175]], [[-0.21031205356121063]], [[-0.14869390428066254]], [[-0.22627979516983032]], [[-0.22932551801204681]], [[-0.13576260209083557]], [[0.21579943597316742]], [[-0.3250086009502411]], [[-0.10069379955530167]], [[-0.08863919228315353]], [[-0.4201555848121643]], [[0.027644040063023567]], [[-0.24498818814754486]], [[-0.2147488296031952]], [[0.09487970918416977]], [[0.24955390393733978]], [[0.10426825284957886]], [[-0.026824304834008217]], [[-0.28279855847358704]], [[-0.18564532697200775]], [[-0.19854851067066193]], [[-0.007740366272628307]], [[-0.4899774491786957]], [[-0.017183175310492516]], [[0.2703371047973633]], [[-0.06618038564920425]], [[-0.1272696554660797]], [[0.034937016665935516]], [[-0.2482408881187439]], [[0.12055418640375137]], [[-0.5185516476631165]], [[0.17531883716583252]], [[-0.05678599327802658]], [[0.5486710667610168]], [[-0.4953294098377228]]], [[[-0.4785660207271576]], [[0.1210479810833931]], [[0.30267834663391113]], [[-0.531256914138794]], [[-0.025563444942235947]], [[0.30277252197265625]], [[-0.4107915163040161]], [[0.02462886832654476]], [[-0.06339550763368607]], [[-0.32600611448287964]], [[-0.002804636722430587]], [[0.19296769797801971]], [[0.2008851170539856]], [[0.15828610956668854]], [[-0.003010349813848734]], [[0.23343124985694885]], [[0.12365613132715225]], [[-0.0174238421022892]], [[-0.11347837001085281]], [[-0.05223482474684715]], [[0.11408548802137375]], [[-0.07003136724233627]], [[0.21259954571723938]], [[-0.11906193196773529]], [[0.13159815967082977]], [[0.0154919708147645]], [[-0.06547882407903671]], [[-0.17106442153453827]], [[0.13730205595493317]], [[0.15010295808315277]], [[0.15178875625133514]], [[-0.30836188793182373]], [[-0.1645854413509369]], [[-0.04288885369896889]], [[-0.16649281978607178]], [[0.38276660442352295]], [[0.1294320672750473]], [[-0.0004281270958017558]], [[-0.05586334690451622]], [[-0.12387224286794662]], [[-0.0936645045876503]], [[-0.03172849491238594]], [[0.04584583640098572]], [[-0.23817123472690582]], [[0.11549966037273407]], [[-0.08715878427028656]], [[0.18389056622982025]], [[-0.1576327383518219]]], [[[0.11415570974349976]], [[0.1491834968328476]], [[0.13451769948005676]], [[-0.19516070187091827]], [[-0.20409788191318512]], [[-0.10209020972251892]], [[-0.11973714828491211]], [[-0.06225854530930519]], [[-0.13926751911640167]], [[-0.1532832533121109]], [[-0.05223383381962776]], [[-0.0020307747181504965]], [[0.10469020903110504]], [[-0.16631321609020233]], [[0.4921225309371948]], [[-0.16889536380767822]], [[0.39311152696609497]], [[-0.15335950255393982]], [[-0.11991458386182785]], [[0.23389451205730438]], [[-0.0009069679654203355]], [[0.23078308999538422]], [[0.22084324061870575]], [[0.230355903506279]], [[0.2586323916912079]], [[0.2116246223449707]], [[0.27931252121925354]], [[-0.004867278505116701]], [[0.27241596579551697]], [[-0.19364435970783234]], [[0.18619944155216217]], [[0.0496121346950531]], [[-0.32547327876091003]], [[-0.049759987741708755]], [[0.20929013192653656]], [[-0.0946565791964531]], [[0.006982150953263044]], [[0.3825085163116455]], [[0.23640333116054535]], [[-0.24320025742053986]], [[-0.3785674571990967]], [[-0.22735926508903503]], [[0.12338877469301224]], [[-0.4591190218925476]], [[-0.11730436235666275]], [[0.04099070653319359]], [[-0.04214387759566307]], [[0.1959265023469925]]], [[[0.1391449123620987]], [[0.19376102089881897]], [[0.48923152685165405]], [[0.11050625145435333]], [[0.2685118317604065]], [[0.3386525809764862]], [[0.019108640030026436]], [[0.3639770448207855]], [[0.5498014688491821]], [[-0.3757858872413635]], [[0.28848156332969666]], [[0.5488112568855286]], [[-0.34438565373420715]], [[0.18297120928764343]], [[0.18156394362449646]], [[-0.13430377840995789]], [[0.3090132474899292]], [[-0.03406302630901337]], [[0.01562521979212761]], [[-0.020791593939065933]], [[0.1422853022813797]], [[0.049158718436956406]], [[-0.18175369501113892]], [[0.11640699952840805]], [[-0.13204383850097656]], [[-0.06997320055961609]], [[-0.1862451285123825]], [[-0.17944832146167755]], [[0.201377272605896]], [[0.11596886813640594]], [[0.1142137348651886]], [[0.060772351920604706]], [[-0.10257073491811752]], [[-0.050560928881168365]], [[0.04156780242919922]], [[-0.044448018074035645]], [[0.026477916166186333]], [[-0.10131954401731491]], [[-0.3442144989967346]], [[0.24696555733680725]], [[-0.13849258422851562]], [[-0.245146706700325]], [[0.13951411843299866]], [[0.15731686353683472]], [[0.21994923055171967]], [[-0.022417280822992325]], [[-0.22874955832958221]], [[-0.010972471907734871]]], [[[0.06072560325264931]], [[-0.37642067670822144]], [[0.28313159942626953]], [[-0.17681530117988586]], [[-0.2579193711280823]], [[0.13453181087970734]], [[0.17458292841911316]], [[-0.0994720384478569]], [[0.2584086060523987]], [[0.09128953516483307]], [[-0.2191055864095688]], [[0.12227323651313782]], [[-0.19058553874492645]], [[-0.12178681045770645]], [[-0.17558182775974274]], [[-0.1563595086336136]], [[-0.5368445515632629]], [[-0.03825243189930916]], [[0.10267193615436554]], [[0.2536659836769104]], [[-0.5104525089263916]], [[-0.04255154728889465]], [[0.41667911410331726]], [[-0.15775495767593384]], [[-0.11492971330881119]], [[0.04395216330885887]], [[0.24399767816066742]], [[-0.1475650519132614]], [[-0.19672173261642456]], [[0.02522333711385727]], [[0.007029462140053511]], [[-0.07221296429634094]], [[0.29953470826148987]], [[-0.015671193599700928]], [[0.23428724706172943]], [[0.17250429093837738]], [[-0.11400355398654938]], [[-0.4026370346546173]], [[0.342769056558609]], [[-0.12705504894256592]], [[-0.048951420933008194]], [[-0.27168798446655273]], [[0.003354605520144105]], [[0.21716895699501038]], [[-0.5525104403495789]], [[0.04262435436248779]], [[-0.28622353076934814]], [[0.37464168667793274]]], [[[-0.019490813836455345]], [[-0.031254153698682785]], [[0.3134424686431885]], [[-0.17268875241279602]], [[0.028403427451848984]], [[0.3615626096725464]], [[-0.09983255714178085]], [[0.13271352648735046]], [[0.2124551385641098]], [[0.15658172965049744]], [[0.1626954972743988]], [[0.13889969885349274]], [[-0.3226494789123535]], [[0.09383473545312881]], [[0.048848893493413925]], [[-0.040911734104156494]], [[0.24615560472011566]], [[0.145854651927948]], [[-0.19174350798130035]], [[0.05237889289855957]], [[0.25341224670410156]], [[0.19075317680835724]], [[-0.05528542026877403]], [[-0.05999162420630455]], [[-0.14910180866718292]], [[0.0770343467593193]], [[-0.2744849920272827]], [[0.14617598056793213]], [[-0.2978768050670624]], [[-0.1816093921661377]], [[0.0567830465734005]], [[0.03154165670275688]], [[-0.011827080510556698]], [[-0.08685982972383499]], [[-0.1278209239244461]], [[-0.0438728891313076]], [[0.28064200282096863]], [[-0.07982026040554047]], [[-0.033049263060092926]], [[-0.1533697247505188]], [[0.06827566772699356]], [[0.23916538059711456]], [[0.08327459543943405]], [[-0.1406196653842926]], [[0.006619303021579981]], [[0.22183695435523987]], [[0.13067753612995148]], [[0.05321987718343735]]], [[[-0.07242126017808914]], [[0.10439422726631165]], [[0.09265294671058655]], [[-0.23749752342700958]], [[0.006011629477143288]], [[0.010359886102378368]], [[-0.050031594932079315]], [[-0.07327589392662048]], [[0.07201434671878815]], [[-0.2744905352592468]], [[-0.30561909079551697]], [[-0.0837802141904831]], [[0.08793643862009048]], [[-0.49541714787483215]], [[-0.46615198254585266]], [[-0.14887863397598267]], [[-0.32681170105934143]], [[-0.6027013659477234]], [[-0.0459778867661953]], [[-0.14512501657009125]], [[-0.031733062118291855]], [[0.1257101595401764]], [[-0.20821474492549896]], [[-0.20695023238658905]], [[0.42280566692352295]], [[-0.06821013242006302]], [[-0.26926347613334656]], [[0.060432977974414825]], [[-0.12199753522872925]], [[-0.24425378441810608]], [[-0.0357263907790184]], [[-0.13178659975528717]], [[-0.2651677429676056]], [[-0.00982719287276268]], [[-0.21413785219192505]], [[-0.4938454329967499]], [[-0.013027533888816833]], [[-0.3670029044151306]], [[-0.4763120114803314]], [[-0.02682666853070259]], [[0.01719241589307785]], [[-0.1252051293849945]], [[-0.03472175821661949]], [[-0.19539476931095123]], [[-0.19421975314617157]], [[-0.2037392109632492]], [[-0.144504576921463]], [[-0.2347785383462906]]], [[[-0.038458943367004395]], [[0.17244717478752136]], [[-0.41582638025283813]], [[-0.2986818253993988]], [[0.1671379655599594]], [[-0.19825729727745056]], [[-0.09198616445064545]], [[0.15187972784042358]], [[-0.038835398852825165]], [[-0.40031442046165466]], [[0.2728748321533203]], [[0.327191561460495]], [[-0.11014480143785477]], [[-0.1530570685863495]], [[0.05222000926733017]], [[-0.2785950303077698]], [[-0.1793917417526245]], [[0.3752079904079437]], [[-0.02264413796365261]], [[0.05872202292084694]], [[-0.10867226123809814]], [[-0.0399947352707386]], [[-0.14783130586147308]], [[0.10249318182468414]], [[-0.17013218998908997]], [[-0.1950685828924179]], [[0.16847683489322662]], [[0.13706019520759583]], [[0.09285804629325867]], [[-0.06932039558887482]], [[-0.15704388916492462]], [[0.2668932378292084]], [[0.37974056601524353]], [[-0.08561725914478302]], [[-0.017286494374275208]], [[-0.06616409122943878]], [[-0.4057316780090332]], [[0.05068898946046829]], [[0.10491153597831726]], [[0.006108010187745094]], [[-0.21851785480976105]], [[0.3297457695007324]], [[-0.18239974975585938]], [[0.09789782017469406]], [[0.22551026940345764]], [[0.009678671136498451]], [[-0.07153431326150894]], [[0.03392642363905907]]], [[[0.2825052738189697]], [[0.3962276577949524]], [[0.23654691874980927]], [[0.09718970954418182]], [[0.35449573397636414]], [[-0.11421133577823639]], [[-0.03384708613157272]], [[0.3975229859352112]], [[-0.08674997091293335]], [[-0.09006311744451523]], [[0.4019067585468292]], [[-0.1779707372188568]], [[0.11093585193157196]], [[0.02338496409356594]], [[-0.08275742083787918]], [[0.13189193606376648]], [[-0.06610097736120224]], [[-0.28857845067977905]], [[-0.07259343564510345]], [[0.2711661458015442]], [[-0.11135461181402206]], [[0.11795274913311005]], [[0.13735736906528473]], [[-0.18350522220134735]], [[-0.0033751872833818197]], [[-0.10801035165786743]], [[-0.07131791859865189]], [[-0.30702507495880127]], [[0.17975133657455444]], [[-0.27849307656288147]], [[0.14864131808280945]], [[-0.04626565799117088]], [[0.19327512383460999]], [[-0.12199298292398453]], [[0.30194443464279175]], [[-0.009871807880699635]], [[0.02373136579990387]], [[0.12349794059991837]], [[-0.04901343211531639]], [[-0.12699517607688904]], [[0.25617560744285583]], [[-0.16304892301559448]], [[0.32591474056243896]], [[0.12621323764324188]], [[-0.09890066832304001]], [[0.011501256376504898]], [[0.3083876669406891]], [[-0.1174255758523941]]], [[[-0.0812375470995903]], [[0.21717718243598938]], [[0.049218665808439255]], [[-0.03653236851096153]], [[0.20005586743354797]], [[-0.060168128460645676]], [[-0.026343457400798798]], [[0.17687299847602844]], [[0.01947026699781418]], [[0.06461504101753235]], [[0.08180859684944153]], [[-0.14509317278862]], [[-0.010589529760181904]], [[0.011558854952454567]], [[-0.34576717019081116]], [[-0.025363555178046227]], [[0.22757425904273987]], [[-0.11668699979782104]], [[0.08922892063856125]], [[-0.11412736773490906]], [[0.35805198550224304]], [[-0.05531294271349907]], [[-0.4126323461532593]], [[0.22794747352600098]], [[0.20817123353481293]], [[0.512476921081543]], [[0.007021371740847826]], [[-0.06632889807224274]], [[0.17646683752536774]], [[-0.38830435276031494]], [[0.005846913903951645]], [[0.04122461378574371]], [[0.06692345440387726]], [[0.06522992253303528]], [[-0.09511031210422516]], [[0.11769204586744308]], [[-0.02406778186559677]], [[-0.009354524314403534]], [[-0.13604775071144104]], [[-0.2544792890548706]], [[0.23262490332126617]], [[-0.3903099298477173]], [[0.23703505098819733]], [[0.5465982556343079]], [[-0.049103185534477234]], [[0.02144572325050831]], [[-0.10669811069965363]], [[0.35626229643821716]]], [[[-0.019728919491171837]], [[-0.3242979347705841]], [[-0.24946686625480652]], [[-0.05876433849334717]], [[-0.048633791506290436]], [[-0.28052040934562683]], [[0.0010110943112522364]], [[-0.10449648648500443]], [[-0.16306310892105103]], [[-0.2200649380683899]], [[0.33954906463623047]], [[0.05328725650906563]], [[-0.47888293862342834]], [[0.0125490203499794]], [[0.3092964291572571]], [[-0.10988052189350128]], [[0.3209163248538971]], [[0.16809386014938354]], [[0.06273398548364639]], [[0.1816251426935196]], [[0.07313361018896103]], [[-0.04855881258845329]], [[0.030425192788243294]], [[0.4290749430656433]], [[-0.05575905367732048]], [[0.33545368909835815]], [[0.18736374378204346]], [[-0.14742803573608398]], [[-0.06193572282791138]], [[-0.07260774075984955]], [[-0.4393847584724426]], [[0.0651795044541359]], [[0.2762724757194519]], [[-0.27064597606658936]], [[-0.16195808351039886]], [[0.12893901765346527]], [[-0.08752600103616714]], [[0.0009514446137472987]], [[-0.07385501265525818]], [[-0.17010225355625153]], [[0.23437204957008362]], [[0.1831679493188858]], [[0.3577483594417572]], [[0.08377489447593689]], [[0.4451669156551361]], [[-0.26838356256484985]], [[-0.0643685907125473]], [[0.1565757691860199]]], [[[0.5282828211784363]], [[0.07451196014881134]], [[-0.14831991493701935]], [[-0.2472485899925232]], [[0.13167673349380493]], [[-0.0035514687187969685]], [[0.3598432242870331]], [[-0.01813701167702675]], [[-0.07699666172266006]], [[-0.47835773229599]], [[-0.09494540840387344]], [[-0.18575844168663025]], [[0.11928528547286987]], [[0.08503332734107971]], [[0.05944473668932915]], [[0.049168188124895096]], [[0.11939141154289246]], [[-0.043030995875597]], [[-0.14827708899974823]], [[0.04048462212085724]], [[-0.0784793347120285]], [[-0.14474010467529297]], [[-0.038458097726106644]], [[0.047598984092473984]], [[-0.03926611319184303]], [[0.01696910709142685]], [[0.11187919229269028]], [[-0.007121272385120392]], [[-0.05387113243341446]], [[-0.09260503202676773]], [[-0.06393178552389145]], [[-0.08270666748285294]], [[-0.026427293196320534]], [[0.018116386607289314]], [[-0.04721023887395859]], [[0.014747471548616886]], [[0.11647690087556839]], [[-0.007989744655787945]], [[0.03447980806231499]], [[-0.03821396827697754]], [[0.0706809014081955]], [[-0.016192011535167694]], [[0.0010920853819698095]], [[-0.021485505625605583]], [[0.19273154437541962]], [[-0.12007968872785568]], [[0.08515172451734543]], [[0.11110744625329971]]], [[[-0.31947070360183716]], [[0.14840121567249298]], [[-0.1373891979455948]], [[-0.2694723904132843]], [[0.03239281103014946]], [[-0.20308831334114075]], [[-0.18717367947101593]], [[0.08488715440034866]], [[-0.2406594157218933]], [[-0.07181259244680405]], [[0.21887363493442535]], [[-0.03369266539812088]], [[-0.09063412994146347]], [[-0.09906161576509476]], [[0.11705072969198227]], [[0.2106727957725525]], [[0.03958854079246521]], [[0.04654693976044655]], [[-0.25350072979927063]], [[0.19663138687610626]], [[0.1322120726108551]], [[0.04762470722198486]], [[0.20069566369056702]], [[0.060246892273426056]], [[0.18020276725292206]], [[-0.14526231586933136]], [[-0.03732408210635185]], [[-0.016428932547569275]], [[0.11825211346149445]], [[0.21849465370178223]], [[-0.11178747564554214]], [[-0.0669965147972107]], [[-0.12897655367851257]], [[-0.021641377359628677]], [[0.2964508533477783]], [[0.09736405313014984]], [[0.022641751915216446]], [[0.28923848271369934]], [[0.3256852626800537]], [[-0.21252481639385223]], [[0.18946993350982666]], [[-0.05064770206809044]], [[0.022913306951522827]], [[-0.08549627661705017]], [[-0.1094515323638916]], [[-0.010728845372796059]], [[0.01908237859606743]], [[0.04048442840576172]]], [[[0.013228783383965492]], [[0.1395903080701828]], [[0.1946365386247635]], [[0.08427917212247849]], [[0.3953515291213989]], [[0.1976718306541443]], [[0.06227361038327217]], [[0.287088543176651]], [[0.07904621958732605]], [[-0.1356595903635025]], [[0.4998440742492676]], [[0.2807522416114807]], [[-0.31610822677612305]], [[0.38565191626548767]], [[-0.0776144415140152]], [[-0.0314643532037735]], [[0.016238247975707054]], [[-0.13210271298885345]], [[-0.01710248552262783]], [[0.17408980429172516]], [[-0.14046642184257507]], [[-0.010894186794757843]], [[0.05772298946976662]], [[0.015932902693748474]], [[0.2625865638256073]], [[-0.3782810866832733]], [[0.0682065561413765]], [[-0.046253688633441925]], [[-0.16938795149326324]], [[0.042194075882434845]], [[0.10138612985610962]], [[0.29264506697654724]], [[0.07772112637758255]], [[-0.04793376848101616]], [[-0.2485293745994568]], [[0.3630102276802063]], [[0.12079685181379318]], [[0.030589459463953972]], [[0.054247718304395676]], [[0.14811046421527863]], [[0.2771380543708801]], [[-0.13972929120063782]], [[0.06690125912427902]], [[0.12284883111715317]], [[-0.09417866915464401]], [[0.05306826904416084]], [[0.05076862499117851]], [[0.3750951290130615]]], [[[-0.42400190234184265]], [[-0.08905630558729172]], [[0.012523376382887363]], [[0.46112796664237976]], [[0.30282163619995117]], [[0.09550177305936813]], [[0.19786739349365234]], [[0.05793137103319168]], [[0.07287068665027618]], [[-0.26336896419525146]], [[-0.07283439487218857]], [[-0.019847365096211433]], [[-0.1340121030807495]], [[0.10907364636659622]], [[0.1382627934217453]], [[0.007718701846897602]], [[-0.04829845204949379]], [[-0.04232565313577652]], [[0.030545983463525772]], [[0.1218547523021698]], [[-0.05313193425536156]], [[-0.058541495352983475]], [[0.011400589719414711]], [[-0.013820268213748932]], [[-0.04252977296710014]], [[-0.06436280906200409]], [[0.058457955718040466]], [[-0.005392930936068296]], [[0.0028018103912472725]], [[0.02613229490816593]], [[0.0032636055257171392]], [[-0.0903424471616745]], [[-0.0031896433793008327]], [[0.0035068874713033438]], [[-0.046607606112957]], [[0.05741226673126221]], [[-0.024504786357283592]], [[-0.05135243758559227]], [[-0.005047553218901157]], [[0.03974092751741409]], [[0.02916422300040722]], [[0.04253745079040527]], [[0.03398340567946434]], [[-0.05452835187315941]], [[0.023270485922694206]], [[0.023862028494477272]], [[0.0019919041078537703]], [[0.05001547932624817]]], [[[-0.3341694474220276]], [[0.013354719616472721]], [[0.052103184163570404]], [[0.1628294587135315]], [[-0.0032597652170807123]], [[-0.1468508243560791]], [[-0.16226868331432343]], [[-0.10952519625425339]], [[-0.3254138231277466]], [[0.042004454880952835]], [[0.16042891144752502]], [[-0.3452639877796173]], [[0.14803546667099]], [[0.36986640095710754]], [[0.05023552104830742]], [[0.04445973038673401]], [[0.08649419248104095]], [[-0.7032286524772644]], [[-0.25338995456695557]], [[0.3931048512458801]], [[-0.12694160640239716]], [[-0.05147027224302292]], [[0.12859879434108734]], [[-0.00222824327647686]], [[0.29915860295295715]], [[-0.12406490743160248]], [[-0.13777874410152435]], [[-0.02975352853536606]], [[-0.06052719056606293]], [[-0.44035661220550537]], [[0.025250259786844254]], [[-0.00425502797588706]], [[0.17569087445735931]], [[-0.09139903634786606]], [[0.125475212931633]], [[-0.009326441213488579]], [[-0.1115737184882164]], [[0.18026727437973022]], [[0.47566959261894226]], [[0.12597501277923584]], [[0.3748473525047302]], [[-0.1618804931640625]], [[0.048986002802848816]], [[0.14540566504001617]], [[-0.05268412455916405]], [[0.19992899894714355]], [[0.3892518877983093]], [[-0.0024874394293874502]]], [[[0.10127667337656021]], [[-0.1392882913351059]], [[-0.16480126976966858]], [[-0.14321590960025787]], [[-0.08322253078222275]], [[-0.159262552857399]], [[-0.07960961014032364]], [[-0.09895575791597366]], [[0.24191759526729584]], [[-0.2897014021873474]], [[0.061804238706827164]], [[-0.13092972338199615]], [[-0.29164594411849976]], [[0.23562535643577576]], [[0.2438856065273285]], [[-0.3864227533340454]], [[0.05841974914073944]], [[0.1400439739227295]], [[0.013123727403581142]], [[-0.01051450427621603]], [[0.07003765553236008]], [[-0.244892880320549]], [[0.08446107059717178]], [[0.18412338197231293]], [[-0.14875467121601105]], [[0.1336139589548111]], [[0.023791881278157234]], [[0.014495132490992546]], [[0.14387117326259613]], [[-0.0721142441034317]], [[-0.1771657019853592]], [[0.19046635925769806]], [[0.1395169198513031]], [[-0.11479697376489639]], [[0.1636754423379898]], [[0.08909139037132263]], [[-0.2786307632923126]], [[-0.044575147330760956]], [[-0.04376094788312912]], [[-0.004781855270266533]], [[0.30185458064079285]], [[-0.14225241541862488]], [[-0.032738812267780304]], [[0.2312903106212616]], [[-0.00455762492492795]], [[0.11397873610258102]], [[0.2567422091960907]], [[0.05054767429828644]]], [[[-0.2671424150466919]], [[0.1941683143377304]], [[-0.11489072442054749]], [[0.26140499114990234]], [[0.252531498670578]], [[-0.11128143221139908]], [[-0.007413237355649471]], [[0.22098898887634277]], [[-0.3824854791164398]], [[0.06123809516429901]], [[0.09587281942367554]], [[-0.4183073341846466]], [[0.3477725684642792]], [[-0.15614581108093262]], [[-0.6021003127098083]], [[0.024922212585806847]], [[0.1297788769006729]], [[-0.2330726981163025]], [[-0.29545798897743225]], [[0.050386227667331696]], [[-0.13438481092453003]], [[-0.12295754998922348]], [[0.08092857152223587]], [[0.13304618000984192]], [[0.05672972649335861]], [[-0.08922705054283142]], [[0.1925346851348877]], [[0.05414535105228424]], [[-0.06355156004428864]], [[-0.06704852730035782]], [[0.019826693460345268]], [[0.2529275417327881]], [[0.1351730078458786]], [[-0.10025633871555328]], [[-0.12471181154251099]], [[0.1599300503730774]], [[0.18848401308059692]], [[0.2207006812095642]], [[0.1401645690202713]], [[-0.059884924441576004]], [[0.14286646246910095]], [[0.24720528721809387]], [[0.006493959575891495]], [[0.07666002959012985]], [[-0.1536511778831482]], [[-0.027738220989704132]], [[0.12140660732984543]], [[0.10537131875753403]]], [[[-0.5183700919151306]], [[-0.009222776629030704]], [[-0.24433103203773499]], [[-0.5130336880683899]], [[0.272914856672287]], [[-0.08525185286998749]], [[-0.4266227185726166]], [[0.23146654665470123]], [[0.20908068120479584]], [[0.24196414649486542]], [[0.2210015058517456]], [[-0.1492631584405899]], [[0.26397985219955444]], [[0.06449645012617111]], [[-0.18529768288135529]], [[0.3670252859592438]], [[0.1265852153301239]], [[-0.3837969899177551]], [[-0.0014348026597872376]], [[-0.061628881841897964]], [[0.0764482319355011]], [[0.6062474250793457]], [[-0.2580680847167969]], [[-0.14652372896671295]], [[1.2385865449905396]], [[0.07828313112258911]], [[-0.08917834609746933]], [[-0.03677035868167877]], [[-0.024117790162563324]], [[-0.13640867173671722]], [[0.8368247747421265]], [[0.055901214480400085]], [[-0.18125484883785248]], [[-0.14886121451854706]], [[-0.09927549213171005]], [[-0.23681612312793732]], [[-0.03676745295524597]], [[0.10590080916881561]], [[-0.15020617842674255]], [[-0.10696399956941605]], [[0.02186223305761814]], [[0.09120263904333115]], [[0.6356629729270935]], [[0.09081459790468216]], [[-0.20732513070106506]], [[0.3432633876800537]], [[0.056795213371515274]], [[-0.19227515161037445]]], [[[0.08021492511034012]], [[-0.13066186010837555]], [[-0.10895729809999466]], [[-0.14240029454231262]], [[-0.006033242214471102]], [[-0.24322767555713654]], [[0.04647344350814819]], [[0.010372967459261417]], [[-0.05529734864830971]], [[0.28218552470207214]], [[0.5652250647544861]], [[-0.1537826657295227]], [[-0.07778999954462051]], [[0.32487189769744873]], [[0.05084467679262161]], [[0.26321354508399963]], [[0.12184431403875351]], [[-0.14972291886806488]], [[-0.13271287083625793]], [[0.5032955408096313]], [[-0.132771298289299]], [[-0.21307353675365448]], [[0.1539563685655594]], [[0.2215454876422882]], [[-0.1367260068655014]], [[-0.30282363295555115]], [[0.3188563585281372]], [[0.06467857956886292]], [[-0.10647002607584]], [[-0.06179896369576454]], [[0.08821818232536316]], [[-0.08421012759208679]], [[0.0026740431785583496]], [[-0.009128681384027004]], [[-0.021792318671941757]], [[0.24974019825458527]], [[-0.027473662048578262]], [[-0.1413743942975998]], [[0.05242063105106354]], [[0.19039909541606903]], [[0.21337167918682098]], [[0.29314643144607544]], [[-0.14805684983730316]], [[0.12369290739297867]], [[-0.007071963045746088]], [[0.09976496547460556]], [[0.11157914996147156]], [[0.2591565251350403]]], [[[-0.05361894890666008]], [[0.3370859920978546]], [[-0.2877143621444702]], [[-0.14988477528095245]], [[0.11460104584693909]], [[-0.2223811000585556]], [[-0.04607486352324486]], [[0.3124289810657501]], [[-0.22976098954677582]], [[-0.005586234387010336]], [[0.3490809202194214]], [[-0.216189906001091]], [[0.0408741794526577]], [[-0.1328413486480713]], [[-0.2636913061141968]], [[-0.0640159621834755]], [[0.29064345359802246]], [[-0.4209063649177551]], [[-0.2514956295490265]], [[0.07069037109613419]], [[0.22955197095870972]], [[0.056379325687885284]], [[0.029084496200084686]], [[0.4809245765209198]], [[0.0048578353598713875]], [[0.2817496359348297]], [[-0.5603049397468567]], [[-0.16528989374637604]], [[0.2072107195854187]], [[-0.34706926345825195]], [[0.09664198756217957]], [[0.22384339570999146]], [[0.11386049538850784]], [[-0.12451143562793732]], [[-0.11554139852523804]], [[0.26708030700683594]], [[-0.0319502130150795]], [[0.2024402618408203]], [[-0.16526159644126892]], [[-0.08094216138124466]], [[0.14624974131584167]], [[0.36504247784614563]], [[0.06261851638555527]], [[0.428021639585495]], [[-0.5649088025093079]], [[0.09550243616104126]], [[-0.035852380096912384]], [[0.11930697411298752]]], [[[-0.076129250228405]], [[-0.32542726397514343]], [[-0.13836000859737396]], [[-0.16115565598011017]], [[-0.5135605335235596]], [[-0.2366727888584137]], [[-0.07673756778240204]], [[-0.4010600745677948]], [[-0.14822465181350708]], [[-0.01949295774102211]], [[-0.5378514528274536]], [[0.004456634167581797]], [[-0.014796114526689053]], [[-0.19937333464622498]], [[0.19148913025856018]], [[0.015186140313744545]], [[0.19363617897033691]], [[-0.2912701964378357]], [[-0.15990053117275238]], [[0.12488018721342087]], [[-0.05288384482264519]], [[0.16723665595054626]], [[0.12878671288490295]], [[0.3079117238521576]], [[0.3455190062522888]], [[0.018000103533267975]], [[-0.21364450454711914]], [[-0.03866102546453476]], [[0.04650246724486351]], [[-0.09049636125564575]], [[0.1983838528394699]], [[-0.20902206003665924]], [[0.2661392092704773]], [[-0.1312960386276245]], [[0.026098622009158134]], [[0.22413748502731323]], [[-0.1546596735715866]], [[-0.23220986127853394]], [[0.19275718927383423]], [[0.02097492292523384]], [[0.28612977266311646]], [[0.003179882885888219]], [[0.15513363480567932]], [[-0.398875892162323]], [[0.22510193288326263]], [[-0.007173589896410704]], [[-0.3112476170063019]], [[-0.20268984138965607]]], [[[-0.032250795513391495]], [[0.21758604049682617]], [[0.05564482510089874]], [[-0.08969628810882568]], [[-0.10161259025335312]], [[-0.10164069384336472]], [[-0.06987570226192474]], [[0.1451597958803177]], [[-0.04639849439263344]], [[0.03588959947228432]], [[-0.20056268572807312]], [[-0.18461373448371887]], [[0.23897425830364227]], [[-0.1491376906633377]], [[-0.5366353392601013]], [[0.0430082269012928]], [[-0.09840811789035797]], [[-0.13568514585494995]], [[-0.2070227861404419]], [[-0.022855183109641075]], [[0.04453393444418907]], [[0.09362003952264786]], [[0.5227347612380981]], [[0.23708130419254303]], [[-0.056698791682720184]], [[0.13687026500701904]], [[-0.4039662778377533]], [[-0.21043041348457336]], [[0.047904547303915024]], [[-0.27126309275627136]], [[0.0638740211725235]], [[-0.06325511634349823]], [[0.39607322216033936]], [[-0.1377364993095398]], [[0.18141613900661469]], [[0.1947806030511856]], [[-0.07908984273672104]], [[0.22264434397220612]], [[0.4361880421638489]], [[-0.09863654524087906]], [[0.23648807406425476]], [[-0.361695796251297]], [[0.2939065992832184]], [[0.26594263315200806]], [[-0.472411572933197]], [[0.055294983088970184]], [[-0.36322021484375]], [[0.23379243910312653]]], [[[-0.2888360917568207]], [[0.1025756299495697]], [[0.21540401875972748]], [[-0.037873703986406326]], [[0.26958566904067993]], [[0.02831270359456539]], [[0.20059987902641296]], [[0.20188862085342407]], [[0.24095982313156128]], [[-0.017988882958889008]], [[0.05597327649593353]], [[-0.042622197419404984]], [[0.050149280577898026]], [[0.11701074987649918]], [[-0.035820528864860535]], [[-0.11632684618234634]], [[-0.006603540387004614]], [[-0.5506823062896729]], [[0.18474557995796204]], [[-0.1935286670923233]], [[0.29842403531074524]], [[-0.07713010907173157]], [[-0.4643038511276245]], [[0.29426008462905884]], [[0.030774451792240143]], [[-0.30238404870033264]], [[-0.4481601417064667]], [[0.19343845546245575]], [[0.10820145159959793]], [[0.0234289038926363]], [[0.24810969829559326]], [[0.21630921959877014]], [[0.15058977901935577]], [[-0.16255375742912292]], [[0.10406545549631119]], [[0.23664744198322296]], [[-0.0958184227347374]], [[0.08828756213188171]], [[0.007901559583842754]], [[-0.0039660013280808926]], [[0.3408357799053192]], [[0.00668226508423686]], [[0.22899696230888367]], [[0.3056032955646515]], [[0.04561622440814972]], [[0.03678261116147041]], [[-0.059902165085077286]], [[0.12302281707525253]]], [[[0.05073648318648338]], [[-0.008435451425611973]], [[0.17177240550518036]], [[0.12696760892868042]], [[0.0516500324010849]], [[0.03001069650053978]], [[0.08260639756917953]], [[0.030809827148914337]], [[0.2713564336299896]], [[-0.13128167390823364]], [[-0.016390010714530945]], [[0.23141328990459442]], [[0.056546635925769806]], [[0.033574800938367844]], [[-0.25067445635795593]], [[0.15497064590454102]], [[-0.4047909677028656]], [[0.13078846037387848]], [[0.13825592398643494]], [[0.19455061852931976]], [[-0.23812569677829742]], [[0.0150851309299469]], [[0.22343900799751282]], [[0.0599275641143322]], [[0.04345959424972534]], [[-0.03397484868764877]], [[0.16661113500595093]], [[0.009403967298567295]], [[-0.06044866144657135]], [[-0.3229864537715912]], [[-0.059256743639707565]], [[0.32373660802841187]], [[0.4065519869327545]], [[0.03265313804149628]], [[0.4397221505641937]], [[0.009951038286089897]], [[0.09653303027153015]], [[-0.23912599682807922]], [[-0.20413117110729218]], [[0.012602145783603191]], [[0.0009588816901668906]], [[0.1827116310596466]], [[0.31583550572395325]], [[0.3324824571609497]], [[-0.024126149713993073]], [[-0.12593428790569305]], [[-0.30242982506752014]], [[0.1880822777748108]]], [[[-0.6386615037918091]], [[-0.03883201628923416]], [[0.3002987205982208]], [[-0.2266974002122879]], [[0.2689859867095947]], [[0.11590077728033066]], [[-0.030644480139017105]], [[0.24546214938163757]], [[0.024372272193431854]], [[0.08170900493860245]], [[0.20668192207813263]], [[0.0009559604222886264]], [[-0.03959917277097702]], [[-0.12280847877264023]], [[-0.022711407393217087]], [[0.021821657195687294]], [[-0.13130931556224823]], [[0.19086797535419464]], [[0.03134337067604065]], [[0.047985803335905075]], [[-0.18069688975811005]], [[-0.08506318181753159]], [[-0.06476651132106781]], [[-0.03957153856754303]], [[0.03876160457730293]], [[-0.0986044779419899]], [[-0.021475763991475105]], [[-0.023261453956365585]], [[0.09842733293771744]], [[-0.1228538379073143]], [[0.047501519322395325]], [[0.15009045600891113]], [[-0.12325688451528549]], [[0.2135196328163147]], [[0.3342699110507965]], [[-0.26880666613578796]], [[-0.04024292901158333]], [[-0.2614457309246063]], [[0.00945661123842001]], [[0.13758260011672974]], [[0.06321734935045242]], [[-0.17118984460830688]], [[-0.08736860752105713]], [[0.04659038782119751]], [[0.08837093412876129]], [[-0.1233368068933487]], [[0.3933192789554596]], [[0.13241420686244965]]], [[[0.020431583747267723]], [[-0.3561316728591919]], [[-0.17688152194023132]], [[-0.220539391040802]], [[-0.06923871487379074]], [[-0.0697866901755333]], [[-0.030649647116661072]], [[-0.05680470913648605]], [[0.036141492426395416]], [[-0.17675527930259705]], [[0.18215683102607727]], [[0.017334144562482834]], [[-0.2991306185722351]], [[0.10729752480983734]], [[0.27324607968330383]], [[-0.3266810476779938]], [[0.4053557217121124]], [[0.2247937023639679]], [[-0.08092993497848511]], [[-0.018198354169726372]], [[0.193047434091568]], [[-0.02350895293056965]], [[-0.009881872683763504]], [[0.1642056405544281]], [[0.08042457699775696]], [[0.0027031986974179745]], [[0.4903485178947449]], [[-0.15621624886989594]], [[-0.05166549235582352]], [[-0.023802800104022026]], [[-0.1592620313167572]], [[0.22113710641860962]], [[0.3328033685684204]], [[-0.10391318798065186]], [[-0.0032320190221071243]], [[-0.22028863430023193]], [[-0.2387741208076477]], [[0.020389173179864883]], [[0.11173819750547409]], [[-0.1034080982208252]], [[0.003780772676691413]], [[0.4187104105949402]], [[-0.00928814522922039]], [[-7.914487650850788e-05]], [[-0.00020169909112155437]], [[0.21567995846271515]], [[0.5100833773612976]], [[0.04629175364971161]]], [[[0.36206576228141785]], [[-0.03719165176153183]], [[-0.029478147625923157]], [[0.16925281286239624]], [[-0.018284350633621216]], [[0.0989871472120285]], [[-0.27056756615638733]], [[-0.09385976940393448]], [[-0.11299517005681992]], [[0.0649561882019043]], [[0.014523491263389587]], [[0.21346840262413025]], [[0.13070310652256012]], [[-0.09414324909448624]], [[0.024455277249217033]], [[-0.04586242884397507]], [[-0.18519940972328186]], [[0.1833244264125824]], [[-0.09188906848430634]], [[-0.04585373401641846]], [[-0.13694751262664795]], [[-0.2613987326622009]], [[-0.041805073618888855]], [[-0.0920785516500473]], [[-0.1255222111940384]], [[-0.17183591425418854]], [[-0.061530403792858124]], [[-0.10724928230047226]], [[-0.17223237454891205]], [[0.1302252858877182]], [[-0.04527799412608147]], [[-0.05818719416856766]], [[0.18989543616771698]], [[0.01306196954101324]], [[0.18145577609539032]], [[0.09483194351196289]], [[0.05722096934914589]], [[-0.2834421992301941]], [[0.042144980281591415]], [[0.06729970872402191]], [[0.07003404200077057]], [[-0.045801591128110886]], [[-0.14437198638916016]], [[0.2949364483356476]], [[-0.01760265976190567]], [[0.10083834826946259]], [[-0.28564706444740295]], [[0.114975206553936]]], [[[-0.24401557445526123]], [[-0.3064737021923065]], [[0.2611730396747589]], [[0.015592381358146667]], [[-0.28380075097084045]], [[0.10421578586101532]], [[0.15941600501537323]], [[-0.2569437026977539]], [[0.12706059217453003]], [[-0.2382967323064804]], [[-0.10245904326438904]], [[0.1809166669845581]], [[-0.1715259850025177]], [[-0.022043785080313683]], [[0.2462497502565384]], [[-0.2515990734100342]], [[0.19626381993293762]], [[0.25172361731529236]], [[-0.06740482896566391]], [[-0.066691093146801]], [[-0.02771667204797268]], [[0.3184308111667633]], [[0.003046830650418997]], [[0.15012812614440918]], [[-0.1666024774312973]], [[0.06430256366729736]], [[0.09179670363664627]], [[-0.14145569503307343]], [[0.024392129853367805]], [[0.02205522172152996]], [[-0.25855758786201477]], [[-0.1522468626499176]], [[0.025249836966395378]], [[-0.08191464096307755]], [[-0.1013440489768982]], [[0.057514872401952744]], [[-0.2522253096103668]], [[0.060343727469444275]], [[0.08560388535261154]], [[-0.11476616561412811]], [[-0.09688115119934082]], [[-0.007880321703851223]], [[-0.0543648824095726]], [[-0.36591631174087524]], [[-0.020127560943365097]], [[-0.008503630757331848]], [[-0.232930988073349]], [[0.004417342133820057]]], [[[-0.11557984352111816]], [[0.2845834493637085]], [[-0.161753311753273]], [[-0.14067122340202332]], [[0.18815146386623383]], [[-0.09247154742479324]], [[-0.3361046612262726]], [[0.25246918201446533]], [[-0.2452399730682373]], [[-0.23278367519378662]], [[0.3208007514476776]], [[-0.051455702632665634]], [[-0.1392349898815155]], [[0.15401436388492584]], [[0.15914389491081238]], [[0.27833807468414307]], [[0.45732787251472473]], [[-0.002032001269981265]], [[-0.23087388277053833]], [[0.2427612543106079]], [[0.07954373210668564]], [[0.0708501860499382]], [[0.1394532322883606]], [[0.01610526815056801]], [[0.18904581665992737]], [[0.14777357876300812]], [[0.04847077280282974]], [[-0.27749624848365784]], [[0.3629230558872223]], [[-0.30915647745132446]], [[0.128718301653862]], [[-0.09823498129844666]], [[-0.1244572252035141]], [[-0.09834032505750656]], [[0.39849260449409485]], [[0.13548636436462402]], [[-0.12696661055088043]], [[0.22841320931911469]], [[0.10681033134460449]], [[-0.028086647391319275]], [[0.11170381307601929]], [[-0.36758533120155334]], [[-0.05236339569091797]], [[-0.08350882679224014]], [[-0.15727655589580536]], [[0.04893481358885765]], [[0.10660210251808167]], [[-0.46088361740112305]]], [[[-0.09865586459636688]], [[-0.14074371755123138]], [[0.09917160868644714]], [[0.19903703033924103]], [[-0.08233650773763657]], [[0.06694599986076355]], [[0.06798456609249115]], [[0.11914653331041336]], [[-0.09187325090169907]], [[0.202046737074852]], [[0.030438819900155067]], [[0.14822496473789215]], [[-0.22224128246307373]], [[0.027905840426683426]], [[-0.11378249526023865]], [[-0.13818541169166565]], [[0.009646405465900898]], [[-0.07305190712213516]], [[0.22696372866630554]], [[0.018631471320986748]], [[0.1374005824327469]], [[0.061904873698949814]], [[0.017634805291891098]], [[0.10038377344608307]], [[0.0882159024477005]], [[0.03625994548201561]], [[0.06148228049278259]], [[0.07404790818691254]], [[0.25193753838539124]], [[-0.11891882121562958]], [[-0.09925317764282227]], [[0.1489262729883194]], [[-0.09165194630622864]], [[0.10026881098747253]], [[0.07043398171663284]], [[-0.015507261268794537]], [[-0.060322586447000504]], [[0.3327930271625519]], [[-0.09522075951099396]], [[-0.027209393680095673]], [[0.055691976100206375]], [[0.053359340876340866]], [[0.19631297886371613]], [[-0.014209531247615814]], [[0.04302956908941269]], [[-0.03810542821884155]], [[0.09196172654628754]], [[-0.1650957614183426]]], [[[-0.11315486580133438]], [[-0.08523786067962646]], [[-0.26760098338127136]], [[0.2226203978061676]], [[0.1416565328836441]], [[0.07480005919933319]], [[0.13894161581993103]], [[0.07759276032447815]], [[0.115961953997612]], [[-0.05676309019327164]], [[0.00038624758599326015]], [[-0.1562374085187912]], [[-0.04911091551184654]], [[0.11514502018690109]], [[0.20195752382278442]], [[-0.2097078263759613]], [[-0.4264070987701416]], [[0.41817307472229004]], [[-0.0948934257030487]], [[-0.001189572038128972]], [[-0.5406227111816406]], [[-0.08750920742750168]], [[0.11963705718517303]], [[-0.24985310435295105]], [[-0.05789956822991371]], [[-0.17260710895061493]], [[0.49990037083625793]], [[0.14405301213264465]], [[-0.14406920969486237]], [[0.08102699369192123]], [[0.06911729276180267]], [[-0.17135165631771088]], [[-0.13011062145233154]], [[-0.18333421647548676]], [[0.15589408576488495]], [[0.07272474467754364]], [[-0.13341674208641052]], [[-0.2249523252248764]], [[-0.2263205200433731]], [[-0.1516837775707245]], [[-0.4020122289657593]], [[-0.014736499637365341]], [[0.09467951208353043]], [[-0.11487831920385361]], [[-0.19108784198760986]], [[0.039672888815402985]], [[0.12515951693058014]], [[-0.11744894832372665]]], [[[-0.03132397681474686]], [[0.02140585146844387]], [[0.17268483340740204]], [[0.04056664556264877]], [[-0.04841071739792824]], [[0.31709927320480347]], [[0.1261826604604721]], [[0.04148329049348831]], [[0.15952380001544952]], [[0.1960594654083252]], [[-0.0008717834134586155]], [[0.3396168351173401]], [[0.061187732964754105]], [[-0.09804417937994003]], [[0.13902580738067627]], [[0.10606032609939575]], [[-0.04673847556114197]], [[0.199781596660614]], [[0.11843854188919067]], [[0.2966262996196747]], [[-0.1567973792552948]], [[0.19145403802394867]], [[0.052496299147605896]], [[0.035219527781009674]], [[0.04763089865446091]], [[0.014753364957869053]], [[-0.10739339888095856]], [[-0.03093273751437664]], [[0.14110302925109863]], [[0.09321252256631851]], [[0.21058085560798645]], [[-0.026462506502866745]], [[-0.05517149344086647]], [[0.06021184101700783]], [[0.10612672567367554]], [[0.019960930570960045]], [[0.1513986885547638]], [[0.19295614957809448]], [[-0.024028480052947998]], [[0.20499293506145477]], [[-0.09514836221933365]], [[0.021795589476823807]], [[0.0033096172846853733]], [[0.1265125721693039]], [[-0.14329291880130768]], [[-0.026007577776908875]], [[-0.38884761929512024]], [[0.2940177321434021]]], [[[-0.025249477475881577]], [[-0.03731435909867287]], [[0.27351102232933044]], [[-0.07557230442762375]], [[-0.1052379235625267]], [[0.023694027215242386]], [[0.00359169184230268]], [[-0.007699707522988319]], [[-0.019694583490490913]], [[-0.27302315831184387]], [[-0.054827168583869934]], [[-0.14449819922447205]], [[-0.10838405787944794]], [[-0.052439134567976]], [[0.28850963711738586]], [[-0.08130284398794174]], [[-0.05631910264492035]], [[-0.09902141988277435]], [[0.07082152366638184]], [[-0.13272543251514435]], [[0.11664190143346786]], [[0.10210330039262772]], [[0.09412756562232971]], [[-0.22465138137340546]], [[-0.11099283397197723]], [[-0.09872514754533768]], [[-0.13855619728565216]], [[-0.10609665513038635]], [[-0.0856839194893837]], [[-0.16254502534866333]], [[-0.17740732431411743]], [[-0.06175428628921509]], [[0.05924421176314354]], [[0.026257317513227463]], [[0.060097113251686096]], [[0.22006817162036896]], [[0.13397128880023956]], [[-0.15795597434043884]], [[-0.014416716061532497]], [[-0.33878374099731445]], [[-0.2454669028520584]], [[-0.4559742510318756]], [[-0.17742612957954407]], [[-0.061049919575452805]], [[0.11276117712259293]], [[0.1359434872865677]], [[-0.3600426912307739]], [[-0.39199867844581604]]], [[[-0.40017709136009216]], [[-0.09301222115755081]], [[0.007256675977259874]], [[-0.0725792944431305]], [[0.12164933234453201]], [[-0.14644643664360046]], [[-0.18275779485702515]], [[-0.058455582708120346]], [[0.05882313475012779]], [[-0.22939835488796234]], [[-0.05804803967475891]], [[-0.04589235410094261]], [[-0.10543642938137054]], [[0.0829053521156311]], [[-0.3176701068878174]], [[0.08985103666782379]], [[0.10515348613262177]], [[-0.1343712955713272]], [[-0.2747429609298706]], [[-0.040428437292575836]], [[-0.10524162650108337]], [[0.10382288694381714]], [[-0.2324410080909729]], [[0.10360736399888992]], [[0.19727860391139984]], [[-0.14488624036312103]], [[-0.08990930020809174]], [[-0.25533223152160645]], [[0.10745683312416077]], [[-0.20269550383090973]], [[0.06081691384315491]], [[0.1207050234079361]], [[0.06143321469426155]], [[-0.0731663778424263]], [[-0.17905056476593018]], [[0.023713786154985428]], [[-0.1178092435002327]], [[-0.38832682371139526]], [[-0.2604609429836273]], [[0.07558367401361465]], [[0.35207825899124146]], [[0.09478998929262161]], [[-0.041538678109645844]], [[0.5237520337104797]], [[-0.19197210669517517]], [[0.13696503639221191]], [[-0.39251798391342163]], [[0.17094887793064117]]], [[[0.009032501839101315]], [[0.10402372479438782]], [[-0.07042586803436279]], [[0.20223642885684967]], [[0.0005778836784884334]], [[-0.029680339619517326]], [[0.26944223046302795]], [[0.10787082463502884]], [[-0.10444016009569168]], [[-0.04085562005639076]], [[-0.06363329291343689]], [[0.01622176170349121]], [[-0.2145078331232071]], [[0.21626706421375275]], [[-0.07735051214694977]], [[-0.03908640146255493]], [[0.11112650483846664]], [[-0.14722807705402374]], [[0.02981548197567463]], [[-0.13625888526439667]], [[0.058343663811683655]], [[0.12880226969718933]], [[-0.05469472333788872]], [[-0.12472197413444519]], [[-0.013900763355195522]], [[-0.09525919705629349]], [[-0.001358306617476046]], [[0.0004901488428004086]], [[0.08796717971563339]], [[-0.08910103887319565]], [[-0.12276988476514816]], [[-0.05940765514969826]], [[0.042375124990940094]], [[-0.03382387384772301]], [[-0.03816117346286774]], [[-0.14172740280628204]], [[-0.04388079792261124]], [[-0.0778200700879097]], [[0.009638736955821514]], [[-0.06993203610181808]], [[0.006989571265876293]], [[-0.322380930185318]], [[0.07417048513889313]], [[-0.057663753628730774]], [[-0.22436626255512238]], [[-0.1337902545928955]], [[0.13538111746311188]], [[-0.205000638961792]]], [[[-0.1273191273212433]], [[0.10755667835474014]], [[0.035628002136945724]], [[-0.21603988111019135]], [[-0.061973687261343]], [[-0.0803423672914505]], [[-0.19280560314655304]], [[-0.027159463614225388]], [[-0.23546656966209412]], [[-0.3570876121520996]], [[-0.14294005930423737]], [[-0.18175649642944336]], [[-0.10642574727535248]], [[0.18176624178886414]], [[0.07399124652147293]], [[-0.04984654113650322]], [[-0.030371759086847305]], [[-0.5680106282234192]], [[-0.06820489466190338]], [[0.04813257232308388]], [[-0.11798248440027237]], [[0.11574146896600723]], [[0.06293794512748718]], [[-0.10127708315849304]], [[0.44332894682884216]], [[-0.34847283363342285]], [[0.023617606610059738]], [[0.09942089021205902]], [[0.04075929895043373]], [[0.20407623052597046]], [[-0.036948613822460175]], [[-0.2136390656232834]], [[-0.0914527028799057]], [[-0.3158625662326813]], [[-0.34577807784080505]], [[-0.08910302817821503]], [[-0.054085832089185715]], [[-0.06523994356393814]], [[0.2616121768951416]], [[-0.1425188183784485]], [[-0.20700135827064514]], [[-0.32294997572898865]], [[0.12790079414844513]], [[-0.2880074679851532]], [[0.029046427458524704]], [[0.13377416133880615]], [[0.12996776401996613]], [[-0.35868677496910095]]], [[[-0.3383639454841614]], [[0.12804968655109406]], [[0.16640564799308777]], [[-0.3504016101360321]], [[0.031059397384524345]], [[0.1848321110010147]], [[-0.46169739961624146]], [[0.0009535388089716434]], [[0.16878904402256012]], [[-0.2785697281360626]], [[0.27055683732032776]], [[0.24918712675571442]], [[0.0807877629995346]], [[0.2794910669326782]], [[0.028625179082155228]], [[0.1551615297794342]], [[0.32787108421325684]], [[0.029239045456051826]], [[0.02480083331465721]], [[0.14060847461223602]], [[0.29491135478019714]], [[0.3728730380535126]], [[0.20073699951171875]], [[0.1987539678812027]], [[0.5388463735580444]], [[0.09777815639972687]], [[-0.12029968202114105]], [[-0.09045415371656418]], [[0.1373273879289627]], [[0.025402260944247246]], [[0.30564412474632263]], [[0.27517446875572205]], [[0.2809910476207733]], [[-0.05380977317690849]], [[0.3945501148700714]], [[0.05143890529870987]], [[-0.00345495599322021]], [[0.46592897176742554]], [[0.056126900017261505]], [[-0.02921171486377716]], [[0.21607230603694916]], [[0.05609140545129776]], [[0.3842633068561554]], [[0.0681748241186142]], [[-0.05267554894089699]], [[0.22274555265903473]], [[0.07148303091526031]], [[0.09054464846849442]]], [[[-0.09891054779291153]], [[0.2798794209957123]], [[0.0394134595990181]], [[-0.44382643699645996]], [[0.17841912806034088]], [[0.05357500538229942]], [[-0.3899455666542053]], [[-0.1511157602071762]], [[0.21335725486278534]], [[-0.19673077762126923]], [[0.17472253739833832]], [[0.11803512275218964]], [[-0.0732182189822197]], [[0.1149861291050911]], [[-0.10531354695558548]], [[0.19022007286548615]], [[0.31308990716934204]], [[0.07134703546762466]], [[0.021129895001649857]], [[0.06760437786579132]], [[-0.1416921764612198]], [[0.062182214111089706]], [[-0.16616792976856232]], [[0.108793243765831]], [[0.2385059893131256]], [[-0.02270575799047947]], [[0.2919670641422272]], [[0.07188396155834198]], [[0.00403128145262599]], [[-0.14145797491073608]], [[0.14035753905773163]], [[-0.020519960671663284]], [[0.09746565669775009]], [[0.03900108486413956]], [[0.2648952007293701]], [[-0.3572067618370056]], [[0.18215133249759674]], [[0.4223420321941376]], [[0.012338726781308651]], [[0.07678909599781036]], [[0.212795689702034]], [[0.3150702714920044]], [[0.16553212702274323]], [[-0.14915397763252258]], [[-0.0354265496134758]], [[0.2664521038532257]], [[0.18714503943920135]], [[-0.46272534132003784]]], [[[0.11743025481700897]], [[0.4608289301395416]], [[-0.29215380549430847]], [[0.0673375055193901]], [[0.42350730299949646]], [[-0.23983582854270935]], [[-0.23426634073257446]], [[0.17564965784549713]], [[-0.28590863943099976]], [[0.010721893981099129]], [[0.19961079955101013]], [[-0.3937441110610962]], [[-0.033244360238313675]], [[0.25348562002182007]], [[-0.0439780093729496]], [[0.10388047248125076]], [[0.29018306732177734]], [[-0.4884680211544037]], [[0.11804670840501785]], [[-0.1816110610961914]], [[0.3588464558124542]], [[0.1305602490901947]], [[-0.4163359999656677]], [[0.30376845598220825]], [[-0.008893820457160473]], [[0.004650344140827656]], [[-0.2829533815383911]], [[0.05041569471359253]], [[0.17699724435806274]], [[-0.22440478205680847]], [[-0.02856922149658203]], [[0.19508804380893707]], [[-0.006342020351439714]], [[-0.1373720020055771]], [[0.0529225692152977]], [[-0.07494959980249405]], [[-0.08373237401247025]], [[0.10361911356449127]], [[-0.08347427099943161]], [[0.11379648000001907]], [[0.3543021082878113]], [[-0.22434285283088684]], [[0.16109991073608398]], [[0.20054271817207336]], [[0.14113260805606842]], [[0.018587518483400345]], [[0.15082092583179474]], [[0.07237296551465988]]], [[[0.01379714347422123]], [[-0.00241115503013134]], [[0.28092315793037415]], [[-0.12019949406385422]], [[0.0757480263710022]], [[0.0954149141907692]], [[0.09302940219640732]], [[-0.015607905574142933]], [[0.13342110812664032]], [[-0.1485428512096405]], [[0.11034366488456726]], [[0.20087291300296783]], [[-0.21747149527072906]], [[0.2527349293231964]], [[0.1424771398305893]], [[-0.23546014726161957]], [[-0.08671301603317261]], [[0.10355288535356522]], [[0.04793167859315872]], [[0.10039994865655899]], [[0.08269615471363068]], [[0.30422282218933105]], [[0.37813112139701843]], [[-0.002274511381983757]], [[-0.0009171601268462837]], [[-0.1481258124113083]], [[-0.09928593039512634]], [[0.07669530063867569]], [[0.06546411663293839]], [[0.06491073966026306]], [[0.13046886026859283]], [[0.0236606877297163]], [[0.003266793442890048]], [[0.11746229231357574]], [[0.031210316345095634]], [[0.11500145494937897]], [[0.023596156388521194]], [[0.026166124269366264]], [[0.20541200041770935]], [[-0.11739714443683624]], [[-0.09169559180736542]], [[0.07791433483362198]], [[0.08209077268838882]], [[-0.10126016288995743]], [[0.08730646222829819]], [[-0.00810003001242876]], [[0.36099129915237427]], [[0.08921202272176743]]], [[[0.1433161050081253]], [[0.06759826093912125]], [[-0.16211536526679993]], [[-0.26605817675590515]], [[0.024683210998773575]], [[-0.09643606096506119]], [[-0.12329573184251785]], [[-0.0501200407743454]], [[0.07670912146568298]], [[-0.17685212194919586]], [[0.03399204835295677]], [[0.31646493077278137]], [[-0.1485738754272461]], [[-0.02108459360897541]], [[0.27141040563583374]], [[-0.11366650462150574]], [[0.1929636001586914]], [[0.47745874524116516]], [[-0.23022837936878204]], [[-0.12094122916460037]], [[0.06238219514489174]], [[-0.1591433584690094]], [[-0.022216949611902237]], [[0.08564618229866028]], [[0.035483140498399734]], [[-0.16702505946159363]], [[0.058268286287784576]], [[-0.12418828159570694]], [[-0.17297175526618958]], [[-0.07350203394889832]], [[-0.03361272066831589]], [[0.2646856904029846]], [[0.30710911750793457]], [[-0.5133782029151917]], [[-0.04417872056365013]], [[0.11191041767597198]], [[-0.05331149324774742]], [[-0.0197038222104311]], [[0.024660909548401833]], [[-0.1362324059009552]], [[0.09134471416473389]], [[0.169559508562088]], [[0.16146427392959595]], [[-0.31411969661712646]], [[0.13607560098171234]], [[-0.17150558531284332]], [[-0.031151901930570602]], [[0.2832317650318146]]], [[[0.22579340636730194]], [[0.10709138214588165]], [[0.07567866146564484]], [[-0.23638486862182617]], [[0.21370594203472137]], [[-0.13433794677257538]], [[-0.012772336602210999]], [[0.11724435538053513]], [[0.11643943935632706]], [[-0.13649682700634003]], [[-0.05060958489775658]], [[-0.15633898973464966]], [[-0.28877538442611694]], [[-0.017691168934106827]], [[-0.536121129989624]], [[0.10632824152708054]], [[0.12915712594985962]], [[-0.09636113792657852]], [[-0.21462269127368927]], [[-0.004313938319683075]], [[0.09911847859621048]], [[0.23020052909851074]], [[0.17490068078041077]], [[0.0933615192770958]], [[-0.06452291458845139]], [[0.17236784100532532]], [[-0.12233986705541611]], [[-0.048475202172994614]], [[-0.08077580481767654]], [[-0.23045548796653748]], [[0.06287341564893723]], [[-0.10977480560541153]], [[-0.03220389410853386]], [[-0.21497505903244019]], [[0.16031669080257416]], [[0.04014703631401062]], [[0.011214365251362324]], [[-0.24616919457912445]], [[0.43478676676750183]], [[-0.16665764153003693]], [[0.42494305968284607]], [[-0.32360368967056274]], [[-0.24454812705516815]], [[0.1821715235710144]], [[-0.5227919220924377]], [[-0.06792327016592026]], [[-0.08383658528327942]], [[0.012055812403559685]]], [[[-0.34235331416130066]], [[0.2573963701725006]], [[-0.16921187937259674]], [[-0.22034522891044617]], [[0.09856713563203812]], [[-0.1072680726647377]], [[-0.10335894674062729]], [[-0.04888368025422096]], [[-0.0871410220861435]], [[-0.25528275966644287]], [[0.2445012331008911]], [[-0.18592730164527893]], [[-0.060496050864458084]], [[0.021764757111668587]], [[0.16018003225326538]], [[-0.057517245411872864]], [[-0.009989477694034576]], [[0.4835430383682251]], [[-0.011747884564101696]], [[-0.20821212232112885]], [[-0.34171605110168457]], [[0.02167421020567417]], [[0.07251282781362534]], [[-0.27022498846054077]], [[0.2059049904346466]], [[-0.061278533190488815]], [[-0.2948840856552124]], [[0.10670355707406998]], [[-0.15023601055145264]], [[-0.005188502836972475]], [[-0.11699220538139343]], [[0.3731566071510315]], [[-0.17087997496128082]], [[-0.07005958259105682]], [[-0.15041817724704742]], [[-0.0873824879527092]], [[-0.08064877241849899]], [[0.12751033902168274]], [[0.08527426421642303]], [[-0.2103644460439682]], [[0.0008705838117748499]], [[0.469432532787323]], [[0.18954750895500183]], [[-0.027931438758969307]], [[-0.005204385612159967]], [[-0.0532105378806591]], [[-0.04026142507791519]], [[0.046104781329631805]]], [[[-0.10566464811563492]], [[0.07351162284612656]], [[0.14876265823841095]], [[-0.04596470296382904]], [[-0.10828240215778351]], [[0.11092445254325867]], [[-0.029240598902106285]], [[0.04613954573869705]], [[-0.22886379063129425]], [[-0.192299023270607]], [[0.05348292365670204]], [[-0.07011301815509796]], [[0.3587932288646698]], [[-0.0564742237329483]], [[-0.13112445175647736]], [[-0.2970430850982666]], [[0.13762854039669037]], [[0.22078783810138702]], [[0.020246094092726707]], [[-0.07875428348779678]], [[-0.06571605056524277]], [[0.14435738325119019]], [[-0.24145522713661194]], [[-0.19041208922863007]], [[-0.022943677380681038]], [[0.2961159646511078]], [[-0.02076728455722332]], [[0.036954157054424286]], [[0.3366085886955261]], [[-0.11207040399312973]], [[-0.15067489445209503]], [[0.07216514647006989]], [[0.1706412136554718]], [[-0.029565760865807533]], [[0.2305375635623932]], [[0.08891611546278]], [[-0.13571211695671082]], [[-0.13776886463165283]], [[0.11815658211708069]], [[-0.14914639294147491]], [[0.15794041752815247]], [[-0.08919976651668549]], [[-0.23519790172576904]], [[0.3608345091342926]], [[0.05170181766152382]], [[-0.05126207694411278]], [[-0.6554723381996155]], [[-0.2795494496822357]]], [[[0.2313164472579956]], [[-0.05412537232041359]], [[-0.39158469438552856]], [[-0.12283728271722794]], [[-0.06477110087871552]], [[-0.09388177841901779]], [[-0.15970727801322937]], [[0.11423313617706299]], [[-0.17741082608699799]], [[-0.2497042417526245]], [[-0.033534254878759384]], [[-0.29822972416877747]], [[-0.40834346413612366]], [[-0.030141547322273254]], [[-0.1045563817024231]], [[0.13103576004505157]], [[0.04397757723927498]], [[0.01068275235593319]], [[-0.16295906901359558]], [[0.15374061465263367]], [[-0.11638760566711426]], [[-0.15358081459999084]], [[0.11319821327924728]], [[-0.09169934689998627]], [[0.18530616164207458]], [[-0.0013070165878161788]], [[0.35706374049186707]], [[0.19988523423671722]], [[0.09819355607032776]], [[-0.13896331191062927]], [[0.2757497727870941]], [[0.09790311008691788]], [[-0.0032387347891926765]], [[-0.08695990592241287]], [[-0.02996808849275112]], [[0.49899089336395264]], [[-0.0071748183108866215]], [[-0.39494189620018005]], [[-0.030271349474787712]], [[-0.13711363077163696]], [[-0.031390395015478134]], [[0.03664242476224899]], [[-0.28654301166534424]], [[0.18946567177772522]], [[-0.09700851142406464]], [[0.02625921554863453]], [[-0.40096431970596313]], [[-0.08122739940881729]]], [[[0.22916832566261292]], [[0.4071500897407532]], [[0.20439772307872772]], [[-0.08334275335073471]], [[0.17599624395370483]], [[0.29063212871551514]], [[0.22427263855934143]], [[0.03649219125509262]], [[0.35914739966392517]], [[-0.04064202308654785]], [[0.3630492687225342]], [[0.5527986288070679]], [[-0.06961117684841156]], [[0.3765852451324463]], [[0.3193358778953552]], [[-0.07879561930894852]], [[-0.402641624212265]], [[-0.005341302137821913]], [[0.0606597363948822]], [[0.4244800806045532]], [[0.26472291350364685]], [[-0.04877934232354164]], [[0.012744287960231304]], [[-0.3260226845741272]], [[-0.012172468937933445]], [[-0.38082146644592285]], [[-0.5706356763839722]], [[-0.08331760764122009]], [[0.2603188753128052]], [[0.13795723021030426]], [[0.05959048122167587]], [[-0.2499653697013855]], [[-0.19297228753566742]], [[-0.004139202646911144]], [[0.3500652313232422]], [[0.29900795221328735]], [[-0.19769151508808136]], [[0.2620951235294342]], [[0.16833315789699554]], [[0.06993912905454636]], [[-0.1473730355501175]], [[0.07342763990163803]], [[0.09061449021100998]], [[-0.11716911941766739]], [[0.2722373902797699]], [[0.05662434920668602]], [[-0.20322027802467346]], [[-0.23884901404380798]]], [[[-0.28772926330566406]], [[0.00033874742803163826]], [[-0.12671108543872833]], [[-0.226028710603714]], [[0.046496033668518066]], [[-0.0028106807731091976]], [[-0.17478510737419128]], [[-0.0799475833773613]], [[-0.013754114508628845]], [[-0.16311372816562653]], [[0.077612966299057]], [[-0.13641832768917084]], [[-0.08535369485616684]], [[-0.19060878455638885]], [[-0.1605597734451294]], [[0.2526859939098358]], [[0.06228238716721535]], [[0.05735631287097931]], [[-0.12114974856376648]], [[-0.4562394618988037]], [[-0.08934175223112106]], [[0.34727951884269714]], [[0.4114386737346649]], [[-0.14740906655788422]], [[-0.008910357020795345]], [[-0.183535635471344]], [[0.08529620617628098]], [[0.2627289593219757]], [[0.2594154477119446]], [[0.3769272565841675]], [[-0.07606504112482071]], [[0.2891257405281067]], [[-0.06544635444879532]], [[-0.22782860696315765]], [[0.024946745485067368]], [[0.15007157623767853]], [[-0.0987558662891388]], [[0.09307794272899628]], [[-0.05681798979640007]], [[0.0053584985435009]], [[-0.003096930682659149]], [[-0.03064665198326111]], [[0.19037273526191711]], [[-0.26779064536094666]], [[0.2646864354610443]], [[0.08141442388296127]], [[0.12947018444538116]], [[-0.17648082971572876]]], [[[0.06305838376283646]], [[0.1852262169122696]], [[0.043125346302986145]], [[0.1723944991827011]], [[0.05437375232577324]], [[0.14644278585910797]], [[-0.13999035954475403]], [[0.09903522580862045]], [[0.21299195289611816]], [[-0.15317003428936005]], [[-0.07793261110782623]], [[0.07553079724311829]], [[0.03210712596774101]], [[0.21045932173728943]], [[0.15451040863990784]], [[-0.08823602646589279]], [[0.06357984989881516]], [[0.18920780718326569]], [[-0.279397577047348]], [[0.03099389187991619]], [[0.06920262426137924]], [[0.20495136082172394]], [[0.07090547680854797]], [[0.4007386565208435]], [[-0.08525400608778]], [[0.19531936943531036]], [[-0.061348605901002884]], [[0.16628994047641754]], [[0.07188203930854797]], [[0.017983125522732735]], [[-0.0300406813621521]], [[-0.016104284673929214]], [[-0.0389508381485939]], [[0.01677427813410759]], [[0.0707746222615242]], [[0.06569734215736389]], [[-0.07115306705236435]], [[-0.035504914820194244]], [[-0.030679909512400627]], [[-0.09070578962564468]], [[0.15936370193958282]], [[0.0024340238887816668]], [[-0.0748792365193367]], [[-0.03669200465083122]], [[0.23533441126346588]], [[-0.06563379615545273]], [[0.01554882526397705]], [[0.20569093525409698]]], [[[-0.05139169842004776]], [[-0.22297877073287964]], [[-0.10251080244779587]], [[-0.017566867172718048]], [[-0.3074437975883484]], [[0.05536342412233353]], [[-0.004512792453169823]], [[-0.28533366322517395]], [[-0.05776963755488396]], [[-0.0948982685804367]], [[-0.2758790850639343]], [[-0.29640522599220276]], [[-0.028161782771348953]], [[0.030871905386447906]], [[-0.23436245322227478]], [[-0.027381286025047302]], [[0.0002619708830025047]], [[-0.338994562625885]], [[-0.14591187238693237]], [[-0.2758025527000427]], [[-0.21133464574813843]], [[-0.005156439263373613]], [[-0.09615873545408249]], [[-0.0636352002620697]], [[0.10167747735977173]], [[-0.0023636403493583202]], [[-0.1900767832994461]], [[-0.17095589637756348]], [[-0.2070680409669876]], [[-0.24702993035316467]], [[-0.17118382453918457]], [[-0.05539514124393463]], [[-0.5006273984909058]], [[-0.07701566070318222]], [[-0.4316329061985016]], [[-0.16046632826328278]], [[-0.056116800755262375]], [[-0.21260830760002136]], [[-0.21355471014976501]], [[-0.16230393946170807]], [[-0.4638967216014862]], [[-0.13855701684951782]], [[0.04498755931854248]], [[-0.10336606204509735]], [[-0.1417737752199173]], [[-0.065621018409729]], [[-0.36239349842071533]], [[-0.3087732195854187]]], [[[-0.1581355482339859]], [[0.15398326516151428]], [[-0.08185825496912003]], [[0.06931678205728531]], [[0.05130249634385109]], [[0.012376779690384865]], [[-0.16099105775356293]], [[0.043211180716753006]], [[-0.03227892145514488]], [[-0.10519866645336151]], [[0.14741471409797668]], [[0.12082074582576752]], [[-0.2941071093082428]], [[0.15070149302482605]], [[0.370251327753067]], [[0.012107796967029572]], [[0.001038718270137906]], [[0.025553125888109207]], [[-0.1646227389574051]], [[0.16304753720760345]], [[0.15685632824897766]], [[0.02379683218896389]], [[0.05472499504685402]], [[-0.011416403576731682]], [[0.14527712762355804]], [[-0.3828236758708954]], [[-0.343538373708725]], [[-0.03138582035899162]], [[0.32742124795913696]], [[0.2670942544937134]], [[0.055748309940099716]], [[-0.19152042269706726]], [[-0.28159457445144653]], [[0.08383263647556305]], [[0.13900405168533325]], [[-0.0752893015742302]], [[-0.2107628732919693]], [[0.5809367299079895]], [[0.19058704376220703]], [[-0.08229172974824905]], [[0.02470475807785988]], [[0.06824253499507904]], [[0.09844674170017242]], [[-0.192463681101799]], [[-0.1051081046462059]], [[-0.045581184327602386]], [[0.06176586076617241]], [[-0.0879865288734436]]], [[[-0.1202874556183815]], [[0.07010295242071152]], [[-0.41629499197006226]], [[-0.17932987213134766]], [[0.268699049949646]], [[-0.27829843759536743]], [[-0.21581372618675232]], [[0.010568596422672272]], [[-0.03465750813484192]], [[-0.2368982881307602]], [[-0.04146317392587662]], [[-0.147671639919281]], [[0.0336676687002182]], [[-0.3117799162864685]], [[-0.18612058460712433]], [[0.1793442964553833]], [[-0.27267539501190186]], [[-0.25712573528289795]], [[-0.028327563777565956]], [[-0.1394393891096115]], [[-0.09789372235536575]], [[0.3810916841030121]], [[-0.2178318053483963]], [[0.07716630399227142]], [[0.29011794924736023]], [[-0.022466890513896942]], [[0.23281697928905487]], [[0.05372559279203415]], [[-0.17048780620098114]], [[-0.029208481311798096]], [[0.10920307785272598]], [[-0.08746552467346191]], [[-0.17583471536636353]], [[-0.01480813231319189]], [[-0.21726204454898834]], [[-0.4417893886566162]], [[0.12340953201055527]], [[-0.1233597844839096]], [[-0.26058337092399597]], [[0.09709718823432922]], [[0.05565212666988373]], [[0.2325362116098404]], [[0.17375224828720093]], [[-0.1080087274312973]], [[-0.42212820053100586]], [[0.3089664578437805]], [[-0.1891918033361435]], [[-0.39144790172576904]]], [[[-0.51425701379776]], [[0.17024372518062592]], [[0.01985195092856884]], [[-0.02719631977379322]], [[0.27017804980278015]], [[0.09858056157827377]], [[0.002998084994032979]], [[0.2532726228237152]], [[-0.02593429945409298]], [[-0.13819044828414917]], [[0.038097064942121506]], [[0.01142449676990509]], [[0.04401204735040665]], [[-0.13801032304763794]], [[0.07033932209014893]], [[0.020474784076213837]], [[-0.13564513623714447]], [[0.33906057476997375]], [[-0.03929956257343292]], [[-0.05162784084677696]], [[-0.08128844201564789]], [[0.09842213988304138]], [[-0.2284092754125595]], [[-0.22678332030773163]], [[0.015414228662848473]], [[-0.3039347529411316]], [[0.1437249630689621]], [[-0.2857164740562439]], [[0.3052862882614136]], [[-0.19324693083763123]], [[0.13427500426769257]], [[0.15287041664123535]], [[0.05453253164887428]], [[-0.07614269107580185]], [[0.2265743613243103]], [[-0.30885905027389526]], [[-0.2254839837551117]], [[-0.1779409497976303]], [[-0.07940603792667389]], [[-0.19644999504089355]], [[-0.016598321497440338]], [[-0.23143494129180908]], [[-0.11167658120393753]], [[0.30495959520339966]], [[-0.013414225541055202]], [[-0.14233967661857605]], [[0.240377277135849]], [[-0.15917490422725677]]], [[[-0.22409257292747498]], [[0.03599275276064873]], [[0.013250981457531452]], [[-0.3743002414703369]], [[-0.09294141083955765]], [[-0.1708439737558365]], [[-0.3159029483795166]], [[-0.3290490508079529]], [[-0.06432214379310608]], [[-0.08930253237485886]], [[-0.17423272132873535]], [[-0.0879928469657898]], [[-0.06108653545379639]], [[-0.019643116742372513]], [[0.15627875924110413]], [[0.18482236564159393]], [[0.03484058007597923]], [[0.10939353704452515]], [[-0.039431821554899216]], [[0.2435610294342041]], [[0.0993097722530365]], [[-1.4906177057127934e-05]], [[-0.0003737569786608219]], [[0.06953391432762146]], [[0.028123777359724045]], [[0.007069810293614864]], [[-0.05606992542743683]], [[-0.060105275362730026]], [[-0.12327540665864944]], [[-0.2890509366989136]], [[0.17036491632461548]], [[-0.20309917628765106]], [[0.24880307912826538]], [[0.06726040691137314]], [[0.0016694533405825496]], [[-0.12414617836475372]], [[0.11307936906814575]], [[0.3431858718395233]], [[0.0628381073474884]], [[0.0765455961227417]], [[0.11280058324337006]], [[-0.28288784623146057]], [[0.1374635249376297]], [[-0.406540185213089]], [[0.1835068017244339]], [[-0.08134105056524277]], [[-0.32445600628852844]], [[-0.21286194026470184]]], [[[-0.17765817046165466]], [[-0.06726791709661484]], [[0.060524359345436096]], [[-0.20722775161266327]], [[-0.13131798803806305]], [[0.1647467464208603]], [[-0.1176614835858345]], [[-0.27753129601478577]], [[0.34326067566871643]], [[-0.14790770411491394]], [[-0.12693668901920319]], [[0.3117431104183197]], [[-0.2929309606552124]], [[0.4134799838066101]], [[0.06767157465219498]], [[-0.03323087468743324]], [[-0.09274239093065262]], [[-0.2179592102766037]], [[-0.014242954552173615]], [[-0.017058642581105232]], [[-0.023249752819538116]], [[0.23598873615264893]], [[-0.1528170108795166]], [[-0.18529805541038513]], [[0.2561260461807251]], [[0.01219285186380148]], [[-0.1318914145231247]], [[-0.11600678414106369]], [[-0.17671062052249908]], [[-0.03591502830386162]], [[0.13781403005123138]], [[-0.18955081701278687]], [[-0.25406795740127563]], [[-0.19780851900577545]], [[-0.21724854409694672]], [[0.08642091602087021]], [[-0.24209481477737427]], [[0.04652369022369385]], [[0.20971007645130157]], [[0.018413538113236427]], [[-0.3764842450618744]], [[-0.1457570195198059]], [[0.23360538482666016]], [[-0.11147302389144897]], [[-0.3308468759059906]], [[0.16063305735588074]], [[0.02983381599187851]], [[-0.2127748727798462]]], [[[-0.10840011388063431]], [[0.26988789439201355]], [[-0.13846531510353088]], [[-0.18715398013591766]], [[0.0900232121348381]], [[-0.02767590619623661]], [[0.01617966964840889]], [[0.10263015329837799]], [[0.010110458359122276]], [[-0.028105493634939194]], [[-0.06565872579813004]], [[0.16931401193141937]], [[-0.13307136297225952]], [[0.010853564366698265]], [[0.35181596875190735]], [[-0.0680461898446083]], [[0.02215726673603058]], [[0.3647395074367523]], [[-0.08770870417356491]], [[-0.5008295178413391]], [[0.1637907475233078]], [[0.07006591558456421]], [[0.23435796797275543]], [[-0.2346230000257492]], [[0.10450997203588486]], [[0.07089880853891373]], [[-0.06013381853699684]], [[-0.17928457260131836]], [[-0.3089228570461273]], [[-0.1069348081946373]], [[0.21393617987632751]], [[0.4615113437175751]], [[-0.09328259527683258]], [[-0.09048264473676682]], [[-0.11536311358213425]], [[-0.2983763515949249]], [[-0.24446028470993042]], [[0.14098528027534485]], [[-0.3448527753353119]], [[0.12355902791023254]], [[-0.2953651249408722]], [[0.35829347372055054]], [[0.03802289068698883]], [[0.02591545134782791]], [[0.031436190009117126]], [[0.03853631392121315]], [[0.466642826795578]], [[0.20645520091056824]]], [[[0.056564271450042725]], [[-0.054369814693927765]], [[0.03023095801472664]], [[-0.16930414736270905]], [[-0.10582084953784943]], [[0.2084062695503235]], [[-0.34751299023628235]], [[0.0676179900765419]], [[0.1081278920173645]], [[-0.10802977532148361]], [[-0.22278788685798645]], [[0.18715885281562805]], [[-0.1713520884513855]], [[-0.2796408236026764]], [[0.11451303213834763]], [[0.05706608667969704]], [[-0.2927495539188385]], [[0.12080162763595581]], [[-0.1509835124015808]], [[-0.36566078662872314]], [[0.013095843605697155]], [[0.012202381156384945]], [[-0.3661113977432251]], [[0.03048727661371231]], [[-0.0664735659956932]], [[-0.3197912871837616]], [[-0.13764527440071106]], [[-0.30576348304748535]], [[-0.06657037883996964]], [[0.2069835066795349]], [[0.07532437145709991]], [[0.23816563189029694]], [[0.3370485007762909]], [[-0.19065572321414948]], [[-0.2680109441280365]], [[0.48122110962867737]], [[-0.34027427434921265]], [[-0.2312682420015335]], [[-0.07613436877727509]], [[-0.08811333030462265]], [[-0.011685555800795555]], [[0.0871286615729332]], [[-0.11595240235328674]], [[-0.026138311251997948]], [[0.18017101287841797]], [[0.1455596536397934]], [[-0.7041593194007874]], [[-0.11855611205101013]]], [[[-0.3773670196533203]], [[0.19398029148578644]], [[0.0355033278465271]], [[-0.1950204223394394]], [[0.17848458886146545]], [[-0.0731036588549614]], [[-0.49218788743019104]], [[0.1484164446592331]], [[-0.1432681828737259]], [[-0.04378902539610863]], [[0.07537635415792465]], [[-0.07271692901849747]], [[0.2551712691783905]], [[0.12071074545383453]], [[0.1626110076904297]], [[0.1492752879858017]], [[0.1133807972073555]], [[0.013899100013077259]], [[0.11932511627674103]], [[-0.02285715751349926]], [[0.24824482202529907]], [[0.25993862748146057]], [[-0.4114668667316437]], [[0.251522034406662]], [[0.4179019033908844]], [[0.03716358542442322]], [[-0.07384595274925232]], [[0.032928116619586945]], [[0.17852486670017242]], [[0.04501080513000488]], [[0.4091808497905731]], [[0.3569641411304474]], [[0.18811319768428802]], [[0.14819104969501495]], [[0.1720634251832962]], [[0.1362389624118805]], [[0.12178262323141098]], [[0.066583052277565]], [[0.07957176864147186]], [[-0.16210420429706573]], [[-0.036129601299762726]], [[0.18280167877674103]], [[0.3999161422252655]], [[0.07462351024150848]], [[-0.1956331729888916]], [[0.4334339499473572]], [[0.31638577580451965]], [[0.23050522804260254]]], [[[0.24301157891750336]], [[0.13262969255447388]], [[0.014354068785905838]], [[-0.03867007791996002]], [[0.06825315952301025]], [[-0.07532745599746704]], [[-0.0713486298918724]], [[-0.10723116993904114]], [[-0.18983860313892365]], [[0.16969618201255798]], [[-0.05043001100420952]], [[-0.06671108305454254]], [[0.020075736567378044]], [[0.049610868096351624]], [[0.019459210336208344]], [[0.2331058233976364]], [[0.27112507820129395]], [[-0.1671953797340393]], [[0.1426628679037094]], [[-0.16545449197292328]], [[-0.13858118653297424]], [[0.1170860081911087]], [[0.16365760564804077]], [[0.18059024214744568]], [[0.13829772174358368]], [[0.07364804297685623]], [[0.10716082155704498]], [[0.16375060379505157]], [[-0.014021373353898525]], [[-0.035349924117326736]], 