{"channel_n": 16, "hidden_n": 128, "fire_rate": 0.5, "alpha_channel": 3, "living_threshold": 0.1, "identity_kernel": [[0.0, 0.0, 0.0], [0.0, 1.0, 0.0], [0.0, 0.0, 0.0]], "dx_kernel": [[-0.125, 0.0, 0.125], [-0.25, 0.0, 0.25], [-0.125, 0.0, 0.125]], "dy_kernel": [[-0.125, -0.25, -0.125], [0.0, 0.0, 0.0], [0.125, 0.25, 0.125]], "conv1_weight": [[[[0.04327555000782013]], [[0.180515319108963]], [[-0.40359219908714294]], [[-0.08338869363069534]], [[-0.021757200360298157]], [[0.07278474420309067]], [[-0.013579510152339935]], [[0.015475851483643055]], [[-0.15300236642360687]], [[0.018052756786346436]], [[-0.15427187085151672]], [[0.017350099980831146]], [[-0.11900842189788818]], [[-0.2981399893760681]], [[-0.4934810996055603]], [[-0.057901736348867416]], [[0.010854250751435757]], [[0.20287510752677917]], [[-0.23567302525043488]], [[-0.12733213603496552]], [[0.03360505402088165]], [[0.05606887489557266]], [[-0.380710631608963]], [[-0.19686414301395416]], [[0.01347210630774498]], [[-0.0964893326163292]], [[0.03196768835186958]], [[-0.18605853617191315]], [[-0.2581223249435425]], [[-0.03674352914094925]], [[-0.09509456157684326]], [[-0.3272540867328644]], [[-0.3085235357284546]], [[-0.14400167763233185]], [[-0.2836909592151642]], [[-0.47947293519973755]], [[-0.15849877893924713]], [[0.08338453620672226]], [[0.24989448487758636]], [[-0.08209063857793808]], [[-0.3028620779514313]], [[-0.16492986679077148]], [[0.057460371404886246]], [[-0.2803780734539032]], [[-0.45576491951942444]], [[-0.07336316257715225]], [[-0.09355491399765015]], [[-0.3428860008716583]]], [[[-0.3671228587627411]], [[-0.05835364758968353]], [[-0.1532195657491684]], [[0.5544801354408264]], [[0.002358084311708808]], [[0.049322083592414856]], [[-0.027868134900927544]], [[-0.2557702660560608]], [[-0.24394884705543518]], [[-0.40540292859077454]], [[-0.08934856951236725]], [[-0.003439707448706031]], [[-0.08392716944217682]], [[-0.11337899416685104]], [[-0.08066970854997635]], [[-0.03032754920423031]], [[-0.032912544906139374]], [[0.0366843044757843]], [[0.10332886874675751]], [[-0.11169927567243576]], [[-0.10307727754116058]], [[0.09087860584259033]], [[-0.07492851465940475]], [[-0.002622890518978238]], [[-0.06354917585849762]], [[0.16988898813724518]], [[0.03713315725326538]], [[0.0464012585580349]], [[-0.024774789810180664]], [[0.1345047801733017]], [[0.002123210346326232]], [[-0.11357075721025467]], [[0.025835081934928894]], [[0.021442363038659096]], [[-0.027783753350377083]], [[-0.12426415085792542]], [[0.10281160473823547]], [[-0.07328438013792038]], [[-0.11358556151390076]], [[-0.20200644433498383]], [[0.1207614317536354]], [[0.12410900741815567]], [[0.11060941964387894]], [[0.10889746248722076]], [[0.08313457667827606]], [[0.02647320181131363]], [[-0.04114370048046112]], [[-0.15805558860301971]]], [[[0.3948577046394348]], [[0.39893341064453125]], [[-0.20099009573459625]], [[-0.11891233921051025]], [[0.1969316303730011]], [[-0.05170385539531708]], [[-0.16176053881645203]], [[-0.12343937903642654]], [[-0.25333404541015625]], [[-0.043630387634038925]], [[-0.09661311656236649]], [[-0.27622291445732117]], [[-0.19234977662563324]], [[0.32919076085090637]], [[0.20772585272789001]], [[0.04608297348022461]], [[0.208333820104599]], [[0.27917978167533875]], [[-0.14543765783309937]], [[-0.4355792999267578]], [[-0.6120669841766357]], [[-0.0680086761713028]], [[-0.11946763843297958]], [[-0.025709308683872223]], [[0.029981881380081177]], [[-0.052058424800634384]], [[-0.04714339226484299]], [[-0.08190743625164032]], [[-0.4783972203731537]], [[-0.15399356186389923]], [[-0.07677409052848816]], [[0.12972933053970337]], [[-0.2901795506477356]], [[-0.1807631403207779]], [[-0.05071030557155609]], [[-0.23437486588954926]], [[-0.024535033851861954]], [[0.030230630189180374]], [[0.31549498438835144]], [[-0.014985274523496628]], [[-0.15112923085689545]], [[-0.14057354629039764]], [[0.01424346398562193]], [[-0.037191521376371384]], [[-0.1635892391204834]], [[-0.06628398597240448]], [[0.3718181252479553]], [[0.05729539692401886]]], [[[-0.175208181142807]], [[-0.02632913738489151]], [[0.11694246530532837]], [[-0.08066734671592712]], [[0.25647953152656555]], [[-0.08751243352890015]], [[-0.12976522743701935]], [[-0.41578373312950134]], [[0.3341406285762787]], [[-0.08252065628767014]], [[0.3925444483757019]], [[-0.1546139270067215]], [[0.024125738069415092]], [[-0.13698787987232208]], [[-0.01968833990395069]], [[-0.16836871206760406]], [[0.07362934947013855]], [[0.016583872959017754]], [[-0.29586148262023926]], [[0.0036389881279319525]], [[-0.17650003731250763]], [[0.017907235771417618]], [[0.2556593418121338]], [[0.01343001052737236]], [[-0.17124640941619873]], [[0.005995931103825569]], [[0.16231919825077057]], [[-0.17454461753368378]], [[0.3742254972457886]], [[-0.041344884783029556]], [[-0.1927529126405716]], [[0.3341217637062073]], [[-0.4450327157974243]], [[-0.17065012454986572]], [[0.18763071298599243]], [[-0.024156156927347183]], [[0.006842561531811953]], [[0.010271946899592876]], [[-0.14945320785045624]], [[-0.09024091064929962]], [[0.271137535572052]], [[0.13788969814777374]], [[-0.11431027203798294]], [[-0.2612224519252777]], [[-0.16711871325969696]], [[-0.07329365611076355]], [[0.0686948373913765]], [[0.18924790620803833]]], [[[-1.2139499187469482]], [[-0.2611808478832245]], [[-0.0058961170725524426]], [[-0.09817933291196823]], [[0.03268713876605034]], [[0.15319283306598663]], [[-0.26510724425315857]], [[0.008468697778880596]], [[-0.11289887130260468]], [[0.08669038116931915]], [[-0.1149834394454956]], [[0.08012982457876205]], [[-0.17118635773658752]], [[-0.16981074213981628]], [[0.06751112639904022]], [[0.03000538796186447]], [[-0.07432201504707336]], [[0.17326460778713226]], [[-0.09496019035577774]], [[-0.08850103616714478]], [[-0.14168082177639008]], [[0.01167826633900404]], [[0.09796970337629318]], [[-0.01857854053378105]], [[-0.06550147384405136]], [[-0.4285547733306885]], [[0.21575655043125153]], [[-0.1771569699048996]], [[-0.1046668142080307]], [[0.25671064853668213]], [[-0.012523424811661243]], [[-0.09997793287038803]], [[0.1015031486749649]], [[-0.07396699488162994]], [[-0.2934129238128662]], [[-0.04126191884279251]], [[-0.08081484586000443]], [[-0.2624635100364685]], [[0.3264288902282715]], [[-0.08394622802734375]], [[-0.039611633867025375]], [[0.19350065290927887]], [[-0.031499046832323074]], [[-0.24612590670585632]], [[0.13323840498924255]], [[-0.1103392019867897]], [[-0.0504535473883152]], [[0.12356184422969818]]], [[[0.18994785845279694]], [[0.12215008586645126]], [[-0.44105666875839233]], [[0.027450770139694214]], [[-0.06647710502147675]], [[-0.1666382998228073]], [[0.11893343925476074]], [[-0.02363256923854351]], [[-0.08928646147251129]], [[-0.037236545234918594]], [[-0.19185388088226318]], [[0.19448760151863098]], [[0.2351270318031311]], [[0.01906902901828289]], [[-0.20348681509494781]], [[-0.11360771209001541]], [[-0.09913747757673264]], [[0.08729100227355957]], [[-0.16131481528282166]], [[-0.13433608412742615]], [[-0.18751516938209534]], [[0.07093500345945358]], [[-0.02616099640727043]], [[0.03626430779695511]], [[0.052369438111782074]], [[0.0993504673242569]], [[-0.05767771974205971]], [[-0.08559311181306839]], [[0.025564108043909073]], [[-0.24313999712467194]], [[0.01869296096265316]], [[-0.12961845099925995]], [[-0.2920553386211395]], [[-0.023751165717840195]], [[-0.19199533760547638]], [[-0.1749340295791626]], [[0.20803214609622955]], [[0.34234383702278137]], [[-0.13837239146232605]], [[-0.03195975348353386]], [[-0.08509522676467896]], [[-0.36891767382621765]], [[-0.2018793374300003]], [[-0.06580741703510284]], [[0.07851804047822952]], [[-0.03733661398291588]], [[-0.030368730425834656]], [[0.24387940764427185]]], [[[-0.07620816677808762]], [[-0.0733804926276207]], [[-0.1323535442352295]], [[0.1743602603673935]], [[0.30791786313056946]], [[-0.05436946451663971]], [[0.04864179342985153]], [[-0.29748615622520447]], [[0.049963872879743576]], [[-0.0640169009566307]], [[0.14615514874458313]], [[0.0326826311647892]], [[0.1518251597881317]], [[0.15838156640529633]], [[0.11761343479156494]], [[-0.1799681931734085]], [[0.0878826454281807]], [[0.06273213773965836]], [[-0.12525294721126556]], [[0.22561316192150116]], [[0.4130720794200897]], [[0.14064155519008636]], [[0.047899067401885986]], [[0.07932013273239136]], [[0.12030177563428879]], [[-0.07936440408229828]], [[0.19504477083683014]], [[-0.047174155712127686]], [[-0.2612868547439575]], [[-0.11740138381719589]], [[0.07035741955041885]], [[-0.31424379348754883]], [[0.07990069687366486]], [[0.02155807800590992]], [[-0.155454620718956]], [[-0.04456377029418945]], [[-0.08880186825990677]], [[0.002481329720467329]], [[0.27283790707588196]], [[0.2856426239013672]], [[-0.05415847525000572]], [[-0.05238160863518715]], [[-0.151838019490242]], [[-0.5323110222816467]], [[-0.08837982267141342]], [[-0.05169319361448288]], [[-0.4462587833404541]], [[-0.455488383769989]]], [[[0.04986217990517616]], [[-0.0072039891965687275]], [[0.6543945074081421]], [[0.02950316295027733]], [[-0.1039934903383255]], [[-0.0039158654399216175]], [[0.11923275142908096]], [[0.21321937441825867]], [[0.1286734938621521]], [[0.09434608370065689]], [[0.0699363648891449]], [[0.06004706397652626]], [[-0.24401231110095978]], [[0.17360831797122955]], [[-0.26556017994880676]], [[0.0027466563042253256]], [[-0.01911664381623268]], [[-0.09239080548286438]], [[0.10780314356088638]], [[-0.06066756695508957]], [[0.21409296989440918]], [[0.035702962428331375]], [[-0.059694673866033554]], [[-0.12078361213207245]], [[-0.13941673934459686]], [[0.043519556522369385]], [[-0.32465916872024536]], [[0.0702655240893364]], [[0.06746426969766617]], [[-0.0764274075627327]], [[0.1954246610403061]], [[0.06821630895137787]], [[-0.3470434248447418]], [[-0.09051023423671722]], [[-0.07864628732204437]], [[0.4257151186466217]], [[-0.17988690733909607]], [[-0.20078812539577484]], [[0.005205437541007996]], [[-0.10312338173389435]], [[-0.08749452233314514]], [[0.12212496995925903]], [[0.19375096261501312]], [[-0.0008601674344390631]], [[0.22252507507801056]], [[-0.09471144527196884]], [[0.1654793918132782]], [[0.36489641666412354]]], [[[0.13112425804138184]], [[0.14663156867027283]], [[0.1778905838727951]], [[0.027760250493884087]], [[0.0803002342581749]], [[0.13353781402111053]], [[0.006278568878769875]], [[-0.25350332260131836]], [[0.1664261519908905]], [[-0.11876685172319412]], [[-0.16136983036994934]], [[0.27515414357185364]], [[0.13474206626415253]], [[-0.13833963871002197]], [[-0.1494453251361847]], [[0.11219710111618042]], [[0.30757755041122437]], [[-0.29171860218048096]], [[-0.005487097427248955]], [[0.08725468814373016]], [[0.38825109601020813]], [[0.01897822879254818]], [[0.08715158700942993]], [[-0.020041722804307938]], [[0.30824217200279236]], [[-0.030341429635882378]], [[-0.06015392392873764]], [[-0.08903609961271286]], [[0.1641889363527298]], [[-0.019025934860110283]], [[-0.13383068144321442]], [[-0.0955912321805954]], [[-0.1634777933359146]], [[-0.05330783873796463]], [[-0.10550469160079956]], [[0.23141752183437347]], [[0.15193578600883484]], [[-0.14702193439006805]], [[0.061364252120256424]], [[-0.15669161081314087]], [[0.284584105014801]], [[-0.11651115864515305]], [[-0.10431133210659027]], [[-0.2627773582935333]], [[-0.03781767189502716]], [[0.02694590389728546]], [[0.1767391562461853]], [[0.24974820017814636]]], [[[0.13806825876235962]], [[-0.28739210963249207]], [[0.009101792238652706]], [[-0.05765162780880928]], [[-0.020424814894795418]], [[-0.3126319944858551]], [[0.007369074039161205]], [[-0.24391084909439087]], [[-0.42400413751602173]], [[-0.19930419325828552]], [[-0.038702186197042465]], [[-0.0504220649600029]], [[-0.195959210395813]], [[-0.0730980783700943]], [[-0.26902446150779724]], [[-0.24491481482982635]], [[0.013909153640270233]], [[-0.2325645536184311]], [[-0.07974614948034286]], [[0.03939926251769066]], [[0.1764242798089981]], [[0.13217531144618988]], [[0.03583991155028343]], [[-0.09220311045646667]], [[0.030504697933793068]], [[-0.27327224612236023]], [[-0.14992623031139374]], [[0.024569539353251457]], [[-0.3198288083076477]], [[-0.1510302722454071]], [[-0.012988009490072727]], [[0.06735869497060776]], [[0.21331308782100677]], [[-0.015001771040260792]], [[-0.19226232171058655]], [[-0.2404610514640808]], [[-0.04530775547027588]], [[-0.4146142601966858]], [[0.0318191759288311]], [[0.2833029627799988]], [[-0.02349546179175377]], [[-0.1020241379737854]], [[0.19695882499217987]], [[-0.3797953724861145]], [[0.07963878661394119]], [[0.10981903970241547]], [[-0.16810211539268494]], [[-0.4139893352985382]]], [[[-0.3348067104816437]], [[0.22135859727859497]], [[-0.22949661314487457]], [[-0.07246900349855423]], [[-0.05449506267905235]], [[0.23184610903263092]], [[0.3755815625190735]], [[-0.04140055179595947]], [[-0.07066097110509872]], [[-0.2587398588657379]], [[0.036391645669937134]], [[0.15267182886600494]], [[-0.0037812506780028343]], [[-0.10035008937120438]], [[0.19345486164093018]], [[-0.11022944748401642]], [[0.04866786301136017]], [[0.17597414553165436]], [[0.12522278726100922]], [[0.06285859644412994]], [[0.049456726759672165]], [[0.06888671964406967]], [[0.23406770825386047]], [[-0.24779896438121796]], [[0.07465855777263641]], [[-0.06244860216975212]], [[-0.1690908670425415]], [[-0.05950858071446419]], [[-0.10396154224872589]], [[0.07626890391111374]], [[0.018823126330971718]], [[0.25490888953208923]], [[0.15373548865318298]], [[0.03952178731560707]], [[0.09207721054553986]], [[0.329717755317688]], [[-0.1905868798494339]], [[0.15503127872943878]], [[0.09007052332162857]], [[-0.17711782455444336]], [[0.03470990061759949]], [[0.2906542420387268]], [[0.11406342685222626]], [[0.052020229399204254]], [[0.12151987105607986]], [[-0.08720457553863525]], [[0.1419905424118042]], [[0.1456516534090042]]], [[[0.1167088970541954]], [[-0.34555724263191223]], [[0.2833286225795746]], [[0.02943911775946617]], [[-0.008426116779446602]], [[-0.15975706279277802]], [[-0.17423631250858307]], [[-0.1344243437051773]], [[-0.14196468889713287]], [[-0.23117966949939728]], [[0.03142461180686951]], [[-0.012423579581081867]], [[-0.12963911890983582]], [[0.10647168755531311]], [[0.03878817707300186]], [[-0.037757910788059235]], [[-0.2690105438232422]], [[-0.32933568954467773]], [[-0.22071972489356995]], [[-0.31188127398490906]], [[-0.2672513425350189]], [[-0.06995698064565659]], [[0.11449985206127167]], [[0.29540130496025085]], [[0.30840253829956055]], [[0.34291088581085205]], [[-0.33600369095802307]], [[0.0008623615140095353]], [[-0.2622869312763214]], [[0.12097129225730896]], [[-0.23352248966693878]], [[0.2008739411830902]], [[-0.17791925370693207]], [[-0.3677176535129547]], [[-0.14914855360984802]], [[0.14186063408851624]], [[0.1502227634191513]], [[0.3183528780937195]], [[-0.32560375332832336]], [[-0.053996894508600235]], [[-0.2324506938457489]], [[0.14023709297180176]], [[0.3358491063117981]], [[-0.2269156128168106]], [[0.16944068670272827]], [[-0.05889878422021866]], [[0.06739978492259979]], [[-0.0382021889090538]]], [[[0.06206115335226059]], [[-0.0655868873000145]], [[0.3145225942134857]], [[0.12340441346168518]], [[0.07549813389778137]], [[-0.19168704748153687]], [[-0.20535290241241455]], [[-0.3111068308353424]], [[0.2738191485404968]], [[-0.14126016199588776]], [[0.22101624310016632]], [[0.06491110473871231]], [[0.08313324302434921]], [[0.11745886504650116]], [[0.07484113425016403]], [[-0.1158113032579422]], [[-0.325987309217453]], [[0.11361508071422577]], [[-0.08567003160715103]], [[0.17358629405498505]], [[-0.2890278398990631]], [[0.12623518705368042]], [[0.36611393094062805]], [[0.07211426645517349]], [[-0.2988019287586212]], [[-0.3549058139324188]], [[-0.49532565474510193]], [[0.11733183264732361]], [[0.27094629406929016]], [[-0.1533595323562622]], [[0.14710360765457153]], [[0.06736364215612411]], [[-0.14459499716758728]], [[-0.19145162403583527]], [[0.010724670253694057]], [[-0.26895755529403687]], [[0.19153906404972076]], [[0.0746934711933136]], [[-0.463142991065979]], [[0.22881153225898743]], [[-0.13318057358264923]], [[0.031582288444042206]], [[0.12684336304664612]], [[-0.14149706065654755]], [[-0.1758844256401062]], [[0.13252395391464233]], [[0.0423889122903347]], [[-0.4233833849430084]]], [[[0.05662247911095619]], [[-0.26781710982322693]], [[0.021813970059156418]], [[-0.06083756685256958]], [[-0.19299615919589996]], [[-0.11176515370607376]], [[0.06636518239974976]], [[0.027060553431510925]], [[0.008183382451534271]], [[0.04626676067709923]], [[0.1328955739736557]], [[-0.05013854429125786]], [[0.08773688971996307]], [[-0.226528599858284]], [[-0.10227875411510468]], [[0.115732342004776]], [[0.020787963643670082]], [[0.2305726259946823]], [[0.0961320623755455]], [[0.01253221370279789]], [[-0.2933416962623596]], [[0.16927364468574524]], [[-0.40998575091362]], [[-0.054732464253902435]], [[-0.06833472847938538]], [[-0.06846840679645538]], [[0.24077768623828888]], [[-0.14044931530952454]], [[-0.08200130611658096]], [[-0.23089540004730225]], [[-0.07589269429445267]], [[-0.14914357662200928]], [[-0.4606742858886719]], [[0.08744508028030396]], [[-0.17084777355194092]], [[-0.15246880054473877]], [[0.035758618265390396]], [[-0.08344567567110062]], [[0.334112286567688]], [[-0.15609373152256012]], [[-0.06178373843431473]], [[-0.09541422128677368]], [[-0.1465461403131485]], [[0.11026186496019363]], [[0.010406115092337132]], [[0.058752454817295074]], [[-0.03560357913374901]], [[0.4045489430427551]]], [[[-0.25535714626312256]], [[0.3156096041202545]], [[-0.0965833067893982]], [[0.11299322545528412]], [[-0.05861195921897888]], [[0.056575559079647064]], [[0.22113153338432312]], [[-0.09359344840049744]], [[0.15114639699459076]], [[-0.10715851187705994]], [[0.02618933469057083]], [[0.10984204709529877]], [[-0.07049151510000229]], [[0.37370723485946655]], [[0.05610882490873337]], [[-0.07533328235149384]], [[0.1308351457118988]], [[0.4639032483100891]], [[0.03970525786280632]], [[-0.4767514169216156]], [[0.2700110077857971]], [[0.1962144672870636]], [[0.04704258590936661]], [[-0.3273017406463623]], [[0.1759793907403946]], [[0.17405162751674652]], [[0.2750850021839142]], [[0.02222401089966297]], [[-0.0779561996459961]], [[0.14286479353904724]], [[-0.12457243353128433]], [[-0.37820306420326233]], [[-0.1160857155919075]], [[-0.07913506776094437]], [[-0.12755021452903748]], [[0.21246689558029175]], [[-0.02711520716547966]], [[0.19103564321994781]], [[0.47522279620170593]], [[0.07648792117834091]], [[-0.4415169358253479]], [[0.18105362355709076]], [[0.09300816804170609]], [[0.19039595127105713]], [[0.18429432809352875]], [[0.006445436738431454]], [[0.2159370332956314]], [[0.5053220987319946]]], [[[0.2962550222873688]], [[-0.46901506185531616]], [[-0.31689220666885376]], [[-0.18487705290317535]], [[-0.21253997087478638]], [[-0.19193866848945618]], [[0.5446162819862366]], [[-0.5402979850769043]], [[-0.1899285763502121]], [[-0.15790434181690216]], [[-0.17456141114234924]], [[-0.1807439625263214]], [[-0.08129851520061493]], [[-0.09755012392997742]], [[-0.03192389756441116]], [[0.11138281971216202]], [[0.019626805558800697]], [[-0.12358061224222183]], [[0.09683965891599655]], [[-0.33450257778167725]], [[-0.5576483607292175]], [[-0.045215021818876266]], [[0.09914377331733704]], [[-0.06282275170087814]], [[-0.08209386467933655]], [[-0.11712557822465897]], [[0.12583567202091217]], [[-0.1261558085680008]], [[-0.14884266257286072]], [[-0.2315593808889389]], [[-0.09904996305704117]], [[0.03134531527757645]], [[0.03067300096154213]], [[0.03217761218547821]], [[-0.30571338534355164]], [[-0.13905395567417145]], [[-0.14898772537708282]], [[0.07377656549215317]], [[-0.07499220967292786]], [[-0.10004472732543945]], [[0.18898992240428925]], [[0.07968611270189285]], [[-0.2729347050189972]], [[0.17645114660263062]], [[0.03300810977816582]], [[-0.053491584956645966]], [[-0.06844344735145569]], [[0.11310932040214539]]], [[[-0.19509470462799072]], [[-0.0957847535610199]], [[0.06854715198278427]], [[-0.17191942036151886]], [[0.06432533264160156]], [[0.2514626681804657]], [[0.16625827550888062]], [[-0.16819269955158234]], [[0.2158401608467102]], [[-0.14202123880386353]], [[0.29623985290527344]], [[0.10700281709432602]], [[-0.250148743391037]], [[0.27843135595321655]], [[0.34706711769104004]], [[0.07561873644590378]], [[-0.18492993712425232]], [[0.0046638916246593]], [[-0.28763076663017273]], [[0.1855873465538025]], [[0.5099042654037476]], [[-0.03852464258670807]], [[-0.007921849377453327]], [[0.10421957075595856]], [[-0.03408383950591087]], [[0.0787055641412735]], [[0.48418205976486206]], [[-0.2849273979663849]], [[0.05652068927884102]], [[0.25543639063835144]], [[-0.053276751190423965]], [[0.07158128172159195]], [[0.2673906683921814]], [[-0.33631256222724915]], [[0.41299086809158325]], [[0.20599891245365143]], [[-0.0028431955724954605]], [[0.2721538841724396]], [[0.2898405194282532]], [[-0.17298972606658936]], [[0.21970359981060028]], [[0.3562749922275543]], [[-0.15399256348609924]], [[-0.02602194808423519]], [[-0.043727267533540726]], [[-0.1497955322265625]], [[0.3149011433124542]], [[0.16637711226940155]]], [[[-0.10607872903347015]], [[0.6415585279464722]], [[0.6513974070549011]], [[0.1181265115737915]], [[0.14175201952457428]], [[0.2286812663078308]], [[0.49218982458114624]], [[-0.2625768780708313]], [[-0.18058916926383972]], [[0.030567847192287445]], [[0.02960311435163021]], [[0.05032956972718239]], [[0.0449661947786808]], [[0.08811088651418686]], [[0.15878751873970032]], [[-0.03320292755961418]], [[-0.03205038607120514]], [[0.15209007263183594]], [[-0.20200364291667938]], [[0.09686437994241714]], [[0.2600938379764557]], [[-0.18671709299087524]], [[-0.02850848250091076]], [[0.2041531503200531]], [[-0.17590250074863434]], [[0.06724778562784195]], [[-0.1814015954732895]], [[0.01463543064892292]], [[0.08010296523571014]], [[0.14777182042598724]], [[-0.03469325974583626]], [[-0.023129457607865334]], [[0.060228899121284485]], [[0.012909241020679474]], [[0.22115746140480042]], [[0.28805387020111084]], [[-0.11087743937969208]], [[-0.015839189291000366]], [[0.016816899180412292]], [[-0.1124962866306305]], [[-0.13083142042160034]], [[0.04308180883526802]], [[0.1233500987291336]], [[-0.12528099119663239]], [[-0.07369136065244675]], [[0.004520072601735592]], [[0.24013786017894745]], [[0.08644993603229523]]], [[[0.14813008904457092]], [[-0.3648357391357422]], [[0.1256721019744873]], [[-0.1298743486404419]], [[-0.17474640905857086]], [[-0.28754356503486633]], [[-0.0377010740339756]], [[0.17513221502304077]], [[-0.4227215349674225]], [[-0.1287679672241211]], [[-0.256543904542923]], [[0.012884184718132019]], [[0.03322899714112282]], [[0.053679656237363815]], [[0.07626362890005112]], [[-0.13366399705410004]], [[0.27536913752555847]], [[0.07354140281677246]], [[-0.11595214903354645]], [[0.029662368819117546]], [[-0.08805075287818909]], [[-0.005848250351846218]], [[0.0856110081076622]], [[-0.1310567706823349]], [[0.16789600253105164]], [[-0.042582396417856216]], [[0.12331429123878479]], [[0.1547701060771942]], [[-0.2830030620098114]], [[-0.24449388682842255]], [[0.08081024885177612]], [[0.0006905076443217695]], [[-0.2757173180580139]], [[0.01865690015256405]], [[-0.13276119530200958]], [[-0.18822968006134033]], [[0.07223047316074371]], [[0.1375053972005844]], [[0.10825648903846741]], [[0.06535650044679642]], [[0.054872725158929825]], [[-0.24413728713989258]], [[0.050334762781858444]], [[-0.10256734490394592]], [[0.031828802078962326]], [[-0.12795209884643555]], [[0.1553596705198288]], [[0.01132852304726839]]], [[[0.029237007722258568]], [[0.6523699164390564]], [[0.28592297434806824]], [[0.0059739225544035435]], [[0.3214573562145233]], [[0.16033752262592316]], [[0.09212960302829742]], [[0.33683139085769653]], [[0.10005879402160645]], [[-0.2562865912914276]], [[-0.22140327095985413]], [[0.11531774699687958]], [[0.006335513200610876]], [[-0.4313518702983856]], [[-0.21543698012828827]], [[-0.23115530610084534]], [[-0.1215137392282486]], [[-0.2577292323112488]], [[-0.045504745095968246]], [[-0.5644024610519409]], [[-0.20160460472106934]], [[0.21277078986167908]], [[-0.3686613142490387]], [[-0.027888448908925056]], [[0.08690456300973892]], [[-0.7618209719657898]], [[-0.43809086084365845]], [[-0.12502366304397583]], [[-0.03158310428261757]], [[-0.13166671991348267]], [[-0.08822587132453918]], [[-0.1345232129096985]], [[-0.0675162672996521]], [[-0.07358614355325699]], [[-0.2680840790271759]], [[-0.1650434285402298]], [[0.07545371353626251]], [[-0.4250871241092682]], [[-0.4250388741493225]], [[-0.04385562986135483]], [[-0.34736281633377075]], [[-0.16080032289028168]], [[0.08049074560403824]], [[-0.14304286241531372]], [[-0.20397831499576569]], [[-0.08531882613897324]], [[-0.23906424641609192]], [[-0.05939009413123131]]], [[[-0.8201696276664734]], [[0.14628544449806213]], [[0.6162678003311157]], [[-0.2758661210536957]], [[-0.2387954145669937]], [[0.0063772741705179214]], [[0.11725027859210968]], [[-0.06691955029964447]], [[-0.19632364809513092]], [[0.09532123804092407]], [[0.13760337233543396]], [[0.028446298092603683]], [[0.09748800098896027]], [[0.19576169550418854]], [[-0.01099307555705309]], [[0.09894536435604095]], [[0.4039694666862488]], [[0.5066990852355957]], [[-0.14636248350143433]], [[0.14004217088222504]], [[0.1357705295085907]], [[-0.002237422624602914]], [[0.40015724301338196]], [[0.05588299036026001]], [[0.07727732509374619]], [[0.10417793691158295]], [[-0.14857664704322815]], [[-0.022686632350087166]], [[-0.13379700481891632]], [[-0.12849000096321106]], [[-0.1271136850118637]], [[0.12034421414136887]], [[-0.048941340297460556]], [[-0.17367666959762573]], [[0.06769583374261856]], [[0.26352933049201965]], [[-0.024266038089990616]], [[-0.1972840428352356]], [[0.020150233060121536]], [[-0.1399792581796646]], [[-0.28765955567359924]], [[0.14220859110355377]], [[0.05054531991481781]], [[-0.2868903577327728]], [[-0.0008655070560052991]], [[0.11302325874567032]], [[-0.030103862285614014]], [[-0.4038392901420593]]], [[[0.0004435584123712033]], [[0.033265016973018646]], [[0.26273974776268005]], [[0.05756868049502373]], [[0.01924273930490017]], [[0.03745059669017792]], [[0.018365349620580673]], [[0.16151881217956543]], [[0.49395468831062317]], [[-0.06027349829673767]], [[0.0669386014342308]], [[0.3496725857257843]], [[0.09164836257696152]], [[-0.036201708018779755]], [[-0.021317996084690094]], [[0.15760548412799835]], [[0.04170332849025726]], [[0.22063754498958588]], [[0.029158787801861763]], [[0.1712193638086319]], [[-0.08548619598150253]], [[0.07479050755500793]], [[0.04917890205979347]], [[-0.16396464407444]], [[-0.03949359431862831]], [[-0.15550826489925385]], [[0.13655215501785278]], [[-0.04156777262687683]], [[-0.22680972516536713]], [[-0.07577630877494812]], [[-0.042021360248327255]], [[-0.07638675719499588]], [[-0.417487233877182]], [[0.11140105128288269]], [[0.05492783337831497]], [[0.0027744139079004526]], [[0.12755785882472992]], [[0.10906977206468582]], [[0.2155439257621765]], [[0.2027992457151413]], [[-0.035787682980298996]], [[-0.02005438506603241]], [[-0.001082705450244248]], [[-0.2060624361038208]], [[-0.2012602835893631]], [[0.06654003262519836]], [[0.048803091049194336]], [[0.3028510808944702]]], [[[0.25324317812919617]], [[-0.07395967841148376]], [[0.09686661511659622]], [[-0.10829225182533264]], [[0.055410657078027725]], [[0.1623522788286209]], [[0.13749128580093384]], [[-0.04257723316550255]], [[-0.08995243906974792]], [[-0.07794167101383209]], [[0.03700508177280426]], [[-0.2817542850971222]], [[0.08616573363542557]], [[0.1180478185415268]], [[0.024380557239055634]], [[-0.06375125795602798]], [[0.1376679390668869]], [[-0.454021155834198]], [[0.2037711888551712]], [[-0.13136622309684753]], [[-0.42027905583381653]], [[-0.021964702755212784]], [[0.37578484416007996]], [[0.08806160092353821]], [[-0.12008711695671082]], [[-0.3612259030342102]], [[0.2910093665122986]], [[-0.11240511387586594]], [[0.32305634021759033]], [[-0.2275056391954422]], [[0.033896174281835556]], [[-0.028709493577480316]], [[0.14677946269512177]], [[-0.25136375427246094]], [[0.04259524494409561]], [[-0.08279066532850266]], [[-0.2821968197822571]], [[0.06214197352528572]], [[-0.44681116938591003]], [[0.022054076194763184]], [[-0.19599109888076782]], [[-0.1286180019378662]], [[-0.08193929493427277]], [[0.11608512699604034]], [[0.1217171922326088]], [[-0.22223596274852753]], [[-0.15671539306640625]], [[-0.17986227571964264]]], [[[-0.06282005459070206]], [[0.2909126579761505]], [[-0.06519107520580292]], [[-0.0322134792804718]], [[0.1267794668674469]], [[0.24681194126605988]], [[0.030167166143655777]], [[-0.17075484991073608]], [[-0.316475510597229]], [[0.13500173389911652]], [[-0.12424006313085556]], [[-0.0971110537648201]], [[0.15981297194957733]], [[-0.18754708766937256]], [[-0.26668334007263184]], [[0.07788874208927155]], [[-0.13383649289608002]], [[-0.2071036994457245]], [[-0.17534896731376648]], [[0.034637901932001114]], [[-0.22212453186511993]], [[-0.04046177864074707]], [[-0.3793242871761322]], [[-0.5127117037773132]], [[-0.08810915052890778]], [[-0.04714372381567955]], [[-0.21900364756584167]], [[0.04350985959172249]], [[0.01365392841398716]], [[0.035705048590898514]], [[-0.07667835056781769]], [[-0.31674760580062866]], [[-0.19140276312828064]], [[0.019134042784571648]], [[-0.012031027115881443]], [[-0.3109769821166992]], [[-0.011496705934405327]], [[0.06566810607910156]], [[-0.06189875304698944]], [[-0.07138262689113617]], [[-0.4454422891139984]], [[-0.29757076501846313]], [[-0.044832680374383926]], [[-0.27259162068367004]], [[0.02771851234138012]], [[-0.16921012103557587]], [[-0.46335873007774353]], [[-0.6156936883926392]]], [[[-0.35392773151397705]], [[0.3180810809135437]], [[0.28054359555244446]], [[-0.22911015152931213]], [[0.026596976444125175]], [[0.11707378923892975]], [[-0.09306252747774124]], [[0.11657803505659103]], [[-0.09198632091283798]], [[-0.2862805426120758]], [[-0.14271116256713867]], [[0.2540455758571625]], [[0.04419051110744476]], [[-0.19327428936958313]], [[0.373725026845932]], [[-0.04264025017619133]], [[-0.2501648962497711]], [[0.07878774404525757]], [[-0.0799139216542244]], [[-0.15438547730445862]], [[-0.0014507001033052802]], [[-0.016716714948415756]], [[-0.29828712344169617]], [[0.19798697531223297]], [[0.039129436016082764]], [[-0.3871845006942749]], [[0.3511407673358917]], [[-0.18510158360004425]], [[-0.22129184007644653]], [[0.11668488383293152]], [[0.1783365160226822]], [[-0.23986005783081055]], [[0.2639823853969574]], [[-0.22182400524616241]], [[-0.24457696080207825]], [[0.29904457926750183]], [[0.22109539806842804]], [[-0.09276793152093887]], [[-0.1701272428035736]], [[0.07508242130279541]], [[0.07182085514068604]], [[0.25679388642311096]], [[0.10723035782575607]], [[-0.23139245808124542]], [[0.19291268289089203]], [[-0.17950667440891266]], [[-0.24718084931373596]], [[0.44449472427368164]]], [[[0.04404270648956299]], [[0.009551231749355793]], [[0.1523716300725937]], [[-0.23080293834209442]], [[-0.16241799294948578]], [[-0.3026522994041443]], [[-0.3187282085418701]], [[0.09281600266695023]], [[-0.15300913155078888]], [[-0.1299680471420288]], [[-0.3573867678642273]], [[-0.18706415593624115]], [[0.08003129065036774]], [[-0.15649887919425964]], [[-0.07316536456346512]], [[-0.208555668592453]], [[0.13157103955745697]], [[0.24270839989185333]], [[-0.0902482271194458]], [[0.09429182857275009]], [[-0.11814523488283157]], [[0.04692278057336807]], [[-0.12800079584121704]], [[0.32444143295288086]], [[0.11324255168437958]], [[-0.09100877493619919]], [[-0.10939009487628937]], [[0.2072964459657669]], [[0.1258412003517151]], [[-0.10998988896608353]], [[0.17319481074810028]], [[0.09434624016284943]], [[0.10874436050653458]], [[-0.004959346726536751]], [[-0.02276904508471489]], [[-0.11659742891788483]], [[-0.09779392182826996]], [[-0.09550636261701584]], [[-0.053330693393945694]], [[-0.08964822441339493]], [[-0.014550326392054558]], [[0.0006223417003639042]], [[0.05529353767633438]], [[-0.07263408601284027]], [[-0.0031199418008327484]], [[-0.20862916111946106]], [[-0.15844972431659698]], [[-0.2719206213951111]]], [[[0.19518163800239563]], [[0.24885185062885284]], [[0.5628799200057983]], [[0.16605864465236664]], [[0.20617985725402832]], [[0.059522125869989395]], [[0.1491837501525879]], [[-0.05545862764120102]], [[0.4999596178531647]], [[-0.3099547028541565]], [[0.11696451902389526]], [[0.2051750272512436]], [[-0.15203720331192017]], [[0.2745749354362488]], [[0.41848230361938477]], [[-0.23767980933189392]], [[-0.1572347730398178]], [[0.0445331446826458]], [[0.06924007833003998]], [[0.03525359556078911]], [[-0.13464635610580444]], [[0.20316295325756073]], [[-0.12734711170196533]], [[0.24089229106903076]], [[-0.1909802258014679]], [[-0.10078272968530655]], [[-0.1127854436635971]], [[-0.0366525836288929]], [[0.19671876728534698]], [[0.1803305298089981]], [[0.07626430690288544]], [[0.05472781881690025]], [[0.2166486531496048]], [[-0.04958939179778099]], [[0.26259610056877136]], [[0.35627874732017517]], [[-0.07879244536161423]], [[-0.23907220363616943]], [[-0.3527895510196686]], [[0.011690824292600155]], [[-0.10413005948066711]], [[0.1883639693260193]], [[0.13817842304706573]], [[0.33058008551597595]], [[-0.13366761803627014]], [[-0.1808488816022873]], [[-0.18797053396701813]], [[0.07976014912128448]]], [[[0.0674990713596344]], [[-0.01271695178002119]], [[0.09933993965387344]], [[-0.274238258600235]], [[0.0403863824903965]], [[0.039345718920230865]], [[-0.018324177712202072]], [[0.2778484523296356]], [[0.23093292117118835]], [[-0.11435060203075409]], [[0.03156675770878792]], [[-0.131279855966568]], [[-0.0460534431040287]], [[0.11893302947282791]], [[-0.3032986521720886]], [[0.13140267133712769]], [[0.1616966873407364]], [[-0.5560017228126526]], [[-0.009160332381725311]], [[-0.05200716480612755]], [[-0.2895946502685547]], [[-0.11121876537799835]], [[0.16072143614292145]], [[0.11247101426124573]], [[0.10378070920705795]], [[0.6867948770523071]], [[-0.6075603365898132]], [[-0.18616729974746704]], [[0.07265433669090271]], [[-0.16030040383338928]], [[-0.011475550010800362]], [[-0.019744355231523514]], [[-0.062284357845783234]], [[-0.41649723052978516]], [[0.3980872631072998]], [[-0.05985289812088013]], [[0.1199667900800705]], [[0.07547608017921448]], [[-0.4495454430580139]], [[-0.08576370030641556]], [[-0.008588527329266071]], [[-0.1879020482301712]], [[0.1760440468788147]], [[0.5509269833564758]], [[0.06747153401374817]], [[-0.02384117990732193]], [[0.043516725301742554]], [[0.3056448996067047]]], [[[-0.04001442342996597]], [[0.30066967010498047]], [[0.2645185589790344]], [[-0.0879833847284317]], [[-0.028194185346364975]], [[0.19868125021457672]], [[-0.05997274070978165]], [[0.028692521154880524]], [[0.135981485247612]], [[0.37012818455696106]], [[-0.036948055028915405]], [[0.08057373017072678]], [[-0.13914814591407776]], [[-0.022002974525094032]], [[0.10086724162101746]], [[-0.006761138793081045]], [[0.04004138708114624]], [[0.09594690799713135]], [[-0.03473431244492531]], [[0.09675493091344833]], [[-0.019873645156621933]], [[0.054575059562921524]], [[0.1388213187456131]], [[-0.01770891807973385]], [[-0.2530062794685364]], [[0.1731395423412323]], [[-0.07232339680194855]], [[0.09781425446271896]], [[-0.016606103628873825]], [[0.27971550822257996]], [[-0.04017917439341545]], [[-0.27036190032958984]], [[0.24970698356628418]], [[0.04316575825214386]], [[0.22934535145759583]], [[0.16939522325992584]], [[0.008349898271262646]], [[-0.34725597500801086]], [[-0.29929718375205994]], [[-0.10541875660419464]], [[0.08412672579288483]], [[0.3095099925994873]], [[0.15488342940807343]], [[-0.1868993192911148]], [[-0.20130158960819244]], [[0.1252526342868805]], [[-0.04154280200600624]], [[-0.29005998373031616]]], [[[0.1965845823287964]], [[-0.17698810994625092]], [[-0.10552891343832016]], [[-0.13809487223625183]], [[-0.12034013122320175]], [[-0.4073740839958191]], [[0.15263263881206512]], [[-0.06534404307603836]], [[-0.18926936388015747]], [[-0.1876051425933838]], [[-0.14953245222568512]], [[-0.16963127255439758]], [[-0.025006894022226334]], [[-0.09074646979570389]], [[0.3552619516849518]], [[-0.3006325662136078]], [[-0.02647189237177372]], [[0.09058478474617004]], [[0.0596829429268837]], [[-0.32755109667778015]], [[-0.06688081473112106]], [[0.2405184656381607]], [[0.22111035883426666]], [[0.23605558276176453]], [[0.0010624085552990437]], [[-0.15266209840774536]], [[0.1506103277206421]], [[0.11593600362539291]], [[-0.23575396835803986]], [[-0.04581757262349129]], [[0.08377217501401901]], [[-0.09269008785486221]], [[-0.10121910274028778]], [[-0.06064726039767265]], [[-0.04115534573793411]], [[0.120216503739357]], [[-0.20713761448860168]], [[-0.0508299320936203]], [[-0.018928740173578262]], [[0.190911203622818]], [[0.31432199478149414]], [[-0.007122269365936518]], [[0.08895917236804962]], [[0.09790905565023422]], [[0.058488618582487106]], [[-0.2313884049654007]], [[-0.0024681277573108673]], [[0.3334449529647827]]], [[[-0.12381762266159058]], [[0.13795219361782074]], [[0.46705105900764465]], [[-0.10089511424303055]], [[0.018744822591543198]], [[0.28561314940452576]], [[0.08675967901945114]], [[-0.06695330888032913]], [[0.2502744495868683]], [[-0.05398670956492424]], [[0.18046440184116364]], [[0.34564003348350525]], [[0.21381789445877075]], [[0.03159407898783684]], [[0.5350533723831177]], [[-0.12349524348974228]], [[0.08155389130115509]], [[0.2935149371623993]], [[-0.25207841396331787]], [[0.3502112329006195]], [[0.026124494150280952]], [[-0.0004708273627329618]], [[-0.07151620090007782]], [[-0.3442048728466034]], [[-0.007213226053863764]], [[-0.326183557510376]], [[0.3613443672657013]], [[0.09541729837656021]], [[0.06321309506893158]], [[0.19787883758544922]], [[0.08934304863214493]], [[0.2244720458984375]], [[0.16916422545909882]], [[0.16686508059501648]], [[0.04790389910340309]], [[0.162160262465477]], [[-0.03684668615460396]], [[0.05619356408715248]], [[0.796950101852417]], [[0.19129718840122223]], [[0.37750324606895447]], [[0.18259146809577942]], [[-0.11883646249771118]], [[-0.22577792406082153]], [[-0.34201082587242126]], [[0.043462879955768585]], [[-0.15396472811698914]], [[-0.15343905985355377]]], [[[0.3074960708618164]], [[-0.08955557644367218]], [[0.08793512731790543]], [[0.12913870811462402]], [[0.14533895254135132]], [[-0.15400026738643646]], [[-0.0482485294342041]], [[0.22353500127792358]], [[0.03714415803551674]], [[-0.11963412910699844]], [[0.2411409616470337]], [[-0.005059749819338322]], [[0.15631212294101715]], [[-0.0840056985616684]], [[0.1879039853811264]], [[-0.1774752140045166]], [[-0.0765375941991806]], [[0.07602807134389877]], [[-0.04090595990419388]], [[-0.1101403534412384]], [[0.035411328077316284]], [[0.13347351551055908]], [[-0.07148688286542892]], [[0.05582314357161522]], [[-0.10780587047338486]], [[-0.1641031801700592]], [[0.0790984183549881]], [[-0.14535664021968842]], [[-0.20562642812728882]], [[0.08424552530050278]], [[-0.011111791245639324]], [[0.15234676003456116]], [[0.05362546071410179]], [[0.072853222489357]], [[-0.07642578333616257]], [[-0.049846261739730835]], [[0.07105395942926407]], [[0.42468592524528503]], [[0.001774623291566968]], [[-0.08777283877134323]], [[0.1595451831817627]], [[-0.2178773581981659]], [[0.1255255788564682]], [[-0.07321345061063766]], [[-0.009793736040592194]], [[-0.14031383395195007]], [[0.03987911716103554]], [[0.21404777467250824]]], [[[-0.07132679224014282]], [[0.08199793100357056]], [[-0.5293292999267578]], [[-0.1629476100206375]], [[0.1987391710281372]], [[-0.05135922506451607]], [[-0.12100409716367722]], [[-0.020959163084626198]], [[-0.012217027135193348]], [[-0.05598500370979309]], [[-0.011139233596622944]], [[-0.1413353532552719]], [[-0.34706559777259827]], [[-0.03535197302699089]], [[-0.05773323401808739]], [[-0.0035164353903383017]], [[-0.014342599548399448]], [[0.009197116829454899]], [[-0.1446852684020996]], [[0.12890881299972534]], [[-0.19424395263195038]], [[-0.24333685636520386]], [[-0.2621668577194214]], [[-0.23249241709709167]], [[-0.141058087348938]], [[0.18319761753082275]], [[-0.20847763121128082]], [[-0.14796209335327148]], [[-0.08756887167692184]], [[-0.4220943748950958]], [[-0.12355490028858185]], [[-0.19861406087875366]], [[-0.3669363260269165]], [[-0.1437874138355255]], [[-0.35823729634284973]], [[-0.263828843832016]], [[-0.0568406917154789]], [[-0.2433938831090927]], [[-0.2347775101661682]], [[-0.056061554700136185]], [[-0.16356080770492554]], [[-0.2746015787124634]], [[0.024421093985438347]], [[-0.037532150745391846]], [[0.06901471316814423]], [[0.009514100849628448]], [[-0.12653812766075134]], [[0.043281715363264084]]], [[[0.21225307881832123]], [[0.13832367956638336]], [[-0.31654903292655945]], [[0.11435788869857788]], [[0.24539507925510406]], [[0.2601013779640198]], [[0.2192002236843109]], [[-0.48242467641830444]], [[-0.34962543845176697]], [[-0.009229143150150776]], [[0.19461210072040558]], [[-0.05643311142921448]], [[-0.1372651904821396]], [[0.05235796794295311]], [[0.04417863488197327]], [[0.08564939349889755]], [[-0.1282079964876175]], [[0.10402000695466995]], [[0.06931526213884354]], [[-0.013478036038577557]], [[-0.009220943786203861]], [[0.1427765041589737]], [[0.14854282140731812]], [[-0.006843235809355974]], [[-0.0692366510629654]], [[-0.14277143776416779]], [[-0.019765736535191536]], [[0.09012400358915329]], [[-0.22178085148334503]], [[0.05245399475097656]], [[-0.027344735339283943]], [[-0.3136807680130005]], [[0.4340076744556427]], [[0.005405301693826914]], [[-0.17529122531414032]], [[-0.22243726253509521]], [[0.0558047853410244]], [[-0.4416561722755432]], [[-0.25702160596847534]], [[0.38442522287368774]], [[-0.2950294017791748]], [[0.19450366497039795]], [[-0.008385643362998962]], [[-0.25617101788520813]], [[-0.12921848893165588]], [[-0.0018836670788004994]], [[-0.2582515478134155]], [[-0.12112967669963837]]], [[[0.2598295509815216]], [[0.10780026763677597]], [[-0.20207788050174713]], [[-0.2989963889122009]], [[0.18957528471946716]], [[0.0025318304542452097]], [[0.17137108743190765]], [[0.06190001592040062]], [[0.06982661038637161]], [[-0.28933626413345337]], [[0.16945791244506836]], [[0.11635905504226685]], [[0.016748623922467232]], [[0.21152347326278687]], [[-0.06519796699285507]], [[-0.08036097884178162]], [[-0.19700033962726593]], [[0.18363896012306213]], [[0.15255208313465118]], [[0.31424450874328613]], [[-0.2603772282600403]], [[0.16391190886497498]], [[-0.27433648705482483]], [[0.012761637568473816]], [[-0.061336345970630646]], [[-0.09554936736822128]], [[-0.3167823255062103]], [[0.09235416352748871]], [[0.0657956525683403]], [[-0.5179204344749451]], [[0.011593344621360302]], [[0.25719621777534485]], [[-0.20929011702537537]], [[0.071245476603508]], [[0.04389815405011177]], [[-0.10238729417324066]], [[0.024775587022304535]], [[0.11356256902217865]], [[0.1179114580154419]], [[0.11872336268424988]], [[-0.07686857879161835]], [[0.05256795138120651]], [[0.08776786178350449]], [[0.07529117912054062]], [[0.521557629108429]], [[-0.06823623925447464]], [[0.03357065096497536]], [[0.037771131843328476]]], [[[-0.27808547019958496]], [[-0.035011373460292816]], [[-0.5853650569915771]], [[-0.22758044302463531]], [[0.03171313554048538]], [[0.10421779751777649]], [[-0.11090534180402756]], [[0.142781063914299]], [[0.13954244554042816]], [[-0.034053828567266464]], [[0.22439135611057281]], [[0.1692253053188324]], [[0.05575859546661377]], [[0.13979589939117432]], [[0.1212632954120636]], [[0.024120841175317764]], [[-0.09841518104076385]], [[-0.0016900983173400164]], [[-0.23550322651863098]], [[0.29587307572364807]], [[0.3759594261646271]], [[-0.002598235849291086]], [[-0.01952100172638893]], [[-0.0032991785556077957]], [[0.050746358931064606]], [[-0.3385812044143677]], [[0.5178086757659912]], [[-0.2457340508699417]], [[-0.011094676330685616]], [[0.19074256718158722]], [[-0.03938018158078194]], [[0.25859376788139343]], [[0.19453658163547516]], [[-0.2550008296966553]], [[0.03669096902012825]], [[-0.08549417555332184]], [[0.2914349436759949]], [[0.49306225776672363]], [[0.4412481486797333]], [[-0.24153392016887665]], [[0.010155674070119858]], [[-0.01587635464966297]], [[0.05217406153678894]], [[-0.05285606533288956]], [[-0.15625347197055817]], [[-0.12106523662805557]], [[0.2613935172557831]], [[-0.06338713318109512]]], [[[0.1930093914270401]], [[0.03071414865553379]], [[0.006468878593295813]], [[0.26591619849205017]], [[0.24697020649909973]], [[0.2545511722564697]], [[0.23802319169044495]], [[0.16351982951164246]], [[0.016160523518919945]], [[-0.09137000888586044]], [[0.0742405354976654]], [[0.35157427191734314]], [[-0.015570088289678097]], [[-0.013892478309571743]], [[0.01323361974209547]], [[0.012161408551037312]], [[0.05395563691854477]], [[-0.047441910952329636]], [[-0.04519468918442726]], [[0.08102167397737503]], [[0.012305437587201595]], [[0.023086778819561005]], [[-0.023856502026319504]], [[-0.023919761180877686]], [[0.09215410053730011]], [[-0.1616196185350418]], [[0.0003017241833731532]], [[-0.031963855028152466]], [[0.07486853748559952]], [[-0.005609721411019564]], [[0.039019953459501266]], [[0.012354299426078796]], [[-0.01643417403101921]], [[0.0675727128982544]], [[0.007643521297723055]], [[-0.030087804421782494]], [[0.03577621653676033]], [[-0.09835192561149597]], [[0.13879640400409698]], [[0.020699482411146164]], [[0.15353231132030487]], [[-0.08194030821323395]], [[-0.13300617039203644]], [[-0.12944820523262024]], [[-0.04223959147930145]], [[0.048687644302845]], [[0.038416631519794464]], [[0.12121311575174332]]], [[[-0.16928362846374512]], [[-0.3090513348579407]], [[0.5413104891777039]], [[0.11075550317764282]], [[-0.11949004232883453]], [[0.12296142429113388]], [[-0.11312966048717499]], [[-0.03433721140027046]], [[0.1732589453458786]], [[-0.25683870911598206]], [[0.047390107065439224]], [[-0.11918934434652328]], [[-0.3117910325527191]], [[0.034108348190784454]], [[0.024131042882800102]], [[0.104032501578331]], [[0.019694413989782333]], [[0.22946615517139435]], [[0.1469150185585022]], [[-0.15385538339614868]], [[0.04219038784503937]], [[0.22521193325519562]], [[0.03693005070090294]], [[-0.031727176159620285]], [[-0.1479967087507248]], [[-0.09785293787717819]], [[-0.4694325625896454]], [[-0.06798523664474487]], [[-0.09781438857316971]], [[0.2569620907306671]], [[-0.0950881689786911]], [[0.0570017546415329]], [[0.14671555161476135]], [[0.06585082411766052]], [[-0.13204842805862427]], [[0.2236543893814087]], [[0.011142682284116745]], [[0.16286073625087738]], [[0.056891731917858124]], [[0.02467084862291813]], [[0.24113719165325165]], [[0.18172705173492432]], [[0.07393693178892136]], [[-0.20663054287433624]], [[-0.07172337174415588]], [[0.06224735826253891]], [[-0.099899061024189]], [[-0.19634650647640228]]], [[[0.05719238892197609]], [[-0.38400736451148987]], [[0.1363811045885086]], [[0.4694768190383911]], [[-0.1592654436826706]], [[0.10850968956947327]], [[-0.6720262169837952]], [[0.1564834713935852]], [[-0.0626240223646164]], [[-0.09802625328302383]], [[0.02949570305645466]], [[-0.09714562445878983]], [[0.16993597149848938]], [[0.09329046308994293]], [[0.0317700058221817]], [[0.1918489634990692]], [[0.22985771298408508]], [[-0.15912578999996185]], [[-0.12222916632890701]], [[0.12165725231170654]], [[-0.27877718210220337]], [[-0.17526528239250183]], [[0.18917836248874664]], [[-0.21209262311458588]], [[0.04170123115181923]], [[-0.384331613779068]], [[0.05918828025460243]], [[-0.12498460710048676]], [[-0.13544222712516785]], [[-0.3972027599811554]], [[0.0070561133325099945]], [[0.1339728981256485]], [[-0.2278597503900528]], [[0.03988785296678543]], [[-0.21407459676265717]], [[-0.016497356817126274]], [[-0.28149864077568054]], [[0.0735747292637825]], [[0.2926897704601288]], [[0.2154964804649353]], [[-0.03762274608016014]], [[-0.13254928588867188]], [[-0.3203967213630676]], [[-0.24069789052009583]], [[-0.060229282826185226]], [[-0.08535134047269821]], [[0.09301584213972092]], [[0.38187992572784424]]], [[[-0.24115291237831116]], [[0.5835040807723999]], [[-0.4415682554244995]], [[-0.11554322391748428]], [[0.02421555668115616]], [[0.04221851006150246]], [[-0.016226422041654587]], [[-0.29494816064834595]], [[0.47850552201271057]], [[-0.18992777168750763]], [[-0.19501882791519165]], [[0.046934619545936584]], [[-0.03575446084141731]], [[-0.049328144639730453]], [[0.23873271048069]], [[-0.16081057488918304]], [[-0.4178398847579956]], [[0.2340167760848999]], [[-0.11934658885002136]], [[-0.4071098864078522]], [[0.29622766375541687]], [[-0.08614218235015869]], [[-0.050077859312295914]], [[-0.21102161705493927]], [[0.07552116364240646]], [[-0.07274344563484192]], [[0.015491776168346405]], [[0.06492506712675095]], [[0.05592940002679825]], [[-0.021326079964637756]], [[-0.22693437337875366]], [[0.07554716616868973]], [[0.05902808532118797]], [[-0.28112807869911194]], [[-0.018412074074149132]], [[0.34480804204940796]], [[-0.2305363267660141]], [[0.2597029507160187]], [[-0.31887170672416687]], [[-0.20714397728443146]], [[0.270221084356308]], [[0.025010019540786743]], [[0.1711510419845581]], [[0.4182521104812622]], [[0.04614478722214699]], [[-0.08445466309785843]], [[0.00913099106401205]], [[0.08555499464273453]]], [[[-0.07779493182897568]], [[-0.4338977634906769]], [[-0.3240716755390167]], [[0.16741463541984558]], [[-0.05641762539744377]], [[-0.08048758655786514]], [[-0.0823294073343277]], [[0.18571686744689941]], [[-0.34217894077301025]], [[-0.010122474282979965]], [[-0.24762330949306488]], [[-0.16092237830162048]], [[-0.0036436549853533506]], [[-0.07985760271549225]], [[-0.001771285431459546]], [[0.02457297220826149]], [[0.14440010488033295]], [[0.3001613914966583]], [[-0.10726909339427948]], [[-0.2402048110961914]], [[-0.012615187093615532]], [[0.04058206081390381]], [[0.11222047358751297]], [[-0.17532841861248016]], [[0.025214996188879013]], [[-0.06748310476541519]], [[0.257828950881958]], [[0.06240615248680115]], [[-0.03277095407247543]], [[-0.1675870716571808]], [[-0.04775611683726311]], [[0.0990857183933258]], [[-0.17835846543312073]], [[-0.05878809466958046]], [[-0.14875447750091553]], [[-0.3263288736343384]], [[0.07924966514110565]], [[-0.13865436613559723]], [[0.3061203062534332]], [[0.218155637383461]], [[0.3824217915534973]], [[-0.04738454148173332]], [[-0.07267634570598602]], [[0.22134092450141907]], [[-0.008954327553510666]], [[-0.07111003249883652]], [[0.031165339052677155]], [[0.18151815235614777]]], [[[-0.02002287656068802]], [[-0.1500818133354187]], [[-0.06688189506530762]], [[-0.014824346639215946]], [[0.029374411329627037]], [[-0.0841553583741188]], [[0.16603568196296692]], [[-0.10577273368835449]], [[0.09134391695261002]], [[0.42235785722732544]], [[0.0010662236018106341]], [[0.08403566479682922]], [[0.04644367843866348]], [[0.03708810359239578]], [[0.11720030009746552]], [[-0.017510637640953064]], [[-0.012975087389349937]], [[0.03981660678982735]], [[-0.013169070705771446]], [[0.03340217471122742]], [[-0.037606801837682724]], [[0.03965288773179054]], [[-0.04454202950000763]], [[-0.026317616924643517]], [[0.0037132096476852894]], [[-0.13795088231563568]], [[0.05132973939180374]], [[-0.028746988624334335]], [[-0.02921430766582489]], [[-0.037726957350969315]], [[0.002803477458655834]], [[0.0646391212940216]], [[-0.008448280394077301]], [[0.030437184497714043]], [[-0.04172632098197937]], [[-0.005501095671206713]], [[-0.018665311858057976]], [[0.12407220900058746]], [[0.12878863513469696]], [[0.04014502093195915]], [[0.09985101222991943]], [[0.00024288735585287213]], [[-0.07680719345808029]], [[-0.02544945478439331]], [[0.04509531334042549]], [[-0.010095303878188133]], [[-0.01576746068894863]], [[0.06456686556339264]]], [[[-0.4272942543029785]], [[-0.06420966982841492]], [[0.009500785730779171]], [[-0.2978382706642151]], [[-0.1319856494665146]], [[0.015332808718085289]], [[-0.20907244086265564]], [[-0.13721680641174316]], [[-0.0022621015086770058]], [[-0.1103452816605568]], [[0.11537772417068481]], [[0.006008225493133068]], [[-0.003172144293785095]], [[-0.1604713350534439]], [[-0.13774341344833374]], [[0.2886536717414856]], [[-0.06917481869459152]], [[-0.34042513370513916]], [[-0.026828981935977936]], [[0.23409511148929596]], [[-0.34560734033584595]], [[0.00777251785621047]], [[-0.3498000204563141]], [[-0.17120008170604706]], [[0.0457032211124897]], [[-0.28935229778289795]], [[-0.19648444652557373]], [[-0.06644948571920395]], [[0.09670622646808624]], [[-0.07799778133630753]], [[0.030706705525517464]], [[0.08281085640192032]], [[0.005884439684450626]], [[-0.12324093282222748]], [[0.020336667075753212]], [[0.24184508621692657]], [[0.0902794897556305]], [[-0.3522522747516632]], [[0.08536375313997269]], [[-0.07819551229476929]], [[0.6902887225151062]], [[0.6572259068489075]], [[-0.15994901955127716]], [[-0.059698835015296936]], [[-0.10614732652902603]], [[0.12244825065135956]], [[0.09352384507656097]], [[0.3042687475681305]]], [[[0.22170795500278473]], [[0.30299079418182373]], [[0.3103633224964142]], [[-0.11988160014152527]], [[-0.0785709023475647]], [[-0.14554445445537567]], [[0.27513250708580017]], [[0.09686671197414398]], [[-0.3876838982105255]], [[-0.012690727598965168]], [[-0.09229040145874023]], [[-0.11094428598880768]], [[0.011912439949810505]], [[-0.06948759406805038]], [[-0.2313777357339859]], [[-0.03774559870362282]], [[-0.1284855455160141]], [[-0.5314605832099915]], [[-0.18442653119564056]], [[0.13738788664340973]], [[-0.13743221759796143]], [[0.05559034273028374]], [[0.058512695133686066]], [[0.06944232434034348]], [[0.24637757241725922]], [[-0.06235222518444061]], [[-0.15105654299259186]], [[-0.15803390741348267]], [[0.013279846869409084]], [[-0.11939767748117447]], [[-0.10183119773864746]], [[0.08842223882675171]], [[0.01569325476884842]], [[-0.0017908272566273808]], [[0.017086902633309364]], [[0.23319946229457855]], [[-0.0754665657877922]], [[-0.39537927508354187]], [[0.035200562328100204]], [[0.07054906338453293]], [[0.24289005994796753]], [[-0.37927088141441345]], [[-0.08031319826841354]], [[-0.20763368904590607]], [[0.2744396924972534]], [[0.19883914291858673]], [[-0.08762906491756439]], [[-0.06553201377391815]]], [[[-0.09655877947807312]], [[0.07757537066936493]], [[-0.16565656661987305]], [[-0.15039168298244476]], [[-0.12448696047067642]], [[-0.4090040326118469]], [[-0.015371013432741165]], [[0.34149983525276184]], [[-0.10870584100484848]], [[-0.07082526385784149]], [[-0.28550639748573303]], [[0.04049694165587425]], [[-0.0874655544757843]], [[-0.11690695583820343]], [[0.28343436121940613]], [[-0.18636415898799896]], [[-0.02384740673005581]], [[0.08097892254590988]], [[-0.13648073375225067]], [[-0.6024348139762878]], [[0.12858900427818298]], [[0.10536349564790726]], [[-0.24775584042072296]], [[0.4509340226650238]], [[0.16640625894069672]], [[-0.34061968326568604]], [[0.42783984541893005]], [[-0.2430487722158432]], [[-0.009092953987419605]], [[0.5017497539520264]], [[-0.05788303539156914]], [[-0.12624044716358185]], [[0.25648337602615356]], [[-0.13671956956386566]], [[0.07197564840316772]], [[0.014209483750164509]], [[0.09572000801563263]], [[-0.33361926674842834]], [[0.0656864196062088]], [[0.13508008420467377]], [[-0.10849200934171677]], [[0.2360430806875229]], [[-0.08974432200193405]], [[-0.11132935434579849]], [[0.4751056134700775]], [[-0.10424201935529709]], [[-0.40083810687065125]], [[0.2631901800632477]]], [[[0.36545732617378235]], [[0.2633715867996216]], [[-0.5475261211395264]], [[-0.06388764083385468]], [[0.002617934485897422]], [[0.1047559455037117]], [[-0.11715060472488403]], [[0.14241191744804382]], [[0.13932357728481293]], [[-0.007759857922792435]], [[-0.08504968136548996]], [[0.017820604145526886]], [[0.1383925974369049]], [[-0.10828830301761627]], [[0.09810991585254669]], [[-0.08115269243717194]], [[0.24181188642978668]], [[-0.07343608140945435]], [[-0.30160191655158997]], [[-0.4087598919868469]], [[-0.3335767686367035]], [[-0.05820797383785248]], [[0.3244352340698242]], [[-0.08154355734586716]], [[-0.014555743895471096]], [[0.1420123279094696]], [[0.26973956823349]], [[-0.07218648493289948]], [[0.028329383581876755]], [[-0.007677251007407904]], [[0.07671873271465302]], [[-0.24500593543052673]], [[-0.10373260080814362]], [[-0.18036702275276184]], [[-0.07315488904714584]], [[-0.1272994726896286]], [[-0.033692535012960434]], [[-0.25471392273902893]], [[-0.12083811312913895]], [[-0.047438692301511765]], [[0.6873562335968018]], [[-0.3100810647010803]], [[0.19206415116786957]], [[-0.05677628517150879]], [[-0.36182743310928345]], [[0.013936588540673256]], [[0.15081442892551422]], [[0.0589163564145565]]], [[[0.043594684451818466]], [[-0.15176431834697723]], [[-0.282026469707489]], [[-0.2922418415546417]], [[0.26385968923568726]], [[-0.2342035472393036]], [[0.20376865565776825]], [[0.23668800294399261]], [[0.28947529196739197]], [[-0.04596580192446709]], [[0.059661947190761566]], [[-0.2834201753139496]], [[0.1634874790906906]], [[0.0783419981598854]], [[-0.02874314785003662]], [[0.12155637890100479]], [[0.018803928047418594]], [[-0.23149141669273376]], [[0.3317207396030426]], [[-0.36155232787132263]], [[0.173498272895813]], [[0.18686550855636597]], [[-0.06278058886528015]], [[0.09147365391254425]], [[0.3539498746395111]], [[0.07178333401679993]], [[-0.07883192598819733]], [[0.07778649032115936]], [[-0.06128047779202461]], [[0.17199936509132385]], [[0.14018721878528595]], [[0.03676418215036392]], [[-0.05735737457871437]], [[-0.25860410928726196]], [[-0.048395492136478424]], [[0.2086886316537857]], [[0.32531628012657166]], [[0.0965241864323616]], [[-0.1346254199743271]], [[0.3101692199707031]], [[0.11130842566490173]], [[-0.03701874986290932]], [[0.24315503239631653]], [[0.025931866839528084]], [[0.28866323828697205]], [[0.11780571192502975]], [[-0.15103761851787567]], [[-0.10908469557762146]]], [[[0.13649097084999084]], [[-0.21756291389465332]], [[0.2620566189289093]], [[-0.07682661712169647]], [[0.24044379591941833]], [[-0.11147844046354294]], [[0.018408451229333878]], [[0.18856753408908844]], [[0.29537293314933777]], [[-0.25059908628463745]], [[0.19527754187583923]], [[0.09174921363592148]], [[-0.19825977087020874]], [[0.16662077605724335]], [[0.4966733455657959]], [[0.075258769094944]], [[0.17291483283042908]], [[-0.20252498984336853]], [[-0.09752777218818665]], [[-0.1995830237865448]], [[-0.3615346848964691]], [[0.141617089509964]], [[-0.016463736072182655]], [[0.02264365740120411]], [[-0.033798810094594955]], [[0.06487714499235153]], [[-0.09541239589452744]], [[-0.0528034046292305]], [[-0.1780061423778534]], [[-0.29455891251564026]], [[-0.03623577952384949]], [[-0.30652210116386414]], [[-0.07488443702459335]], [[-0.06216837465763092]], [[0.1210838183760643]], [[0.015200484544038773]], [[-0.05768436938524246]], [[-0.5027480721473694]], [[0.2920002043247223]], [[0.2906372845172882]], [[-0.08844512701034546]], [[0.21771100163459778]], [[0.1608278453350067]], [[0.008734572678804398]], [[0.22663474082946777]], [[-0.2343597710132599]], [[0.03785141184926033]], [[0.43207064270973206]]], [[[-0.5082939267158508]], [[-0.410564124584198]], [[0.003937537781894207]], [[-0.32883235812187195]], [[0.06460583955049515]], [[0.1960446685552597]], [[0.03577437251806259]], [[-0.30501532554626465]], [[-0.2400067299604416]], [[0.13518120348453522]], [[-0.04946429654955864]], [[-0.02420484833419323]], [[0.12185395509004593]], [[0.06568460911512375]], [[-0.10348881036043167]], [[-0.03347884491086006]], [[-0.15512268245220184]], [[-0.024527117609977722]], [[-0.0314360149204731]], [[-0.10676833987236023]], [[-0.1761312335729599]], [[0.0007315293187275529]], [[-0.21418538689613342]], [[0.094538114964962]], [[-0.05281804874539375]], [[-0.11109858006238937]], [[0.05624059960246086]], [[-0.14501754939556122]], [[-0.14389313757419586]], [[-0.24623723328113556]], [[0.01141347549855709]], [[-0.14091014862060547]], [[-0.06927716732025146]], [[0.09676816314458847]], [[-0.1582828015089035]], [[-0.1671091765165329]], [[-0.011471490375697613]], [[0.2097405344247818]], [[-0.18585190176963806]], [[-0.054867058992385864]], [[-0.11106057465076447]], [[0.004754187539219856]], [[-0.08282291889190674]], [[-0.06438713520765305]], [[0.16257543861865997]], [[-0.09855194389820099]], [[0.12409573793411255]], [[0.21024729311466217]]], [[[0.02334347926080227]], [[-0.7715864777565002]], [[1.2715303897857666]], [[-0.13585034012794495]], [[0.18644894659519196]], [[0.14676359295845032]], [[0.002250905381515622]], [[0.002582292538136244]], [[-0.20094166696071625]], [[-0.09694048017263412]], [[0.1970793902873993]], [[-0.028288694098591805]], [[-0.01839500665664673]], [[0.2799559235572815]], [[-0.11154355108737946]], [[-0.02046472206711769]], [[-0.08411344885826111]], [[0.03226384148001671]], [[-0.37246954441070557]], [[-0.36342209577560425]], [[-0.26687493920326233]], [[0.07672702521085739]], [[-0.06415444612503052]], [[-0.21217131614685059]], [[0.2726055681705475]], [[-0.5658559799194336]], [[0.3366691470146179]], [[-0.1820642650127411]], [[0.053610336035490036]], [[0.015337098389863968]], [[-0.22857587039470673]], [[0.20643192529678345]], [[-0.07424374669790268]], [[-0.3248806297779083]], [[0.28140580654144287]], [[-0.22237008810043335]], [[-0.04127824306488037]], [[-0.06958381086587906]], [[0.10238134860992432]], [[-0.10890793055295944]], [[-0.07224253565073013]], [[0.19658201932907104]], [[0.06578681617975235]], [[0.056234680116176605]], [[0.26102355122566223]], [[0.1400619000196457]], [[-0.267642617225647]], [[0.23050673305988312]]], [[[0.4888612627983093]], [[0.9742259979248047]], [[-0.4223536252975464]], [[0.1988319456577301]], [[0.22576436400413513]], [[0.018040312454104424]], [[-0.25680679082870483]], [[-0.06869787722826004]], [[-0.08046307414770126]], [[-0.004790958482772112]], [[-0.06561998277902603]], [[0.22386693954467773]], [[-0.04149612784385681]], [[-0.022160466760396957]], [[-0.05914687737822533]], [[-0.21099503338336945]], [[-0.09269443899393082]], [[0.004397673066705465]], [[-0.10284380614757538]], [[0.0582418330013752]], [[0.05297226458787918]], [[-0.20102813839912415]], [[-0.21672137081623077]], [[0.22537989914417267]], [[-0.1204681545495987]], [[-0.07738426327705383]], [[-0.069003164768219]], [[-0.13211601972579956]], [[0.07342313975095749]], [[0.043171271681785583]], [[0.08875659853219986]], [[-0.17925891280174255]], [[0.28318196535110474]], [[-0.011571040377020836]], [[0.1937953382730484]], [[0.22103267908096313]], [[0.0660567507147789]], [[-0.16397430002689362]], [[-0.278005987405777]], [[-0.20225460827350616]], [[-0.07166310399770737]], [[0.10003946721553802]], [[0.02743464894592762]], [[0.07492664456367493]], [[0.06012839823961258]], [[-0.008419854566454887]], [[-0.03662893548607826]], [[-0.1368616819381714]]], [[[-0.33999237418174744]], [[0.19748559594154358]], [[-0.09759344905614853]], [[-0.02713872119784355]], [[-0.07787957787513733]], [[-0.049478840082883835]], [[0.08882627636194229]], [[0.1650550216436386]], [[-0.250158429145813]], [[-0.16546736657619476]], [[-0.08827587217092514]], [[0.12827694416046143]], [[0.0007450992125086486]], [[0.2274307757616043]], [[0.047761641442775726]], [[-0.11224423348903656]], [[0.4927978217601776]], [[-0.013526002876460552]], [[0.2139446884393692]], [[0.3428124487400055]], [[0.22213993966579437]], [[0.11496837437152863]], [[-0.03096858412027359]], [[-0.25245338678359985]], [[-0.24189011752605438]], [[-0.02465403825044632]], [[-0.446348637342453]], [[0.050720542669296265]], [[0.018184436485171318]], [[-0.2564602196216583]], [[-0.1129048615694046]], [[-0.09802898019552231]], [[-0.1374124139547348]], [[-0.2067541629076004]], [[0.1801382303237915]], [[-0.19377434253692627]], [[0.14212654531002045]], [[0.10352775454521179]], [[0.05563030764460564]], [[-0.024688389152288437]], [[-0.06902815401554108]], [[-0.06177246570587158]], [[-0.0937252938747406]], [[-0.026183512061834335]], [[-0.07763320952653885]], [[0.00045561185106635094]], [[-0.37004175782203674]], [[0.1414390206336975]]], [[[0.1199834868311882]], [[-0.15653562545776367]], [[-0.4358579218387604]], [[0.04071979597210884]], [[0.21808990836143494]], [[0.10036961734294891]], [[-0.35692134499549866]], [[-0.09490958601236343]], [[-0.16120073199272156]], [[-0.2650545537471771]], [[0.1374601125717163]], [[0.011525683104991913]], [[-0.3570798337459564]], [[0.14494481682777405]], [[-0.20813798904418945]], [[-0.17259125411510468]], [[0.24034307897090912]], [[0.06063389778137207]], [[-0.07582346349954605]], [[-0.08896329253911972]], [[0.1818956583738327]], [[-0.04918389022350311]], [[0.17394818365573883]], [[-0.08226693421602249]], [[-0.043325260281562805]], [[0.006725634913891554]], [[-0.06876018643379211]], [[-0.1791025847196579]], [[0.15073102712631226]], [[-0.2662115693092346]], [[0.1495932787656784]], [[-0.1718847006559372]], [[-0.10063982754945755]], [[-0.040094707161188126]], [[-0.12800681591033936]], [[-0.1839602142572403]], [[-0.07848655432462692]], [[0.25102677941322327]], [[0.06941904127597809]], [[-0.17685773968696594]], [[0.20348425209522247]], [[-0.05753176286816597]], [[-0.13677576184272766]], [[0.04712994769215584]], [[-0.22491176426410675]], [[-0.26995787024497986]], [[-0.08937904238700867]], [[-0.27067339420318604]]], [[[-0.31443971395492554]], [[-0.37643396854400635]], [[0.12898851931095123]], [[-0.1542511284351349]], [[-0.4290548264980316]], [[-0.014495817944407463]], [[-0.023326264694333076]], [[-0.2813265025615692]], [[-0.04637685418128967]], [[-0.20601297914981842]], [[-0.12371806055307388]], [[0.0030301224905997515]], [[-0.13254782557487488]], [[0.16459162533283234]], [[0.18946096301078796]], [[-0.18571434915065765]], [[0.0009426831966266036]], [[0.019328445196151733]], [[0.1234741136431694]], [[0.007286956999450922]], [[-0.1515478789806366]], [[0.13782832026481628]], [[-0.11786776781082153]], [[-0.01795482076704502]], [[0.01674659550189972]], [[0.16097429394721985]], [[0.10847149044275284]], [[0.030145224183797836]], [[-0.2657342851161957]], [[0.038004737347364426]], [[0.04380092769861221]], [[0.14064455032348633]], [[-0.14126549661159515]], [[-0.0010581472888588905]], [[-0.006990883033722639]], [[-0.008672538213431835]], [[-0.2197214514017105]], [[0.041971929371356964]], [[0.14756269752979279]], [[0.06052691116929054]], [[0.019052231684327126]], [[0.2965264618396759]], [[0.08251996338367462]], [[0.030347079038619995]], [[0.10994134098291397]], [[-0.20444387197494507]], [[0.08212192356586456]], [[0.42302849888801575]]], [[[0.038018856197595596]], [[0.12958571314811707]], [[0.046596087515354156]], [[-0.01470512617379427]], [[0.32974424958229065]], [[0.07705729454755783]], [[0.019586332142353058]], [[-0.37564295530319214]], [[0.2644970417022705]], [[-0.1906062364578247]], [[0.018083853647112846]], [[-0.1644274890422821]], [[0.0933450236916542]], [[0.3265860676765442]], [[0.2942501902580261]], [[-0.04708845540881157]], [[-0.15468725562095642]], [[-0.01366236712783575]], [[-0.1626715511083603]], [[-0.24108116328716278]], [[-0.5573152899742126]], [[-0.003640144132077694]], [[-0.0037023313343524933]], [[-0.2235526442527771]], [[-0.04308775067329407]], [[-0.29957669973373413]], [[0.3942497670650482]], [[-0.05157703533768654]], [[-0.003239138750359416]], [[0.03532126545906067]], [[0.07810679823160172]], [[-0.01026118639856577]], [[-0.290656715631485]], [[-0.31734541058540344]], [[0.15516643226146698]], [[-0.2652016878128052]], [[-0.06410703808069229]], [[-0.04827276989817619]], [[-0.04184168204665184]], [[0.05978044867515564]], [[-0.07814619690179825]], [[-0.313423216342926]], [[0.29666757583618164]], [[-0.24682466685771942]], [[-0.33116239309310913]], [[0.026884842664003372]], [[-0.08234085142612457]], [[0.19393257796764374]]], [[[0.044751185923814774]], [[0.029917577281594276]], [[0.17463430762290955]], [[-0.014349276199936867]], [[0.15993905067443848]], [[0.3137795031070709]], [[0.2107958346605301]], [[0.4521300196647644]], [[0.4476909637451172]], [[-0.010618473403155804]], [[-0.005597061011940241]], [[0.08505282551050186]], [[0.15592113137245178]], [[-0.0027146877255290747]], [[0.23991577327251434]], [[0.01014136802405119]], [[-0.28093695640563965]], [[0.464465469121933]], [[0.07006558775901794]], [[0.1766447275876999]], [[0.28415557742118835]], [[0.17129215598106384]], [[0.3214520215988159]], [[-0.030238771811127663]], [[0.04506829008460045]], [[-0.13257519900798798]], [[-0.22629830241203308]], [[-0.16371941566467285]], [[0.015319752506911755]], [[0.17449598014354706]], [[0.04313439130783081]], [[-0.012377838604152203]], [[0.23500865697860718]], [[-0.06147962808609009]], [[-0.01883421093225479]], [[0.03150776028633118]], [[0.1279386579990387]], [[0.5617691874504089]], [[0.011871417053043842]], [[0.028376003727316856]], [[0.18173575401306152]], [[-0.1680068075656891]], [[-0.2245856672525406]], [[-0.0952533408999443]], [[-0.17388588190078735]], [[-0.03579740971326828]], [[-0.09074646234512329]], [[-0.31548023223876953]]], [[[-0.13442645967006683]], [[-0.06120135262608528]], [[0.56573885679245]], [[-0.08266231417655945]], [[-0.0006396190146915615]], [[0.13651755452156067]], [[0.13756750524044037]], [[-0.003945615608245134]], [[0.4346889555454254]], [[-0.13168378174304962]], [[0.08811261504888535]], [[0.10840576142072678]], [[-0.02682339958846569]], [[-0.08964413404464722]], [[0.1703493893146515]], [[-0.17244786024093628]], [[-0.07475433498620987]], [[-0.025376709178090096]], [[0.04253334924578667]], [[0.3922131061553955]], [[0.019477680325508118]], [[0.2824183404445648]], [[-0.10603484511375427]], [[-0.22981269657611847]], [[-0.23128792643547058]], [[-0.16420210897922516]], [[0.03525615110993385]], [[-0.12948329746723175]], [[-0.22501689195632935]], [[0.0774567499756813]], [[-0.02532806806266308]], [[-0.12399318814277649]], [[0.016519946977496147]], [[0.10668464750051498]], [[0.020142365247011185]], [[0.3600684106349945]], [[-0.07965641468763351]], [[0.01585385575890541]], [[-0.20208482444286346]], [[-0.0652567520737648]], [[-0.17047886550426483]], [[-0.044415030628442764]], [[-0.21992042660713196]], [[-0.3220479190349579]], [[0.12640070915222168]], [[-0.08364877104759216]], [[-0.1724550426006317]], [[-0.19943204522132874]]], [[[-0.16029073297977448]], [[-0.05835052207112312]], [[0.4922693073749542]], [[0.03838387504220009]], [[0.05231712386012077]], [[0.19209390878677368]], [[0.020826071500778198]], [[-0.19232667982578278]], [[0.4405669867992401]], [[-0.07839519530534744]], [[-0.016424454748630524]], [[0.18718132376670837]], [[0.07521144300699234]], [[0.24218451976776123]], [[0.11314404755830765]], [[0.103336401283741]], [[-0.18880659341812134]], [[0.0015472597442567348]], [[-0.2115039974451065]], [[0.23949147760868073]], [[0.2617248296737671]], [[0.17056353390216827]], [[-0.1340520977973938]], [[0.07991153001785278]], [[0.20412978529930115]], [[0.11191891133785248]], [[0.19266057014465332]], [[-0.1428215205669403]], [[-0.13844473659992218]], [[0.16663897037506104]], [[0.0929855927824974]], [[0.12040191143751144]], [[0.2628208100795746]], [[-0.2180906981229782]], [[-0.223642498254776]], [[0.3849964737892151]], [[0.07674997299909592]], [[-0.18901275098323822]], [[0.00015610440459568053]], [[0.06807626783847809]], [[0.2186959683895111]], [[0.24666084349155426]], [[-0.13330857455730438]], [[-0.25246331095695496]], [[-0.6142422556877136]], [[0.01648212969303131]], [[-0.041359879076480865]], [[-0.3717106878757477]]], [[[0.04557162523269653]], [[-0.055610235780477524]], [[0.2937065362930298]], [[0.07499874383211136]], [[0.06791030615568161]], [[0.20976772904396057]], [[0.1654360443353653]], [[0.12618808448314667]], [[-0.16969914734363556]], [[-0.3605292737483978]], [[0.0023052794858813286]], [[-0.19629071652889252]], [[-0.07228276878595352]], [[-0.0023440455552190542]], [[-0.11972062289714813]], [[-0.07722914218902588]], [[-0.3649388551712036]], [[-0.3646415174007416]], [[-0.007962163537740707]], [[-0.25865182280540466]], [[-0.15581879019737244]], [[0.20659492909908295]], [[-0.23740309476852417]], [[-0.3840585947036743]], [[0.06565361469984055]], [[-0.04199102148413658]], [[-0.5849651098251343]], [[-0.03399081528186798]], [[-0.22022254765033722]], [[-0.158677875995636]], [[-0.19023923575878143]], [[-0.04444150626659393]], [[-0.016668163239955902]], [[-0.22046327590942383]], [[0.015959398820996284]], [[0.157720148563385]], [[-0.0002823071845341474]], [[-0.00920177809894085]], [[-0.3079160153865814]], [[0.1511075347661972]], [[-0.1305674910545349]], [[-0.3573898673057556]], [[-0.08613058924674988]], [[-0.04422866553068161]], [[-0.3845248520374298]], [[-0.12860940396785736]], [[-0.1427517533302307]], [[-0.03828059881925583]]], [[[0.39485758543014526]], [[0.49639132618904114]], [[0.10186084359884262]], [[-0.004527433309704065]], [[-0.06761660426855087]], [[-0.14960743486881256]], [[-0.012721476145088673]], [[0.09747470170259476]], [[0.1700250208377838]], [[-0.18407854437828064]], [[-0.22064156830310822]], [[-0.01663723774254322]], [[-0.12582887709140778]], [[-0.22324293851852417]], [[-0.11797609180212021]], [[-0.10020547360181808]], [[-0.024215253069996834]], [[-0.18304480612277985]], [[-0.11320976167917252]], [[-0.2142038196325302]], [[0.1023220494389534]], [[0.032298311591148376]], [[0.49968618154525757]], [[-0.015362652018666267]], [[0.1525752991437912]], [[-0.7022740244865417]], [[0.08890475332736969]], [[0.013959570787847042]], [[-0.23510372638702393]], [[-0.05822775512933731]], [[-0.2169809341430664]], [[0.3295038640499115]], [[-0.01464125793427229]], [[-0.12194313108921051]], [[-0.2368396669626236]], [[0.08462594449520111]], [[-0.04382527992129326]], [[-0.46634185314178467]], [[-0.279177188873291]], [[-0.11581681668758392]], [[0.0739331841468811]], [[-0.12187187373638153]], [[-0.004583877045661211]], [[-0.4267391562461853]], [[0.14593051373958588]], [[-0.09426963329315186]], [[-0.05970512330532074]], [[-0.013414106331765652]]], [[[-0.08268758654594421]], [[0.1193157210946083]], [[0.4300849735736847]], [[-0.025419143959879875]], [[0.08913370966911316]], [[0.3147764503955841]], [[-0.01572253927588463]], [[0.08469446748495102]], [[0.17656268179416656]], [[-0.10917539894580841]], [[0.11613409221172333]], [[0.3331529200077057]], [[0.013688288629055023]], [[0.5105581879615784]], [[0.36246225237846375]], [[0.17650370299816132]], [[0.2891337275505066]], [[0.09973504394292831]], [[0.08806139975786209]], [[-0.08729226142168045]], [[0.2806277871131897]], [[-0.026710383594036102]], [[0.07722201198339462]], [[0.23629797995090485]], [[0.04461582005023956]], [[0.10856539011001587]], [[0.2538723945617676]], [[-0.1859360933303833]], [[0.060571275651454926]], [[0.028870340436697006]], [[0.03519976884126663]], [[0.013655581511557102]], [[0.23663169145584106]], [[-0.15995436906814575]], [[0.33464476466178894]], [[0.4072370231151581]], [[0.019009925425052643]], [[0.19501255452632904]], [[-0.3241453766822815]], [[-0.1700524240732193]], [[0.35535532236099243]], [[0.1456075757741928]], [[0.10350588709115982]], [[0.06247999146580696]], [[-0.13717134296894073]], [[-0.07289217412471771]], [[0.19550731778144836]], [[0.03715261071920395]]], [[[0.2569119930267334]], [[-0.05573401227593422]], [[0.508867084980011]], [[-0.20309723913669586]], [[-0.05445171520113945]], [[-0.0068031372502446175]], [[-0.0314110592007637]], [[-0.29178565740585327]], [[0.381908118724823]], [[0.15363407135009766]], [[0.0377311147749424]], [[-0.06650950014591217]], [[-0.10318229347467422]], [[0.028296342119574547]], [[0.16350041329860687]], [[0.14861664175987244]], [[-0.18186332285404205]], [[0.3926737606525421]], [[0.03385510295629501]], [[-0.12314543128013611]], [[0.22815170884132385]], [[0.10685878992080688]], [[-0.1321249157190323]], [[0.01274570357054472]], [[0.16327357292175293]], [[-0.18198361992835999]], [[0.23945894837379456]], [[0.031125755980610847]], [[0.016641268506646156]], [[0.20096775889396667]], [[0.033089421689510345]], [[-0.14437896013259888]], [[0.1394040435552597]], [[-0.15555474162101746]], [[0.01576186530292034]], [[0.184449702501297]], [[0.22075025737285614]], [[0.13282735645771027]], [[0.28278422355651855]], [[-0.07692215591669083]], [[-0.2115100920200348]], [[0.22839562594890594]], [[0.33409279584884644]], [[0.07807748019695282]], [[-0.1331411600112915]], [[0.07059202343225479]], [[-0.208986297249794]], [[-0.25319981575012207]]], [[[0.23402561247348785]], [[-0.022144651040434837]], [[-0.004048914182931185]], [[0.004337421152740717]], [[0.10863413661718369]], [[0.21111853420734406]], [[-0.020366551354527473]], [[-0.1675308644771576]], [[-0.1388433873653412]], [[-0.052293822169303894]], [[0.009581395424902439]], [[0.10708829015493393]], [[-0.0180008877068758]], [[-0.011076834052801132]], [[0.16527990996837616]], [[0.001006188103929162]], [[-0.0016498672775924206]], [[0.09485763311386108]], [[-0.1405583620071411]], [[-0.4280926585197449]], [[0.01828719861805439]], [[-0.15515489876270294]], [[0.03108971379697323]], [[-0.08782367408275604]], [[0.09817928820848465]], [[-0.10090701282024384]], [[-0.48450884222984314]], [[0.05778731033205986]], [[0.26022738218307495]], [[-0.2137739211320877]], [[-0.05337800458073616]], [[0.28026309609413147]], [[1.9498556866892613e-05]], [[-0.09320885688066483]], [[-0.06741584092378616]], [[0.2186795473098755]], [[-0.15968206524848938]], [[0.09326659142971039]], [[0.09698828309774399]], [[0.16727285087108612]], [[0.36307936906814575]], [[-0.26257210969924927]], [[0.25218579173088074]], [[0.20480500161647797]], [[0.19538119435310364]], [[-0.10388754308223724]], [[-0.0760207548737526]], [[-0.028290603309869766]]], [[[0.16036935150623322]], [[-0.682680070400238]], [[0.12828220427036285]], [[-0.2053837776184082]], [[-0.20330782234668732]], [[-0.06414631009101868]], [[-0.04495047777891159]], [[-0.16605478525161743]], [[0.17967107892036438]], [[-0.12663371860980988]], [[-0.29402589797973633]], [[0.38116705417633057]], [[-0.002365655731409788]], [[-0.005717563442885876]], [[-0.10953907668590546]], [[-0.17085935175418854]], [[0.002882774453610182]], [[-0.18798089027404785]], [[-0.06398679316043854]], [[-0.1269708275794983]], [[0.07129961997270584]], [[-0.0308887530118227]], [[0.1322196125984192]], [[0.0678517073392868]], [[0.028907034546136856]], [[0.1045415997505188]], [[0.026210060343146324]], [[-0.02768237330019474]], [[-0.17210066318511963]], [[0.09652967751026154]], [[-0.10831369459629059]], [[0.004607613198459148]], [[-0.2226368486881256]], [[0.01986214891076088]], [[-0.178814098238945]], [[0.16932621598243713]], [[0.16708184778690338]], [[0.23294363915920258]], [[0.005561204627156258]], [[-0.018164673820137978]], [[0.006607918068766594]], [[-0.0061721475794911385]], [[0.3608725965023041]], [[0.179251030087471]], [[0.13855913281440735]], [[0.10050155967473984]], [[0.1188194751739502]], [[0.11879155039787292]]], [[[0.34922102093696594]], [[0.22816605865955353]], [[-0.1314706653356552]], [[-0.10943382978439331]], [[0.13692064583301544]], [[-0.07590874284505844]], [[-0.01116945780813694]], [[0.00441550649702549]], [[-0.1284557580947876]], [[0.023394029587507248]], [[0.06058815121650696]], [[0.24800869822502136]], [[-0.17133377492427826]], [[-0.0364588126540184]], [[0.15812712907791138]], [[0.04087582975625992]], [[-0.4219168722629547]], [[0.7188528776168823]], [[-0.2251286655664444]], [[0.0009936399292200804]], [[0.45599615573883057]], [[-0.0007287296466529369]], [[-0.23668166995048523]], [[-0.12155137211084366]], [[-0.1958971470594406]], [[0.09962186217308044]], [[-0.03455348685383797]], [[-0.04147734120488167]], [[0.14006178081035614]], [[-0.28081604838371277]], [[-0.020635662600398064]], [[-0.12412083894014359]], [[0.21794363856315613]], [[-0.07700612396001816]], [[-0.03652424365282059]], [[0.15122374892234802]], [[0.01670919358730316]], [[0.30462896823883057]], [[0.32058343291282654]], [[-0.03557994216680527]], [[0.2683611512184143]], [[0.370869517326355]], [[0.11117234826087952]], [[-0.01986813172698021]], [[0.07278916984796524]], [[-0.19240304827690125]], [[0.1265515387058258]], [[0.013336832635104656]]], [[[0.06892749667167664]], [[-0.48230040073394775]], [[-0.10315348953008652]], [[-0.2025354951620102]], [[0.024787690490484238]], [[-0.2659246325492859]], [[-0.10099831968545914]], [[-0.043518878519535065]], [[-0.05448121577501297]], [[-0.14847902953624725]], [[-0.21421831846237183]], [[-0.20813407003879547]], [[-0.19983845949172974]], [[-0.04083136096596718]], [[0.31971752643585205]], [[0.12152968347072601]], [[-0.18107067048549652]], [[0.15905554592609406]], [[-0.08805137127637863]], [[-0.5984755158424377]], [[-0.3493242561817169]], [[0.07391032576560974]], [[0.4061083495616913]], [[0.35148194432258606]], [[-0.09445440024137497]], [[-0.02563573233783245]], [[-0.16460305452346802]], [[-0.047168757766485214]], [[-0.07513341307640076]], [[-0.05160247161984444]], [[-0.16962414979934692]], [[0.042865872383117676]], [[0.02034350298345089]], [[-0.538542628288269]], [[-0.057558126747608185]], [[0.047993846237659454]], [[-0.05831253156065941]], [[0.07836955785751343]], [[-0.40410125255584717]], [[-0.1092093288898468]], [[-0.2273252159357071]], [[-0.3275015652179718]], [[-0.16956177353858948]], [[0.1136619970202446]], [[-0.10693357139825821]], [[0.08466499298810959]], [[-0.1936172991991043]], [[-0.24421510100364685]]], [[[-0.0009909914806485176]], [[0.5045827031135559]], [[-0.6257964372634888]], [[0.051259178668260574]], [[-0.05190287530422211]], [[-0.030683906748890877]], [[0.195371612906456]], [[-0.4883641004562378]], [[-0.2911248803138733]], [[0.044534679502248764]], [[-0.023399783298373222]], [[-0.14723524451255798]], [[0.023369478061795235]], [[-0.0480487123131752]], [[-0.1339256465435028]], [[0.11383112519979477]], [[0.3572004735469818]], [[0.4947231709957123]], [[0.017351564019918442]], [[-0.2671329379081726]], [[-0.319972425699234]], [[-0.030543945729732513]], [[-0.011721435934305191]], [[0.17248913645744324]], [[0.036665018647909164]], [[0.31609290838241577]], [[0.1461075097322464]], [[0.13617414236068726]], [[-0.04031658172607422]], [[-0.21334148943424225]], [[0.007568265311419964]], [[-0.0490693524479866]], [[0.09299086034297943]], [[-0.08001697063446045]], [[-0.15715239942073822]], [[-0.4352174699306488]], [[-0.08949591964483261]], [[0.19621095061302185]], [[-0.0779467448592186]], [[0.0023452872410416603]], [[-0.2392939180135727]], [[-0.15459610521793365]], [[0.1782854050397873]], [[-0.1387345939874649]], [[-0.1681695133447647]], [[-0.1504473090171814]], [[-0.04042840003967285]], [[-0.11817777901887894]]], [[[-0.18701079487800598]], [[0.025463849306106567]], [[0.47257673740386963]], [[0.0769306942820549]], [[-0.06100032106041908]], [[0.03770529106259346]], [[0.4042990207672119]], [[0.05659447982907295]], [[-0.03201572224497795]], [[-0.2042936533689499]], [[0.09323781728744507]], [[0.22663505375385284]], [[0.1393667459487915]], [[0.14777466654777527]], [[0.41262683272361755]], [[0.0061918096616864204]], [[0.22299008071422577]], [[0.12540021538734436]], [[0.10158055275678635]], [[0.392581969499588]], [[0.21954019367694855]], [[0.07716970890760422]], [[-0.14608897268772125]], [[-0.03592218458652496]], [[-0.02226279117166996]], [[-0.4889492094516754]], [[0.24222305417060852]], [[0.06185760721564293]], [[-0.13590875267982483]], [[-0.12174977362155914]], [[-0.027763396501541138]], [[0.10756347328424454]], [[-0.031045014038681984]], [[0.010299704037606716]], [[-0.07879532128572464]], [[0.20044396817684174]], [[-0.09926795214414597]], [[0.0814681127667427]], [[0.17067861557006836]], [[0.19823859632015228]], [[-0.12441810965538025]], [[-0.28289058804512024]], [[-0.3034798204898834]], [[-0.20992718636989594]], [[-0.05643021687865257]], [[-0.03559381887316704]], [[0.04061805456876755]], [[0.014350869692862034]]], [[[-0.019917933270335197]], [[-0.37820810079574585]], [[0.2969205379486084]], [[-1.084814190864563]], [[-0.0543045774102211]], [[0.028831636533141136]], [[-0.685519278049469]], [[-0.012780211865901947]], [[-0.22817112505435944]], [[-1.0987099409103394]], [[-0.053576137870550156]], [[-0.040475551038980484]], [[-0.03334711864590645]], [[-0.06326928734779358]], [[-0.14879639446735382]], [[0.05189361050724983]], [[0.2726801335811615]], [[-0.04802123084664345]], [[-0.0993746891617775]], [[-0.07830960303544998]], [[-0.04596737399697304]], [[-0.08498651534318924]], [[0.037898194044828415]], [[0.05650262534618378]], [[0.12886478006839752]], [[0.14514951407909393]], [[-0.022422725334763527]], [[0.05430585518479347]], [[0.06406369060277939]], [[-0.08686800301074982]], [[0.08978177607059479]], [[-0.20442868769168854]], [[-0.1326039582490921]], [[-0.02359684184193611]], [[-0.046958863735198975]], [[0.04316201061010361]], [[0.041116733103990555]], [[-0.08692511916160583]], [[0.004393070470541716]], [[0.007876863703131676]], [[-0.18292920291423798]], [[-0.14988575875759125]], [[0.15495027601718903]], [[-0.04749184474349022]], [[0.04221620410680771]], [[0.07367920130491257]], [[0.16480007767677307]], [[0.2874963879585266]]], [[[0.32289808988571167]], [[0.11486351490020752]], [[0.004057990852743387]], [[-0.3952781558036804]], [[0.11120491474866867]], [[-0.1162138357758522]], [[-0.08733566850423813]], [[0.13305404782295227]], [[0.10042141377925873]], [[-0.2733481824398041]], [[0.14223068952560425]], [[0.10658133029937744]], [[-0.035308197140693665]], [[0.12572559714317322]], [[-0.02823200449347496]], [[-0.02159188501536846]], [[-0.004560152534395456]], [[0.0770459771156311]], [[0.15766534209251404]], [[-0.2154146432876587]], [[0.26240119338035583]], [[-0.05167466402053833]], [[0.24868139624595642]], [[0.09411682933568954]], [[0.23153112828731537]], [[-0.16583985090255737]], [[-0.09393268823623657]], [[-0.14551614224910736]], [[0.012177125550806522]], [[-0.21345937252044678]], [[0.09420765936374664]], [[-0.08059290796518326]], [[-0.27999719977378845]], [[0.04727264121174812]], [[0.09729457646608353]], [[0.3306742310523987]], [[0.2636394500732422]], [[0.41448432207107544]], [[0.338599294424057]], [[-0.05779346078634262]], [[0.28962305188179016]], [[0.08858992159366608]], [[-0.2206834852695465]], [[-0.07251791656017303]], [[0.04412997514009476]], [[-0.00561754684895277]], [[-0.13308997452259064]], [[0.13751526176929474]]], [[[-0.017786584794521332]], [[0.19813655316829681]], [[-0.19403834640979767]], [[-0.09475372731685638]], [[0.16844767332077026]], [[0.03417503088712692]], [[0.08494117110967636]], [[-0.3905607759952545]], [[-0.06583470851182938]], [[0.038643207401037216]], [[0.14211474359035492]], [[-0.1870253086090088]], [[-0.1652083396911621]], [[0.22387070953845978]], [[-0.22840020060539246]], [[0.09355080872774124]], [[-0.18881675601005554]], [[-0.1139536052942276]], [[-0.1290675550699234]], [[0.049155429005622864]], [[0.16987945139408112]], [[0.07152681797742844]], [[0.45748475193977356]], [[0.0041923196986317635]], [[0.001553001464344561]], [[0.17032171785831451]], [[-0.02520834282040596]], [[0.09647272527217865]], [[0.22856882214546204]], [[0.14705905318260193]], [[-0.0575663261115551]], [[-0.20903918147087097]], [[0.023128069937229156]], [[0.05405645817518234]], [[0.27383852005004883]], [[0.04364655539393425]], [[0.15066123008728027]], [[-0.21744224429130554]], [[-0.3188866376876831]], [[0.25337013602256775]], [[0.09877751022577286]], [[-0.04111967980861664]], [[-0.07818000763654709]], [[-0.25580117106437683]], [[-0.054976936429739]], [[0.11619788408279419]], [[0.033652402460575104]], [[-0.45890915393829346]]], [[[0.07331582903862]], [[0.03705517202615738]], [[0.11012666672468185]], [[0.0693364068865776]], [[-0.12748797237873077]], [[0.18518981337547302]], [[0.049883682280778885]], [[0.26936012506484985]], [[0.02869451232254505]], [[-0.16971804201602936]], [[-0.14473730325698853]], [[0.49351823329925537]], [[-0.008831797167658806]], [[-0.18239477276802063]], [[0.02344006858766079]], [[-0.3079974949359894]], [[-0.019063958898186684]], [[0.18137313425540924]], [[0.0592074953019619]], [[-0.018289241939783096]], [[-0.10736754536628723]], [[-0.05496927350759506]], [[-0.12355885654687881]], [[-0.09006766974925995]], [[0.015270808711647987]], [[-0.11678700894117355]], [[-0.04475783929228783]], [[0.060371216386556625]], [[0.02834819257259369]], [[0.009031282737851143]], [[-0.13808301091194153]], [[-0.223257377743721]], [[-0.030383776873350143]], [[0.08520850539207458]], [[-0.1343214213848114]], [[-0.12492507696151733]], [[0.027187339961528778]], [[0.052031099796295166]], [[0.08162783831357956]], [[0.07752911746501923]], [[-0.07558735460042953]], [[0.2598399519920349]], [[-0.05165529251098633]], [[-0.041611865162849426]], [[-0.4047596752643585]], [[-0.021566634997725487]], [[0.04165768623352051]], [[-0.07459860295057297]]], [[[-0.05141660198569298]], [[0.12555205821990967]], [[-0.09595271944999695]], [[-0.07525569200515747]], [[0.007439823355525732]], [[0.05314774811267853]], [[-0.07751656323671341]], [[-0.1827555000782013]], [[-0.12496359646320343]], [[-0.17411015927791595]], [[-0.19565348327159882]], [[-0.17971143126487732]], [[-0.10448387265205383]], [[0.08289732038974762]], [[-0.11368048191070557]], [[-0.09794667363166809]], [[-0.20559340715408325]], [[-0.11387660354375839]], [[-0.24887590110301971]], [[-0.655522346496582]], [[-0.3404626250267029]], [[0.11286738514900208]], [[-0.22717201709747314]], [[-0.14109180867671967]], [[-0.01947745308279991]], [[-0.2877621352672577]], [[-0.6506956815719604]], [[-0.21626102924346924]], [[-0.03615497425198555]], [[-0.0009238108759745955]], [[-0.10448159277439117]], [[-0.0058364118449389935]], [[-0.36355894804000854]], [[-0.18188132345676422]], [[-0.2878614366054535]], [[0.1081787571310997]], [[-0.058264270424842834]], [[0.13225598633289337]], [[0.10200106352567673]], [[-0.0265047550201416]], [[-0.06317023187875748]], [[-0.20677460730075836]], [[0.03465762361884117]], [[0.044056206941604614]], [[-0.19192060828208923]], [[-0.24401196837425232]], [[-0.3952118158340454]], [[-0.32046571373939514]]], [[[-0.07959046214818954]], [[-0.0775895044207573]], [[0.09832165390253067]], [[0.16064363718032837]], [[-0.04607300087809563]], [[-0.12129656970500946]], [[-0.24596650898456573]], [[-0.3102545142173767]], [[-0.160289004445076]], [[-0.04326166957616806]], [[-0.10886082798242569]], [[-0.14426729083061218]], [[-0.06663419306278229]], [[0.2452237606048584]], [[0.23371781408786774]], [[0.0455501414835453]], [[0.03226245567202568]], [[0.6162586808204651]], [[-0.05656319856643677]], [[-0.3359838128089905]], [[-0.1646898239850998]], [[-0.0003211430739611387]], [[-0.15839126706123352]], [[0.4047589600086212]], [[-0.2503913342952728]], [[-0.1473316103219986]], [[0.34966298937797546]], [[-0.1406940221786499]], [[-0.12207568436861038]], [[-0.006776054855436087]], [[-0.1668417602777481]], [[-0.18998250365257263]], [[0.14438068866729736]], [[0.014174379408359528]], [[-0.16444920003414154]], [[-0.03903157263994217]], [[-0.06067181006073952]], [[0.17104922235012054]], [[0.28733450174331665]], [[-0.07439957559108734]], [[-0.41276779770851135]], [[0.0963042750954628]], [[-0.11575877666473389]], [[-0.24267014861106873]], [[0.019230244681239128]], [[-0.04932936653494835]], [[0.20919619500637054]], [[-0.047503478825092316]]], [[[0.1560916006565094]], [[0.015075045637786388]], [[-0.05141613632440567]], [[0.04414428770542145]], [[0.3864502012729645]], [[0.2052362710237503]], [[0.038958799093961716]], [[-0.14133194088935852]], [[-0.06200287118554115]], [[-0.05313984304666519]], [[-0.06723859906196594]], [[0.18980751931667328]], [[0.11307868361473083]], [[-0.08684385567903519]], [[-0.28492558002471924]], [[-0.15903988480567932]], [[-0.38600000739097595]], [[-0.18175926804542542]], [[0.0014216604176908731]], [[0.17597712576389313]], [[0.02811500057578087]], [[0.23423591256141663]], [[-0.2442060261964798]], [[-0.2721433639526367]], [[0.22681419551372528]], [[-0.22861626744270325]], [[-0.1488705277442932]], [[0.05361131951212883]], [[-0.14809496700763702]], [[0.17779949307441711]], [[-0.07813044637441635]], [[-0.24501703679561615]], [[-0.10264801234006882]], [[0.0162059273570776]], [[-0.05958055704832077]], [[-0.09681517630815506]], [[0.19388753175735474]], [[-0.43168917298316956]], [[-0.0361747220158577]], [[0.13121865689754486]], [[-0.2083720713853836]], [[0.15393321216106415]], [[-0.02901359833776951]], [[-0.16056303679943085]], [[0.04691449552774429]], [[0.04340239614248276]], [[-0.177242711186409]], [[-0.4950331747531891]]], [[[-0.23785695433616638]], [[-0.24578087031841278]], [[0.2749158442020416]], [[0.2026606947183609]], [[-0.049247849732637405]], [[0.3690445125102997]], [[0.34602031111717224]], [[-0.3742356300354004]], [[-0.27962809801101685]], [[-0.06590374559164047]], [[-0.024941755458712578]], [[0.0032366104423999786]], [[0.060646817088127136]], [[-0.128499373793602]], [[-0.3021407127380371]], [[0.14386682212352753]], [[-0.0026142909191548824]], [[-0.11693913489580154]], [[0.20855456590652466]], [[0.11125805228948593]], [[-0.18928083777427673]], [[0.01192223560065031]], [[-0.08660411834716797]], [[-0.4415298104286194]], [[-0.018724903464317322]], [[-0.121614009141922]], [[-0.4062190353870392]], [[-0.07275539636611938]], [[-0.28759655356407166]], [[-0.07083490490913391]], [[0.10099168121814728]], [[0.018560227006673813]], [[-0.12411262094974518]], [[0.01785782352089882]], [[-0.38368159532546997]], [[-0.08208726346492767]], [[-0.14217524230480194]], [[-0.4407011568546295]], [[-0.15321943163871765]], [[-0.1458316296339035]], [[-0.163994699716568]], [[0.015234879218041897]], [[-0.13071715831756592]], [[-0.13183936476707458]], [[0.026548070833086967]], [[-0.11704530566930771]], [[0.05492636188864708]], [[-0.3536134958267212]]], [[[-0.3182424306869507]], [[0.4243178367614746]], [[-0.5243959426879883]], [[-0.25443142652511597]], [[0.11964602768421173]], [[0.03589386120438576]], [[-0.08054167777299881]], [[-0.15581774711608887]], [[0.03176436200737953]], [[-0.11082351952791214]], [[0.11350526660680771]], [[0.08463487774133682]], [[-0.004645749926567078]], [[0.2911727726459503]], [[-0.08878274261951447]], [[0.09764407575130463]], [[0.23955005407333374]], [[0.11569628119468689]], [[-0.2257741242647171]], [[0.0960136130452156]], [[0.20533840358257294]], [[0.0635828822851181]], [[0.12486559897661209]], [[-0.02807876281440258]], [[-0.05297212675213814]], [[-0.5836631059646606]], [[0.4263443648815155]], [[-0.08876454085111618]], [[0.2784276604652405]], [[-0.08752070367336273]], [[-0.01754247583448887]], [[0.09205173701047897]], [[0.2983919084072113]], [[-0.2955532670021057]], [[-0.08425510674715042]], [[-0.05162140727043152]], [[0.09474251419305801]], [[0.4599803388118744]], [[0.4566677212715149]], [[-0.14687316119670868]], [[0.2164580076932907]], [[-0.05236104503273964]], [[0.11549606174230576]], [[-0.14559273421764374]], [[-0.05116114765405655]], [[-0.17600813508033752]], [[-0.4237922430038452]], [[0.32516562938690186]]], [[[-0.12562590837478638]], [[0.3374091386795044]], [[0.4117860198020935]], [[-0.4127025008201599]], [[0.31692084670066833]], [[-0.16021721065044403]], [[-0.11845304816961288]], [[0.08923658728599548]], [[-0.010464931838214397]], [[-0.33016398549079895]], [[0.46784213185310364]], [[0.2686059772968292]], [[-0.07252301275730133]], [[0.30916786193847656]], [[-0.04669630900025368]], [[-0.02213873341679573]], [[0.06962206214666367]], [[-0.20826569199562073]], [[0.038079679012298584]], [[-0.058489613234996796]], [[0.2847190797328949]], [[0.07551552355289459]], [[0.007936001755297184]], [[-0.053670138120651245]], [[0.334491103887558]], [[0.13528095185756683]], [[0.1830989569425583]], [[-0.13056302070617676]], [[-0.017867347225546837]], [[-0.014261654578149319]], [[-0.18299733102321625]], [[-0.23153038322925568]], [[0.17181633412837982]], [[-0.16485747694969177]], [[0.12492293864488602]], [[0.22770100831985474]], [[-0.058981940150260925]], [[0.2085392028093338]], [[0.08078182488679886]], [[-0.044285304844379425]], [[0.306869238615036]], [[0.26743263006210327]], [[0.31225526332855225]], [[0.08547685295343399]], [[0.38347765803337097]], [[-0.19315429031848907]], [[0.05442709103226662]], [[0.28366947174072266]]], [[[-0.04857299476861954]], [[-0.04167323559522629]], [[-0.0795147567987442]], [[-0.15790875256061554]], [[-0.02860361710190773]], [[0.06470084935426712]], [[0.3254410922527313]], [[-0.2893940806388855]], [[0.18892350792884827]], [[0.14683762192726135]], [[-0.22143107652664185]], [[0.10251457244157791]], [[0.04361583665013313]], [[0.29677414894104004]], [[-0.1674453169107437]], [[0.08819007128477097]], [[0.06196928396821022]], [[0.06342115998268127]], [[0.333539217710495]], [[-0.2579047679901123]], [[0.13991650938987732]], [[-0.11587471514940262]], [[0.04135806858539581]], [[-0.07125824689865112]], [[0.22366435825824738]], [[0.15653659403324127]], [[-0.1716236174106598]], [[-0.05549073591828346]], [[-0.022696318104863167]], [[-0.003458235412836075]], [[0.08126098662614822]], [[-0.016997260972857475]], [[0.16932721436023712]], [[-0.0007875222945585847]], [[-0.048754483461380005]], [[0.1767810881137848]], [[-0.3360680341720581]], [[0.11202311515808105]], [[-0.015215023420751095]], [[-0.07373171299695969]], [[-0.3870028257369995]], [[0.0069646225310862064]], [[0.0012593017891049385]], [[0.48820117115974426]], [[-0.10964237153530121]], [[0.16251233220100403]], [[0.01488408725708723]], [[-0.12229235470294952]]], [[[0.08262321352958679]], [[0.3409949839115143]], [[0.2547001838684082]], [[0.006794458720833063]], [[0.0456712506711483]], [[0.1420671045780182]], [[-0.2995503842830658]], [[0.17820335924625397]], [[-0.062124453485012054]], [[-0.018582254648208618]], [[-0.0876830518245697]], [[-0.02519209124147892]], [[-0.16089913249015808]], [[-0.007574416697025299]], [[0.17122849822044373]], [[-0.0672696977853775]], [[0.21069684624671936]], [[-0.20165470242500305]], [[-0.0004985706764273345]], [[-0.3304176330566406]], [[0.21035079658031464]], [[-0.18136759102344513]], [[-0.03680647164583206]], [[-0.00990765355527401]], [[-0.0018625183729454875]], [[-0.5670635104179382]], [[-0.09271062165498734]], [[-0.1401805877685547]], [[0.036457277834415436]], [[0.16658014059066772]], [[-0.033820707350969315]], [[0.12969881296157837]], [[0.2024385631084442]], [[-0.2866978645324707]], [[-0.38754159212112427]], [[0.5233416557312012]], [[-0.1846378892660141]], [[-0.6112467646598816]], [[0.3877609670162201]], [[-0.03378493711352348]], [[0.11260656267404556]], [[-0.02313060872256756]], [[-0.16591911017894745]], [[-0.2770497500896454]], [[0.6687625646591187]], [[-0.021043453365564346]], [[-0.10326845198869705]], [[0.17603713274002075]]], [[[-0.3317298889160156]], [[0.11260658502578735]], [[0.03478904440999031]], [[0.18795569241046906]], [[0.0067593688145279884]], [[0.021757958456873894]], [[-0.4265662431716919]], [[0.1196046993136406]], [[-0.2087169736623764]], [[0.15691332519054413]], [[0.014823823235929012]], [[-0.04297729209065437]], [[-0.1990506798028946]], [[-0.07642010599374771]], [[-0.26316672563552856]], [[0.007853222079575062]], [[-0.09531852602958679]], [[-0.2348843216896057]], [[0.0995478555560112]], [[0.034187860786914825]], [[0.19255559146404266]], [[-0.06510291993618011]], [[0.09632283449172974]], [[-0.06553393602371216]], [[0.014424371533095837]], [[0.2909215986728668]], [[-0.10274207592010498]], [[0.09002699702978134]], [[0.13078348338603973]], [[0.11788322031497955]], [[-0.004448088351637125]], [[0.13118472695350647]], [[0.014860227704048157]], [[0.0553511343896389]], [[-0.03725964576005936]], [[0.1243039220571518]], [[0.1092112734913826]], [[-0.1762000024318695]], [[0.019843483343720436]], [[-0.1993095725774765]], [[0.08076151460409164]], [[-0.011139745824038982]], [[0.13209117949008942]], [[-0.03140406683087349]], [[-0.024941597133874893]], [[-0.021349547430872917]], [[0.06900578737258911]], [[-0.047792740166187286]]], [[[0.2875666916370392]], [[0.2843851149082184]], [[-0.31296345591545105]], [[0.06127854064106941]], [[0.10883216559886932]], [[-0.14940804243087769]], [[0.008958556689321995]], [[0.07842154055833817]], [[-0.2510528564453125]], [[0.11876139789819717]], [[-0.04628239572048187]], [[-0.3943842053413391]], [[0.012122816406190395]], [[0.07588760554790497]], [[-0.08405520021915436]], [[0.06664466857910156]], [[-0.04771910980343819]], [[-0.26186585426330566]], [[0.28004026412963867]], [[-0.25522518157958984]], [[0.1351301223039627]], [[-0.10798928141593933]], [[0.3106176257133484]], [[0.07975204288959503]], 