{"channel_n": 16, "hidden_n": 128, "fire_rate": 0.5, "alpha_channel": 3, "living_threshold": 0.1, "identity_kernel": [[0.0, 0.0, 0.0], [0.0, 1.0, 0.0], [0.0, 0.0, 0.0]], "dx_kernel": [[-0.125, 0.0, 0.125], [-0.25, 0.0, 0.25], [-0.125, 0.0, 0.125]], "dy_kernel": [[-0.125, -0.25, -0.125], [0.0, 0.0, 0.0], [0.125, 0.25, 0.125]], "conv1_weight": [[[[0.027094300836324692]], [[-0.0298753771930933]], [[-0.20126311480998993]], [[-0.11311019212007523]], [[-0.17653679847717285]], [[-0.047089867293834686]], [[-0.019039969891309738]], [[-0.19023917615413666]], [[-0.2640097439289093]], [[0.0053015779703855515]], [[-0.11516862362623215]], [[-0.23633885383605957]], [[-0.13335658609867096]], [[0.3136889934539795]], [[0.014912117272615433]], [[-0.051416996866464615]], [[0.11274241656064987]], [[0.00959788728505373]], [[-0.12639008462429047]], [[-0.07905910909175873]], [[0.4447247087955475]], [[0.26088929176330566]], [[0.1164521872997284]], [[-0.023737173527479172]], [[0.19259820878505707]], [[0.007752148434519768]], [[-0.12477219849824905]], [[-0.17053672671318054]], [[-0.14565496146678925]], [[-0.2762269377708435]], [[-0.09494639933109283]], [[0.2769593596458435]], [[0.02376091480255127]], [[-0.15573963522911072]], [[0.10623954981565475]], [[-0.19239142537117004]], [[-0.20402412116527557]], [[-0.3312312066555023]], [[0.23892363905906677]], [[0.05481746792793274]], [[-0.2473289519548416]], [[-0.04356057941913605]], [[0.09056835621595383]], [[-0.5254651308059692]], [[0.027514787390828133]], [[-0.1640302836894989]], [[0.18972595036029816]], [[0.1470159888267517]]], [[[-0.022335493937134743]], [[0.008381572552025318]], [[0.06352430582046509]], [[0.2340930551290512]], [[0.07204882055521011]], [[-0.014685318805277348]], [[0.06725712865591049]], [[0.04525022208690643]], [[-0.18153263628482819]], [[-0.0887041911482811]], [[-0.1128225103020668]], [[0.059017959982156754]], [[-0.015306239016354084]], [[0.051434531807899475]], [[0.061314452439546585]], [[0.0062857759185135365]], [[0.1140444427728653]], [[0.031046254560351372]], [[0.018703587353229523]], [[-0.37643930315971375]], [[0.26167285442352295]], [[0.11766517162322998]], [[-0.40746256709098816]], [[0.0319935642182827]], [[0.07777025550603867]], [[0.3558115065097809]], [[0.0033924090676009655]], [[0.1077238991856575]], [[0.18272480368614197]], [[-0.2767866253852844]], [[-0.12534759938716888]], [[-0.22986428439617157]], [[-0.09319878369569778]], [[0.11270423233509064]], [[-0.25098904967308044]], [[-0.10744227468967438]], [[0.07695332169532776]], [[-0.0723239853978157]], [[-0.06278495490550995]], [[-0.17049925029277802]], [[0.26476770639419556]], [[-0.28184500336647034]], [[0.18534930050373077]], [[0.16750910878181458]], [[0.26695072650909424]], [[0.04285017400979996]], [[-0.4246823489665985]], [[0.19159507751464844]]], [[[-0.008262687362730503]], [[0.08331059664487839]], [[-0.048347778618335724]], [[-0.12078911811113358]], [[0.0066808853298425674]], [[0.03927264362573624]], [[-0.08577214181423187]], [[-0.244371697306633]], [[-0.4807547330856323]], [[-0.11411269009113312]], [[-0.03849751874804497]], [[-0.13215774297714233]], [[-0.004397388081997633]], [[0.014685653150081635]], [[0.06901873648166656]], [[0.15677808225154877]], [[-0.2948525547981262]], [[-0.3406238257884979]], [[0.13728398084640503]], [[-0.04187411442399025]], [[0.20451506972312927]], [[0.12221094220876694]], [[0.12894566357135773]], [[-0.10371340066194534]], [[0.017660140991210938]], [[0.25328922271728516]], [[0.24006637930870056]], [[0.027187006548047066]], [[-0.17011049389839172]], [[-0.22292950749397278]], [[0.024062424898147583]], [[-0.1391388475894928]], [[-0.21466250717639923]], [[-0.20699435472488403]], [[-0.2455795407295227]], [[-0.3861919343471527]], [[-0.12324212491512299]], [[0.056471288204193115]], [[-0.03425619751214981]], [[-0.007175298407673836]], [[0.12636566162109375]], [[-0.39241260290145874]], [[-0.04968857020139694]], [[-0.03392307460308075]], [[0.7251633405685425]], [[0.006476439069956541]], [[0.2436964511871338]], [[0.17385245859622955]]], [[[-0.43643274903297424]], [[-0.10343468934297562]], [[0.05616983026266098]], [[0.06583735346794128]], [[0.06642553955316544]], [[0.0017110349144786596]], [[-0.48133760690689087]], [[-0.15454182028770447]], [[-0.14578117430210114]], [[0.302694708108902]], [[0.1335054188966751]], [[0.0722937136888504]], [[0.0286805871874094]], [[-0.08755382895469666]], [[0.064149871468544]], [[-0.0732121616601944]], [[-0.07653768360614777]], [[0.13743001222610474]], [[-0.10032694041728973]], [[0.21963216364383698]], [[-0.10018216073513031]], [[-0.0422087237238884]], [[0.2627333998680115]], [[0.01668703369796276]], [[-0.16357421875]], [[-0.13193950057029724]], [[0.21876944601535797]], [[0.01633908972144127]], [[0.009458077140152454]], [[-0.023834845051169395]], [[-0.17560645937919617]], [[0.1465953290462494]], [[0.006176606751978397]], [[-0.26910722255706787]], [[0.03021947480738163]], [[-0.1931706964969635]], [[-0.0015373127534985542]], [[0.13548828661441803]], [[0.20398467779159546]], [[-0.04768770933151245]], [[0.1297910213470459]], [[-0.25104039907455444]], [[-0.17097243666648865]], [[-0.11506475508213043]], [[-0.06629206240177155]], [[-0.1245347112417221]], [[0.23194263875484467]], [[0.05913066491484642]]], [[[-0.21691106259822845]], [[0.09320922195911407]], [[-0.04614577442407608]], [[-0.1708148717880249]], [[0.12164142727851868]], [[0.0706159695982933]], [[-0.37112298607826233]], [[0.1657247096300125]], [[-0.019411588087677956]], [[0.09069473296403885]], [[-0.20648299157619476]], [[0.06238439679145813]], [[0.03247614577412605]], [[-0.03776315599679947]], [[-0.0581575483083725]], [[0.1614251285791397]], [[-0.15385955572128296]], [[0.09896543622016907]], [[0.27171871066093445]], [[-0.17713452875614166]], [[0.20430423319339752]], [[0.038551393896341324]], [[-0.3421229124069214]], [[0.04392676055431366]], [[-0.09996116906404495]], [[-0.1771247237920761]], [[0.16609948873519897]], [[-0.4119100272655487]], [[-0.057303763926029205]], [[0.18020431697368622]], [[0.08822176605463028]], [[-0.2248106151819229]], [[0.07438425719738007]], [[0.1390382945537567]], [[0.08420033752918243]], [[0.10007450729608536]], [[0.007308510132133961]], [[-0.017926840111613274]], [[0.41294366121292114]], [[0.06401648372411728]], [[-0.3777651786804199]], [[0.2861606180667877]], [[0.15428128838539124]], [[-0.23297619819641113]], [[0.22246474027633667]], [[-0.051423992961645126]], [[-0.2539469003677368]], [[0.21114607155323029]]], [[[0.09951789677143097]], [[0.1776038557291031]], [[-0.2662258446216583]], [[0.012173145078122616]], [[-0.037570223212242126]], [[-0.3598058521747589]], [[0.20348340272903442]], [[-0.12945683300495148]], [[0.47755688428878784]], [[-0.09324974566698074]], [[-0.06279265880584717]], [[-0.2843848168849945]], [[0.118926502764225]], [[0.05807660147547722]], [[0.3164615035057068]], [[-0.1231364756822586]], [[-0.06452783942222595]], [[0.26721543073654175]], [[-0.0764368548989296]], [[-0.2929249703884125]], [[-0.06696166843175888]], [[0.07566840946674347]], [[-0.09224525839090347]], [[0.15945672988891602]], [[0.028646791353821754]], [[-0.3395197093486786]], [[0.09831234812736511]], [[0.11533746868371964]], [[0.16680817306041718]], [[0.0022164606489241123]], [[0.08737295120954514]], [[-0.3045765459537506]], [[-0.1650831550359726]], [[0.08320892602205276]], [[-0.0074082319624722]], [[-0.3514832556247711]], [[0.1089622750878334]], [[0.07560025155544281]], [[-0.1622367948293686]], [[0.05057283863425255]], [[0.09619475156068802]], [[-0.29230624437332153]], [[-0.15265625715255737]], [[0.0005033672205172479]], [[0.2890476882457733]], [[-0.08134034276008606]], [[0.39230284094810486]], [[0.04251270368695259]]], [[[-0.20916080474853516]], [[0.13754741847515106]], [[0.04527682065963745]], [[-0.08960142731666565]], [[0.087029829621315]], [[0.14487649500370026]], [[-0.14816901087760925]], [[-0.06003882735967636]], [[0.16474775969982147]], [[-0.19666042923927307]], [[0.16447359323501587]], [[-0.06518572568893433]], [[-0.16625401377677917]], [[-0.08379217237234116]], [[-0.2904626131057739]], [[0.08161111176013947]], [[-0.05842462554574013]], [[-0.13327211141586304]], [[0.1745218187570572]], [[0.0904693454504013]], [[-0.21941311657428741]], [[-0.03570061922073364]], [[-0.14080411195755005]], [[-0.01764039136469364]], [[-0.04336816817522049]], [[-0.1266649067401886]], [[0.04392379894852638]], [[0.13166652619838715]], [[0.012724705040454865]], [[0.06237601488828659]], [[0.10806218534708023]], [[-0.0158369280397892]], [[-0.1616377979516983]], [[0.14455994963645935]], [[0.13402682542800903]], [[-0.1061285063624382]], [[0.12982481718063354]], [[0.20531481504440308]], [[-0.05176457390189171]], [[-0.1409095972776413]], [[0.08794295787811279]], [[-0.19154419004917145]], [[-0.14197111129760742]], [[-0.09172984212636948]], [[0.13287627696990967]], [[0.05728403851389885]], [[0.2131035476922989]], [[-0.20355670154094696]]], [[[0.09772095829248428]], [[0.17752216756343842]], [[0.05474396422505379]], [[0.08877497166395187]], [[-0.12293229252099991]], [[-0.07600709050893784]], [[0.12506312131881714]], [[0.14804843068122864]], [[0.43349942564964294]], [[0.13628031313419342]], [[0.04292573779821396]], [[-0.08017084747552872]], [[-0.050315011292696]], [[0.1526818871498108]], [[0.272905170917511]], [[-0.013326436281204224]], [[0.14074066281318665]], [[0.19604851305484772]], [[0.04073239490389824]], [[-0.027944177389144897]], [[0.15828990936279297]], [[0.06791225075721741]], [[-0.3454139530658722]], [[-0.20535805821418762]], [[-0.04732905700802803]], [[-0.2695547044277191]], [[-0.14799074828624725]], [[0.053959619253873825]], [[0.08027643710374832]], [[0.31501394510269165]], [[0.0914824828505516]], [[-0.2521941363811493]], [[0.10646439343690872]], [[0.014535998925566673]], [[-0.13045844435691833]], [[0.17364710569381714]], [[-0.10455605387687683]], [[-0.055518921464681625]], [[-0.13741198182106018]], [[-0.15361608564853668]], [[-0.055960506200790405]], [[0.018894756212830544]], [[0.07839933782815933]], [[0.11569291353225708]], [[0.34358271956443787]], [[-0.13534434139728546]], [[0.43282878398895264]], [[0.07954999804496765]]], [[[0.15489733219146729]], [[0.10587330162525177]], [[0.16160163283348083]], [[0.1669834852218628]], [[-0.13064828515052795]], [[0.24973854422569275]], [[0.1889715939760208]], [[-0.007667179685086012]], [[0.18548621237277985]], [[-0.03054303489625454]], [[-0.09635692089796066]], [[0.17714262008666992]], [[0.10463687777519226]], [[0.03280219808220863]], [[-0.15380612015724182]], [[0.01923610083758831]], [[0.1784265786409378]], [[-0.057442229241132736]], [[-0.0027065593749284744]], [[-0.12722305953502655]], [[0.04498932510614395]], [[-0.07740360498428345]], [[0.15580959618091583]], [[0.18196536600589752]], [[-0.18543314933776855]], [[0.30696550011634827]], [[-0.008895828388631344]], [[-0.02927287109196186]], [[-0.04259452596306801]], [[0.1832415610551834]], [[-0.16833814978599548]], [[-0.049518514424562454]], [[-0.18260107934474945]], [[0.020050406455993652]], [[-0.13290072977542877]], [[0.006119337398558855]], [[-0.14974382519721985]], [[-0.12154216319322586]], [[0.31124889850616455]], [[0.035673413425683975]], [[0.10820472985506058]], [[-0.17663894593715668]], [[-0.08052775263786316]], [[0.06631656736135483]], [[0.14201287925243378]], [[-0.10542631149291992]], [[-0.37087178230285645]], [[0.2201395034790039]]], [[[0.02348276600241661]], [[0.1534063071012497]], [[-0.10065463185310364]], [[-0.11975747346878052]], [[0.10970097780227661]], [[0.040079567581415176]], [[0.06571371853351593]], [[-0.10608986020088196]], [[-0.24600990116596222]], [[-0.21044865250587463]], [[0.038503535091876984]], [[-0.1309933364391327]], [[0.005571718793362379]], [[-0.04228316992521286]], [[-0.2646263539791107]], [[0.12563571333885193]], [[-0.04633820056915283]], [[-0.48869723081588745]], [[0.16768108308315277]], [[-0.24962368607521057]], [[-0.03274613991379738]], [[0.12958353757858276]], [[-0.06896457076072693]], [[0.004437396302819252]], [[0.07565341144800186]], [[0.22915928065776825]], [[-0.4981026351451874]], [[-0.05760521441698074]], [[0.053951364010572433]], [[-0.11787498742341995]], [[0.2629344165325165]], [[-0.293944776058197]], [[-0.2878892421722412]], [[0.23368485271930695]], [[0.1623854637145996]], [[-0.20184893906116486]], [[-0.17595291137695312]], [[-0.09015081077814102]], [[-0.2209014892578125]], [[0.101686991751194]], [[0.21834973990917206]], [[-0.26598450541496277]], [[0.06753525882959366]], [[-0.037067484110593796]], [[-0.40644964575767517]], [[-0.0179190244525671]], [[-0.2461068332195282]], [[-0.3752056956291199]]], [[[-0.21799083054065704]], [[-0.12898963689804077]], [[0.13623976707458496]], [[0.07244616746902466]], [[-0.07142569124698639]], [[0.22147132456302643]], [[0.06409803777933121]], [[0.189609557390213]], [[-0.1577160507440567]], [[-0.1501002460718155]], [[-0.049039922654628754]], [[0.07529966533184052]], [[0.24287676811218262]], [[0.022600429132580757]], [[0.10869435220956802]], [[0.0330427922308445]], [[-0.2227238267660141]], [[0.09242952615022659]], [[0.051651738584041595]], [[-0.007932091131806374]], [[-0.0051598381251096725]], [[0.09295078366994858]], [[0.1330394744873047]], [[0.4257510304450989]], [[0.16360625624656677]], [[-0.16415216028690338]], [[-0.06472188979387283]], [[-0.005904082674533129]], [[-0.06637424230575562]], [[0.12627865374088287]], [[-0.013612212613224983]], [[0.021817026659846306]], [[-0.15119212865829468]], [[-0.06366855651140213]], [[0.06426825374364853]], [[0.043095070868730545]], [[-0.0661306157708168]], [[0.07911386340856552]], [[0.03415246680378914]], [[-0.10898331552743912]], [[0.46193766593933105]], [[-0.05724109336733818]], [[0.056478407233953476]], [[-0.011987973004579544]], [[-0.08131767064332962]], [[-0.343672513961792]], [[0.07247159630060196]], [[0.564157247543335]]], [[[-0.17038263380527496]], [[-0.03096095286309719]], [[0.3069339096546173]], [[0.004327760543674231]], [[0.007778047118335962]], [[-0.23524288833141327]], [[-0.6360963582992554]], [[0.5739679932594299]], [[-0.2805810570716858]], [[-0.19820930063724518]], [[0.09211033582687378]], [[-0.07908471673727036]], [[-0.05511831119656563]], [[0.35505855083465576]], [[0.2987925410270691]], [[-0.08008788526058197]], [[-0.013207681477069855]], [[0.09435319155454636]], [[-0.04172741249203682]], [[0.2731074392795563]], [[-0.019396599382162094]], [[0.32224521040916443]], [[-0.3978065550327301]], [[-0.09548904001712799]], [[0.19757048785686493]], [[-0.22110311686992645]], [[0.05872747302055359]], [[0.043113064020872116]], [[-0.008938987739384174]], [[-0.03460996598005295]], [[0.20154832303524017]], [[0.020501641556620598]], [[-0.08134166896343231]], [[0.03318147361278534]], [[0.10841667652130127]], [[-0.03447217494249344]], [[-0.34188708662986755]], [[0.0361514538526535]], [[-0.23882371187210083]], [[0.2581654191017151]], [[-0.00472151767462492]], [[0.06495262682437897]], [[0.19978322088718414]], [[-0.1331121325492859]], [[-0.012803690508008003]], [[-0.3505171537399292]], [[0.06764927506446838]], [[0.3064837157726288]]], [[[-0.16909652948379517]], [[-0.2637234926223755]], [[0.11526089906692505]], [[0.03538614138960838]], [[-0.15514954924583435]], [[-0.015621023252606392]], [[-0.2319975644350052]], [[0.21158769726753235]], [[-0.13013918697834015]], [[-0.16871431469917297]], [[-0.05683067813515663]], [[0.16888386011123657]], [[0.11688173562288284]], [[0.1854516714811325]], [[0.019772784784436226]], [[-0.12401757389307022]], [[0.10121439397335052]], [[0.31468018889427185]], [[0.25426897406578064]], [[0.28023484349250793]], [[-0.3902447819709778]], [[0.23715776205062866]], [[0.20516662299633026]], [[0.11183875054121017]], [[-0.17534607648849487]], [[-0.22675982117652893]], [[-0.15344148874282837]], [[0.02080812118947506]], [[-0.19497202336788177]], [[0.14371934533119202]], [[0.0738597959280014]], [[0.028262196108698845]], [[-0.20336656272411346]], [[0.09759559482336044]], [[0.1785174012184143]], [[-0.03542494773864746]], [[0.014163048006594181]], [[-0.22406525909900665]], [[-0.026504550129175186]], [[0.0956801027059555]], [[-0.16030777990818024]], [[0.08318690210580826]], [[-0.08678647130727768]], [[-0.005161729641258717]], [[-0.4314059019088745]], [[0.0898357406258583]], [[-0.11345983296632767]], [[-0.12237996608018875]]], [[[0.07820085436105728]], [[0.13446830213069916]], [[0.11980732530355453]], [[0.017624501138925552]], [[0.053870152682065964]], [[-0.016084719449281693]], [[0.137779101729393]], [[0.31536316871643066]], [[-0.07495991885662079]], [[0.03494185954332352]], [[0.2382301390171051]], [[-0.19363205134868622]], [[-0.049956150352954865]], [[-0.049097657203674316]], [[0.10252199321985245]], [[0.19578516483306885]], [[0.15382952988147736]], [[0.07739056646823883]], [[0.03326836973428726]], [[0.022921321913599968]], [[0.09411700814962387]], [[0.2056427299976349]], [[-0.1892145574092865]], [[-0.15694080293178558]], [[-0.14998728036880493]], [[0.09233253449201584]], [[0.07196195423603058]], [[-0.02372881956398487]], [[0.26944637298583984]], [[-0.11314181238412857]], [[-0.0624636672437191]], [[-0.010004553943872452]], [[0.08602528274059296]], [[0.1619107723236084]], [[-0.08886980265378952]], [[-0.0184496883302927]], [[-0.08982941508293152]], [[0.08724042028188705]], [[0.20536857843399048]], [[0.009553349576890469]], [[0.04668371379375458]], [[0.1775859296321869]], [[-0.1534632295370102]], [[0.2727290987968445]], [[0.01666395738720894]], [[0.0702827200293541]], [[-0.17443713545799255]], [[-0.17514410614967346]]], [[[-0.2554771304130554]], [[0.11661209911108017]], [[0.04646196961402893]], [[0.028420597314834595]], [[0.2932751476764679]], [[0.06597044318914413]], [[0.12556935846805573]], [[-0.16833515465259552]], [[0.0687325969338417]], [[-0.15539367496967316]], [[0.046193815767765045]], [[0.07970305532217026]], [[0.15882085263729095]], [[-0.23260460793972015]], [[0.12243489176034927]], [[-0.32574066519737244]], [[-0.20647728443145752]], [[0.20795784890651703]], [[0.07778648287057877]], [[-0.26672956347465515]], [[-0.06907185912132263]], [[0.0952778086066246]], [[0.43287795782089233]], [[-0.05065109580755234]], [[0.16372063755989075]], [[0.05658780783414841]], [[0.2045244425535202]], [[0.09606564790010452]], [[0.09504380822181702]], [[-0.17991818487644196]], [[-0.17259712517261505]], [[-0.2043614536523819]], [[0.08726529031991959]], [[0.07602684944868088]], [[0.025972584262490273]], [[-0.06855524331331253]], [[-0.13979323208332062]], [[0.08139859884977341]], [[0.09194523096084595]], [[0.0766567587852478]], [[-0.19685806334018707]], [[-0.18750526010990143]], [[0.2492002546787262]], [[-0.030833775177598]], [[-0.055008914321660995]], [[-0.1812092363834381]], [[0.026894783601164818]], [[0.18635156750679016]]], [[[0.06865813583135605]], [[-0.1251201629638672]], [[-0.19449326395988464]], [[-0.1607130616903305]], [[-0.19727696478366852]], [[-0.010646743699908257]], [[0.16405417025089264]], [[-0.5425242185592651]], [[-0.2085997611284256]], [[-0.1710336059331894]], [[-0.10689723491668701]], [[0.22023135423660278]], [[-0.21523764729499817]], [[0.049959439784288406]], [[-0.029010212048888206]], [[-0.04379354417324066]], [[0.0042885672301054]], [[0.17568346858024597]], [[0.12335838377475739]], [[-0.10571255534887314]], [[-0.14827807247638702]], [[0.20055824518203735]], [[-0.13802433013916016]], [[0.06885635852813721]], [[0.023680493235588074]], [[0.0025099078193306923]], [[0.2808360755443573]], [[-0.10601044446229935]], [[-0.04490315541625023]], [[-0.10385631769895554]], [[-0.06333056092262268]], [[0.22689081728458405]], [[0.18410538136959076]], [[0.1317211240530014]], [[-0.13822272419929504]], [[0.17361055314540863]], [[-0.18517833948135376]], [[-0.1671643853187561]], [[-0.08345965296030045]], [[-0.15513736009597778]], [[0.1171601191163063]], [[-0.10211214423179626]], [[-0.09654668718576431]], [[0.07277721911668777]], [[-0.41314777731895447]], [[-0.3230133056640625]], [[-0.331199049949646]], [[0.2603040337562561]]], [[[-0.16906607151031494]], [[-0.11659260839223862]], [[0.17202115058898926]], [[-0.225712850689888]], [[0.04554007574915886]], [[-0.11515285819768906]], [[0.08066205680370331]], [[0.08332780003547668]], [[-0.4157711863517761]], [[-0.1618690937757492]], [[0.24115492403507233]], [[-0.3817690908908844]], [[0.08283131569623947]], [[-0.06669315695762634]], [[-0.1141168624162674]], [[0.1186789944767952]], [[-0.03755573555827141]], [[-0.39266934990882874]], [[-0.06482705473899841]], [[-0.1352013796567917]], [[-0.08613857626914978]], [[-0.05589253827929497]], [[0.24211713671684265]], [[-0.2951238453388214]], [[-0.021519765257835388]], [[0.4335034489631653]], [[0.00021820978145115077]], [[-0.33977216482162476]], [[0.05386872589588165]], [[-0.275799959897995]], [[-0.023681508377194405]], [[-0.09680553525686264]], [[0.019194889813661575]], [[0.0577646940946579]], [[0.21831399202346802]], [[-0.5534440279006958]], [[-0.09128324687480927]], [[0.25825512409210205]], [[0.18421043455600739]], [[-0.15404866635799408]], [[0.25437331199645996]], [[-0.13394680619239807]], [[-0.2988625466823578]], [[0.05496491119265556]], [[0.2306486815214157]], [[-0.10202920436859131]], [[-0.07804398238658905]], [[0.0703330859541893]]], [[[-0.26795798540115356]], [[-0.18488723039627075]], [[0.1336987316608429]], [[-0.023305796086788177]], [[-0.1936672031879425]], [[-0.020518213510513306]], [[0.392302542924881]], [[0.24266764521598816]], [[-0.09919724613428116]], [[-0.19610464572906494]], [[-0.13304884731769562]], [[0.054587919265031815]], [[0.018370309844613075]], [[0.0012516097631305456]], [[0.16554030776023865]], [[0.10188860446214676]], [[0.08417735993862152]], [[0.04246415197849274]], [[-0.02163214422762394]], [[0.07967647910118103]], [[-0.18070770800113678]], [[0.07069370150566101]], [[-0.01726263388991356]], [[0.01769140362739563]], [[-0.06488893181085587]], [[-0.01766381971538067]], [[0.20743708312511444]], [[0.07666407525539398]], [[-0.1250525712966919]], [[-0.03633866831660271]], [[-0.057589028030633926]], [[0.2730739116668701]], [[0.28039953112602234]], [[0.005316291470080614]], [[0.008822680450975895]], [[-0.12131144106388092]], [[0.003630239050835371]], [[-0.06490006297826767]], [[-0.14322710037231445]], [[-0.19638532400131226]], [[-0.06613045185804367]], [[0.16287550330162048]], [[0.026240229606628418]], [[-0.1153583973646164]], [[-0.15645670890808105]], [[0.3459170162677765]], [[0.14227694272994995]], [[0.2584924101829529]]], [[[0.26587817072868347]], [[-0.03977927193045616]], [[0.10963011533021927]], [[-0.2862975001335144]], [[0.06022918224334717]], [[0.14207367599010468]], [[0.23600918054580688]], [[-0.20052918791770935]], [[-0.2461100071668625]], [[-0.09507405757904053]], [[0.03165404871106148]], [[0.10759393125772476]], [[0.022917669266462326]], [[0.031403351575136185]], [[-0.32559940218925476]], [[-0.13305902481079102]], [[-0.23517921566963196]], [[0.20374147593975067]], [[-0.11289921402931213]], [[0.09332786500453949]], [[-0.18544530868530273]], [[-0.03831843286752701]], [[0.3842727243900299]], [[-0.24139033257961273]], [[-0.06768415123224258]], [[0.002454829402267933]], [[0.1691751480102539]], [[0.06922423094511032]], [[0.11455786973237991]], [[0.2854505479335785]], [[-0.06302675604820251]], [[0.1716560572385788]], [[-0.30909425020217896]], [[-0.024439454078674316]], [[0.18953226506710052]], [[-0.1262691169977188]], [[0.11685402691364288]], [[0.05407004430890083]], [[0.5043072700500488]], [[0.15983445942401886]], [[0.2853143513202667]], [[-0.4115571677684784]], [[-0.19007056951522827]], [[-0.2737661302089691]], [[0.04716965928673744]], [[-0.06234956905245781]], [[0.021980473771691322]], [[0.10242822766304016]]], [[[-0.0873999148607254]], [[0.04981875419616699]], [[0.26224443316459656]], [[0.02807333692908287]], [[-0.059911083430051804]], [[-0.013110027648508549]], [[0.12445223331451416]], [[0.25979694724082947]], [[-0.0346403643488884]], [[-0.03770517557859421]], [[-0.32810908555984497]], [[0.08124064654111862]], [[0.3065735697746277]], [[-0.27013492584228516]], [[0.01192622259259224]], [[-0.00029823952354490757]], [[-0.10409239679574966]], [[0.0855167955160141]], [[0.2313494235277176]], [[-0.4495454728603363]], [[0.030176622793078423]], [[0.26095420122146606]], [[-0.11407971382141113]], [[0.25631532073020935]], [[0.3409968316555023]], [[-0.3239831328392029]], [[-0.07933227717876434]], [[-0.13383926451206207]], [[-0.22730092704296112]], [[0.013766276650130749]], [[0.06987429410219193]], [[-0.19818058609962463]], [[0.17550615966320038]], [[0.23816387355327606]], [[-0.2765371799468994]], [[0.09041042625904083]], [[0.12621457874774933]], [[-0.3612755537033081]], [[-0.09055992215871811]], [[0.07350198179483414]], [[-0.27225741744041443]], [[0.14318858087062836]], [[0.12874957919120789]], [[-0.25616398453712463]], [[0.19618812203407288]], [[0.1431426703929901]], [[-0.39944785833358765]], [[0.10528088361024857]]], [[[-0.22135791182518005]], [[-0.025626854971051216]], [[0.48980072140693665]], [[-0.2634740471839905]], [[-0.17697694897651672]], [[0.26347431540489197]], [[0.1683170199394226]], [[0.06925593316555023]], [[-0.19915945827960968]], [[0.04638003930449486]], [[-0.04843209683895111]], [[0.12632912397384644]], [[0.153353750705719]], [[0.07583043724298477]], [[-0.43573513627052307]], [[0.056557368487119675]], [[-0.14216268062591553]], [[0.3595871031284332]], [[-0.2750207781791687]], [[-0.04214465990662575]], [[-0.0759047269821167]], [[-0.0636439323425293]], [[0.003958591725677252]], [[0.34118562936782837]], [[0.08822885155677795]], [[0.15763448178768158]], [[-0.09695657342672348]], [[-0.04102158918976784]], [[-0.17041166126728058]], [[0.18490764498710632]], [[-0.11641135066747665]], [[0.025193538516759872]], [[-0.20924220979213715]], [[-0.05490436777472496]], [[0.023445622995495796]], [[0.17588162422180176]], [[0.10361654311418533]], [[0.0070866066962480545]], [[0.5290189385414124]], [[-0.059166498482227325]], [[0.06408759206533432]], [[-0.20937077701091766]], [[0.08207207918167114]], [[-0.056256745010614395]], [[-0.10239976644515991]], [[0.07813721895217896]], [[-0.062184207141399384]], [[0.0868467316031456]]], [[[0.0859234482049942]], [[-0.0001291613298235461]], [[0.29979366064071655]], [[0.053438715636730194]], [[-0.07647623866796494]], [[0.05098351463675499]], [[-0.17925818264484406]], [[-0.047386426478624344]], [[0.3854355216026306]], [[0.03367157652974129]], [[-0.1105901226401329]], [[-0.08494854718446732]], [[-0.021780436858534813]], [[0.013113385066390038]], [[-0.04585827887058258]], [[0.13310497999191284]], [[0.07378552109003067]], [[0.04433097317814827]], [[-0.13762784004211426]], [[0.08357477933168411]], [[0.047437652945518494]], [[0.10913389921188354]], [[-0.14524978399276733]], [[0.08035069704055786]], [[-0.05901700630784035]], [[-0.2156243771314621]], [[-0.0888083204627037]], [[-0.0034371092915534973]], [[0.017013369128108025]], [[0.06162160634994507]], [[-0.21797235310077667]], [[0.02329029142856598]], [[0.023212173953652382]], [[0.03243784233927727]], [[-0.1179647147655487]], [[-0.06788739562034607]], [[0.02804214134812355]], [[0.1498228758573532]], [[-0.0031105850357562304]], [[0.0245407372713089]], [[0.0702892318367958]], [[-0.016954544931650162]], [[-0.03614722192287445]], [[0.11462583392858505]], [[0.03653814643621445]], [[0.12139792740345001]], [[0.15029895305633545]], [[0.278335839509964]]], [[[-0.10050921142101288]], [[0.09022150188684464]], [[0.0948023647069931]], [[-0.2565510869026184]], [[-0.04537380486726761]], [[-0.03672390431165695]], [[0.24771817028522491]], [[0.23962178826332092]], [[0.19789747893810272]], [[-0.32937508821487427]], [[0.20430786907672882]], [[-0.39002203941345215]], [[0.0965426042675972]], [[0.17665162682533264]], [[-0.11017262190580368]], [[-0.11049319803714752]], [[0.29752135276794434]], [[-0.4904375970363617]], [[0.2049086093902588]], [[-0.08290477842092514]], [[-0.1611626148223877]], [[0.06179331988096237]], [[0.11237968504428864]], [[-0.32385313510894775]], [[-0.026493798941373825]], [[0.17791613936424255]], [[-0.2752307057380676]], [[-0.07751119881868362]], [[0.19033710658550262]], [[0.00014984946756158024]], [[-0.036572907119989395]], [[0.1745271384716034]], [[-0.24186807870864868]], [[0.10878487676382065]], [[0.3327180743217468]], [[-0.14448414742946625]], [[-0.05876338481903076]], [[0.13273467123508453]], [[-0.23980078101158142]], [[-0.04820986092090607]], [[0.20486511290073395]], [[-0.23186179995536804]], [[-0.05773189291357994]], [[0.3077053129673004]], [[-0.3044838011264801]], [[-0.056271620094776154]], [[0.09095842391252518]], [[-0.3308199942111969]]], [[[-0.22361278533935547]], [[0.060694027692079544]], [[0.07713811844587326]], [[-0.2323981672525406]], [[0.06117422878742218]], [[0.08230949938297272]], [[-0.010075217112898827]], [[-0.15816059708595276]], [[-0.09344340115785599]], [[-0.11663374304771423]], [[-0.36759665608406067]], [[-0.4435478746891022]], [[0.0851496234536171]], [[-0.18193571269512177]], [[-0.23448361456394196]], [[-0.06753401458263397]], [[-0.19783571362495422]], [[-0.39327430725097656]], [[0.08914481103420258]], [[-0.2349066287279129]], [[-0.318564236164093]], [[-0.15379400551319122]], [[-0.29476141929626465]], [[-0.44367048144340515]], [[0.14891624450683594]], [[-0.03910238295793533]], [[-0.3998563587665558]], [[-0.05937735736370087]], [[-0.14760056138038635]], [[-0.08403022587299347]], [[0.003613221924751997]], [[-0.19598934054374695]], [[-0.18572521209716797]], [[-0.007532534655183554]], [[-0.2828156650066376]], [[-0.18484918773174286]], [[-0.09259004890918732]], [[-0.21847686171531677]], [[-0.4023638963699341]], [[0.010902385227382183]], [[-0.17438971996307373]], [[-0.22479407489299774]], [[-0.07020548731088638]], [[-0.23074236512184143]], [[-0.26617735624313354]], [[-0.25951144099235535]], [[-0.2212032675743103]], [[-0.6217193007469177]]], [[[-0.6170089244842529]], [[0.06411127746105194]], [[-0.09204667061567307]], [[-0.5783098340034485]], [[-0.029777538031339645]], [[0.04983985424041748]], [[-0.028498413041234016]], [[0.009567752480506897]], [[0.048263899981975555]], [[-0.4203445613384247]], [[-0.14168129861354828]], [[0.060005173087120056]], [[0.09424060583114624]], [[0.0893574208021164]], [[-0.14925120770931244]], [[0.043990422040224075]], [[-0.23247723281383514]], [[-0.029868673533201218]], [[0.07344178855419159]], [[-0.14859139919281006]], [[0.0868687853217125]], [[0.055861301720142365]], [[-0.06505002081394196]], [[-0.021471427753567696]], [[0.17784757912158966]], [[-0.03858010843396187]], [[-0.04109438508749008]], [[0.040579892694950104]], [[0.08320251107215881]], [[0.15448956191539764]], [[0.22901730239391327]], [[-0.10256094485521317]], [[0.0929030179977417]], [[0.10488750785589218]], [[0.015450740233063698]], [[0.2822839915752411]], [[0.12248965352773666]], [[-0.34704697132110596]], [[-0.02328955940902233]], [[0.10027089715003967]], [[-0.17568346858024597]], [[0.1968117505311966]], [[0.11681550741195679]], [[-0.030077528208494186]], [[0.18528886139392853]], [[0.07918276637792587]], [[-0.07334170490503311]], [[-0.12613460421562195]]], [[[-0.161550834774971]], [[0.024188091978430748]], [[0.06853743642568588]], [[-0.38544824719429016]], [[-0.25268542766571045]], [[-0.19512686133384705]], [[-0.26880496740341187]], [[0.1903395801782608]], [[-0.23139841854572296]], [[-0.3210865557193756]], [[-0.3697338104248047]], [[-0.21819591522216797]], [[-0.13778945803642273]], [[0.11120621860027313]], [[0.26592928171157837]], [[-0.10998095571994781]], [[0.19588759541511536]], [[0.15847639739513397]], [[-0.1009630560874939]], [[-0.04898689314723015]], [[0.13480722904205322]], [[0.26050809025764465]], [[0.04574516788125038]], [[0.2659907937049866]], [[-0.29527413845062256]], [[0.014827377162873745]], [[-0.07440405339002609]], [[0.13686704635620117]], [[0.10572237521409988]], [[-0.05376313999295235]], [[0.3810475468635559]], [[-0.08690743148326874]], [[-0.12904603779315948]], [[0.053602881729602814]], [[0.07379257678985596]], [[-0.06717083603143692]], [[0.030083347111940384]], [[0.22223730385303497]], [[-0.012890410609543324]], [[-0.34674787521362305]], [[-0.11897686868906021]], [[-0.14447171986103058]], [[0.07921615242958069]], [[-0.12043800204992294]], [[-0.35029393434524536]], [[-0.035347361117601395]], [[0.09245948493480682]], [[-0.19628359377384186]]], [[[0.05482814460992813]], [[0.07822917401790619]], [[0.05995827540755272]], [[0.15182077884674072]], [[0.11703065037727356]], [[-0.11987651884555817]], [[0.1252564787864685]], [[0.39239129424095154]], [[0.0959993526339531]], [[-0.2926237881183624]], [[0.1853404939174652]], [[0.17923705279827118]], [[-0.03892256319522858]], [[-0.2497643530368805]], [[0.00022962974617257714]], [[-0.028603874146938324]], [[0.1710822880268097]], [[-0.1852020025253296]], [[0.10965251922607422]], [[0.228009432554245]], [[0.0029083676636219025]], [[0.2590164244174957]], [[0.1214645504951477]], [[-0.0637500062584877]], [[-0.1974378228187561]], [[-0.13681134581565857]], [[0.09645497053861618]], [[-0.1516069620847702]], [[0.18859437108039856]], [[0.09225382655858994]], [[0.13086163997650146]], [[0.09074027091264725]], [[-0.12285537272691727]], [[0.05397893488407135]], [[0.026409171521663666]], [[-0.19030994176864624]], [[-0.06925446540117264]], [[0.10436762124300003]], [[-0.07723630219697952]], [[-0.08171389997005463]], [[0.3774389326572418]], [[0.0967068150639534]], [[0.013144535012543201]], [[-0.4619157910346985]], [[-0.27840086817741394]], [[-0.1313081979751587]], [[-0.10762900114059448]], [[-0.2214147448539734]]], [[[0.11108614504337311]], [[0.06893635541200638]], [[0.10751443356275558]], [[-0.19173327088356018]], [[0.03575420752167702]], [[-0.0976569876074791]], [[0.05677274614572525]], [[-0.07224741578102112]], [[-0.06483138352632523]], [[-0.010770338587462902]], [[-0.0678611770272255]], [[-0.1631511002779007]], [[-0.07177503407001495]], [[-0.1588522046804428]], [[0.17923493683338165]], [[0.07421382516622543]], [[-0.3504815995693207]], [[-0.48224183917045593]], [[0.0602848082780838]], [[0.13916949927806854]], [[-0.02009478025138378]], [[-0.10804350674152374]], [[0.411017507314682]], [[0.014327014796435833]], [[-0.017790984362363815]], [[0.15689025819301605]], [[0.0747900903224945]], [[-0.22340306639671326]], [[-0.2233337014913559]], [[-0.21879833936691284]], [[0.006241357885301113]], [[0.006741353776305914]], [[-0.04302648827433586]], [[-0.012972623109817505]], [[0.009720311500132084]], [[-0.19373326003551483]], [[0.03937031701207161]], [[0.3232160806655884]], [[-0.39923080801963806]], [[-0.09880689531564713]], [[0.43125617504119873]], [[0.2600574791431427]], [[0.0752902701497078]], [[-0.18151558935642242]], [[-0.18809184432029724]], [[0.07029876857995987]], [[0.0390973724424839]], [[-0.19212932884693146]]], [[[-0.04560714215040207]], [[0.0849432423710823]], [[0.33037811517715454]], [[-0.1793878674507141]], [[0.11185111850500107]], [[0.2179701328277588]], [[-0.08257132023572922]], [[-0.3388959467411041]], [[0.1504533290863037]], [[0.17871299386024475]], [[-0.07001592963933945]], [[0.13359856605529785]], [[-0.05178520828485489]], [[-0.05969107896089554]], [[0.1687651127576828]], [[0.07041944563388824]], [[0.3099648654460907]], [[0.32869189977645874]], [[-0.10333268344402313]], [[0.2307559847831726]], [[0.0005109853227622807]], [[0.06928446888923645]], [[0.04222358390688896]], [[-0.0798853188753128]], [[-0.08959005773067474]], [[0.15477809309959412]], [[0.0006736725918017328]], [[0.011648776941001415]], [[-0.0673261359333992]], [[-0.1199464499950409]], [[0.018081536516547203]], [[0.04319940507411957]], [[-0.09764278680086136]], [[-0.02649940736591816]], [[0.01204619463533163]], [[0.08890151977539062]], [[-0.010028140619397163]], [[-0.30574366450309753]], [[-0.08799396455287933]], [[-0.11939293146133423]], [[0.01642458885908127]], [[0.002090781694278121]], [[0.03790542483329773]], [[-0.06665018945932388]], [[-0.2359786331653595]], [[0.10105256736278534]], [[-0.09114481508731842]], [[0.29294148087501526]]], [[[0.15326188504695892]], [[0.021154826506972313]], [[-0.05566645413637161]], [[-0.03721575438976288]], [[-0.0007948486600071192]], [[0.03720524534583092]], [[0.06654325872659683]], [[0.04760880023241043]], [[0.052475180476903915]], [[-0.08860281109809875]], [[-0.21257111430168152]], [[-0.16844013333320618]], [[0.018901128321886063]], [[-0.002705823862925172]], [[0.12442048639059067]], [[-0.12283401191234589]], [[-0.13570837676525116]], [[-0.5144577026367188]], [[0.0805191695690155]], [[-0.3611832857131958]], [[0.4154757559299469]], [[0.08075914531946182]], [[-0.39587530493736267]], [[0.05339471623301506]], [[0.06867968291044235]], [[-0.043193645775318146]], [[-0.4119919240474701]], [[0.006398806814104319]], [[-0.07097660005092621]], [[-0.3775145709514618]], [[-0.10655836760997772]], [[-0.4065282642841339]], [[-0.3216274380683899]], [[0.03182034194469452]], [[-0.4207982122898102]], [[-0.003208477981388569]], [[-0.102696992456913]], [[-0.27086228132247925]], [[-0.31248387694358826]], [[-0.11302272975444794]], [[0.10633037239313126]], [[0.011273404583334923]], [[-0.0710068941116333]], [[-0.20275138318538666]], [[0.2626335024833679]], [[-0.06357865035533905]], [[-0.22701337933540344]], [[0.14539900422096252]]], [[[-0.16722922027111053]], [[0.0010567164281383157]], [[-0.18952760100364685]], [[-0.13416989147663116]], [[0.14164289832115173]], [[-0.10320188850164413]], [[0.013861732557415962]], [[0.3382118046283722]], [[-0.16168679296970367]], [[-0.16071189939975739]], [[0.2686927616596222]], [[0.048443518579006195]], [[0.055235594511032104]], [[-0.5393476486206055]], [[0.26508110761642456]], [[-0.07748854160308838]], [[-0.26922184228897095]], [[-0.47178563475608826]], [[0.10557688027620316]], [[0.32955166697502136]], [[0.04727114364504814]], [[-0.0930289626121521]], [[0.06925726681947708]], [[0.15930527448654175]], [[-0.08746158331632614]], [[-0.38222768902778625]], [[0.4044172167778015]], [[-0.029022589325904846]], [[0.2531341314315796]], [[-0.17207632958889008]], [[0.1321392059326172]], [[0.3508129417896271]], [[0.08058711886405945]], [[0.06615661084651947]], [[0.4973072409629822]], [[-0.2698908746242523]], [[-0.12526792287826538]], [[-0.15632334351539612]], [[-0.032364509999752045]], [[0.03220754116773605]], [[0.7447222471237183]], [[0.11872710287570953]], [[-0.10494378954172134]], [[-0.6974762678146362]], [[0.1577529013156891]], [[0.1172003224492073]], [[0.015169934369623661]], [[-0.1347074657678604]]], [[[0.22429625689983368]], [[-0.07690311968326569]], [[0.14739437401294708]], [[0.02562982216477394]], [[0.06881639361381531]], [[-0.18874716758728027]], [[-0.8003473281860352]], [[0.1807965636253357]], [[-0.004546944983303547]], [[-0.3286517858505249]], [[0.2654550075531006]], [[0.12198688834905624]], [[0.014308091253042221]], [[-0.07599027454853058]], [[0.06283055990934372]], [[-0.02011103928089142]], [[-0.23336759209632874]], [[0.08851993083953857]], [[-0.1432921290397644]], [[-0.22456711530685425]], [[-0.06121257692575455]], [[0.0017287981463596225]], [[0.1087130457162857]], [[-0.044836804270744324]], [[-0.022993961349129677]], [[0.06532814353704453]], [[-0.21907924115657806]], [[-0.09759459644556046]], [[0.033836234360933304]], [[-0.15073147416114807]], [[-0.1326785683631897]], [[-0.3403615355491638]], [[0.2034553736448288]], [[0.05280682072043419]], [[-0.04645979404449463]], [[-0.04499462991952896]], [[0.12892554700374603]], [[0.1800730973482132]], [[-0.19185613095760345]], [[-0.10119962692260742]], [[-0.009457889944314957]], [[0.03214661404490471]], [[0.18076510727405548]], [[0.06850115954875946]], [[-0.005613728892058134]], [[-0.019626855850219727]], [[0.18114225566387177]], [[0.30632463097572327]]], [[[-0.09581410139799118]], [[0.1442565619945526]], [[0.21687650680541992]], [[-0.09207294881343842]], [[0.09573829919099808]], [[0.3553830087184906]], [[-0.031737588346004486]], [[-0.09046879410743713]], [[0.31718072295188904]], [[0.014411037787795067]], [[-0.15537554025650024]], [[0.13473492860794067]], [[-0.2188156098127365]], [[0.17561285197734833]], [[0.03639988973736763]], [[0.22139352560043335]], [[0.33840611577033997]], [[0.27819761633872986]], [[-0.037343401461839676]], [[-0.22874513268470764]], [[0.024228472262620926]], [[-0.022076016291975975]], [[-0.1130453571677208]], [[0.1466377079486847]], [[0.05035538971424103]], [[0.008021839894354343]], [[0.0022282609716057777]], [[-0.10033021122217178]], [[-0.06012456864118576]], [[-0.032012440264225006]], [[-0.07483505457639694]], [[0.09221984446048737]], [[0.4141092002391815]], [[0.3068331480026245]], [[-0.42783764004707336]], [[0.02228780835866928]], [[0.0853106901049614]], [[-0.0502786710858345]], [[-0.008506692945957184]], [[-0.18245935440063477]], [[0.142179936170578]], [[-0.12115618586540222]], [[0.10614574700593948]], [[0.006318912375718355]], [[-0.18682542443275452]], [[-0.029401782900094986]], [[0.09559401869773865]], [[0.33070507645606995]]], [[[-0.2047128826379776]], [[0.011608898639678955]], [[-0.08349797129631042]], [[-0.0004097394412383437]], [[0.015016796067357063]], [[-0.014626068994402885]], [[0.21548545360565186]], [[-0.09511429071426392]], [[-0.38682904839515686]], [[-0.08237838000059128]], [[0.11493496596813202]], [[-0.020053796470165253]], [[0.010180672630667686]], [[-0.2757793962955475]], [[0.037711434066295624]], [[0.04906157776713371]], [[0.10145600140094757]], [[0.018697556108236313]], [[0.35166651010513306]], [[0.09967705607414246]], [[-0.30302417278289795]], [[0.0393720380961895]], [[-0.055660828948020935]], [[0.1442798674106598]], [[-0.06427083909511566]], [[0.04160328209400177]], [[0.11517858505249023]], [[-0.18206408619880676]], [[-0.21039314568042755]], [[-0.1353786736726761]], [[-0.02082209661602974]], [[0.49061015248298645]], [[-0.41076576709747314]], [[-0.06538908183574677]], [[0.2083803415298462]], [[-0.1284199357032776]], [[-0.05713736638426781]], [[-0.10574483871459961]], [[0.04461253061890602]], [[-0.045356400310993195]], [[-0.07553935050964355]], [[-0.4458068609237671]], [[0.13849452137947083]], [[0.0028157534543424845]], [[0.26093554496765137]], [[-0.013143165968358517]], [[0.2377067357301712]], [[-0.30468451976776123]]], [[[0.11506744474172592]], [[0.07969292998313904]], [[0.04762612283229828]], [[-0.08123952895402908]], [[0.18330563604831696]], [[0.3231264054775238]], [[0.2565052807331085]], [[-0.05189163610339165]], [[0.47814586758613586]], [[-0.3385825455188751]], [[-0.2009403109550476]], [[-0.418160617351532]], [[0.13025180995464325]], [[-0.08692869544029236]], [[-0.09742570668458939]], [[-0.005295653361827135]], [[-0.12111026048660278]], [[0.08640315383672714]], [[0.0650944858789444]], [[-0.21683190762996674]], [[-0.2619485855102539]], [[-0.07111003249883652]], [[-0.0200904943048954]], [[-0.16015665233135223]], [[0.14294776320457458]], [[-0.06705482304096222]], [[0.1334228813648224]], [[-0.16466379165649414]], [[-0.2370205968618393]], [[-0.06405820697546005]], [[0.0012032935628667474]], [[-0.03081372193992138]], [[-0.17979145050048828]], [[0.026643486693501472]], [[0.32280421257019043]], [[0.22902117669582367]], [[0.08935707062482834]], [[-0.22689694166183472]], [[0.44368019700050354]], [[-0.003283160040155053]], [[0.1388894021511078]], [[0.4142968952655792]], [[-0.15348592400550842]], [[-0.00790126621723175]], [[0.39122113585472107]], [[-0.10138655453920364]], [[-0.5263757109642029]], [[-0.041110869497060776]]], [[[-0.22223779559135437]], [[0.07511083781719208]], [[-0.03752889856696129]], [[-0.1546677052974701]], [[-0.03505057841539383]], [[-0.12323512136936188]], [[-0.23588715493679047]], [[0.1004667654633522]], [[-0.14482928812503815]], [[-0.026585396379232407]], [[-0.0018905652686953545]], [[0.016714509576559067]], [[0.24837751686573029]], [[0.006703010760247707]], [[-0.21843090653419495]], [[0.2206212282180786]], [[-0.14552041888237]], [[0.2064780294895172]], [[0.026769939810037613]], [[0.0200040303170681]], [[-0.007056716829538345]], [[-0.21411846578121185]], [[0.2876889407634735]], [[-0.04751133173704147]], [[0.038093455135822296]], [[-0.0714949294924736]], [[-0.09058616310358047]], [[-0.2341640144586563]], [[-0.02613101527094841]], [[0.2805301249027252]], [[0.16268318891525269]], [[0.17419730126857758]], [[-0.3002404272556305]], [[-0.1904900074005127]], [[0.11188726872205734]], [[-0.16226410865783691]], [[0.039576683193445206]], [[0.2653031349182129]], [[-0.05212659016251564]], [[-0.14718401432037354]], [[0.387173056602478]], [[-0.4756913483142853]], [[-0.275808721780777]], [[-0.2207733541727066]], [[0.05826270952820778]], [[0.020764755085110664]], [[-0.06856625527143478]], [[-0.18397332727909088]]], [[[0.18278652429580688]], [[-0.12232893705368042]], [[0.0038665318861603737]], [[0.21738201379776]], [[0.1855577826499939]], [[0.08914294838905334]], [[0.3400697112083435]], [[-0.11756040155887604]], [[-0.08901874721050262]], [[0.028145570307970047]], [[0.204190194606781]], [[-0.07046035677194595]], [[-0.13996130228042603]], [[0.16213327646255493]], [[-0.061992347240448]], [[0.0034989025443792343]], [[-0.08142286539077759]], [[0.2210966944694519]], [[-0.02111077308654785]], [[0.007605765946209431]], [[-0.013387095183134079]], [[-0.07054167240858078]], [[-0.13706815242767334]], [[0.04075004532933235]], [[0.04560893774032593]], [[-0.2202899158000946]], [[0.19991038739681244]], [[0.015323352068662643]], [[0.12252723425626755]], [[0.10174665600061417]], [[-0.0344945564866066]], [[-0.01920195110142231]], [[-0.08350030332803726]], [[0.15771904587745667]], [[-0.05349676311016083]], [[-0.2739461064338684]], [[0.033858492970466614]], [[0.06264110654592514]], [[0.27499040961265564]], [[0.09983131289482117]], [[0.08722220361232758]], [[-0.30651503801345825]], [[-0.02918078564107418]], [[0.0228834580630064]], [[0.06306301057338715]], [[0.059701453894376755]], [[0.28471699357032776]], [[0.11452501267194748]]], [[[-0.18762986361980438]], [[-0.1220160573720932]], [[-0.07342420518398285]], [[0.16063342988491058]], [[0.16058801114559174]], [[-0.06782814860343933]], [[-0.0004980878438800573]], [[-0.2777353823184967]], [[0.30886638164520264]], [[-0.11565911769866943]], [[-0.0825171023607254]], [[-0.08384063094854355]], [[-0.21426402032375336]], [[-0.06320547312498093]], [[0.15556485950946808]], [[0.0789494663476944]], [[0.02713523618876934]], [[0.2962090075016022]], [[0.05011722072958946]], [[0.07538634538650513]], [[0.20342466235160828]], [[0.21385890245437622]], [[-0.21043559908866882]], [[-0.01845114305615425]], [[0.12123674154281616]], [[-0.16863034665584564]], [[0.028198057785630226]], [[0.018478473648428917]], [[0.05932673439383507]], [[0.12429925054311752]], [[-0.12331581860780716]], [[-0.13257919251918793]], [[0.2652956545352936]], [[0.28591829538345337]], [[-0.03728131577372551]], [[-0.04962632432579994]], [[0.1290854960680008]], [[0.337790846824646]], [[0.02212556079030037]], [[0.07843197882175446]], [[0.06226802244782448]], [[0.034289997071027756]], [[-0.07958376407623291]], [[-0.18994474411010742]], [[-0.1284787803888321]], [[0.046171024441719055]], [[0.42970436811447144]], [[-0.06099701672792435]]], [[[-0.18851830065250397]], [[-0.21838432550430298]], [[0.02555188164114952]], [[0.0419149249792099]], [[-0.26954105496406555]], [[0.059125691652297974]], [[-0.22523212432861328]], [[-0.1623086780309677]], [[-0.20502376556396484]], [[-0.06446076929569244]], [[-0.14721746742725372]], [[-0.09079393744468689]], [[0.1704423427581787]], [[0.4306483864784241]], [[0.14228737354278564]], [[0.03154916688799858]], [[-0.14177998900413513]], [[0.16831843554973602]], [[0.1494806706905365]], [[0.27312541007995605]], [[0.06467650830745697]], [[0.02342158369719982]], [[0.2518039643764496]], [[-0.15669213235378265]], [[0.16865374147891998]], [[-0.2632669508457184]], [[-0.11640641838312149]], [[-0.18352675437927246]], [[-0.10683547705411911]], [[0.024350551888346672]], [[0.11022265255451202]], [[0.2540973424911499]], [[0.17253366112709045]], [[0.13470397889614105]], [[0.09234671294689178]], [[-0.04608186334371567]], [[-0.1867988258600235]], [[-0.05955403298139572]], [[-0.17297877371311188]], [[0.061871543526649475]], [[-0.2860824167728424]], [[-0.0003544367791619152]], [[-0.2825777530670166]], [[-0.19494009017944336]], [[-0.0337536595761776]], [[-0.0730835422873497]], [[0.4412141442298889]], [[-0.13502269983291626]]], [[[-0.07028302550315857]], [[0.0022555217146873474]], [[-0.1195555031299591]], [[-0.06488537043333054]], [[-2.7809817765955813e-05]], [[-0.15683868527412415]], [[0.08954121172428131]], [[-0.07726260274648666]], [[0.2542716860771179]], [[-0.1018434390425682]], [[-0.10154811292886734]], [[-0.24773333966732025]], [[-0.08053681254386902]], [[-0.31612953543663025]], [[0.2721068263053894]], [[-0.10548286139965057]], [[-0.15498770773410797]], [[-0.05126405134797096]], [[0.06446835398674011]], [[0.13492317497730255]], [[0.3169296979904175]], [[0.10530581325292587]], [[-0.2186460644006729]], [[-0.02236686833202839]], [[-0.13016989827156067]], [[-0.1331259161233902]], [[0.03438136726617813]], [[0.06157507002353668]], [[0.2791907787322998]], [[-0.03310847654938698]], [[-0.1546555459499359]], [[-0.06018549203872681]], [[-0.10310561954975128]], [[0.10594500601291656]], [[0.0646616667509079]], [[-0.12298810482025146]], [[-0.24998338520526886]], [[0.31002333760261536]], [[-0.3096635937690735]], [[-0.26528266072273254]], [[0.10538181662559509]], [[0.011223084293305874]], [[-0.09849350899457932]], [[-0.18349634110927582]], [[0.20612747967243195]], [[0.0061661540530622005]], [[0.2338327020406723]], [[-0.03786981850862503]]], [[[-0.009135996922850609]], [[-0.13818325102329254]], [[0.14360593259334564]], [[0.244096577167511]], [[-0.046825289726257324]], [[0.04893966019153595]], [[0.008496944792568684]], [[-0.010232149623334408]], [[-0.0030553017277270555]], [[-0.004209501668810844]], [[-0.03926284238696098]], [[-0.050962597131729126]], [[0.018626218661665916]], [[-0.07151450216770172]], [[-0.05869749188423157]], [[-0.10257653146982193]], [[0.06830543279647827]], [[0.15739332139492035]], [[-0.0530209094285965]], [[0.14405275881290436]], [[-0.15138649940490723]], [[0.05906705558300018]], [[-0.05297720059752464]], [[-0.16836759448051453]], [[-0.012601086869835854]], [[0.21900027990341187]], [[-0.08335454761981964]], [[0.0449620820581913]], [[0.11938322335481644]], [[0.3231057822704315]], [[0.128232941031456]], [[0.1673663854598999]], [[0.16574685275554657]], [[-0.016029300168156624]], [[0.006335517391562462]], [[0.1346321552991867]], [[0.12471470981836319]], [[-0.0062689813785254955]], [[-0.01857946440577507]], [[0.14762432873249054]], [[-0.1777263730764389]], [[0.12773622572422028]], [[-0.3299521505832672]], [[-0.06912244856357574]], [[-0.08787219226360321]], [[-0.1639908105134964]], [[-0.1270725578069687]], [[0.007459290325641632]]], [[[-0.025195101276040077]], [[-0.028919870033860207]], [[-0.27627286314964294]], [[0.004048510920256376]], [[0.1407882124185562]], [[-0.20322667062282562]], [[0.036408405750989914]], [[0.040780555456876755]], [[-0.10384952276945114]], [[0.277736097574234]], [[0.1680440902709961]], [[-0.16135486960411072]], [[-0.07244281470775604]], [[-0.1162995994091034]], [[0.049777112901210785]], [[0.07384860515594482]], [[0.1213064044713974]], [[-0.060940906405448914]], [[0.1597423404455185]], [[0.0983627513051033]], [[-0.022065551951527596]], [[0.193357452750206]], [[-0.20009736716747284]], [[0.1916058212518692]], [[0.08023849129676819]], [[0.09938718378543854]], [[-0.25990331172943115]], [[-0.004684493876993656]], [[0.016829008236527443]], [[-0.13695909082889557]], [[-0.05187361314892769]], [[0.12351910769939423]], [[0.17998571693897247]], [[0.04722967371344566]], [[0.012241436168551445]], [[0.20086248219013214]], [[-0.027137091383337975]], [[-0.06146715208888054]], [[-0.10615286976099014]], [[-0.03300910443067551]], [[-0.22565604746341705]], [[-0.1202399730682373]], [[-0.002718233037739992]], [[0.11753389239311218]], [[-0.29108479619026184]], [[-0.012551599182188511]], [[0.07418979704380035]], [[-0.07759139686822891]]], [[[0.021363113075494766]], [[0.04499726742506027]], [[-0.0021584162022918463]], [[-0.13796307146549225]], [[-0.3113672137260437]], [[-0.13540364801883698]], [[0.11486492305994034]], [[0.13713903725147247]], [[-0.054308947175741196]], [[-0.014789451844990253]], [[0.09454870969057083]], [[-0.1444532722234726]], [[0.06132494658231735]], [[0.18315212428569794]], [[0.1964474320411682]], [[0.0559975802898407]], [[0.1312321424484253]], [[0.1930752396583557]], [[-0.09311813861131668]], [[0.5454511642456055]], [[0.09705173224210739]], [[-0.10863345116376877]], [[0.1177278384566307]], [[-0.3494283854961395]], [[-0.11463018506765366]], [[0.12972266972064972]], [[0.035223588347435]], [[0.06337868422269821]], [[-0.13089697062969208]], [[-0.005452348850667477]], [[0.16913217306137085]], [[-0.21674016118049622]], [[-0.1555260419845581]], [[0.017345018684864044]], [[-0.3579755127429962]], [[-0.2937595844268799]], [[0.06163949519395828]], [[-0.19915562868118286]], [[-0.21285010874271393]], [[0.17049376666545868]], [[-0.018433857709169388]], [[0.2346900999546051]], [[-0.31693169474601746]], [[0.05098862573504448]], [[0.36835604906082153]], [[-0.0412733368575573]], [[-0.1598251760005951]], [[0.06368604302406311]]], [[[0.04410339891910553]], [[0.2570301294326782]], [[-0.05945748835802078]], [[-0.04373006522655487]], [[-0.021009527146816254]], [[-0.05943787097930908]], [[-0.06544973701238632]], [[0.06870544701814651]], [[-0.1835065633058548]], [[0.13029208779335022]], [[0.08601254224777222]], [[-0.1421438753604889]], [[0.16761264204978943]], [[-0.36057761311531067]], [[-0.1348603069782257]], [[-0.17112071812152863]], [[-0.1662466675043106]], [[-0.48176848888397217]], [[-0.09584856778383255]], [[0.3250632882118225]], [[-0.28810110688209534]], [[0.1082625687122345]], [[-0.14924699068069458]], [[-0.14236369729042053]], [[-0.1423143446445465]], [[0.0264001302421093]], [[0.23161765933036804]], [[-0.20300856232643127]], [[0.20888660848140717]], [[0.040157563984394073]], [[-0.013392689637839794]], [[0.15165521204471588]], [[0.0061133746057748795]], [[0.2230183333158493]], [[0.29959893226623535]], [[-0.10928382724523544]], [[-0.11126364022493362]], [[-0.03802559897303581]], [[-0.08757113665342331]], [[-0.07434553653001785]], [[0.3777346611022949]], [[0.2839033305644989]], [[-0.19441573321819305]], [[0.11797270178794861]], [[-0.1933683454990387]], [[0.011603864841163158]], [[-0.09791841357946396]], [[-0.27797162532806396]]], [[[-0.1339087337255478]], [[0.022481683641672134]], [[0.12348415702581406]], [[-0.13497041165828705]], [[-0.11544102430343628]], [[-0.04799257218837738]], [[0.13434496521949768]], [[0.12384652346372604]], [[-0.06671000272035599]], [[-0.012223701924085617]], [[-0.1494387835264206]], [[-0.20881950855255127]], [[0.0023584901355206966]], [[0.11371174454689026]], [[0.3300183117389679]], [[0.12298120558261871]], [[0.4448184072971344]], [[-0.07490263879299164]], [[-0.03972750902175903]], [[0.16388827562332153]], [[-0.13147450983524323]], [[0.0723339170217514]], [[-0.49863919615745544]], [[0.1619431972503662]], [[0.14491073787212372]], [[-0.04807153716683388]], [[0.2950794994831085]], [[-0.030682848766446114]], [[0.022417210042476654]], [[-0.10377443581819534]], [[-0.03208105266094208]], [[-0.1019592210650444]], [[-0.05738753080368042]], [[0.0018160254694521427]], [[0.2220492660999298]], [[-0.07212521880865097]], [[-0.25392258167266846]], [[0.12137666344642639]], [[-0.0044045764952898026]], [[0.19275742769241333]], [[0.27268269658088684]], [[0.11970118433237076]], [[-0.15657994151115417]], [[0.29632842540740967]], [[0.1640608310699463]], [[-0.33929476141929626]], [[0.3864828646183014]], [[0.09412045776844025]]], [[[0.0641895979642868]], [[0.03272611275315285]], [[-0.09488911926746368]], [[-0.06433816254138947]], [[-0.314113587141037]], [[-0.10870447009801865]], [[-0.10681360960006714]], [[0.2249259650707245]], [[0.14335069060325623]], [[-0.05941326543688774]], [[-0.12875039875507355]], [[-0.033630337566137314]], [[0.19093382358551025]], [[0.23013663291931152]], [[-0.018473923206329346]], [[0.02425512857735157]], [[0.42790481448173523]], [[0.1517374962568283]], [[0.04662647470831871]], [[0.431738018989563]], [[0.06902017444372177]], [[-0.001909265061840415]], [[-0.2839732766151428]], [[0.10439619421958923]], [[0.023134680464863777]], [[-0.20702411234378815]], [[0.04475005343556404]], [[-0.10943032056093216]], [[0.12211073935031891]], [[-0.16437199711799622]], [[-0.06807581335306168]], [[0.30769333243370056]], [[0.17178218066692352]], [[-0.22649650275707245]], [[0.28065940737724304]], [[-0.1918717622756958]], [[-0.01560231577605009]], [[-0.32185351848602295]], [[-0.25848519802093506]], [[-0.15588466823101044]], [[-0.22392097115516663]], [[0.20882485806941986]], [[0.17482276260852814]], [[-0.041337642818689346]], [[-0.28731030225753784]], [[0.11922039091587067]], [[-0.13679762184619904]], [[-0.05433235689997673]]], [[[-0.1404109001159668]], [[0.06853561103343964]], [[-0.08140620589256287]], [[-0.1249249279499054]], [[0.32774659991264343]], [[-0.13013772666454315]], [[0.043715350329875946]], [[0.28362464904785156]], [[0.15513525903224945]], [[-0.10788383334875107]], [[0.021682048216462135]], [[-0.1344020962715149]], [[0.1368989199399948]], [[-0.39412760734558105]], [[-0.06272421777248383]], [[-0.08863171935081482]], [[0.29350391030311584]], [[-0.6147478222846985]], [[0.25034287571907043]], [[-0.4560718536376953]], [[0.3121356666088104]], [[0.001770666684024036]], [[-0.252485066652298]], [[0.19062340259552002]], [[-0.01845688372850418]], [[0.06263323128223419]], [[-0.18677856028079987]], [[0.024843638762831688]], [[0.49667832255363464]], [[-0.0767492949962616]], [[0.29579252004623413]], [[-0.06516943126916885]], [[-0.1558087021112442]], [[-0.10941191017627716]], [[-0.004498418886214495]], [[-0.18027335405349731]], [[-0.052435990422964096]], [[0.4856541156768799]], [[-0.4234263598918915]], [[0.13879814743995667]], [[0.003276015864685178]], [[-0.01890733279287815]], [[-0.0374806746840477]], [[0.13167597353458405]], [[-0.09144459664821625]], [[0.04335687682032585]], [[-0.13296140730381012]], [[-0.24502763152122498]]], [[[0.17630134522914886]], [[-0.04831912741065025]], [[-0.012521996162831783]], [[0.1417967975139618]], [[-0.11230496317148209]], [[-0.34487760066986084]], [[0.04471566528081894]], [[-0.08062359690666199]], [[-0.4406188130378723]], [[-0.17703530192375183]], [[-0.016835592687129974]], [[-0.01576661318540573]], [[-0.10150185972452164]], [[-0.1092417761683464]], [[0.24161355197429657]], [[0.037862442433834076]], [[0.015567479655146599]], [[0.2550603747367859]], [[0.06867920607328415]], [[0.288655161857605]], [[-0.10014018416404724]], [[0.05589393153786659]], [[0.1267140805721283]], [[-0.14322075247764587]], [[0.057693809270858765]], [[-0.3239409923553467]], [[0.08887603133916855]], [[-0.0034434148110449314]], [[0.0342157706618309]], [[-0.21584424376487732]], [[-0.09687702357769012]], [[0.08498013019561768]], [[0.22584478557109833]], [[0.03564753755927086]], [[0.21589958667755127]], [[-0.23738166689872742]], [[0.09299897402524948]], [[0.039002418518066406]], [[0.09562106430530548]], [[-0.0662379264831543]], [[0.00036333591560833156]], [[-0.07968843728303909]], [[0.1406305432319641]], [[-0.07456233352422714]], [[-0.29882577061653137]], [[-0.07322610914707184]], [[0.272028386592865]], [[0.1842212826013565]]], [[[-0.25733837485313416]], [[0.07943562418222427]], [[-0.10933051258325577]], [[-0.19422000646591187]], [[0.17817333340644836]], [[-0.14594121277332306]], [[0.0006753543275408447]], [[0.01549416221678257]], [[0.037652648985385895]], [[0.05652835965156555]], [[0.07663153856992722]], [[-0.13230110704898834]], [[-0.07780230790376663]], [[-0.02850537933409214]], [[0.18602979183197021]], [[-0.19029951095581055]], [[-0.1466321051120758]], [[0.0791458934545517]], [[0.13631732761859894]], [[0.11531313508749008]], [[-0.0735417976975441]], [[0.0028731070924550295]], [[-0.00955304317176342]], [[0.263251930475235]], [[0.05458778142929077]], [[0.1366232931613922]], [[0.2310858815908432]], [[-0.08287616074085236]], [[-0.16161097586154938]], [[-0.29674232006073]], [[-0.054862722754478455]], [[0.05597055330872536]], [[-0.04415339604020119]], [[0.10810969024896622]], [[-0.43779537081718445]], [[-0.36894163489341736]], [[-0.14806143939495087]], [[-0.1995813399553299]], [[-0.07061763852834702]], [[0.15555153787136078]], [[0.5510202050209045]], [[0.07679193466901779]], [[0.050752609968185425]], [[0.05109550431370735]], [[-0.14932367205619812]], [[-0.14478382468223572]], [[0.43011927604675293]], [[0.2477707713842392]]], [[[0.0686192661523819]], [[-0.10649734735488892]], [[0.037824928760528564]], [[-0.20482216775417328]], [[0.02582116611301899]], [[-0.03830745071172714]], [[-0.0261482372879982]], [[0.084139384329319]], [[-0.11947107315063477]], [[-0.08152264356613159]], [[0.1406828910112381]], [[-0.19995443522930145]], [[-0.020568890497088432]], [[0.04622463509440422]], [[0.15435171127319336]], [[-0.05426608398556709]], [[0.13845717906951904]], [[0.002128636697307229]], [[-0.08758439868688583]], [[0.17970144748687744]], [[-0.014679552055895329]], [[-0.0015534961130470037]], [[-0.36943402886390686]], [[-0.01962667889893055]], [[0.238057479262352]], [[-0.44151726365089417]], [[0.27905070781707764]], [[-0.025904664769768715]], [[0.2830004394054413]], [[-0.06320519745349884]], [[-0.11783285439014435]], [[-0.05942724645137787]], [[-0.03225025534629822]], [[-0.1862255483865738]], [[0.21708984673023224]], [[-0.3634650409221649]], [[-0.18075056374073029]], [[0.1666198968887329]], [[-0.31363844871520996]], [[-0.0907335877418518]], [[-0.05677841231226921]], [[0.3422859013080597]], [[-0.011162702925503254]], [[-0.12681202590465546]], [[0.06977290660142899]], [[-0.027761954814195633]], [[-0.05076005309820175]], [[-0.06297734379768372]]], [[[0.31576767563819885]], [[0.062336504459381104]], [[-0.005527472123503685]], [[-0.001104769529774785]], [[0.02579767256975174]], [[0.05760512128472328]], [[-0.6315677762031555]], [[-0.25980144739151]], [[-0.05361451208591461]], [[-0.08236538618803024]], [[-0.09363055229187012]], [[0.0646936371922493]], [[-0.0723932683467865]], [[0.09124351292848587]], [[-0.10577249526977539]], [[-0.015199855901300907]], [[0.1572813242673874]], [[0.24690228700637817]], [[-0.08895149827003479]], [[0.010916220024228096]], [[0.030721087008714676]], [[-0.10484866052865982]], [[-0.1556078940629959]], [[0.03222301974892616]], [[0.06881614774465561]], [[0.10015664249658585]], [[-0.2591918408870697]], [[-0.09733305126428604]], [[0.018766112625598907]], [[-0.015455206856131554]], [[-0.033931415528059006]], [[0.07042517513036728]], [[0.056560222059488297]], [[0.09752005338668823]], [[0.08260150253772736]], [[-0.15741197764873505]], [[0.14186257123947144]], [[-0.0884941965341568]], [[-0.20456965267658234]], [[-0.05357973650097847]], [[0.07276937365531921]], [[-0.11013081669807434]], [[0.0332975797355175]], [[0.05024305731058121]], [[-0.18107454478740692]], [[0.052473586052656174]], [[0.0640222504734993]], [[-0.07638046890497208]]], [[[-0.25870776176452637]], [[0.09680666774511337]], [[0.15158015489578247]], [[-0.0472363717854023]], [[0.10682982206344604]], [[0.03907099366188049]], [[0.16570580005645752]], [[-0.14374984800815582]], [[-0.35630303621292114]], [[-0.10897688567638397]], [[0.2970893979072571]], [[0.11854089051485062]], [[-0.06495605409145355]], [[-0.3176727294921875]], [[0.02021682821214199]], [[-0.13628646731376648]], [[0.18401788175106049]], [[0.32554560899734497]], [[-0.007490705233067274]], [[-0.05373970419168472]], [[-0.10734044015407562]], [[0.004446270409971476]], [[0.18772560358047485]], [[0.11661306768655777]], [[-0.17917734384536743]], [[0.22661980986595154]], [[-0.08777742832899094]], [[-0.15239788591861725]], [[0.2896472215652466]], [[-0.1518920212984085]], [[-0.21997110545635223]], [[-0.22831353545188904]], [[0.08486518263816833]], [[-0.07804005593061447]], [[-0.07503443211317062]], [[0.2926754057407379]], [[-0.11662355810403824]], [[-0.03581878915429115]], [[0.3845570683479309]], [[-0.12252844125032425]], [[-0.28655850887298584]], [[0.027374057099223137]], [[-0.18472135066986084]], [[-0.019279850646853447]], [[0.031025417149066925]], [[0.020503439009189606]], [[0.024692824110388756]], [[0.21024277806282043]]], [[[0.22344759106636047]], [[0.07337792217731476]], [[-0.00946469884365797]], [[-0.00999008771032095]], [[0.07005936652421951]], [[0.1939334273338318]], [[-1.0948827266693115]], [[-0.11040380597114563]], [[0.19526559114456177]], [[-0.29026052355766296]], [[-0.162906214594841]], [[0.08561110496520996]], [[-0.0879628136754036]], [[0.14924773573875427]], [[-0.2723481059074402]], [[0.1541217416524887]], [[0.08141601085662842]], [[-0.053449857980012894]], [[0.022003768011927605]], [[-0.1116313561797142]], [[-0.04274005815386772]], [[-0.18829700350761414]], [[-0.010378316976130009]], [[0.2609473764896393]], [[-0.11700043827295303]], [[-0.0404985137283802]], [[-0.22862125933170319]], [[-0.13710758090019226]], [[-0.06197139248251915]], [[0.2492198944091797]], [[0.07357943058013916]], [[-0.07711156457662582]], [[-0.3278812766075134]], [[0.09739961475133896]], [[0.09450902789831161]], [[0.011744814924895763]], [[-0.07584579288959503]], [[0.09340643137693405]], [[0.08027751743793488]], [[-0.08718402683734894]], [[0.017753614112734795]], [[-0.16801322996616364]], [[-0.12000219523906708]], [[0.07425232976675034]], [[-0.09568052738904953]], [[-0.10231246799230576]], [[0.037699297070503235]], [[-0.03173039108514786]]], [[[-0.20405302941799164]], [[0.01931166462600231]], [[0.006117136217653751]], [[-0.04856908321380615]], [[0.08668670803308487]], [[0.09930744767189026]], [[-0.18289980292320251]], [[0.16758094727993011]], [[0.13627204298973083]], [[-0.1430639773607254]], [[0.27624964714050293]], [[0.13112682104110718]], [[-0.3159061372280121]], [[-0.04952321946620941]], [[0.07061673700809479]], [[-0.06425884366035461]], [[-0.1453941911458969]], [[0.1851082444190979]], [[0.367520809173584]], [[-0.25718143582344055]], [[0.02298285998404026]], [[-0.011632846668362617]], [[-0.32951316237449646]], [[0.039007317274808884]], [[-0.07121144235134125]], [[-0.05440327152609825]], [[-0.012876457534730434]], [[0.013001690618693829]], [[0.06176462769508362]], [[-0.06805624812841415]], [[-0.07286179810762405]], [[0.06190236657857895]], [[-0.0766616091132164]], [[0.15249982476234436]], [[-0.09841148555278778]], [[0.07270973175764084]], [[-0.06204269453883171]], [[0.25357747077941895]], [[-0.053495485335588455]], [[-0.021234773099422455]], [[-0.12976613640785217]], [[-0.2687622308731079]], [[0.10873119533061981]], [[0.09650380909442902]], [[-0.09975359588861465]], [[0.18738025426864624]], [[0.3644118010997772]], [[0.022463291883468628]]], [[[-0.13474328815937042]], [[-0.05969896912574768]], [[-0.12283097952604294]], [[0.33177080750465393]], [[0.051249705255031586]], [[0.10129625350236893]], [[-0.06408661603927612]], [[-0.06238419562578201]], [[0.2155299335718155]], [[-0.19568891823291779]], [[-0.04015734791755676]], [[-0.09671712666749954]], [[0.05971455201506615]], [[-0.02915448509156704]], [[0.14451749622821808]], [[-0.11270958930253983]], [[-0.049618277698755264]], [[-0.04580456390976906]], [[-0.15458543598651886]], [[0.2766387462615967]], [[-0.09939996898174286]], [[-0.04945429414510727]], [[0.07181869447231293]], [[-0.27321597933769226]], [[-0.15207430720329285]], [[-0.4061287045478821]], [[0.36306148767471313]], [[0.07788547873497009]], [[-0.17035482823848724]], [[-0.09452144801616669]], [[-0.06210031732916832]], [[0.03466635197401047]], [[-0.13157115876674652]], [[-0.3090273141860962]], [[0.13180920481681824]], [[-0.3448166251182556]], [[-0.026517339050769806]], [[0.17773592472076416]], [[-0.0722198486328125]], [[-0.07549998164176941]], [[-0.03483697772026062]], [[0.25983890891075134]], [[-0.09552983194589615]], [[0.07101864367723465]], [[0.24265363812446594]], [[0.01103229634463787]], [[0.12234780192375183]], [[-0.13082225620746613]]], [[[-0.22960041463375092]], [[-0.053459953516721725]], [[-0.012965911999344826]], [[-0.23567140102386475]], [[-0.06940148770809174]], [[0.023882707580924034]], [[-0.130018413066864]], [[0.1582327038049698]], [[-0.0011752448044717312]], [[0.07242908328771591]], [[0.005513452924787998]], [[0.14159949123859406]], [[0.5715094804763794]], [[-0.09312622249126434]], [[-0.00218021753244102]], [[0.07428380846977234]], [[-0.05142927169799805]], [[-0.10171639919281006]], [[0.5012867450714111]], [[0.02601546235382557]], [[0.09488460421562195]], [[0.7910208106040955]], [[0.1444058120250702]], [[0.3901951014995575]], [[0.2866821885108948]], [[0.25996896624565125]], [[0.08313826471567154]], [[-0.11453085392713547]], [[0.06321991235017776]], [[0.1089738979935646]], [[0.3888331353664398]], [[-0.05576322227716446]], [[0.04067455977201462]], [[0.4629386067390442]], [[-0.055621009320020676]], [[0.16516710817813873]], [[0.08307618647813797]], [[0.07820001989603043]], [[0.1462058275938034]], [[0.08469361066818237]], [[-0.020238414406776428]], [[-0.012443187646567822]], [[-0.050833866000175476]], [[0.14820979535579681]], [[0.1523565798997879]], [[0.05801237374544144]], [[-0.32289552688598633]], [[0.1905558854341507]]], [[[0.03485111519694328]], [[-0.26285460591316223]], [[-0.042115718126297]], [[-0.02972951903939247]], [[-0.2676822543144226]], [[-0.013928175903856754]], [[0.20442858338356018]], [[-0.20600605010986328]], [[-0.0929335504770279]], [[-0.2254669964313507]], [[0.016019713133573532]], [[-0.0027402418199926615]], [[0.011507761664688587]], [[0.07314586639404297]], [[0.019655367359519005]], [[-0.11333119124174118]], [[-0.36738160252571106]], [[-0.13745740056037903]], [[-0.10534107685089111]], [[0.12607575953006744]], [[-0.12236552685499191]], [[0.10640465468168259]], [[-0.10419962555170059]], [[0.014981657266616821]], [[-0.0761779174208641]], [[0.04797744378447533]], [[-0.10364122688770294]], [[-0.26072216033935547]], [[-0.24746374785900116]], [[-0.20554184913635254]], [[-0.1390739381313324]], [[-0.238262340426445]], [[0.11401580274105072]], [[0.08578411489725113]], [[-0.30106332898139954]], [[-0.02170877531170845]], [[-0.06641006469726562]], [[-0.3178372383117676]], [[0.11209574341773987]], [[-0.23236504197120667]], [[-0.20323814451694489]], [[-0.09323801100254059]], [[0.0028916248120367527]], [[-0.004119785036891699]], [[-0.07467210292816162]], [[-0.05324174091219902]], [[-0.5756388306617737]], [[-0.06492546200752258]]], [[[-0.24899864196777344]], [[-0.1113644614815712]], [[0.028333066031336784]], [[0.005635500885546207]], [[-0.13362017273902893]], [[-0.17413946986198425]], [[-0.0411703996360302]], [[-0.6856404542922974]], [[0.05778832733631134]], [[-0.1455826759338379]], [[-0.125535249710083]], [[-0.03343246132135391]], [[0.18611662089824677]], [[0.10456487536430359]], [[-0.04371755197644234]], [[-0.09178092330694199]], [[0.3414197564125061]], [[-0.23212619125843048]], [[-0.07299856096506119]], [[0.6080603003501892]], [[0.02581544779241085]], [[0.13474111258983612]], [[-0.24726839363574982]], [[0.1776556521654129]], [[0.132696732878685]], [[-0.11741893738508224]], [[0.13350404798984528]], [[-0.27584049105644226]], [[0.023754490539431572]], [[-0.22294938564300537]], [[0.03381286934018135]], [[0.31364569067955017]], [[0.08843250572681427]], [[0.023851271718740463]], [[-0.4840226173400879]], [[-0.14215536415576935]], [[0.04104690998792648]], [[-0.021741976961493492]], [[-0.020934555679559708]], [[0.14956729114055634]], [[-0.5112345218658447]], [[0.1025732234120369]], [[-0.14659029245376587]], [[-0.21326248347759247]], [[-0.19852986931800842]], [[-0.06832255423069]], [[0.2148904949426651]], [[0.24284176528453827]]], [[[-0.07608798891305923]], [[-0.20878469944000244]], [[-0.2776111662387848]], [[0.10083548724651337]], [[-0.048884063959121704]], [[0.0034474660642445087]], [[0.07275884598493576]], [[0.0008300548070110381]], [[0.24933941662311554]], [[-0.1744920164346695]], [[-0.17676544189453125]], [[0.32210278511047363]], [[-0.13173025846481323]], [[0.19888344407081604]], [[0.03259274736046791]], [[-0.28869593143463135]], [[-0.15318943560123444]], [[-0.03726332634687424]], [[0.16648221015930176]], [[0.045753952115774155]], [[-0.31652507185935974]], [[0.010780494660139084]], [[0.02738090418279171]], [[0.16703009605407715]], [[-0.06442075222730637]], [[-0.003832816844806075]], [[-0.06555866450071335]], [[0.0607619434595108]], [[-0.10780737549066544]], [[0.04175060987472534]], [[-0.13132858276367188]], [[-0.2064390480518341]], [[-0.25086531043052673]], [[-0.13186199963092804]], [[-0.277800589799881]], [[-0.11885541677474976]], [[-0.208749458193779]], [[-0.17271050810813904]], [[-0.05079890415072441]], [[0.08501920104026794]], [[-0.04377565160393715]], [[-0.03574375808238983]], [[-0.24018941819667816]], [[-0.0003474124532658607]], [[-0.4223262667655945]], [[-0.21986530721187592]], [[-0.3967318534851074]], [[-0.2826715111732483]]], [[[0.021012339740991592]], [[0.2758656442165375]], [[0.18085268139839172]], [[0.0017173741944134235]], [[0.220053032040596]], [[0.17010092735290527]], [[0.02516552433371544]], [[0.25458306074142456]], [[-0.050179801881313324]], [[-0.227961003780365]], [[-0.015079996548593044]], [[0.15853244066238403]], [[-0.11383135616779327]], [[-0.26111552119255066]], [[-0.11270671337842941]], [[-0.026465220376849174]], [[-0.17484287917613983]], [[0.42252787947654724]], [[0.01646840199828148]], [[0.3812519311904907]], [[-0.10352811217308044]], [[0.05493958294391632]], [[0.23943418264389038]], [[0.617376983165741]], [[0.042750779539346695]], [[-0.2730790972709656]], [[0.1993904709815979]], [[0.038525890558958054]], [[0.013717815279960632]], [[-0.07861953228712082]], [[-0.0869298130273819]], [[0.17332427203655243]], [[0.12084479629993439]], [[-0.24992185831069946]], [[0.27702972292900085]], [[-0.04770657792687416]], [[0.014804188162088394]], [[-0.0472634956240654]], [[-0.15838919579982758]], [[-0.11604039371013641]], [[-0.035495415329933167]], [[-0.04025418683886528]], [[-0.06652391701936722]], [[-0.24283525347709656]], [[-0.506380558013916]], [[-0.01622324250638485]], [[0.16612648963928223]], [[0.12966088950634003]]], [[[-0.1044912114739418]], [[0.04729152470827103]], [[-0.08713451027870178]], [[-0.09743632376194]], [[-0.03774046525359154]], [[0.03292044252157211]], [[0.130019411444664]], [[0.2367989867925644]], [[-0.020185893401503563]], [[-0.23303209245204926]], [[0.15244582295417786]], [[0.31339651346206665]], [[0.11933300644159317]], [[0.0895022377371788]], [[0.23341219127178192]], [[-0.022450430318713188]], [[0.16976049542427063]], [[0.14250655472278595]], [[0.21921202540397644]], [[0.24370938539505005]], [[0.4275776445865631]], [[0.18426835536956787]], [[0.1500704437494278]], [[0.4483792781829834]], [[0.13133694231510162]], [[0.24693207442760468]], [[0.422036737203598]], [[-0.32901516556739807]], [[0.10770775377750397]], [[0.10528897494077682]], [[0.007956644520163536]], [[-0.06844545900821686]], [[0.28213226795196533]], [[-0.05770908668637276]], [[0.17758366465568542]], [[0.45804300904273987]], [[-0.1039346233010292]], [[0.22706733644008636]], [[0.2595735192298889]], [[-0.08895272761583328]], [[0.12669870257377625]], [[0.14538393914699554]], [[-0.06624981015920639]], [[0.007419119123369455]], [[0.2794150412082672]], [[-0.177938312292099]], [[-0.24142487347126007]], [[0.5200833082199097]]], [[[0.046583473682403564]], [[0.14513768255710602]], [[-0.0203947015106678]], [[-0.16764695942401886]], [[0.20616160333156586]], [[-0.06597156077623367]], [[-0.10398396104574203]], [[-0.13183067739009857]], [[-0.2645689845085144]], [[0.020222514867782593]], [[0.11376280337572098]], [[-0.01170293614268303]], [[0.02921126037836075]], [[-0.3414134085178375]], [[0.04754873737692833]], [[0.11904817819595337]], [[-0.09716576337814331]], [[-0.392284631729126]], [[0.22590892016887665]], [[-0.04080509394407272]], [[-0.00979737751185894]], [[0.033058278262615204]], [[-0.12414870411157608]], [[-0.007323600817471743]], [[0.032120510935783386]], [[-0.20349738001823425]], [[0.45931708812713623]], [[-0.06742868572473526]], [[0.08276146650314331]], [[-0.15738555788993835]], [[0.07964291423559189]], [[-0.07709767669439316]], [[-0.12026459723711014]], [[-0.18213875591754913]], [[0.3185839354991913]], [[-0.41584324836730957]], [[0.08972998708486557]], [[0.367026150226593]], [[-0.22181804478168488]], [[-0.044789135456085205]], [[0.43385210633277893]], [[0.1243782639503479]], [[-0.07314097881317139]], [[0.11312472075223923]], [[-0.0169202983379364]], [[-0.01705465093255043]], [[-0.21834878623485565]], [[-0.17007915675640106]]], [[[-0.016808534041047096]], [[-0.1987028568983078]], [[0.061685364693403244]], [[0.06771305203437805]], [[0.09820432960987091]], [[0.11728614568710327]], [[-0.19033682346343994]], [[0.07451985031366348]], [[-0.017164789140224457]], [[-0.14563703536987305]], [[-0.0907890647649765]], [[-0.00013044483785051852]], [[0.16477271914482117]], [[0.10817758738994598]], [[0.34080514311790466]], [[-0.11162203550338745]], [[-0.07305082678794861]], [[-0.21968524158000946]], [[0.06767531484365463]], [[-0.15583787858486176]], [[0.2326342761516571]], [[-0.028017263859510422]], [[0.03848887234926224]], [[0.09886099398136139]], [[-0.07435589283704758]], [[-0.08956161886453629]], [[0.1622365266084671]], [[0.03025737591087818]], [[-0.06706608086824417]], [[-0.22363246977329254]], [[0.09540978074073792]], [[0.11902110278606415]], [[0.22301003336906433]], [[-0.17058050632476807]], [[-0.2661339044570923]], [[-0.0951688215136528]], [[-0.01018952950835228]], [[0.017073670402169228]], [[0.1373397558927536]], [[0.2979418635368347]], [[0.32032689452171326]], [[-0.21680118143558502]], [[0.07437406480312347]], [[-0.14234623312950134]], [[0.015718260779976845]], [[-0.1896980106830597]], [[0.10183898359537125]], [[0.106899693608284]]], [[[-0.07554993778467178]], [[0.0001291388616664335]], [[0.5213146209716797]], [[-0.18134993314743042]], [[-0.007411377038806677]], [[0.2065795361995697]], [[0.10264691710472107]], [[-0.24338635802268982]], [[-0.04127931594848633]], [[-0.10572227835655212]], [[-0.037262625992298126]], [[0.24339668452739716]], [[-0.059209730476140976]], [[-0.03147741034626961]], [[-0.18653181195259094]], [[-0.18659694492816925]], [[-0.20614004135131836]], [[0.17476916313171387]], [[0.21320359408855438]], [[0.17562705278396606]], [[-0.2969032824039459]], [[-0.057420652359724045]], [[0.006229809019714594]], [[0.024470267817378044]], [[-0.14010147750377655]], [[-0.05287076160311699]], [[-0.15389473736286163]], [[0.04727296903729439]], [[-0.05641498044133186]], [[0.11064812541007996]], [[0.25355249643325806]], [[0.13615389168262482]], [[0.033690355718135834]], [[0.15521742403507233]], [[-0.07283236086368561]], [[0.12092617154121399]], [[0.03489388898015022]], [[-0.1718894988298416]], [[0.016296042129397392]], [[-0.10268901288509369]], [[0.06591304391622543]], [[0.024319689720869064]], [[0.024711722508072853]], [[0.055984362959861755]], [[0.1394990086555481]], [[0.1009712815284729]], [[0.015715090557932854]], [[0.021288353949785233]]], [[[0.2228149175643921]], [[0.05986178293824196]], [[-0.17844127118587494]], [[-0.532624363899231]], [[-0.011731009930372238]], [[-0.1329999715089798]], [[0.07767067849636078]], [[0.0667416900396347]], [[0.09140411019325256]], [[0.09380727261304855]], [[0.004304652102291584]], [[0.014334725216031075]], [[0.047800302505493164]], [[-0.14431555569171906]], [[0.26232069730758667]], [[-0.11987495422363281]], [[-0.029347091913223267]], [[-0.09189093112945557]], [[-0.0901029035449028]], [[0.2572585940361023]], [[0.08149950951337814]], [[-0.014929757453501225]], [[-0.014204404316842556]], [[-0.05514398589730263]], [[-0.15468353033065796]], [[-0.34412774443626404]], [[0.29785817861557007]], [[-0.011493714526295662]], [[-0.0651620626449585]], [[-0.21702814102172852]], [[-0.12534654140472412]], [[0.06114360690116882]], [[0.11273840814828873]], [[-0.3386383652687073]], [[0.0057756053283810616]], [[-0.22548551857471466]], [[-0.08395510166883469]], [[0.20695117115974426]], [[-0.17247866094112396]], [[-0.2291439324617386]], [[-0.07394018769264221]], [[0.13769450783729553]], [[-0.016656439751386642]], [[-0.06607077270746231]], [[0.06641539186239243]], [[-0.18410268425941467]], [[0.3606317341327667]], [[-0.023414453491568565]]], [[[0.15761451423168182]], [[0.03739611804485321]], [[-0.08612314611673355]], [[-0.15670719742774963]], [[0.04171871766448021]], [[-0.32207828760147095]], [[0.19538967311382294]], [[-0.19312220811843872]], [[-0.02138066664338112]], [[-0.11956381052732468]], [[-0.14867444336414337]], [[-0.12997105717658997]], [[0.028322314843535423]], [[-0.19450196623802185]], [[0.1866183578968048]], [[0.17694586515426636]], [[0.13168908655643463]], [[-0.15238997340202332]], [[-0.009384932927787304]], [[-0.007424681913107634]], [[-0.19241255521774292]], [[0.39462265372276306]], [[-0.14798593521118164]], [[0.06137906014919281]], [[-0.1331271082162857]], [[0.10932708531618118]], [[0.004130445420742035]], [[0.057138144969940186]], [[-0.05670485645532608]], [[-0.07755307853221893]], [[0.014227037318050861]], [[0.06331881880760193]], [[-0.13348855078220367]], [[-0.22856871783733368]], [[-0.0023310603573918343]], [[-0.2024412751197815]], [[0.014252705499529839]], [[0.21432653069496155]], [[-0.23351465165615082]], [[-0.1710704118013382]], [[-0.0030618261080235243]], [[0.17232047021389008]], [[-0.001350977923721075]], [[-0.12381790578365326]], [[0.18062707781791687]], [[0.006788322702050209]], [[-0.05029679089784622]], [[-0.06330148130655289]]], [[[-0.205440491437912]], [[0.01783657632768154]], [[0.3424081802368164]], [[-0.170078843832016]], [[-0.19265881180763245]], [[0.5351063013076782]], [[0.07218676060438156]], [[-0.05407969281077385]], [[0.14107631146907806]], [[-0.09345467388629913]], [[-0.07172277569770813]], [[0.10789193212985992]], [[-0.08360138535499573]], [[0.14402008056640625]], [[-0.09653681516647339]], [[0.11256083846092224]], [[0.05018932744860649]], [[0.3852018713951111]], [[-0.1430128663778305]], [[-0.020666463300585747]], [[-0.08568798750638962]], [[0.025990495458245277]], [[-0.1637571007013321]], [[0.06464359909296036]], [[0.26018619537353516]], [[-0.03750067576766014]], [[0.09800484776496887]], [[0.13118955492973328]], [[0.0855911523103714]], [[0.03440174460411072]], [[0.040141761302948]], [[-0.011940870434045792]], [[-0.02274318039417267]], [[0.08467817306518555]], [[0.011765331029891968]], [[-0.08579184859991074]], [[-0.020114053040742874]], [[0.029263855889439583]], [[0.06116111949086189]], [[-0.2936705946922302]], [[0.10798365622758865]], [[0.0910077765583992]], [[-0.000601273903157562]], [[0.03974897041916847]], [[0.08072665333747864]], [[-0.11890240758657455]], [[0.03627443686127663]], [[0.3331323564052582]]], [[[0.06806781142950058]], [[0.1297176033258438]], [[0.0464555062353611]], [[0.06876448541879654]], [[0.021169666200876236]], [[0.004024878144264221]], [[0.02585979551076889]], [[-0.20630325376987457]], [[-0.0329049751162529]], [[-0.22368033230304718]], [[0.028021974489092827]], [[-0.09016121178865433]], [[0.04292421042919159]], [[-0.06159478798508644]], [[0.06582322716712952]], [[-0.03871823102235794]], [[-0.1659541130065918]], [[0.08260422199964523]], [[0.004020316060632467]], [[0.04421825334429741]], [[0.04076234623789787]], [[0.05539819970726967]], [[-0.09586465358734131]], [[-0.02509944513440132]], [[-0.05850338563323021]], [[-0.490889310836792]], [[0.18448659777641296]], [[-0.0075765070505440235]], [[0.22385576367378235]], [[0.07373503595590591]], [[-0.2188175916671753]], [[0.14334003627300262]], [[-0.04684804007411003]], [[0.16993504762649536]], [[0.5487493872642517]], [[-0.3558509349822998]], [[-0.01991885155439377]], [[-0.04016841575503349]], [[-0.19039806723594666]], [[0.02748366817831993]], [[0.2523357570171356]], [[-0.08760756999254227]], [[-0.1563197821378708]], [[-0.10831618309020996]], [[0.03963445499539375]], [[-0.21532204747200012]], [[0.41249600052833557]], [[-0.2815111577510834]]], [[[0.33927619457244873]], [[0.03478830307722092]], [[0.013599690981209278]], [[-0.018565628677606583]], [[-0.07143490016460419]], [[0.24478496611118317]], [[-1.065226674079895]], [[0.32928040623664856]], [[0.1366872787475586]], [[-0.22273561358451843]], [[-0.1543179452419281]], [[-0.187876358628273]], [[-0.07998018711805344]], [[0.12287718802690506]], [[-0.12009434401988983]], [[-0.1522890329360962]], [[-0.0902959480881691]], [[0.23112186789512634]], [[-0.018824312835931778]], [[0.014799952507019043]], [[-0.19333679974079132]], [[-0.16623592376708984]], [[-0.0014663264155387878]], [[-0.10286499559879303]], [[-0.012687088921666145]], [[-0.15447452664375305]], [[0.16827937960624695]], [[0.16700102388858795]], [[-0.11775094270706177]], [[0.2825874090194702]], [[0.12511734664440155]], [[-0.024143515154719353]], [[-0.24285857379436493]], [[0.07272686064243317]], [[0.08554214239120483]], [[0.15845702588558197]], [[-0.04611285403370857]], [[0.0685003250837326]], [[0.05667732283473015]], [[0.050667572766542435]], [[0.1516941785812378]], [[0.11321805417537689]], [[-0.07911998778581619]], [[-0.09955862909555435]], [[0.12517789006233215]], [[0.14148083329200745]], [[-0.13507522642612457]], [[0.12531092762947083]]], [[[0.04059630259871483]], [[0.07266809046268463]], [[0.037023551762104034]], [[-0.15739913284778595]], [[0.004743524361401796]], [[-0.06098635122179985]], [[0.3224014341831207]], [[0.06527702510356903]], [[0.039981767535209656]], [[-0.24297699332237244]], [[0.1570938676595688]], [[0.003670136211439967]], [[-0.11823748052120209]], [[-0.2777346670627594]], [[-0.053511183708906174]], [[-0.08547649532556534]], [[-0.05543246120214462]], [[-0.07850170135498047]], [[0.14964374899864197]], [[-0.3393401801586151]], [[0.2630862295627594]], [[-0.25616341829299927]], [[-0.5485401749610901]], [[0.28969138860702515]], [[0.09611589461565018]], [[-0.22552062571048737]], [[0.11335466057062149]], [[-0.09120437502861023]], [[0.12286552786827087]], [[0.03224886208772659]], [[-0.06849473714828491]], [[0.05648479610681534]], [[-0.4478464126586914]], [[-0.06753981858491898]], [[-0.310283899307251]], [[0.0681486576795578]], [[-0.1900179386138916]], [[0.4536827802658081]], [[0.0459049828350544]], [[0.11020061373710632]], [[-0.25106751918792725]], [[-0.40380606055259705]], [[-0.16593919694423676]], [[-0.36109185218811035]], [[0.0738796591758728]], [[0.06280732899904251]], [[0.2046409696340561]], [[-0.03235333040356636]]], [[[-0.17909026145935059]], [[-0.10952354967594147]], [[-0.14078380167484283]], [[-0.1631823033094406]], [[0.0017549339681863785]], [[-0.1753033548593521]], [[0.019854431971907616]], [[0.1300770342350006]], [[-0.3336276710033417]], [[-0.10628106445074081]], [[0.10245134681463242]], [[-0.2534483075141907]], [[0.18733486533164978]], [[0.10985809564590454]], [[0.07942726463079453]], [[0.057255908846855164]], [[0.27040910720825195]], [[0.18205414712429047]], [[0.015051930211484432]], [[-0.29607075452804565]], [[-0.01556516345590353]], [[0.18455363810062408]], [[-0.19146828353405]], [[-0.11773543804883957]], [[-0.04923487454652786]], [[-0.0402287058532238]], [[0.3908255696296692]], [[-0.20998917520046234]], [[0.14246931672096252]], [[0.02368062548339367]], [[-0.10801151394844055]], [[0.002010148949921131]], [[-0.3936420977115631]], [[0.010500225238502026]], [[0.15863709151744843]], [[-0.15832197666168213]], [[-0.3326970934867859]], [[-0.13585789501667023]], [[0.04959842190146446]], [[0.2493160218000412]], [[0.1545587182044983]], [[-0.24122747778892517]], [[-0.08921021223068237]], [[-0.24498412013053894]], [[0.26442793011665344]], [[0.02817481756210327]], [[-0.25927457213401794]], [[0.22546324133872986]]], [[[0.0271169301122427]], [[0.138488307595253]], [[-0.02471441589295864]], [[0.10168080031871796]], [[0.03653496876358986]], [[-0.22281309962272644]], [[-0.09649569541215897]], [[0.013208329677581787]], [[-0.3113311231136322]], [[-0.14948031306266785]], [[-0.1759868711233139]], [[-0.2527711093425751]], [[-0.08296827971935272]], [[-0.17147904634475708]], [[-0.11069773137569427]], [[-0.08367729187011719]], [[0.004902170039713383]], [[0.0023581404238939285]], [[0.022265557199716568]], [[0.26569440960884094]], [[0.018933918327093124]], [[0.01628958061337471]], [[-0.00037134665763005614]], [[0.06205837428569794]], [[0.003179936669766903]], [[0.2212928682565689]], [[0.1812257617712021]], [[0.09459235519170761]], [[0.13125114142894745]], [[-0.12294398993253708]], [[-0.11511360108852386]], [[-0.12218787521123886]], [[0.044403042644262314]], [[0.1430957317352295]], [[0.14740577340126038]], [[-0.1450403481721878]], [[0.03385787829756737]], [[-0.014786952175199986]], [[-0.0006944078486412764]], [[0.032271791249513626]], [[-0.20442363619804382]], [[-0.12625396251678467]], [[-0.00265711173415184]], [[-0.27286988496780396]], [[0.005823225248605013]], [[0.06450983136892319]], [[-0.09653284400701523]], [[-0.33609530329704285]]], [[[-0.3021455705165863]], [[-0.05524314194917679]], [[0.18920452892780304]], [[-0.33448365330696106]], [[-0.0528651587665081]], [[0.09357118606567383]], [[-0.3038402497768402]], [[0.18441662192344666]], [[-0.12344614416360855]], [[-0.7469497323036194]], [[0.0987677276134491]], [[-0.2753464877605438]], [[-0.11144622415304184]], [[0.2252921164035797]], [[0.1038743332028389]], [[-0.019120488315820694]], [[0.1911020427942276]], [[0.42776378989219666]], [[0.21212902665138245]], [[-0.13120485842227936]], [[-0.0424102284014225]], [[-0.24058091640472412]], [[0.20191320776939392]], [[-0.07999115437269211]], [[0.09897585213184357]], [[0.49942871928215027]], [[0.2667071223258972]], [[-0.19304342567920685]], [[0.00962052308022976]], [[0.10043832659721375]], [[-0.17843912541866302]], [[0.16554610431194305]], [[0.18240877985954285]], [[-0.12151512503623962]], [[0.06048812344670296]], [[-0.0725671723484993]], [[0.04690759256482124]], [[0.011621618643403053]], [[0.26338380575180054]], [[-0.08601327240467072]], [[0.2711300849914551]], [[0.37584206461906433]], [[0.008565432392060757]], [[-0.0551520511507988]], [[0.20581115782260895]], [[0.13038013875484467]], [[0.13333868980407715]], [[0.07942738384008408]]], [[[-0.18763718008995056]], [[0.05156346410512924]], [[0.16833652555942535]], [[0.04417108744382858]], [[-0.0434887520968914]], [[0.15740041434764862]], [[-0.15435273945331573]], [[0.24036557972431183]], [[-0.04827558994293213]], [[-0.12219537049531937]], [[-0.05291182920336723]], [[0.17021702229976654]], [[-0.12774959206581116]], [[-0.12332155555486679]], [[0.013454621657729149]], [[-0.09243155270814896]], [[0.19974327087402344]], [[0.3511888086795807]], [[-0.16747350990772247]], [[-0.02453618124127388]], [[-0.020593032240867615]], [[-0.01566133461892605]], [[-0.12485888600349426]], [[0.0644567608833313]], [[0.0514180064201355]], [[0.25710028409957886]], [[-0.05501624569296837]], [[-0.2548466622829437]], [[-0.07977557182312012]], [[0.040956415235996246]], [[-0.050133585929870605]], [[-0.31768277287483215]], [[-0.26964762806892395]], [[-0.01884329691529274]], [[-0.0875663235783577]], [[-0.4091790020465851]], [[-0.09228479862213135]], [[0.07988578826189041]], [[0.21117891371250153]], [[-0.06141280755400658]], [[-0.06183759123086929]], [[-0.0018080066656693816]], [[-0.1942453682422638]], [[0.4138718247413635]], [[0.2546983063220978]], [[-0.008675556629896164]], [[-0.13610059022903442]], [[0.22981564700603485]]], [[[0.020765427500009537]], [[-0.09931471943855286]], [[-0.16471484303474426]], [[-0.04838206619024277]], [[0.07051457464694977]], [[-0.05108138546347618]], [[-0.04793904721736908]], [[-0.5330974459648132]], [[0.08732818812131882]], [[-0.11268600821495056]], [[-0.18304550647735596]], [[0.05011842027306557]], [[0.1893744319677353]], [[-0.08721974492073059]], [[0.09148380160331726]], [[-0.07229366153478622]], [[-0.41311752796173096]], [[-0.34510669112205505]], [[0.014915620908141136]], [[0.019219841808080673]], [[-0.09142754226922989]], [[0.09350321441888809]], [[-0.31707409024238586]], [[0.11351355165243149]], [[0.13240765035152435]], [[-0.3101726770401001]], [[0.063593789935112]], [[-0.054652098566293716]], [[-0.34411823749542236]], [[-0.09555425494909286]], [[0.018225371837615967]], [[-0.10219544172286987]], [[-0.2651980221271515]], [[-0.09888125211000443]], [[-0.1637982577085495]], [[0.03149191290140152]], [[0.034076765179634094]], [[-0.48276057839393616]], [[0.18675430119037628]], [[0.09271201491355896]], [[-0.2944066524505615]], [[-0.017936350777745247]], [[0.032140713185071945]], [[-0.15980039536952972]], [[0.0025390591472387314]], [[-0.02735731564462185]], [[-0.3991488814353943]], [[-0.23269830644130707]]], [[[-0.256309449672699]], [[-0.1586693376302719]], [[-0.1924012005329132]], [[0.00680086575448513]], [[-0.03507041558623314]], [[0.020979035645723343]], [[0.10241058468818665]], [[-0.02309807948768139]], [[-0.16559776663780212]], [[-0.11898354440927505]], [[0.004196776542812586]], [[-0.09383139759302139]], [[-0.0448019839823246]], [[0.07141592353582382]], [[0.04169868677854538]], [[-0.08114297688007355]], [[-0.345551073551178]], [[-0.3062947988510132]], [[0.05994550883769989]], [[0.3758118450641632]], [[0.34721696376800537]], [[0.08349035680294037]], [[-0.08046931028366089]], [[-0.13192838430404663]], [[0.11088083684444427]], [[-0.3073767423629761]], [[-0.33430856466293335]], [[-0.07578496634960175]], [[-0.25725534558296204]], [[-0.2045222371816635]], [[0.05833177641034126]], [[-0.050505783408880234]], [[0.40426400303840637]], [[0.07280274480581284]], [[-0.24218572676181793]], [[-0.4455197751522064]], [[-0.11080922931432724]], [[-0.27564185857772827]], [[-0.10351379960775375]], [[-0.23238617181777954]], [[-0.42513614892959595]], [[-0.23594783246517181]], [[-0.2043634057044983]], [[-0.2847844362258911]], [[0.024881985038518906]], [[-0.1985495388507843]], [[0.042655520141124725]], [[0.28297483921051025]]], [[[-0.15174391865730286]], [[0.10395850241184235]], [[0.154337540268898]], [[-0.24447637796401978]], [[0.06662099063396454]], [[0.07431459426879883]], [[0.09808659553527832]], [[0.028782611712813377]], [[0.06645826250314713]], [[0.00776258297264576]], [[-0.03808211907744408]], [[0.26885491609573364]], [[0.0443667508661747]], [[-0.07206559926271439]], [[-0.3561546504497528]], [[0.04703495278954506]], [[-0.044303249567747116]], [[0.5635883212089539]], [[0.09709184616804123]], [[0.004256279207766056]], [[-0.04060341790318489]], [[0.07812244445085526]], [[-0.06832311302423477]], [[0.25438088178634644]], [[0.1777418702840805]], [[0.21728695929050446]], [[0.040067192167043686]], [[-0.1671244353055954]], [[-0.0180859062820673]], [[0.0030399858951568604]], [[0.2212209552526474]], [[-0.11512286216020584]], [[-0.11883854120969772]], [[-0.0706668496131897]], [[-0.1770145744085312]], [[-0.1481618881225586]], [[0.03759577125310898]], [[0.24337458610534668]], [[0.1204209104180336]], [[0.15048815310001373]], [[0.1464964747428894]], [[-0.331673800945282]], [[0.07069896906614304]], [[0.016013450920581818]], [[-0.12097353488206863]], [[0.023977700620889664]], [[-0.38739845156669617]], [[0.4985760450363159]]], [[[-0.07190699130296707]], [[-0.13725805282592773]], [[-0.44597771763801575]], [[-0.20321999490261078]], [[0.10522232949733734]], [[-0.3022688031196594]], [[0.04672714322805405]], [[-0.3785657286643982]], [[-0.04516620188951492]], [[0.00519501743838191]], [[0.00111233233474195]], [[0.09574786573648453]], [[-0.0942562073469162]], [[0.2015983611345291]], [[0.2615978717803955]], [[0.04501805081963539]], [[0.059897616505622864]], [[-0.1845645308494568]], [[0.009720216505229473]], [[0.030895449221134186]], [[0.16337847709655762]], [[0.08572013676166534]], [[0.04173262044787407]], [[-0.1026988998055458]], [[0.2735498547554016]], [[0.2245780974626541]], [[-0.26266545057296753]], [[-0.14077253639698029]], [[-0.16745240986347198]], [[-0.4523549973964691]], [[-0.09039349108934402]], [[-0.09161192178726196]], [[0.17824962735176086]], [[0.18469400703907013]], [[-0.25496330857276917]], [[-0.11618010699748993]], [[-0.05709044262766838]], [[-0.10882445424795151]], [[-0.16390672326087952]], [[-0.09409280121326447]], [[-0.14909718930721283]], [[0.18999198079109192]], [[0.027730606496334076]], [[-0.11686298251152039]], [[0.03271966055035591]], [[-0.18049243092536926]], [[-0.10743114352226257]], [[0.1455887258052826]]], [[[-0.2400408685207367]], [[0.0023272621911019087]], [[0.03928389027714729]], [[-0.27530637383461]], [[0.08787748962640762]], [[-0.19334857165813446]], [[0.06079553812742233]], [[0.12658889591693878]], [[0.01124775130301714]], [[-0.06464436650276184]], [[-0.04544688016176224]], [[-0.02977086417376995]], [[0.12350479513406754]], [[-0.05608208104968071]], [[0.099033422768116]], [[-0.09538768231868744]], [[-0.02142883837223053]], [[0.06866604089736938]], [[-0.027386225759983063]], [[0.13744860887527466]], [[0.38111549615859985]], [[-0.017838185653090477]], [[-0.11558668315410614]], [[0.11435231566429138]], [[0.21843793988227844]], [[-0.19432926177978516]], [[-0.012230759486556053]], [[-0.20496618747711182]], [[0.04368520528078079]], [[-0.302024245262146]], [[0.12353268265724182]], [[0.06449850648641586]], [[0.06426019966602325]], [[-0.15760302543640137]], [[0.13820770382881165]], [[-0.5004816651344299]], [[-0.18303966522216797]], [[0.18096309900283813]], [[0.11255796998739243]], [[0.25927039980888367]], [[0.12281180173158646]], [[-0.283135324716568]], [[-0.03648872300982475]], [[0.02055523358285427]], [[-0.05024923384189606]], [[0.014106894843280315]], [[-0.07972358912229538]], [[0.14697176218032837]]], [[[0.06024634465575218]], [[-0.03195841610431671]], [[-0.09093943983316422]], [[-0.011574066244065762]], [[0.23521611094474792]], [[0.18727026879787445]], [[-0.2654310464859009]], [[0.42501556873321533]], [[0.3292251527309418]], [[0.033397600054740906]], [[-0.23887506127357483]], [[-0.12385869026184082]], [[-0.08712637424468994]], [[-0.17597606778144836]], [[-0.28377392888069153]], [[0.05411200225353241]], [[-0.17663320899009705]], [[-0.14894559979438782]], [[0.1274571716785431]], [[-0.43444979190826416]], [[0.3589552938938141]], [[-0.12351486831903458]], [[0.15062588453292847]], [[0.37957873940467834]], [[-0.04772375524044037]], [[0.17272384464740753]], [[0.26979073882102966]], [[-0.14158019423484802]], [[0.05381154268980026]], [[0.3338855504989624]], [[0.05870271101593971]], [[-0.1255454421043396]], [[0.13531094789505005]], [[-0.12503454089164734]], [[-0.035241711884737015]], [[0.0552699901163578]], [[-0.09577293694019318]], [[-0.1018824353814125]], [[0.4206230044364929]], [[-0.0036246394738554955]], [[-0.09865891933441162]], [[0.21399368345737457]], [[-0.24162396788597107]], [[-0.17238439619541168]], [[0.4978781044483185]], [[-0.051580049097537994]], [[-0.2064650058746338]], [[0.013905873522162437]]], [[[-0.38830018043518066]], [[-0.12856106460094452]], [[0.046954549849033356]], [[-0.1500900536775589]], [[0.005896920338273048]], [[-0.07257163524627686]], [[-0.1466403603553772]], [[0.21966037154197693]], [[0.035563260316848755]], [[0.009254305623471737]], [[0.1210319995880127]], [[0.030630121007561684]], [[0.3934991955757141]], [[0.03200038522481918]], [[-0.2196107804775238]], [[0.012623479589819908]], [[0.1950674057006836]], [[-0.19495858252048492]], [[0.5961755514144897]], [[0.16662780940532684]], [[0.22534389793872833]], [[0.5791512131690979]], [[0.11463925987482071]], [[0.06902950257062912]], [[0.34763556718826294]], [[0.34719976782798767]], [[0.020321359857916832]], [[-0.07321849465370178]], [[0.22230328619480133]], [[0.0439520999789238]], [[0.3830118775367737]], [[0.236586332321167]], [[-0.11998088657855988]], [[0.371793270111084]], [[0.08569271117448807]], [[0.01581954024732113]], [[0.07365845888853073]], [[0.022688571363687515]], [[-0.058066580444574356]], [[-0.05090180039405823]], [[0.10291270166635513]], [[-0.05413291975855827]], [[0.04735666885972023]], [[0.1064591035246849]], [[-0.07530836760997772]], [[0.05989028140902519]], [[0.13319836556911469]], [[-0.22453106939792633]]], [[[0.0744372084736824]], [[0.13588114082813263]], [[-0.20635347068309784]], [[0.02304847165942192]], [[-0.1260780245065689]], [[-0.1333862692117691]], [[-0.04155070707201958]], [[-0.14690475165843964]], [[0.20313844084739685]], [[0.12557674944400787]], [[-0.09684301167726517]], [[-0.07159942388534546]], [[0.21341083943843842]], [[-0.03761070966720581]], [[0.2734731137752533]], [[0.08948296308517456]], [[-0.20396697521209717]], [[-0.25943824648857117]], [[0.03652225434780121]], [[-0.1203613430261612]], [[-0.037717919796705246]], [[0.10540396720170975]], [[-0.16968660056591034]], [[0.19855819642543793]], 