{"channel_n": 16, "hidden_n": 128, "fire_rate": 0.5, "alpha_channel": 3, "living_threshold": 0.1, "identity_kernel": [[0.0, 0.0, 0.0], [0.0, 1.0, 0.0], [0.0, 0.0, 0.0]], "dx_kernel": [[-0.125, 0.0, 0.125], [-0.25, 0.0, 0.25], [-0.125, 0.0, 0.125]], "dy_kernel": [[-0.125, -0.25, -0.125], [0.0, 0.0, 0.0], [0.125, 0.25, 0.125]], "conv1_weight": [[[[-0.19750237464904785]], [[0.015560195781290531]], [[-0.13425348699092865]], [[-0.24066567420959473]], [[0.018242793157696724]], [[0.1753075122833252]], [[-0.1460447609424591]], [[-0.06648503243923187]], [[0.011280960403382778]], [[-0.0181786697357893]], [[0.10172849893569946]], [[-0.3931986093521118]], [[-0.034764017909765244]], [[-0.017514778301119804]], [[0.10277567058801651]], [[-0.03331008926033974]], [[0.07126335799694061]], [[-0.42819562554359436]], [[-0.11414574831724167]], [[-0.2395007610321045]], [[-0.11553804576396942]], [[0.12081661075353622]], [[0.14590561389923096]], [[0.7641808986663818]], [[0.08138035982847214]], [[-0.2502972483634949]], [[0.1572316735982895]], [[-0.351254403591156]], [[-0.2302369326353073]], [[0.19594706594944]], [[0.10232432931661606]], [[-0.12069930136203766]], [[-0.11810661107301712]], [[-0.035065218806266785]], [[0.18370340764522552]], [[-0.2584991157054901]], [[-0.35427576303482056]], [[-0.06311298906803131]], [[0.43607309460639954]], [[0.0036970300134271383]], [[0.017369331791996956]], [[0.12310270220041275]], [[0.07252414524555206]], [[-0.21176183223724365]], [[-0.13489554822444916]], [[-0.2765915095806122]], [[-0.13011986017227173]], [[-0.24963989853858948]]], [[[-0.19124716520309448]], [[0.115891233086586]], [[0.1739579737186432]], [[0.1582624316215515]], [[0.10376296937465668]], [[0.251249223947525]], [[0.05649491399526596]], [[0.026164446026086807]], [[0.056232474744319916]], [[-0.26439327001571655]], [[0.04962872341275215]], [[0.10739823430776596]], [[0.022308193147182465]], [[0.15155833959579468]], [[-0.08678141236305237]], [[-0.16028720140457153]], [[-0.10338583588600159]], [[0.046126145869493484]], [[-0.17075537145137787]], [[0.11139977723360062]], [[0.42680034041404724]], [[0.14352403581142426]], [[-0.05511283501982689]], [[0.08631743490695953]], [[0.1805906742811203]], [[0.1342265009880066]], [[-0.04735342785716057]], [[0.1132633313536644]], [[-0.189289391040802]], [[-0.27303948998451233]], [[0.051798272877931595]], [[-0.11706598848104477]], [[0.32869836688041687]], [[0.16100642085075378]], [[0.12297273427248001]], [[-0.21371261775493622]], [[-0.06613834947347641]], [[-0.13524779677391052]], [[-0.014489579945802689]], [[-0.3710264563560486]], [[-0.3669842481613159]], [[0.08517599105834961]], [[0.14395706355571747]], [[0.420340895652771]], [[-0.2308349758386612]], [[-0.020468275994062424]], [[0.04619774594902992]], [[-0.06605713814496994]]], [[[-0.019574420526623726]], [[0.0008170167566277087]], [[-0.11243557929992676]], [[-0.20840050280094147]], [[0.053277064114809036]], [[0.03410954400897026]], [[-0.21399645507335663]], [[-0.1259656846523285]], [[0.03262914717197418]], [[-0.1011364609003067]], [[-0.1037389487028122]], [[-0.19092147052288055]], [[-0.038568440824747086]], [[0.05421121418476105]], [[0.14000768959522247]], [[-0.007463779300451279]], [[-0.09001506119966507]], [[-0.1710578352212906]], [[-0.005380148533731699]], [[-0.2554698884487152]], [[-0.0874708741903305]], [[-0.02002965472638607]], [[0.4102868139743805]], [[0.0067472937516868114]], [[0.15757839381694794]], [[0.3886207938194275]], [[-0.4592260718345642]], [[-0.010221780277788639]], [[-0.3934318721294403]], [[-0.2750073969364166]], [[0.06145273149013519]], [[-0.04008658602833748]], [[-0.0024847828317433596]], [[-0.257123202085495]], [[0.14943304657936096]], [[-0.2830076217651367]], [[0.005125249736011028]], [[-0.24021601676940918]], [[0.6699460744857788]], [[-0.2767636477947235]], [[-0.5487889051437378]], [[-0.30371415615081787]], [[0.19067686796188354]], [[0.3226151466369629]], [[0.03481464460492134]], [[0.19479592144489288]], [[-0.08252348750829697]], [[0.2137298882007599]]], [[[-0.147894486784935]], [[0.03178343549370766]], [[0.23203112185001373]], [[0.008549988269805908]], [[0.023453516885638237]], [[-0.05656740814447403]], [[-0.20963293313980103]], [[-0.12200217694044113]], [[0.023306533694267273]], [[0.004423869773745537]], [[0.03666017949581146]], [[-0.18226377665996552]], [[0.11758479475975037]], [[-0.09416056424379349]], [[0.13969795405864716]], [[-0.07094581425189972]], [[0.14512696862220764]], [[0.29762953519821167]], [[-0.11764412373304367]], [[-0.12134215235710144]], [[-0.24997320771217346]], [[-0.14871904253959656]], [[0.048229750245809555]], [[-0.12040659040212631]], [[0.03545944392681122]], [[-0.3398459553718567]], [[0.05592208355665207]], [[-0.13480021059513092]], [[0.10044443607330322]], [[0.39908722043037415]], [[-0.4112832844257355]], [[0.41336193680763245]], [[-0.09310070425271988]], [[-0.22433750331401825]], [[0.11356643587350845]], [[-0.34432557225227356]], [[-0.005038934294134378]], [[-0.3377433121204376]], [[-0.0882762148976326]], [[-0.07505705952644348]], [[0.12536203861236572]], [[0.12504902482032776]], [[0.07773549109697342]], [[-0.1617254763841629]], [[-0.19798830151557922]], [[0.04870322719216347]], [[0.04340098798274994]], [[0.11552741378545761]]], [[[-0.3014063835144043]], [[0.4609648585319519]], [[0.2879081964492798]], [[-0.33979225158691406]], [[0.11208627372980118]], [[0.14339153468608856]], [[-0.24847957491874695]], [[0.48110508918762207]], [[0.21541030704975128]], [[-0.1908712536096573]], [[-0.23145021498203278]], [[-0.25656643509864807]], [[-0.0846380889415741]], [[-0.4226340055465698]], [[-0.017765138298273087]], [[0.13980817794799805]], [[-0.005965590942651033]], [[-0.08549237251281738]], [[0.007114085368812084]], [[-0.2627074718475342]], [[-0.19087836146354675]], [[0.0537274144589901]], [[0.22277793288230896]], [[-0.12362261861562729]], [[-0.21244214475154877]], [[-0.27796700596809387]], [[0.19515244662761688]], [[-0.3911377787590027]], [[0.2826986610889435]], [[0.493362694978714]], [[0.07461712509393692]], [[-0.06107759475708008]], [[0.0030133621767163277]], [[-0.1137622743844986]], [[-0.24997998774051666]], [[0.15954671800136566]], [[0.00680921133607626]], [[0.378040611743927]], [[0.2768687605857849]], [[0.07633192092180252]], [[0.040172409266233444]], [[0.25343140959739685]], [[0.01866060495376587]], [[-0.0039586941711604595]], [[-0.10753310471773148]], [[0.050001394003629684]], [[-0.14480745792388916]], [[-0.04524477198719978]]], [[[0.12499669194221497]], [[0.00700328079983592]], [[-0.22597354650497437]], [[-0.07117468118667603]], [[0.10563581436872482]], [[-0.33121299743652344]], [[0.17668552696704865]], [[-0.2457043081521988]], [[-0.13512031733989716]], [[-0.09776557236909866]], [[-0.27090293169021606]], [[-0.23488938808441162]], [[0.24822497367858887]], [[0.11999859660863876]], [[-0.02644665539264679]], [[0.053608376532793045]], [[0.17486096918582916]], [[-0.03438805788755417]], [[-0.03793603181838989]], [[-0.0666939988732338]], [[-0.45353370904922485]], [[0.09125397354364395]], [[0.05300191789865494]], [[0.057880233973264694]], [[0.25346893072128296]], [[-0.33347660303115845]], [[-0.03195294737815857]], [[0.09265369921922684]], [[-0.1799899786710739]], [[0.2028752863407135]], [[0.022938387468457222]], [[0.04811866208910942]], [[-0.014271319843828678]], [[0.058893244713544846]], [[0.0882652997970581]], [[-0.3124981224536896]], [[0.20436424016952515]], [[-0.012644173577427864]], [[-0.11626411974430084]], [[0.08866976201534271]], [[0.07755700498819351]], [[-0.07874289155006409]], [[-0.0032765103969722986]], [[-0.13954810798168182]], [[0.03200088068842888]], [[0.3283900320529938]], [[-0.07761111855506897]], [[0.04677685350179672]]], [[[-0.5970581769943237]], [[-0.3008074164390564]], [[-0.1966649293899536]], [[-0.13487151265144348]], [[-0.1620347946882248]], [[-0.06468599289655685]], [[-0.42697349190711975]], [[-0.11413987725973129]], [[-0.203749418258667]], [[-0.5460596680641174]], [[-0.17058105766773224]], [[-0.41252174973487854]], [[-0.032548464834690094]], [[0.21545176208019257]], [[-0.31971585750579834]], [[0.11462724208831787]], [[0.1509801298379898]], [[-0.12243042886257172]], [[0.06202804297208786]], [[-0.2318483293056488]], [[-0.11805607378482819]], [[-0.0050457194447517395]], [[-0.1440761536359787]], [[0.030555082485079765]], [[0.03821844980120659]], [[0.2607342004776001]], [[-0.16861476004123688]], [[0.15739762783050537]], [[0.11767929047346115]], [[-0.07812067121267319]], [[-0.08720718324184418]], [[-0.20959079265594482]], [[0.19585031270980835]], [[-0.06764121353626251]], [[0.04877221956849098]], [[0.1856899857521057]], [[0.28435221314430237]], [[-9.353202767670155e-05]], [[0.3877926468849182]], [[0.08198929578065872]], [[0.09880951046943665]], [[0.0922977551817894]], [[-0.1617523580789566]], [[-0.05465792864561081]], [[0.21475619077682495]], [[0.10811753571033478]], [[-0.2772238254547119]], [[-0.1932566612958908]]], [[[0.003652313258498907]], [[0.21012116968631744]], [[0.3957412838935852]], [[0.025998737663030624]], [[-0.10191334784030914]], [[0.2237844318151474]], [[0.04022299870848656]], [[0.11859789490699768]], [[0.021506082266569138]], [[0.09100985527038574]], [[-0.11872205883264542]], [[-0.030273595824837685]], [[-0.02871154062449932]], [[0.17484644055366516]], [[-0.07326318323612213]], [[0.18692311644554138]], [[-0.2103206217288971]], [[0.2193615883588791]], [[0.057217806577682495]], [[-0.3479786813259125]], [[0.00010026447853306308]], [[0.05646033212542534]], [[-0.058792829513549805]], [[-0.008136576041579247]], [[-0.2282876819372177]], [[-0.12972721457481384]], [[-0.020633962005376816]], [[-0.047067657113075256]], [[0.04471511393785477]], [[-0.00987238995730877]], [[0.09648513048887253]], [[-0.07956533133983612]], [[-0.4595610797405243]], [[-0.009149903431534767]], [[-0.23709449172019958]], [[-0.008603501133620739]], [[-0.2735215425491333]], [[-0.1789429634809494]], [[-0.1787385642528534]], [[-0.023057427257299423]], [[0.1756153404712677]], [[-0.04497705399990082]], [[0.20741291344165802]], [[-0.05461965501308441]], [[0.004770281724631786]], [[-0.27907559275627136]], [[0.08926182985305786]], [[0.05107932537794113]]], [[[0.18882757425308228]], [[0.08241260796785355]], [[0.21099723875522614]], [[0.18968963623046875]], [[-0.14356915652751923]], [[-0.11748805642127991]], [[0.09576651453971863]], [[0.03567642718553543]], [[-0.021179212257266045]], [[0.02572464570403099]], [[-0.3668055236339569]], [[0.5251749157905579]], [[0.12634563446044922]], [[0.0014852490276098251]], [[0.0364714115858078]], [[0.19846180081367493]], [[-0.07769691199064255]], [[-0.0325857549905777]], [[-0.0337592288851738]], [[0.07461926341056824]], [[-0.05719616636633873]], [[-0.08633873611688614]], [[-0.1873357892036438]], [[0.21680548787117004]], [[0.05740947276353836]], [[-0.02637903019785881]], [[-0.22756659984588623]], [[-0.17449364066123962]], [[0.12618257105350494]], [[-0.3023044764995575]], [[-0.16112427413463593]], [[0.003626075340434909]], [[-0.11792037636041641]], [[-0.024035193026065826]], [[-0.08021975308656693]], [[0.1708238422870636]], [[0.06576301157474518]], [[-0.26308172941207886]], [[-0.01592397317290306]], [[-0.05112810432910919]], [[0.09645259380340576]], [[0.15286442637443542]], [[-0.05109376832842827]], [[-0.29957789182662964]], [[-0.17913363873958588]], [[0.03773138299584389]], [[0.027050159871578217]], [[-0.06724661588668823]]], [[[-0.03693070635199547]], [[-0.5513316988945007]], [[-0.005063061136752367]], [[-0.3212625980377197]], [[-0.4194904863834381]], [[0.10780427604913712]], [[-0.09007354825735092]], [[-0.45819565653800964]], [[-0.06106466427445412]], [[-0.36469367146492004]], [[0.16035084426403046]], [[0.3195805251598358]], [[0.01532377116382122]], [[-0.01869102381169796]], [[0.3277503550052643]], [[0.18853293359279633]], [[0.14082887768745422]], [[-0.15724729001522064]], [[0.1622912883758545]], [[0.40496671199798584]], [[0.1445387750864029]], [[-0.12006691843271255]], [[-0.22478605806827545]], [[0.1082911267876625]], [[0.09044022858142853]], [[-0.24566473066806793]], [[-0.12243127077817917]], [[0.0976361557841301]], [[-0.27430373430252075]], [[-0.14296193420886993]], [[-0.001539471442811191]], [[-0.028667856007814407]], [[0.08140301704406738]], [[0.06211141124367714]], [[0.06554267555475235]], [[0.1222991868853569]], [[-0.29804158210754395]], [[-0.42701244354248047]], [[0.15989930927753448]], [[0.006200612988322973]], [[0.18956997990608215]], [[-0.29938504099845886]], [[0.12287044525146484]], [[-0.13526904582977295]], [[-0.20782330632209778]], [[0.24992550909519196]], [[-0.09188839793205261]], [[0.06693203747272491]]], [[[-0.12157899886369705]], [[-0.1933199167251587]], [[-0.13952571153640747]], [[-0.055748358368873596]], [[-0.15932658314704895]], [[0.13075558841228485]], [[0.0848025307059288]], [[0.026101985946297646]], [[-0.056291259825229645]], [[-0.17534416913986206]], [[0.06110752001404762]], [[0.03035140223801136]], [[0.15309861302375793]], [[-0.3223207890987396]], [[0.18010422587394714]], [[0.05953257903456688]], [[-0.022146472707390785]], [[-0.13967524468898773]], [[-0.16047197580337524]], [[0.09847977012395859]], [[0.25849369168281555]], [[0.13589154183864594]], [[0.4689235985279083]], [[-0.313876211643219]], [[0.0398225262761116]], [[-0.3496757447719574]], [[0.01839904859662056]], [[-0.25109755992889404]], [[-0.283895343542099]], [[0.23260213434696198]], [[0.22831380367279053]], [[0.16209328174591064]], [[-0.26077747344970703]], [[0.04715094715356827]], [[-0.16079369187355042]], [[0.17249634861946106]], [[-0.04545712471008301]], [[-0.06702739000320435]], [[-0.08060204237699509]], [[-0.07304222881793976]], [[0.1930171251296997]], [[-0.12826384603977203]], [[0.3614373207092285]], [[-0.3069451153278351]], [[0.2383749932050705]], [[-0.163278266787529]], [[0.400186151266098]], [[-0.013595778495073318]]], [[[-0.16791057586669922]], [[-0.1298651397228241]], [[0.12126579135656357]], [[0.05144144967198372]], [[-0.17215493321418762]], [[0.0017646398628130555]], [[-0.29925835132598877]], [[-0.031729165464639664]], [[-0.062007687985897064]], [[-0.2705388069152832]], [[-0.2736036479473114]], [[-0.07819606363773346]], [[-0.3452190160751343]], [[0.2284192144870758]], [[0.17519553005695343]], [[-0.15824949741363525]], [[-0.11345819383859634]], [[0.09120877087116241]], [[-0.05865051969885826]], [[-0.25489336252212524]], [[-0.3946562707424164]], [[0.4060143232345581]], [[0.08259575814008713]], [[-0.03966107219457626]], [[0.02962224744260311]], [[-0.025846030563116074]], [[0.3901527225971222]], [[-0.10455188155174255]], [[0.015571437776088715]], [[0.27348747849464417]], [[0.35065117478370667]], [[0.15666934847831726]], [[-0.2641852796077728]], [[-0.20156268775463104]], [[-0.17352195084095]], [[-0.053552404046058655]], [[-0.06741783767938614]], [[0.031133189797401428]], [[0.012897730804979801]], [[-0.0781039223074913]], [[-0.27414005994796753]], [[0.09453864395618439]], [[0.313123494386673]], [[0.03603377938270569]], [[0.23330828547477722]], [[0.09362981468439102]], [[0.08015952259302139]], [[-0.1428486853837967]]], [[[0.06495127081871033]], [[-0.13575948774814606]], [[0.22794485092163086]], [[0.5672376751899719]], [[0.17785975337028503]], [[0.0015312200412154198]], [[-0.3035051226615906]], [[0.03356531634926796]], [[0.16550570726394653]], [[-0.2870629131793976]], [[-0.21542374789714813]], [[0.3092847168445587]], [[-0.025613393634557724]], [[0.23865669965744019]], [[0.14052273333072662]], [[-0.10689150542020798]], [[-0.0410480760037899]], [[0.33201953768730164]], [[0.06569108366966248]], [[0.10446283221244812]], [[0.20643950998783112]], [[0.06311759352684021]], [[0.015208058059215546]], [[-0.167305588722229]], [[-0.2180761694908142]], [[0.019618099555373192]], [[0.010581064969301224]], [[0.11867192387580872]], [[-0.22178274393081665]], [[0.01824040710926056]], [[0.05957947298884392]], [[-0.035588353872299194]], [[-0.12461309880018234]], [[0.014823808334767818]], [[-0.28137099742889404]], [[0.07079055905342102]], [[0.02853485569357872]], [[-0.2234826385974884]], [[0.1203756332397461]], [[-0.020932599902153015]], [[-0.04250096157193184]], [[0.19138465821743011]], [[0.0738460123538971]], [[-0.19839653372764587]], [[-0.35723963379859924]], [[0.04792129620909691]], [[-0.1849859207868576]], [[-0.3797720670700073]]], [[[-0.10236881673336029]], [[-0.10680750012397766]], [[0.07906743884086609]], [[-0.08311619609594345]], [[-0.2131786346435547]], [[-0.004995415918529034]], [[0.021050631999969482]], [[0.09053748846054077]], [[-0.0343305729329586]], [[-0.011760571971535683]], [[-0.0400351844727993]], [[-0.09062828868627548]], [[0.18015748262405396]], [[-0.5671185255050659]], [[-0.034273773431777954]], [[0.050076134502887726]], [[-0.2703973650932312]], [[-0.253512978553772]], [[0.12844496965408325]], [[-0.08809845894575119]], [[-0.29451414942741394]], [[0.030021533370018005]], [[-0.3881048858165741]], [[0.119327612221241]], [[-0.2011410892009735]], [[-0.31393224000930786]], [[-0.16612978279590607]], [[-0.07081066817045212]], [[0.5430831909179688]], [[0.24205802381038666]], [[-0.16965585947036743]], [[-0.22827091813087463]], [[0.3760138750076294]], [[0.10101135820150375]], [[-0.05856626480817795]], [[0.2505059540271759]], [[-0.048313967883586884]], [[0.34317678213119507]], [[0.154668927192688]], [[-0.2603691816329956]], [[0.8107831478118896]], [[-0.298199325799942]], [[-0.02342085726559162]], [[0.42634010314941406]], [[0.12756694853305817]], [[0.17100362479686737]], [[-0.24775443971157074]], [[-0.44393131136894226]]], [[[-0.18211068212985992]], [[0.0718143954873085]], [[-0.0014656339772045612]], [[-0.041838426142930984]], [[-0.024570709094405174]], [[-0.1211632564663887]], [[-0.043077047914266586]], [[-0.011534039862453938]], [[0.0694069117307663]], [[-0.19563569128513336]], [[-0.20735040307044983]], [[-0.002356762532144785]], [[0.04131963476538658]], [[-0.21453310549259186]], [[0.2948513925075531]], [[-0.09423764795064926]], [[-0.30979710817337036]], [[0.4326974153518677]], [[-0.06979852169752121]], [[-0.13401582837104797]], [[0.11654539406299591]], [[0.045206960290670395]], [[-0.09986960887908936]], [[0.13768798112869263]], [[0.09457149356603622]], [[-0.18970084190368652]], [[0.4636356234550476]], [[-0.04949001967906952]], [[0.1785138100385666]], [[0.11333127319812775]], [[-0.19597546756267548]], [[-0.25357145071029663]], [[0.06875470280647278]], [[-0.0810917466878891]], [[-0.34143444895744324]], [[0.33754977583885193]], [[-0.1705850213766098]], [[0.042647942900657654]], [[0.2668261229991913]], [[-0.1657835692167282]], [[-0.5458877086639404]], [[0.05067933350801468]], [[0.17783822119235992]], [[-0.037744808942079544]], [[0.3946024775505066]], [[-0.1214526817202568]], [[0.005537079181522131]], [[0.11346372961997986]]], [[[0.20878788828849792]], [[0.19042204320430756]], [[-0.2755420506000519]], [[-0.5359055995941162]], [[0.013223608955740929]], [[-0.04343487694859505]], [[0.22765573859214783]], [[-0.07968439161777496]], [[-0.16332505643367767]], [[-0.16223600506782532]], [[0.2699959874153137]], [[0.08453536033630371]], [[-0.0047096614725887775]], [[0.12418366968631744]], [[-0.16372455656528473]], [[0.11408422887325287]], [[-0.021218376234173775]], [[-0.13894884288311005]], [[-0.06787189096212387]], [[-0.2479594200849533]], [[-0.29649558663368225]], [[0.005293613765388727]], [[-0.0015941241290420294]], [[-0.18272005021572113]], [[0.17685210704803467]], [[-0.26978740096092224]], [[0.21798783540725708]], [[-0.12965154647827148]], [[-0.057664692401885986]], [[0.06635993719100952]], [[-0.1825084090232849]], [[0.24692870676517487]], [[0.20605432987213135]], [[0.19708701968193054]], [[0.09089163690805435]], [[0.007227029651403427]], [[-0.2248423993587494]], [[-0.1406724900007248]], [[-0.10482843965291977]], [[0.08507853001356125]], [[0.030756337568163872]], [[-0.15906701982021332]], [[-0.18522301316261292]], [[-0.06559040397405624]], [[0.24715636670589447]], [[-0.21729359030723572]], [[0.1270095258951187]], [[0.37175461649894714]]], [[[-0.18193741142749786]], [[0.11898406594991684]], [[0.27416855096817017]], [[-0.17097283899784088]], [[0.40828144550323486]], [[0.23771335184574127]], [[0.012882811948657036]], [[0.1277996301651001]], [[0.35646992921829224]], [[-0.17472229897975922]], [[0.5091682076454163]], [[-0.04774250090122223]], [[0.06903646886348724]], [[0.3570265471935272]], [[0.15667769312858582]], [[0.06767729669809341]], [[0.2672960162162781]], [[-0.023200100287795067]], [[-0.31363609433174133]], [[-0.15160313248634338]], [[0.011625944636762142]], [[-0.030042346566915512]], [[0.4111216366291046]], [[0.06273071467876434]], [[-0.017831232398748398]], [[0.15281885862350464]], [[-0.2695678472518921]], [[-0.03942035511136055]], [[0.01922670379281044]], [[-0.06388665735721588]], [[0.0028689296450465918]], [[0.31206536293029785]], [[0.2028026431798935]], [[-0.2673569917678833]], [[0.3525010943412781]], [[-0.18662633001804352]], [[0.027003729715943336]], [[0.010561466217041016]], [[0.3270074427127838]], [[-0.00075081258546561]], [[0.1592467874288559]], [[-0.031221702694892883]], [[0.07745113223791122]], [[0.14194689691066742]], [[-0.10952369123697281]], [[-0.12175466120243073]], [[0.26228103041648865]], [[0.07222668081521988]]], [[[-0.13798606395721436]], [[0.09172996133565903]], [[-0.0006609851261600852]], [[0.002299220534041524]], [[0.23636525869369507]], [[-0.07408612966537476]], [[0.05130412429571152]], [[0.08648443967103958]], [[0.00856512039899826]], [[-0.16271968185901642]], [[0.2356768101453781]], [[-0.13685745000839233]], [[0.16466255486011505]], [[0.4493879973888397]], [[-0.07421869039535522]], [[-0.22969062626361847]], [[0.1968425065279007]], [[-0.18591776490211487]], [[-0.08281692117452621]], [[0.0859893262386322]], [[-0.03117615543305874]], [[-0.17924681305885315]], [[0.1559823453426361]], [[-0.018161088228225708]], [[-0.15873457491397858]], [[-0.3631354570388794]], [[0.1270858347415924]], [[0.01868787780404091]], [[0.2986757457256317]], [[0.14083130657672882]], [[0.033247243613004684]], [[0.5105236768722534]], [[0.06806936860084534]], [[0.042056854814291]], [[0.32020577788352966]], [[0.1460224837064743]], [[-0.195034921169281]], [[0.0021247989498078823]], [[-0.151885524392128]], [[-0.350051611661911]], [[0.19530177116394043]], [[-0.41203948855400085]], [[0.12782306969165802]], [[-0.2913268804550171]], [[0.10705599933862686]], [[0.15373334288597107]], [[-0.10054752230644226]], [[-0.039676547050476074]]], [[[0.2955990433692932]], [[0.18543368577957153]], [[-0.08008627593517303]], [[-0.2774650752544403]], [[0.048185527324676514]], [[0.11651638895273209]], [[-0.012962122447788715]], [[0.07235746085643768]], [[-0.25893881916999817]], [[-0.07601398229598999]], [[-0.17417527735233307]], [[0.028062373399734497]], [[0.28771889209747314]], [[-0.0024090902879834175]], [[0.09671040624380112]], [[0.12019693106412888]], [[0.049855537712574005]], [[0.11200850456953049]], [[-0.2099410444498062]], [[-0.34207355976104736]], [[0.1252971589565277]], [[0.2485116422176361]], [[0.04678984358906746]], [[-0.04980834573507309]], [[0.29244041442871094]], [[0.24166934192180634]], [[0.19516602158546448]], [[0.07985664159059525]], [[0.031502798199653625]], [[0.18057198822498322]], [[0.009658201597630978]], [[0.2187807559967041]], [[-0.09849805384874344]], [[-0.0013596347998827696]], [[-0.32046279311180115]], [[0.02652946300804615]], [[6.160946213640273e-05]], [[0.1485881209373474]], [[0.21496930718421936]], [[0.05632726475596428]], [[-0.1232721135020256]], [[0.07780370861291885]], [[0.04670220986008644]], [[0.09670719504356384]], [[0.0789615660905838]], [[-0.11173613369464874]], [[0.04965116083621979]], [[-0.09177292138338089]]], [[[-0.20598247647285461]], [[-0.1509556770324707]], [[0.0929940715432167]], [[-0.12915289402008057]], [[-0.14955691993236542]], [[-0.28344717621803284]], [[-0.09153789281845093]], [[-0.08578422665596008]], [[0.08930504322052002]], [[-0.3313061594963074]], [[-0.46950486302375793]], [[-0.024118022993206978]], [[0.25028565526008606]], [[-0.5579259991645813]], [[0.24774673581123352]], [[0.163461834192276]], [[-0.3087412714958191]], [[-0.164912149310112]], [[0.08403199911117554]], [[-0.39662936329841614]], [[-0.23890326917171478]], [[0.07084997743368149]], [[0.2047949880361557]], [[0.6841170191764832]], [[0.10438185930252075]], [[-0.26132065057754517]], [[0.1287624090909958]], [[-0.10898648202419281]], [[0.002300320891663432]], [[0.1819150447845459]], [[0.13515214622020721]], [[0.021545514464378357]], [[-0.09942609816789627]], [[-0.1672661304473877]], [[-0.18812942504882812]], [[-0.24827300012111664]], [[0.08229509741067886]], [[-0.32763761281967163]], [[0.4126780033111572]], [[-0.05745984986424446]], [[-0.18179135024547577]], [[0.051368892192840576]], [[0.30773627758026123]], [[-0.39918991923332214]], [[0.1908479630947113]], [[-0.08864928036928177]], [[-0.36214369535446167]], [[0.02083258517086506]]], [[[-0.12186533957719803]], [[0.12006497383117676]], [[0.23944473266601562]], [[-0.20198766887187958]], [[-0.14213165640830994]], [[0.07755930721759796]], [[0.16286030411720276]], [[-0.05233950540423393]], [[0.22732752561569214]], [[0.11520454287528992]], [[-0.007566053420305252]], [[0.09288417547941208]], [[0.0640372633934021]], [[-0.23201259970664978]], [[0.23851333558559418]], [[-0.008305950090289116]], [[0.31165310740470886]], [[0.6138203144073486]], [[-0.0222016591578722]], [[0.4242643117904663]], [[0.09942786395549774]], [[-0.11444055289030075]], [[-0.1440453678369522]], [[-0.43170827627182007]], [[-0.08769682049751282]], [[-0.11652611941099167]], [[-0.3291194438934326]], [[-0.12181944400072098]], [[0.23861709237098694]], [[0.2800617814064026]], [[-0.02331320010125637]], [[0.4874640107154846]], [[0.22708483040332794]], [[-0.11058980971574783]], [[0.03668084740638733]], [[0.40480002760887146]], [[-0.11072979867458344]], [[-0.10443012416362762]], [[0.07146276533603668]], [[-0.2456677407026291]], [[0.021015865728259087]], [[0.28951355814933777]], [[-0.02789061702787876]], [[-0.38092154264450073]], [[-0.3977709412574768]], [[0.10380759835243225]], [[-0.1269640028476715]], [[-0.39000847935676575]]], [[[-0.49280256032943726]], [[0.16159872710704803]], [[-0.366964727640152]], [[-0.5442149043083191]], [[0.19962053000926971]], [[-0.3165658116340637]], [[-0.6780251860618591]], [[0.14089755713939667]], [[-0.20621156692504883]], [[0.2375705987215042]], [[-0.015798963606357574]], [[0.31656187772750854]], [[-0.0024731745943427086]], [[0.11226126551628113]], [[-0.3415655195713043]], [[-0.050487954169511795]], [[-0.32491379976272583]], [[0.09233462065458298]], [[-0.07968562841415405]], [[-0.010718687437474728]], [[0.0017239297740161419]], [[-0.02024509571492672]], [[0.20583957433700562]], [[0.34422487020492554]], [[-0.07948417216539383]], [[-0.18825942277908325]], [[0.04769209399819374]], [[-0.12547750771045685]], [[-0.09226951003074646]], [[-0.16347554326057434]], [[-0.02431328594684601]], [[0.20331864058971405]], [[-0.05221789702773094]], [[0.08296681940555573]], [[0.04007217288017273]], [[-0.2498626559972763]], [[-0.0882917121052742]], [[-0.26781341433525085]], [[0.11770367622375488]], [[-0.016682712361216545]], [[0.012146505527198315]], [[0.12159467488527298]], [[-0.021636253222823143]], [[-0.13701468706130981]], [[-0.2237463891506195]], [[-0.20838584005832672]], [[0.0801212266087532]], [[-0.11877353489398956]]], [[[0.049942515790462494]], [[-0.09023883193731308]], [[-0.11922965943813324]], [[-0.18752339482307434]], [[-0.0688973143696785]], [[-0.06639397889375687]], [[-0.014820612967014313]], [[0.05706189572811127]], [[-0.16284961998462677]], [[-0.204971581697464]], [[0.09126918762922287]], [[-0.3264463245868683]], [[-0.09292221069335938]], [[0.23397061228752136]], [[0.016385115683078766]], [[-0.13253343105316162]], [[0.09356169402599335]], [[-0.39519205689430237]], [[0.02765589766204357]], [[-0.2740538716316223]], [[-0.2776205241680145]], [[-0.05200198292732239]], [[0.16846917569637299]], [[0.20499682426452637]], [[0.13211005926132202]], [[0.25515416264533997]], [[0.1135227233171463]], [[-0.1089760884642601]], [[0.23948483169078827]], [[-0.045677300542593]], [[-0.10725539922714233]], [[0.012261345982551575]], [[-0.1460094451904297]], [[-0.2957540452480316]], [[0.0918269082903862]], [[-0.027094902470707893]], [[-0.10634506493806839]], [[0.13732552528381348]], [[-0.1504802107810974]], [[-0.1932653933763504]], [[0.2231634110212326]], [[-0.5777309536933899]], [[0.2127501368522644]], [[0.29514917731285095]], [[-0.0718548595905304]], [[0.002233975799754262]], [[0.15137815475463867]], [[-0.20503635704517365]]], [[[-0.3207329511642456]], [[0.19848258793354034]], [[-0.052337877452373505]], [[-0.3706786632537842]], [[0.24524852633476257]], [[-0.06254006922245026]], [[-0.2836288511753082]], [[0.006974654737859964]], [[-0.10285646468400955]], [[0.04239208996295929]], [[0.06819278001785278]], [[-0.14057964086532593]], [[0.04788888245820999]], [[-0.1632835417985916]], [[-0.38299426436424255]], [[0.021802185103297234]], [[0.03928650543093681]], [[-0.27893006801605225]], [[-0.24929817020893097]], [[-0.09314171224832535]], [[-0.003294816007837653]], [[-0.08996725082397461]], [[-0.003304943908005953]], [[-0.1487216055393219]], [[-0.017779111862182617]], [[-0.16936522722244263]], [[-0.48590657114982605]], [[0.0456266887485981]], [[0.1676250845193863]], [[0.14215686917304993]], [[-0.09710284322500229]], [[-0.10521943867206573]], [[-0.2693004608154297]], [[0.01493633259087801]], [[-0.2815684974193573]], [[-0.3075009286403656]], [[-0.0292161013931036]], [[0.48519235849380493]], [[-0.2842405140399933]], [[-0.10558384656906128]], [[-0.2703384459018707]], [[-0.038157276809215546]], [[-0.029176762327551842]], [[-0.007876093499362469]], [[-0.1853497475385666]], [[-0.23923389613628387]], [[-0.03151559457182884]], [[-0.37072187662124634]]], [[[-0.3157895505428314]], [[-0.16955778002738953]], [[0.29456040263175964]], [[-0.27883151173591614]], [[-0.25206923484802246]], [[0.27876192331314087]], [[-0.21885135769844055]], [[-0.20843347907066345]], [[0.08238641172647476]], [[-0.13324519991874695]], [[-0.32732754945755005]], [[0.380243718624115]], [[-0.0924718827009201]], [[-0.030862336978316307]], [[-0.1635848432779312]], [[0.0834277868270874]], [[-0.12406312674283981]], [[0.5064789652824402]], [[0.03608971834182739]], [[-0.09120641648769379]], [[-0.09858079254627228]], [[-0.22792963683605194]], [[-0.0594804622232914]], [[-0.05328406020998955]], [[0.10802273452281952]], [[-0.30403605103492737]], [[0.2521652281284332]], [[-0.07644607126712799]], [[0.0682118758559227]], [[0.004168562591075897]], [[0.03378070518374443]], [[-0.3735438287258148]], [[-0.12730740010738373]], [[-0.4239732325077057]], [[-0.2719172239303589]], [[-0.006154210306704044]], [[0.07974813878536224]], [[0.018149830400943756]], [[-0.13284938037395477]], [[-0.0314764566719532]], [[-0.046034179627895355]], [[-0.02837558276951313]], [[0.15252678096294403]], [[-0.21459874510765076]], [[0.23253394663333893]], [[0.035555146634578705]], [[0.11955957859754562]], [[-0.23799054324626923]]], [[[-0.18081749975681305]], [[0.6789949536323547]], [[-0.4134348928928375]], [[-0.41244131326675415]], [[0.36858218908309937]], [[-0.5135660171508789]], [[-0.31853893399238586]], [[0.6406562328338623]], [[-0.6656725406646729]], [[-0.3625752329826355]], [[0.41291093826293945]], [[-0.4884982407093048]], [[0.08569028973579407]], [[0.09214978665113449]], [[-0.030077923089265823]], [[-0.07070086151361465]], [[0.3135858178138733]], [[0.09854107350111008]], [[-0.037168778479099274]], [[0.5581445693969727]], [[-0.34494954347610474]], [[0.07522554695606232]], [[-0.38647207617759705]], [[0.19687113165855408]], [[-0.041097115725278854]], [[0.11109111458063126]], [[0.19944234192371368]], [[-0.016778798773884773]], [[-0.11039942502975464]], [[0.14290644228458405]], [[0.32167676091194153]], [[-0.5031409859657288]], [[0.002238515065982938]], [[-0.2673848271369934]], [[0.18536725640296936]], [[-0.09761565923690796]], [[0.04053591936826706]], [[-0.2961200773715973]], [[0.3401290476322174]], [[-0.32189229130744934]], [[-0.15014053881168365]], [[0.09724178165197372]], [[0.16294221580028534]], [[-0.06013750284910202]], [[-0.0037536462768912315]], [[-0.19614610075950623]], [[0.10388144850730896]], [[-0.131842702627182]]], [[[-0.0824645385146141]], [[-0.15727832913398743]], [[-0.13863039016723633]], [[-0.007388406433165073]], [[0.0007565803243778646]], [[-0.10839051753282547]], [[-0.0360088087618351]], [[-0.03261088579893112]], [[-0.025788327679038048]], [[-0.32656970620155334]], [[0.3842875361442566]], [[0.3821888864040375]], [[0.047576114535331726]], [[0.3642636835575104]], [[0.3795146048069]], [[-0.05758228525519371]], [[0.18023477494716644]], [[0.2067321240901947]], [[-0.27241986989974976]], [[0.374869167804718]], [[0.344584584236145]], [[0.038867026567459106]], [[0.32022807002067566]], [[0.17034150660037994]], [[-0.12668856978416443]], [[0.20161846280097961]], [[0.024223268032073975]], [[-0.21931438148021698]], [[0.2843044102191925]], [[0.130151629447937]], [[0.10788604617118835]], [[0.27870169281959534]], [[0.24186059832572937]], [[-0.090880386531353]], [[0.11348455399274826]], [[0.043970104306936264]], [[-0.13464930653572083]], [[0.15226635336875916]], [[0.24666503071784973]], [[-0.03277358412742615]], [[0.07451743632555008]], [[0.06010618433356285]], [[0.15246105194091797]], [[0.32079121470451355]], [[0.06613583117723465]], [[-0.10823867470026016]], [[0.199102982878685]], [[0.3620236814022064]]], [[[0.07415859401226044]], [[-0.12351593375205994]], [[0.20569424331188202]], [[-0.08495181053876877]], [[0.13811567425727844]], [[-0.12114984542131424]], [[0.07985370606184006]], [[0.08266805857419968]], [[0.2684764862060547]], [[-0.026497209444642067]], [[0.18548546731472015]], [[-0.2412661612033844]], [[0.1900254338979721]], [[-0.003913236316293478]], [[0.035492267459630966]], [[-0.06121540814638138]], [[0.2790018916130066]], [[-0.29700353741645813]], [[-0.0977773517370224]], [[0.36339786648750305]], [[-0.47541624307632446]], [[-0.13900232315063477]], [[0.5238662362098694]], [[0.2740320861339569]], [[-0.20479677617549896]], [[-0.09815490990877151]], [[0.16094547510147095]], [[-0.1390320062637329]], [[0.09241050481796265]], [[0.1950974017381668]], [[0.09858952462673187]], [[0.2606397271156311]], [[-0.07648438215255737]], [[-0.04416675865650177]], [[0.31783801317214966]], [[-0.43987610936164856]], [[-0.05516667291522026]], [[0.21424706280231476]], [[0.047552213072776794]], [[-0.1646404266357422]], [[0.21104860305786133]], [[-0.31831783056259155]], [[0.11225785315036774]], [[0.02960333600640297]], [[0.09568393230438232]], [[0.03129914402961731]], [[0.4164389669895172]], [[-0.3351832926273346]]], [[[-0.05177092179656029]], [[-0.023326203227043152]], [[0.5278385281562805]], [[-0.3433026969432831]], [[-0.10745801031589508]], [[0.31601327657699585]], [[0.10260680317878723]], [[0.06237749010324478]], [[0.3791937530040741]], [[0.32354578375816345]], [[-0.04453146830201149]], [[0.14274215698242188]], [[-0.1080237329006195]], [[0.26343873143196106]], [[0.28663888573646545]], [[-0.12835077941417694]], [[0.09860959649085999]], [[0.18645933270454407]], [[0.00974954478442669]], [[0.38197916746139526]], [[0.1886509507894516]], [[-0.08341553807258606]], [[-0.05389038100838661]], [[-0.37696897983551025]], [[-0.24967814981937408]], [[0.0382327176630497]], [[-0.027432823553681374]], [[0.12910519540309906]], [[0.2107899934053421]], [[0.1244424358010292]], [[-0.0008254650747403502]], [[0.07591281086206436]], [[0.24978461861610413]], [[0.026694858446717262]], [[-0.26385313272476196]], [[0.24539992213249207]], [[0.07723304629325867]], [[0.013070255517959595]], [[0.20426838099956512]], [[-0.2636915147304535]], [[0.38975611329078674]], [[-0.030235281214118004]], [[0.1252385526895523]], [[0.04592015966773033]], [[-0.1384745091199875]], [[0.38868412375450134]], [[-0.35501745343208313]], [[-0.24285638332366943]]], [[[-0.23185637593269348]], [[0.2912335991859436]], [[0.08905806392431259]], [[-0.5433798432350159]], [[0.1633066087961197]], [[-0.1787554770708084]], [[-0.18686150014400482]], [[0.09502626210451126]], [[-0.037106841802597046]], [[-0.46810266375541687]], [[-0.4302222430706024]], [[0.15347401797771454]], [[0.08395060896873474]], [[-0.48055267333984375]], [[0.24431610107421875]], [[-0.0790209099650383]], [[-0.3757374882698059]], [[0.006161837838590145]], [[-0.07012160867452621]], [[-0.6780134439468384]], [[0.4107074737548828]], [[0.1389399617910385]], [[-0.008679710328578949]], [[0.1406274139881134]], [[0.07398594170808792]], [[-0.24057714641094208]], [[0.02749951183795929]], [[-0.18573735654354095]], [[-0.1805749535560608]], [[0.26873040199279785]], [[-0.277955561876297]], [[-0.42098867893218994]], [[0.14565409719944]], [[-0.14854519069194794]], [[0.09036444872617722]], [[0.0422729067504406]], [[-0.3108750283718109]], [[-0.43422171473503113]], [[0.13147087395191193]], [[-0.2555375099182129]], [[-0.23284253478050232]], [[0.08212976157665253]], [[0.14491106569766998]], [[-0.30947980284690857]], [[0.2855653762817383]], [[-0.08973344415426254]], [[-0.6970846056938171]], [[0.5842151045799255]]], [[[-0.2708374559879303]], [[-0.1257275491952896]], [[-0.6992409229278564]], [[-0.5405752062797546]], [[0.0532391257584095]], [[-0.5524766445159912]], [[-0.22855053842067719]], [[-0.2454846203327179]], [[-0.40844693779945374]], [[-0.30726006627082825]], [[-0.025214023888111115]], [[-0.03541230410337448]], [[-0.06050298735499382]], [[0.08933978527784348]], [[-0.23695655167102814]], [[-0.11737377196550369]], [[0.062069837003946304]], [[-0.02995815873146057]], [[-0.14289940893650055]], [[0.039749644696712494]], [[0.033940307796001434]], [[-0.024551216512918472]], [[0.04106852784752846]], [[-0.10744816064834595]], [[-0.12251444905996323]], [[-0.011212874203920364]], [[-0.37352296710014343]], [[0.20764651894569397]], [[-0.12054521590471268]], [[-0.1415754109621048]], [[0.20460708439350128]], [[0.08041278272867203]], [[0.3674554228782654]], [[0.039519164711236954]], [[0.13019081950187683]], [[-0.11694560945034027]], [[-0.26422640681266785]], [[0.02647535130381584]], [[-0.38453975319862366]], [[0.028191471472382545]], [[0.059676725417375565]], [[0.01873568445444107]], [[0.060907021164894104]], [[-0.07696177065372467]], [[0.2673598825931549]], [[0.1685241162776947]], [[0.07450032979249954]], [[-0.28741544485092163]]], [[[0.20850257575511932]], [[0.02641044743359089]], [[-0.22871242463588715]], [[0.14882506430149078]], [[0.10396374762058258]], [[-0.15794695913791656]], [[-0.09192225337028503]], [[0.041770413517951965]], [[-0.10741253942251205]], [[-0.1887650042772293]], [[-0.018245404586195946]], [[0.050056092441082]], [[0.22703075408935547]], [[0.3296048939228058]], [[-0.06524395942687988]], [[-0.0888323038816452]], [[-0.2042211890220642]], [[0.12044931948184967]], [[0.07521669566631317]], [[-0.34784135222435]], [[0.19105719029903412]], [[0.2766355276107788]], [[-0.001327149453572929]], [[0.1077738031744957]], [[-0.09839411079883575]], [[-0.11893496662378311]], [[0.02829081006348133]], [[-0.09743615239858627]], [[0.2217811644077301]], [[-0.285399466753006]], [[-0.06901270151138306]], [[0.10110723972320557]], [[0.23351234197616577]], [[0.16769084334373474]], [[-0.13680057227611542]], [[0.06968513131141663]], [[0.11788064241409302]], [[0.12085721641778946]], [[-0.3162022531032562]], [[-0.004208606667816639]], [[0.11795823276042938]], [[0.23461362719535828]], [[0.09299837797880173]], [[0.11148630082607269]], [[-0.21724221110343933]], [[-0.2698678970336914]], [[-0.1794905811548233]], [[0.006117138545960188]]], [[[-0.032644979655742645]], [[0.06050361692905426]], [[0.12523095309734344]], [[-0.04666570574045181]], [[0.06909892708063126]], [[-0.11772763729095459]], [[0.027902916073799133]], [[0.1397705376148224]], [[0.0015087450155988336]], [[0.027912942692637444]], [[0.04531863331794739]], [[-0.16770555078983307]], [[-0.040881648659706116]], [[0.20809531211853027]], [[-0.07730531692504883]], [[-0.00583583815023303]], [[0.08429159224033356]], [[-0.1289738416671753]], [[-0.20844915509223938]], [[0.19500114023685455]], [[0.0010202040430158377]], [[-0.21066822111606598]], [[0.05299867317080498]], [[0.13047847151756287]], [[0.20682615041732788]], [[0.0008140240097418427]], [[-0.3733401894569397]], [[-0.1548813432455063]], [[-0.059268519282341]], [[-0.2565429210662842]], [[-0.2454770803451538]], [[-0.5032597780227661]], [[0.35218802094459534]], [[0.028817614540457726]], [[-0.19398003816604614]], [[-0.03310324251651764]], [[0.08595579862594604]], [[-0.20831607282161713]], [[0.0833103135228157]], [[-0.30406811833381653]], [[-0.5299764275550842]], [[0.09933944791555405]], [[-0.09827793389558792]], [[0.41769397258758545]], [[-0.1804378628730774]], [[0.08716226369142532]], [[-0.08440085500478745]], [[0.005376521497964859]]], [[[-0.1107032522559166]], [[0.011699012480676174]], [[-0.11883389204740524]], [[-0.10641997307538986]], [[0.11619935184717178]], [[0.07677627354860306]], [[-0.16674885153770447]], [[0.1378737986087799]], [[-0.0005061620031483471]], [[-0.05157562717795372]], [[-0.0059129842557013035]], [[-0.5610981583595276]], [[-0.29301998019218445]], [[-0.1746475100517273]], [[-0.32749277353286743]], [[0.022891512140631676]], [[-0.43662720918655396]], [[0.0049238321371376514]], [[0.012985896319150925]], [[-0.19265085458755493]], [[0.06644488871097565]], [[-0.1579163521528244]], [[0.05930757522583008]], [[0.17899908125400543]], [[-0.2544558644294739]], [[-0.4051215648651123]], [[-0.1457226425409317]], [[-0.07618366181850433]], [[-0.407930463552475]], [[0.10648917406797409]], [[-0.21717160940170288]], [[-0.5483201146125793]], [[0.11550411581993103]], [[-0.032596468925476074]], [[-0.34000083804130554]], [[-0.025369349867105484]], [[-0.06021403521299362]], [[-0.45620667934417725]], [[-0.2002307027578354]], [[-0.058042608201503754]], [[-0.4478636085987091]], [[-0.23897825181484222]], [[0.05286252126097679]], [[0.4367866516113281]], [[0.11910123378038406]], [[0.07581684738397598]], [[-0.24281767010688782]], [[-0.2665144205093384]]], [[[0.15625187754631042]], [[-0.09655232727527618]], [[-0.3718864619731903]], [[-0.10598333925008774]], [[-0.060605041682720184]], [[-0.07920882105827332]], [[0.20374271273612976]], [[-0.1290542036294937]], [[-0.12406445294618607]], [[-0.2685340940952301]], [[-0.26970377564430237]], [[-0.2675815224647522]], [[0.11811944842338562]], [[-0.10332337021827698]], [[-0.5576133728027344]], [[0.011541545391082764]], [[-0.06800854951143265]], [[0.032692063599824905]], [[0.2231680005788803]], [[-0.20668670535087585]], [[-0.059781529009342194]], [[-0.03203815594315529]], [[0.023347806185483932]], [[0.2622242867946625]], [[0.059874482452869415]], [[0.11343816667795181]], [[0.37315887212753296]], [[-0.011508467607200146]], [[-0.06997603178024292]], [[-0.3829438090324402]], [[-0.0003973873099312186]], [[-0.21768677234649658]], [[0.04138069227337837]], [[-0.07993196696043015]], [[-0.1851169317960739]], [[-0.09926018118858337]], [[0.059690628200769424]], [[0.008057696744799614]], [[0.030963575467467308]], [[0.024432145059108734]], [[-0.1261887103319168]], [[-0.039379850029945374]], [[-0.11025669425725937]], [[0.34123191237449646]], [[0.09469753503799438]], [[-0.4876953363418579]], [[-0.13543687760829926]], [[0.1075931042432785]]], [[[-0.12248408794403076]], [[0.16046494245529175]], [[0.07852675020694733]], [[-0.02181905135512352]], [[-0.02889196388423443]], [[0.005046275909990072]], [[-0.05548367649316788]], [[0.00032549918978475034]], [[-0.007283442188054323]], [[0.13063566386699677]], [[0.0156264491379261]], [[-0.06751960515975952]], [[0.04399554803967476]], [[-0.34101611375808716]], [[0.4579526484012604]], [[0.24567629396915436]], [[0.3883952498435974]], [[0.4535992443561554]], [[-0.09095754474401474]], [[0.12391655147075653]], [[-0.2907205820083618]], [[-0.053088877350091934]], [[0.26284119486808777]], [[-0.2818015217781067]], [[-0.09675848484039307]], [[-0.2863635718822479]], [[0.23018793761730194]], [[-0.10198464244604111]], [[-0.2481449693441391]], [[0.11630882322788239]], [[-0.037011317908763885]], [[0.5930139422416687]], [[-0.19151943922042847]], [[0.016818908974528313]], [[-0.029975952580571175]], [[0.0928245261311531]], [[0.0948999673128128]], [[-0.24644538760185242]], [[0.0018245248356834054]], [[-0.17823264002799988]], [[0.28707829117774963]], [[0.22968560457229614]], [[0.07817520201206207]], [[-0.21660155057907104]], [[-0.07776877284049988]], [[0.02826114185154438]], [[0.08586886525154114]], [[-0.17518487572669983]]], [[[0.07680489867925644]], [[-0.2301383763551712]], [[-0.14435704052448273]], [[0.29382985830307007]], [[0.14531242847442627]], [[0.16612786054611206]], [[0.09707771241664886]], [[0.07689832150936127]], [[-0.11546970903873444]], [[-0.08714280277490616]], [[-0.03769610822200775]], [[0.3708374500274658]], [[-0.18524807691574097]], [[-0.1181018128991127]], [[-0.24770399928092957]], [[0.041674233973026276]], [[-0.16468362510204315]], [[-0.1779998540878296]], [[-0.025797268375754356]], [[-0.2203218936920166]], [[-0.05121009796857834]], [[-0.07613282650709152]], [[0.1544262021780014]], [[0.13021308183670044]], [[0.08331727236509323]], [[0.03312394767999649]], [[0.11145354062318802]], [[0.025921903550624847]], [[-0.06083878502249718]], [[-0.398013174533844]], [[0.020827466621994972]], [[-0.007362019270658493]], [[-0.0487360842525959]], [[0.024975581094622612]], [[0.04392809420824051]], [[-0.2272314876317978]], [[0.03185447305440903]], [[0.0966239720582962]], [[0.32851552963256836]], [[0.15202607214450836]], [[-0.03912120312452316]], [[-0.17581303417682648]], [[-0.04744955897331238]], [[0.16532932221889496]], [[0.16124629974365234]], [[0.11720552295446396]], [[0.26437801122665405]], [[0.11844463646411896]]], [[[-0.08278866112232208]], [[-0.12848517298698425]], [[-0.2859424352645874]], [[0.2098383903503418]], [[0.07526208460330963]], [[-0.13070888817310333]], [[-4.502378578763455e-05]], [[-0.08932524174451828]], [[-0.22590067982673645]], [[-0.1683265119791031]], [[-0.19525228440761566]], [[-0.0946420431137085]], [[-0.1741025596857071]], [[0.12107758224010468]], [[-0.04316500574350357]], [[0.026527510955929756]], [[0.13799618184566498]], [[0.16470679640769958]], [[-0.030958639457821846]], [[0.1225130558013916]], [[-0.2539587616920471]], [[0.031222941353917122]], [[-0.20681199431419373]], [[0.2667216360569]], [[-0.038411468267440796]], [[-0.03182696923613548]], [[-0.5773066878318787]], [[-0.03823898732662201]], [[0.11901798099279404]], [[0.33213356137275696]], [[-0.11644549667835236]], [[-0.18826431035995483]], [[0.3546336889266968]], [[0.06912302225828171]], [[-0.22859464585781097]], [[0.268576979637146]], [[0.06825131177902222]], [[0.0027888682670891285]], [[-0.002010582247748971]], [[0.030518876388669014]], [[0.12386422604322433]], [[0.45252174139022827]], [[0.0013129026629030704]], [[-0.18067508935928345]], [[-0.36104172468185425]], [[0.018675312399864197]], [[-0.06588506698608398]], [[-0.21962092816829681]]], [[[-0.1937457174062729]], [[0.158010795712471]], [[0.08417683094739914]], [[-0.04831697419285774]], [[-0.1688307225704193]], [[0.07100377231836319]], [[-0.3122955560684204]], [[0.1843014508485794]], [[-0.09987158328294754]], [[-0.2411298155784607]], [[0.03966006264090538]], [[0.10489272326231003]], [[0.07805835455656052]], [[0.019429853186011314]], [[-0.05245095491409302]], [[0.2072395533323288]], [[-0.11135556548833847]], [[-0.3121505081653595]], [[0.11356966197490692]], [[-0.057843174785375595]], [[-0.02904927358031273]], [[0.018945325165987015]], [[-0.5484086275100708]], [[-0.3762868046760559]], [[-0.05899707227945328]], [[-0.2625375986099243]], [[0.19131174683570862]], [[-0.13186341524124146]], [[0.29013484716415405]], [[0.42910507321357727]], [[0.10376651585102081]], [[0.25415468215942383]], [[0.26403293013572693]], [[-0.12186428159475327]], [[-0.2948327958583832]], [[0.02923903986811638]], [[-0.37839218974113464]], [[0.3990793824195862]], [[0.34341514110565186]], [[0.01915385015308857]], [[0.025419246405363083]], [[-0.09908261150121689]], [[0.10225581377744675]], [[-0.2960216701030731]], [[-0.47998133301734924]], [[-0.051199477165937424]], [[0.38334453105926514]], [[-0.10354084521532059]]], [[[-0.11854615807533264]], [[0.24288897216320038]], [[0.04618003964424133]], [[-0.14549411833286285]], [[0.1717362403869629]], [[-0.15426985919475555]], [[-0.09130653738975525]], [[0.16894719004631042]], [[0.2056991159915924]], [[-0.15370100736618042]], [[0.2823368310928345]], [[-0.0863071009516716]], [[0.0805746540427208]], [[0.4488068222999573]], [[0.4311475455760956]], [[-0.04314420372247696]], [[0.20188532769680023]], [[0.26919329166412354]], [[-0.008229521103203297]], [[0.2778608202934265]], [[0.28131893277168274]], [[-0.0977962464094162]], [[0.09448719024658203]], [[-0.05643385648727417]], [[-0.07288727164268494]], [[-0.15533335506916046]], [[0.19798491895198822]], [[-0.034514687955379486]], [[0.062454886734485626]], [[0.13464847207069397]], [[-0.06764618307352066]], [[0.159349724650383]], [[0.06937579065561295]], [[-0.16527721285820007]], [[0.1121700331568718]], [[0.004900946747511625]], [[-0.2855989933013916]], [[-0.10396470874547958]], [[0.03265071287751198]], [[-0.32500430941581726]], [[0.2072286456823349]], [[-0.017752544954419136]], [[0.17661064863204956]], [[0.02795902080833912]], [[-0.11100447922945023]], [[-0.1303374171257019]], [[-0.00999398808926344]], [[0.1947278529405594]]], [[[-0.09573042392730713]], [[-0.4575982689857483]], [[-0.04328085109591484]], [[0.14521273970603943]], [[-0.09856090694665909]], [[0.17282883822917938]], [[-0.06876365095376968]], [[-0.1338394433259964]], [[-0.1639239639043808]], [[-0.02965373732149601]], [[-0.3605932295322418]], [[0.0004083305539097637]], [[0.26451295614242554]], [[0.2793497145175934]], [[-0.27543237805366516]], [[0.04501139372587204]], [[-0.053468480706214905]], [[0.12356296926736832]], [[-0.2012920081615448]], [[-0.36501336097717285]], [[0.196309432387352]], [[0.008732598274946213]], [[-0.14218339323997498]], [[-0.2332073599100113]], [[0.00041007783147506416]], [[-0.12318290770053864]], [[0.04881846904754639]], [[0.05008405074477196]], [[0.17336662113666534]], [[-0.5264550447463989]], [[0.18687033653259277]], [[-0.11441478878259659]], [[0.06868957728147507]], [[-0.08267976343631744]], [[-0.21754759550094604]], [[-0.06807181984186172]], [[0.03888465091586113]], [[-0.2987673282623291]], [[0.33190709352493286]], [[-0.2524665296077728]], [[0.22139082849025726]], [[0.056838084012269974]], [[-0.04422031715512276]], [[-0.01965569145977497]], [[0.016779379919171333]], [[-0.07790379971265793]], [[0.45358580350875854]], [[0.03999301791191101]]], [[[-0.4273572862148285]], [[-0.3356914520263672]], [[-0.14577023684978485]], [[0.009943355806171894]], [[-0.09305854886770248]], [[-0.45821282267570496]], [[0.1785898655653]], [[-0.1540832370519638]], [[-0.01752612739801407]], [[0.5006711483001709]], [[0.022353515028953552]], [[0.010272547602653503]], [[-0.02150609903037548]], [[-0.12234359234571457]], [[-0.0738784521818161]], [[-0.09777222573757172]], [[0.11449703574180603]], [[-0.21620455384254456]], [[-0.06959766149520874]], [[-0.04352738708257675]], [[-0.12367771565914154]], [[-0.0812046155333519]], [[-0.056215956807136536]], [[0.1117425188422203]], [[0.1826389580965042]], [[0.17628033459186554]], [[-0.15270394086837769]], [[0.07670383155345917]], [[0.03328487277030945]], [[0.239750936627388]], [[-0.1560567319393158]], [[-0.21874231100082397]], [[0.2945309281349182]], [[0.009236050769686699]], [[0.14491643011569977]], [[0.028017858043313026]], [[0.20694740116596222]], [[0.14641812443733215]], [[0.04582851380109787]], [[0.12336089462041855]], [[-0.3103589415550232]], [[-0.04748086258769035]], [[-0.13845285773277283]], [[0.10306687653064728]], [[0.008108659647405148]], [[0.15283875167369843]], [[0.1764395385980606]], [[0.019644388929009438]]], [[[-0.201344832777977]], [[-0.23250141739845276]], [[-0.37346139550209045]], [[-0.3106113076210022]], [[-0.3383713960647583]], [[-0.4210907816886902]], [[-0.11981519311666489]], [[-0.36712145805358887]], [[-0.2534021735191345]], [[-0.0840369164943695]], [[-0.21895423531532288]], [[-0.23322439193725586]], [[0.1441216915845871]], [[-0.00773650873452425]], [[-0.08308465778827667]], [[0.022394122555851936]], [[-0.11124253273010254]], [[0.20644403994083405]], [[0.14270801842212677]], [[-0.4493195414543152]], [[-0.08445622771978378]], [[0.07539274543523788]], [[0.4384951591491699]], [[-0.2274329960346222]], [[-0.0698862299323082]], [[-0.14195764064788818]], [[-0.04436349868774414]], [[0.1573479175567627]], [[0.20318257808685303]], [[0.41063791513442993]], [[0.07900768518447876]], [[-0.25329360365867615]], [[0.2956427335739136]], [[-0.15815895795822144]], [[-0.2274179756641388]], [[-0.06036604195833206]], [[-0.19427067041397095]], [[-0.3179173171520233]], [[-0.003929380793124437]], [[-0.19998382031917572]], [[-0.053948309272527695]], [[0.17603999376296997]], [[-0.03074922412633896]], [[0.08208563178777695]], [[-0.1857326626777649]], [[-0.015569619834423065]], [[-0.22985197603702545]], [[-0.13089390099048615]]], [[[-0.1401670128107071]], [[0.06551188230514526]], [[0.019472870975732803]], [[-0.23865996301174164]], [[0.05690877139568329]], [[-0.012731049209833145]], [[-0.1616968810558319]], [[0.24379929900169373]], [[-0.061007414013147354]], [[-0.1930353194475174]], [[0.5457614660263062]], [[-0.10768842697143555]], [[0.06973505020141602]], [[0.23922686278820038]], [[0.08622174710035324]], [[0.015167147852480412]], [[0.327679306268692]], [[-0.24283555150032043]], [[0.07611804455518723]], [[0.3556518256664276]], [[-0.09043517708778381]], [[0.1319863349199295]], [[-0.4911448657512665]], [[0.1710652858018875]], [[-0.10588417947292328]], [[-0.0368916280567646]], [[0.05833238363265991]], [[-0.23047251999378204]], [[0.45303207635879517]], [[-0.09503469616174698]], [[-0.02155563421547413]], [[0.5779909491539001]], [[-0.03808850795030594]], [[-0.13302326202392578]], [[-0.2103525698184967]], [[-0.04596860706806183]], [[-0.2738468647003174]], [[0.16810575127601624]], [[-0.44088926911354065]], [[-0.26449865102767944]], [[0.39536917209625244]], [[-0.15044930577278137]], [[0.15161506831645966]], [[-0.37300172448158264]], [[-0.015349481254816055]], [[0.04349544644355774]], [[0.5633866786956787]], [[-0.39947453141212463]]], [[[-0.12689095735549927]], [[0.2674165368080139]], [[0.025765353813767433]], [[-0.1250203251838684]], [[0.031222183257341385]], [[-0.10126297175884247]], [[-0.011564383283257484]], [[0.29682794213294983]], [[-0.0994684249162674]], [[-0.04029021039605141]], [[-0.49456334114074707]], [[-0.08423563838005066]], [[-0.07194891571998596]], [[0.6142549514770508]], [[0.03681488335132599]], [[0.31400105357170105]], [[0.5067191123962402]], [[0.13561289012432098]], [[-0.11434470117092133]], [[-0.04425445571541786]], [[0.12625576555728912]], [[0.06225134804844856]], [[0.4601745903491974]], [[0.2078760713338852]], [[0.24757203459739685]], [[-0.006132839247584343]], [[0.15919259190559387]], [[-0.11439213901758194]], [[-0.4961446523666382]], [[-0.017669327557086945]], [[-0.10246967524290085]], [[0.15063895285129547]], [[0.06413402408361435]], [[-0.025313906371593475]], [[0.04151513800024986]], [[-0.09903259575366974]], [[-0.16120009124279022]], [[-0.1762036681175232]], [[0.18885719776153564]], [[-0.0005208311486057937]], [[-0.378465861082077]], [[-0.07716052234172821]], [[0.22220630943775177]], [[-0.05775608494877815]], [[0.04898916929960251]], [[-0.043094564229249954]], [[-0.003594096750020981]], [[0.4419695734977722]]], [[[0.15278245508670807]], [[-0.13156569004058838]], [[-0.06740548461675644]], [[0.04183344170451164]], [[-0.12188110500574112]], [[-0.03710096701979637]], [[-0.03518564999103546]], [[0.061241019517183304]], [[0.019914094358682632]], [[-0.192136749625206]], [[-0.6110733151435852]], [[0.042150553315877914]], [[0.13660567998886108]], [[-0.4518389403820038]], [[0.17723771929740906]], [[0.0847405269742012]], [[0.35986757278442383]], [[-0.0214555524289608]], [[0.024330956861376762]], [[0.10741565376520157]], [[0.08872588723897934]], [[-0.01580117642879486]], [[-0.023908225819468498]], [[-0.22797708213329315]], [[-0.0902995690703392]], [[0.18991950154304504]], [[0.06166834756731987]], [[0.014258798211812973]], [[0.1899416744709015]], [[0.006509292405098677]], [[-0.13826285302639008]], [[-0.46732041239738464]], [[0.10906590521335602]], [[-0.23383398354053497]], [[-0.06806741654872894]], [[0.1263934224843979]], [[0.057456694543361664]], [[0.07206284999847412]], [[-0.4457370638847351]], [[-0.19299864768981934]], [[-0.057288117706775665]], [[-0.30576521158218384]], [[-0.020842401310801506]], [[0.40471434593200684]], [[0.32649514079093933]], [[0.22289222478866577]], [[-0.15529868006706238]], [[-0.07087703049182892]]], [[[0.012423856183886528]], [[-0.31397518515586853]], [[-0.14932537078857422]], [[-0.002212702063843608]], [[-0.07436256855726242]], [[-0.5000687837600708]], [[0.17630113661289215]], [[-0.046061158180236816]], [[-0.13615533709526062]], [[0.007918472401797771]], [[-0.25451982021331787]], [[-0.2798805832862854]], [[0.1843324899673462]], [[-0.3425426185131073]], [[0.047513075172901154]], [[0.02252456173300743]], [[-0.11669827252626419]], [[-0.3489121198654175]], [[0.021862179040908813]], [[0.6182464957237244]], [[0.12871310114860535]], [[0.05443451553583145]], [[-0.1810588240623474]], [[0.20476004481315613]], [[-0.13661211729049683]], [[-0.26810386776924133]], [[-0.024858688935637474]], [[-0.06834448128938675]], [[-0.1862093210220337]], [[0.23994608223438263]], [[0.14218124747276306]], [[-0.13391219079494476]], [[0.03690815344452858]], [[-0.08825590461492538]], [[-0.5360332131385803]], [[-0.5229453444480896]], [[-0.0035891744773834944]], [[-0.049617405980825424]], [[-0.17579755187034607]], [[-0.0941188782453537]], [[0.05609309673309326]], [[-0.04019830748438835]], [[-0.007327016908675432]], [[-0.006759775336831808]], [[0.285549134016037]], [[0.14860212802886963]], [[0.5703536868095398]], [[-0.39550068974494934]]], [[[0.09132573008537292]], [[0.12117988616228104]], [[-0.0816725343465805]], [[0.1518963724374771]], [[0.2635071575641632]], [[-0.014740345068275928]], [[0.21383340656757355]], [[0.0696633830666542]], [[-0.07013958692550659]], [[-0.09163934737443924]], [[-0.27766650915145874]], [[-0.10313787311315536]], [[0.016842419281601906]], [[-0.04730257764458656]], [[-0.127364382147789]], [[0.07800215482711792]], [[0.1527717113494873]], [[-0.05900656804442406]], [[0.029418189078569412]], [[-0.25165969133377075]], [[0.047329701483249664]], [[0.033159978687763214]], [[0.06392641365528107]], [[0.4160018563270569]], [[-0.09194938093423843]], [[-0.08787480741739273]], [[0.28105372190475464]], [[-0.10737801343202591]], [[-0.17513331770896912]], [[-0.4918181598186493]], [[-0.16899420320987701]], [[0.009059479460120201]], [[-0.3861862123012543]], [[-0.1305047869682312]], [[0.12127404659986496]], [[-0.025259798392653465]], [[-0.03195105493068695]], [[0.10195896029472351]], [[0.04881531372666359]], [[-0.2837337255477905]], [[0.31022289395332336]], [[-0.1162133738398552]], [[0.20931920409202576]], [[0.19553054869174957]], [[0.013123958371579647]], [[-0.19118936359882355]], [[0.2205643653869629]], [[0.011140987277030945]]], [[[-0.24848666787147522]], [[0.05743031203746796]], [[0.31951451301574707]], [[-0.21279962360858917]], [[-0.07561489939689636]], [[0.07906578481197357]], [[0.12159982323646545]], [[0.1100144311785698]], [[-0.015112271532416344]], [[0.07782435417175293]], [[0.3185674548149109]], [[-0.15923064947128296]], [[-0.1192948967218399]], [[0.06513854116201401]], [[0.14505918323993683]], [[-0.008474421687424183]], [[0.3057246208190918]], [[0.19790323078632355]], [[0.025870677083730698]], [[0.2718721330165863]], [[-0.017746884375810623]], [[-0.047410812228918076]], [[0.008119815960526466]], [[-0.462464839220047]], [[-0.02599375694990158]], [[0.132730633020401]], [[0.0343560092151165]], [[-0.09955418854951859]], [[-0.1293233036994934]], [[0.1817464530467987]], [[0.1825639307498932]], [[-0.15317368507385254]], [[0.13130484521389008]], [[0.19557827711105347]], [[-0.050343625247478485]], [[0.028258103877305984]], [[-0.2765898108482361]], [[0.03988420218229294]], [[-0.25095969438552856]], [[0.13256172835826874]], [[0.13408419489860535]], [[-0.021011419594287872]], [[-0.0021130219101905823]], [[-0.029598677530884743]], [[0.420283704996109]], [[-0.2297677993774414]], [[0.3031170666217804]], [[0.003750320291146636]]], [[[-0.013993165455758572]], [[-0.07673594355583191]], [[0.12598147988319397]], [[-0.1247081533074379]], [[0.19416126608848572]], [[0.065065398812294]], [[-0.029826637357473373]], [[0.14078068733215332]], [[0.08244598656892776]], [[-0.07766487449407578]], [[0.30895140767097473]], [[-0.24732132256031036]], [[-0.054463908076286316]], [[0.04781431332230568]], [[-0.00020296915317885578]], [[-0.05739697441458702]], [[0.46301141381263733]], [[0.29749274253845215]], [[-0.09095600247383118]], [[0.1867043673992157]], [[0.19387738406658173]], [[-0.06099395826458931]], [[-0.09690849483013153]], [[0.09650314599275589]], [[0.0008611144148744643]], [[-0.4567973017692566]], [[0.16973745822906494]], [[-0.03628048673272133]], [[0.2376442551612854]], [[0.0067639220505952835]], [[-0.29265275597572327]], [[0.3528474271297455]], [[0.16417405009269714]], [[-0.34248146414756775]], [[0.061904460191726685]], [[0.04076608270406723]], [[0.020290182903409004]], [[0.09096512943506241]], [[0.07580766081809998]], [[-0.20025621354579926]], [[0.3717540502548218]], [[-0.08635211735963821]], [[0.18112926185131073]], [[-0.34723344445228577]], [[0.005254603922367096]], [[-0.13247983157634735]], [[-0.1422307938337326]], [[-0.36682143807411194]]], [[[0.21016445755958557]], [[-0.13576854765415192]], [[-0.1202906146645546]], [[0.10820528119802475]], [[-0.07450300455093384]], [[0.06965085864067078]], [[-0.2333645075559616]], [[-0.1301492154598236]], [[-0.13010089099407196]], [[-0.18931297957897186]], [[-0.4461522698402405]], [[0.4253481328487396]], [[-0.22811955213546753]], [[-0.24505436420440674]], [[-0.08937881141901016]], [[-0.19487103819847107]], [[-0.09061787277460098]], [[0.08005301654338837]], [[-0.24157662689685822]], [[0.059397101402282715]], [[0.1483774036169052]], [[-0.27949610352516174]], [[-0.032972898334264755]], [[0.22110360860824585]], [[-0.11784172058105469]], [[-0.2983665466308594]], [[-0.3550361394882202]], [[-0.2150678038597107]], [[0.0750218853354454]], [[0.07451697438955307]], [[-0.12349747866392136]], [[-0.042944565415382385]], [[0.04375728219747543]], [[-0.20204655826091766]], [[0.09526392072439194]], [[0.17704728245735168]], [[0.0828285813331604]], [[-0.02868492715060711]], [[0.09835643321275711]], [[-0.08912897855043411]], [[0.02986888401210308]], [[-0.11931288987398148]], [[-0.05944674462080002]], [[-0.049618277698755264]], [[-0.2868250906467438]], [[0.13672970235347748]], [[-0.3472246527671814]], [[-0.15138199925422668]]], [[[-0.2480367124080658]], [[-0.08386998623609543]], [[-0.00514061888679862]], [[-0.06946816295385361]], [[-0.002363778417930007]], [[-0.1885218322277069]], [[-0.0706949234008789]], [[-0.05691954493522644]], [[-0.15411405265331268]], [[-0.18029950559139252]], [[0.2825178802013397]], [[0.2059929221868515]], [[-0.007979033514857292]], [[0.3177032768726349]], [[-0.05950864404439926]], [[-0.19355978071689606]], [[0.4250339865684509]], [[0.11722015589475632]], [[-0.0053192805498838425]], [[0.16399076581001282]], [[-0.3841702938079834]], [[0.129375621676445]], [[0.2553788721561432]], [[0.011780090630054474]], [[-0.23815320432186127]], [[-0.2855928838253021]], [[0.3435194790363312]], [[-0.17734158039093018]], [[0.16874629259109497]], [[0.12260620296001434]], [[-0.2398640215396881]], [[0.25542548298835754]], [[-0.06615325063467026]], [[-0.2930109202861786]], [[0.2808159589767456]], [[0.27958497405052185]], [[-0.10614307969808578]], [[-0.03798273578286171]], [[-0.13265377283096313]], [[-0.14015637338161469]], [[0.2657534182071686]], [[-0.23431575298309326]], [[-0.05089907720685005]], [[-0.0585646852850914]], [[0.030024025589227676]], [[0.09342432022094727]], [[-0.4354485869407654]], [[-0.056502196937799454]]], [[[0.211683988571167]], [[0.2413557767868042]], [[0.04518917575478554]], [[0.0983906090259552]], [[-0.025886284187436104]], [[0.39003267884254456]], [[-0.014459383673965931]], [[0.09489472955465317]], [[0.0751112699508667]], [[-0.05158289149403572]], [[-0.11965787410736084]], [[-0.1504797339439392]], [[0.2133219689130783]], [[0.008847486227750778]], [[0.2258964329957962]], [[0.0519651360809803]], [[0.0750013217329979]], [[0.15196429193019867]], [[-0.17001156508922577]], [[-0.6646852493286133]], [[-0.25423550605773926]], [[-0.1452992707490921]], [[0.48104947805404663]], [[0.013276337645947933]], [[0.2545308768749237]], [[-0.09110517054796219]], [[0.0720129981637001]], [[-0.020342158153653145]], [[-0.01968609355390072]], [[-0.194759801030159]], [[0.1932823807001114]], [[0.19853071868419647]], [[-0.014786738902330399]], [[-0.021024495363235474]], [[0.08515431731939316]], [[-0.23235829174518585]], [[-0.026712680235505104]], [[0.39570489525794983]], [[0.2861526608467102]], [[-0.13431502878665924]], [[0.0010560943046584725]], [[-0.19052956998348236]], [[0.14225606620311737]], [[-0.19507646560668945]], [[-0.11261157691478729]], [[-0.26869991421699524]], [[-0.1759994626045227]], [[0.10228275507688522]]], [[[-0.24095532298088074]], [[-0.03454094007611275]], [[-0.3454010784626007]], [[0.020541364327073097]], [[-0.31591105461120605]], [[0.4640360176563263]], [[-0.035075265914201736]], [[0.17067791521549225]], [[0.04995272681117058]], [[-0.09324579685926437]], [[0.09029644727706909]], [[0.5020241141319275]], [[0.03509298339486122]], [[-0.039126913994550705]], [[0.017211809754371643]], [[0.011188250035047531]], [[-0.03412884101271629]], [[0.2537838816642761]], [[0.12527206540107727]], [[-0.274504154920578]], [[0.31828781962394714]], [[-0.05518437176942825]], [[0.11573197692632675]], [[-0.1532076746225357]], [[-0.09347283095121384]], [[-0.22475358843803406]], [[-0.17233145236968994]], [[0.1665530651807785]], [[-0.21267801523208618]], [[0.2173466682434082]], [[-0.07926294952630997]], [[0.10411111265420914]], [[-0.05529380217194557]], [[0.1412132829427719]], [[-0.30722784996032715]], [[0.25996649265289307]], [[-0.20795966684818268]], [[0.18088723719120026]], [[-0.3186434805393219]], [[0.06828825175762177]], [[-0.26928722858428955]], [[0.12057290971279144]], [[0.29088014364242554]], [[-0.06414962559938431]], [[0.4320719838142395]], [[-0.20670777559280396]], [[-0.11895764619112015]], [[0.14147846400737762]]], [[[-0.23082219064235687]], [[-0.10464917868375778]], [[-0.07003101706504822]], [[-0.05305478349328041]], [[0.06189971789717674]], [[0.18210308253765106]], [[-0.08813901245594025]], [[-0.03538299351930618]], [[0.27640342712402344]], [[-0.08730671554803848]], [[-0.11473201960325241]], [[-0.14458498358726501]], [[0.0757826641201973]], [[-0.18516692519187927]], [[-0.18954791128635406]], [[-0.13301417231559753]], [[-0.26363807916641235]], [[-0.38454148173332214]], [[-0.25325271487236023]], [[-0.32266539335250854]], [[-0.24912744760513306]], [[0.21967068314552307]], [[-0.36083704233169556]], [[0.03528468683362007]], [[-0.14984863996505737]], [[0.2028428018093109]], [[-0.17306111752986908]], [[-0.14180001616477966]], [[-0.0465225987136364]], [[-0.21867790818214417]], [[0.019038014113903046]], [[-0.05690951645374298]], [[0.12284784764051437]], [[-0.14984537661075592]], [[-0.14600123465061188]], [[-0.022846700623631477]], [[-0.10017711669206619]], [[0.02414516545832157]], [[0.043998073786497116]], [[-0.17199788987636566]], [[-0.2935320734977722]], [[-0.45438554883003235]], [[0.25656601786613464]], [[0.05371952801942825]], [[-0.5995625257492065]], [[-0.04620357230305672]], [[0.03299868106842041]], [[-0.21764323115348816]]], [[[-0.09079927951097488]], [[0.06850964576005936]], [[0.0696917250752449]], [[-0.07518771290779114]], [[0.03581050783395767]], [[0.09427116066217422]], [[-0.018632017076015472]], [[0.15430882573127747]], [[0.0937841609120369]], [[0.02951660007238388]], [[0.21162228286266327]], [[0.06331347674131393]], [[0.12816496193408966]], [[0.18604205548763275]], [[0.08294796198606491]], [[0.08003167062997818]], [[-0.08801361173391342]], [[-0.3572286069393158]], [[-0.05350829288363457]], [[0.16214488446712494]], [[-0.31979551911354065]], [[0.07724405825138092]], [[0.16121087968349457]], [[-0.17150133848190308]], [[-0.008366722613573074]], [[-0.24952203035354614]], [[0.09762752056121826]], [[-0.2394743114709854]], [[-0.34359580278396606]], [[0.278670996427536]], [[0.0987015813589096]], [[-0.17770490050315857]], [[-0.03806256875395775]], [[-0.07323042303323746]], [[-0.324036568403244]], [[0.10878272354602814]], [[-0.05316508561372757]], [[-0.1908196359872818]], [[0.026938315480947495]], [[-0.15351402759552002]], [[-0.4234425127506256]], [[0.287329763174057]], [[0.011615226976573467]], [[0.3296598494052887]], [[0.11220453679561615]], [[0.05675319582223892]], [[-0.2279920130968094]], [[0.28116291761398315]]], [[[0.05496958643198013]], [[0.06894950568675995]], [[-0.066367007791996]], [[-0.07511144876480103]], [[-0.05254484713077545]], [[-0.13019347190856934]], [[0.07927146553993225]], [[-0.06807450950145721]], [[0.02379818633198738]], [[-0.30370238423347473]], [[-0.03880716487765312]], [[-0.028171399608254433]], [[0.03667940944433212]], [[0.10869216173887253]], [[0.17006614804267883]], [[-0.04797010123729706]], [[-0.10541535913944244]], [[0.4101066291332245]], [[-0.04002458229660988]], [[0.06122896447777748]], [[0.22021932899951935]], [[0.050202351063489914]], [[-0.14758266508579254]], [[-0.4605728089809418]], [[-0.1895083338022232]], [[-0.11208318173885345]], [[-0.12549173831939697]], [[-0.21397635340690613]], [[-0.18861761689186096]], [[0.206817165017128]], [[-0.1256164312362671]], [[0.3274034559726715]], [[0.32665157318115234]], [[0.15472738444805145]], [[-0.061026569455862045]], [[0.30013999342918396]], [[-0.025257889181375504]], [[-0.46342670917510986]], [[-0.031055955216288567]], [[-0.09461642801761627]], [[-0.01306021399796009]], [[0.15221600234508514]], [[-0.10326062142848969]], [[-0.25362974405288696]], [[0.04091048613190651]], [[0.024613916873931885]], [[-0.16849114000797272]], [[0.1413002908229828]]], [[[-0.1905081570148468]], [[-0.36233240365982056]], [[-0.09662710875272751]], [[0.05452175810933113]], [[0.2899765372276306]], [[-0.3698781132698059]], [[-0.08176685869693756]], [[-0.26605361700057983]], [[-0.09903502464294434]], [[-0.05543206259608269]], [[-0.19694475829601288]], [[0.08650768548250198]], [[0.04087744280695915]], [[-0.05862899497151375]], [[0.14768821001052856]], [[0.013546623289585114]], [[-0.2477276623249054]], [[0.1214183047413826]], [[-0.03646013140678406]], [[0.16283196210861206]], [[0.0642278715968132]], [[-0.1134532019495964]], [[0.24814942479133606]], [[0.18852952122688293]], [[0.020695403218269348]], [[-0.04192986711859703]], [[0.13470327854156494]], [[-0.13569162786006927]], [[0.3788180649280548]], [[-0.1936202049255371]], [[0.06976457685232162]], [[0.13563387095928192]], [[0.2777263820171356]], [[-0.056404419243335724]], [[0.25769171118736267]], [[0.24863308668136597]], [[-0.19094549119472504]], [[-0.2623174488544464]], [[0.09410813450813293]], [[-0.08923549950122833]], [[0.042885877192020416]], [[0.4048667252063751]], [[0.04761268198490143]], [[0.30411654710769653]], [[-0.2545212507247925]], [[0.21371683478355408]], [[-0.29744771122932434]], [[-0.20005950331687927]]], [[[0.0518573559820652]], [[0.05112461745738983]], [[0.3099239468574524]], [[0.08767518401145935]], [[-0.03273076191544533]], [[0.2115064114332199]], [[-0.07650616765022278]], [[0.033094413578510284]], [[0.21423833072185516]], [[-1.049301028251648]], [[0.23358669877052307]], [[0.3458606004714966]], [[-0.09930714219808578]], [[0.5286785364151001]], [[0.17117755115032196]], [[-0.13804864883422852]], [[0.18775321543216705]], [[-0.2537795305252075]], [[-0.11810043454170227]], [[-0.04608548805117607]], [[0.06175855174660683]], [[-0.10367680341005325]], [[0.4798539876937866]], [[0.3339105546474457]], [[0.03953011333942413]], [[0.3555488586425781]], [[-0.34296971559524536]], [[0.0109167555347085]], [[0.23847171664237976]], [[0.010699586942791939]], [[-0.08680751919746399]], [[0.2439725250005722]], [[0.2547272741794586]], [[-0.2496853768825531]], [[0.25899773836135864]], [[-0.0470968633890152]], [[-0.3319699168205261]], [[0.42329564690589905]], [[0.1862713098526001]], [[-0.1435517519712448]], [[-0.05655057355761528]], [[0.06855957955121994]], [[0.08081243187189102]], [[0.21123218536376953]], [[0.261605441570282]], [[0.024034738540649414]], [[0.07037618011236191]], [[0.4360060393810272]]], [[[0.06164303794503212]], [[0.35088247060775757]], [[0.2411496490240097]], [[-0.0011364100500941277]], [[0.09479513019323349]], [[0.04333219677209854]], [[-0.023247774690389633]], [[-0.004110139328986406]], [[0.10178027302026749]], [[-0.16363994777202606]], [[-0.30882981419563293]], [[-0.018213260918855667]], [[0.15253356099128723]], [[-0.2554965913295746]], [[-0.011865436099469662]], [[0.007515914272516966]], [[-0.27515894174575806]], [[0.23698613047599792]], [[0.09140625596046448]], [[0.037334784865379333]], [[0.10272643715143204]], [[0.0838775560259819]], [[-0.3492653965950012]], [[-0.10670945048332214]], [[0.09444519877433777]], [[-0.2150551825761795]], [[0.22896039485931396]], [[-0.058311183005571365]], [[-0.18810509145259857]], [[-0.046003345400094986]], [[-0.022701451554894447]], [[0.15609818696975708]], [[-0.2696002125740051]], [[-0.14915286004543304]], [[-0.40454182028770447]], [[-0.12128707766532898]], [[-0.17912480235099792]], [[-0.3340218663215637]], [[-0.033157363533973694]], [[-0.2408931702375412]], [[-0.19945360720157623]], [[0.4385216236114502]], [[0.17106318473815918]], [[-0.3934662640094757]], [[0.018654832616448402]], [[0.07062701135873795]], [[0.04498397931456566]], [[-0.16378656029701233]]], [[[-0.40192583203315735]], [[-0.1744249165058136]], [[0.07543818652629852]], [[-0.09183865040540695]], [[0.2660549581050873]], [[0.12766140699386597]], [[-0.18939849734306335]], [[-0.20225057005882263]], [[0.20369726419448853]], [[-0.2055339217185974]], [[0.3915848135948181]], [[0.1303907036781311]], [[0.21060365438461304]], [[0.6319523453712463]], [[0.22747409343719482]], [[0.23282228410243988]], [[0.09198330342769623]], [[0.00783419981598854]], [[0.024919847026467323]], [[0.1548943966627121]], [[0.33086663484573364]], [[0.35252314805984497]], [[0.4112834334373474]], [[0.2788608968257904]], [[-0.0318698026239872]], [[0.226091668009758]], [[0.14324910938739777]], [[-0.10845354944467545]], [[0.3547248840332031]], [[0.1344051957130432]], [[0.19025154411792755]], [[0.28793609142303467]], [[0.30753687024116516]], [[-0.0940120592713356]], [[0.3428444564342499]], [[0.10856396704912186]], [[-0.24631576240062714]], [[0.06704099476337433]], [[-0.1303408294916153]], [[0.07383478432893753]], [[0.08609150350093842]], [[0.10170508921146393]], [[0.2236161231994629]], [[0.1605025976896286]], [[-0.1271478682756424]], [[0.07699071615934372]], [[0.1320580393075943]], [[0.4377100467681885]]], [[[0.16531138122081757]], [[0.22512370347976685]], [[0.20999811589717865]], [[-0.1447637528181076]], [[0.22731143236160278]], [[0.09266262501478195]], [[-0.03698715195059776]], [[0.2026645541191101]], [[0.3634786903858185]], [[-0.022095508873462677]], [[0.23337037861347198]], [[-0.13463854789733887]], [[-0.20098887383937836]], [[0.15609079599380493]], [[0.1776062697172165]], [[0.09200398623943329]], [[0.17928549647331238]], [[0.23792408406734467]], [[0.17979732155799866]], [[0.20321670174598694]], [[0.3775981664657593]], [[-0.1878964751958847]], [[-0.09364001452922821]], [[-0.18036113679409027]], [[0.016678523272275925]], [[-0.088531494140625]], [[-0.1214183121919632]], [[-0.0615885965526104]], [[0.14611589908599854]], [[0.1813056766986847]], [[-0.06975972652435303]], [[-0.26042333245277405]], [[-0.5069681406021118]], [[-0.022878402844071388]], [[-0.13040432333946228]], [[0.012502428144216537]], [[-0.07730638980865479]], [[0.25116419792175293]], [[0.1574586033821106]], [[0.03535410389304161]], [[0.24736186861991882]], [[0.07696738094091415]], [[0.17356732487678528]], [[0.006526272743940353]], [[-0.25471487641334534]], [[0.26192671060562134]], [[-0.10727982968091965]], [[-0.02765689790248871]]], [[[-0.027066193521022797]], [[-0.035386111587285995]], [[0.11165884137153625]], [[-0.06523428857326508]], [[0.050857797265052795]], [[0.21492689847946167]], [[-0.19059105217456818]], [[-0.12509530782699585]], [[-0.01361780147999525]], [[-0.10287000983953476]], [[-0.08624504506587982]], [[0.05474168807268143]], [[0.0920986607670784]], [[-0.28965866565704346]], [[0.16865254938602448]], [[-0.13624484837055206]], [[-0.3029072880744934]], [[-0.3343195915222168]], [[0.053181786090135574]], [[-0.042381204664707184]], [[0.20399852097034454]], [[0.005528707057237625]], [[0.0438493937253952]], [[0.39616110920906067]], [[0.04542749375104904]], [[0.2998749017715454]], [[-0.14678889513015747]], [[0.008839982561767101]], [[0.2702995538711548]], [[-0.7508654594421387]], [[-0.11453431099653244]], [[0.16509410738945007]], [[0.11078134924173355]], [[-0.1961888074874878]], [[0.2343835085630417]], [[0.09413161873817444]], [[-0.030802417546510696]], [[0.26070451736450195]], [[-0.30494946241378784]], [[-0.010053569450974464]], [[-0.18564894795417786]], [[-0.45927321910858154]], [[0.07019440084695816]], [[0.45441943407058716]], [[0.0584951788187027]], [[0.06968726962804794]], [[0.17627419531345367]], [[-0.06453950703144073]]], [[[-0.04557088389992714]], [[-0.15527264773845673]], [[0.37030693888664246]], [[-0.18647685647010803]], [[-0.079983651638031]], [[-0.009744635783135891]], [[0.0908217802643776]], [[0.01554492861032486]], [[0.4342825710773468]], [[-0.08814088255167007]], [[-0.18914416432380676]], [[0.1418251395225525]], [[-0.14343097805976868]], [[0.125957190990448]], [[-0.11752007901668549]], [[-0.05199937894940376]], [[-0.08814883232116699]], [[0.07697045058012009]], [[-0.08849331736564636]], [[-0.2459077388048172]], [[-0.18655350804328918]], [[0.12672008574008942]], [[-0.18711347877979279]], [[-0.15403151512145996]], [[-0.1088043749332428]], [[-0.038270168006420135]], [[-0.08638211339712143]], [[-0.00022995786275714636]], [[-0.1856164187192917]], [[0.1895766407251358]], [[0.15130074322223663]], [[0.1232624500989914]], [[0.03963477537035942]], [[0.008649874478578568]], [[-0.23249371349811554]], [[-0.04233057051897049]], [[0.17238177359104156]], [[-0.07267343252897263]], [[-0.3947288990020752]], [[-0.09837527573108673]], [[-0.011791457422077656]], [[-0.07828804850578308]], [[0.11936306953430176]], [[0.04601506143808365]], [[0.15951965749263763]], [[-0.19907793402671814]], [[0.19790630042552948]], [[-0.04437357932329178]]], [[[0.19248443841934204]], [[0.15188540518283844]], [[0.04754715785384178]], [[-0.032260775566101074]], [[0.045655734837055206]], [[0.07083257287740707]], [[0.051300644874572754]], [[-0.052937064319849014]], [[0.17137113213539124]], [[0.036731936037540436]], [[-0.01303411740809679]], [[0.04815782234072685]], [[-0.04464408755302429]], [[-0.3103559911251068]], [[0.4566103219985962]], [[-0.17399929463863373]], [[-0.27877551317214966]], [[0.43154317140579224]], [[0.000742061878554523]], [[0.16189394891262054]], [[0.07906556129455566]], [[-0.054412733763456345]], [[-0.25981664657592773]], [[0.21246124804019928]], [[-0.2722342610359192]], [[-0.05571851134300232]], [[-0.14591781795024872]], [[0.014287589117884636]], [[-0.48796766996383667]], [[0.3022574186325073]], [[-0.004800071474164724]], [[-0.07378983497619629]], [[0.23794035613536835]], [[-0.0705348402261734]], [[-0.43236786127090454]], [[0.40249159932136536]], [[-0.01265848707407713]], [[-0.3742571175098419]], [[0.05002535134553909]], [[-0.2937682271003723]], [[-0.187627375125885]], [[0.2938443124294281]], [[0.07892020046710968]], [[0.1756007969379425]], [[-0.01823422871530056]], [[-0.03477315977215767]], [[0.2686501741409302]], [[-0.13625644147396088]]], [[[0.05262503772974014]], [[-0.07527320086956024]], [[0.018399421125650406]], [[-0.2989159822463989]], [[0.11119776219129562]], [[-0.0474461130797863]], [[-0.06517253071069717]], [[-0.028871653601527214]], [[0.18374107778072357]], [[-0.10433429479598999]], [[-0.10112443566322327]], [[-0.09681282192468643]], [[0.08407790958881378]], [[0.14936910569667816]], [[-0.3103216290473938]], [[-0.12016662210226059]], [[-0.257560133934021]], [[-0.41125330328941345]], [[-0.11167307943105698]], [[-0.20542049407958984]], [[0.5387904644012451]], [[0.1545933187007904]], [[0.28535473346710205]], [[0.32955363392829895]], [[-0.08811385929584503]], [[-0.1387948840856552]], [[-0.24346020817756653]], [[0.0987468734383583]], [[-0.08688976615667343]], [[-0.4657871723175049]], [[0.19477662444114685]], [[-0.12123558670282364]], [[0.16055482625961304]], [[-0.29094165563583374]], [[0.012914986349642277]], [[-0.19096402823925018]], [[0.12175673991441727]], [[-0.10373260825872421]], [[-0.01433775294572115]], [[-0.25528189539909363]], [[-0.27265796065330505]], [[-0.20847272872924805]], [[-0.0015083400066941977]], [[0.2478228360414505]], [[0.05708061531186104]], [[0.09131212532520294]], [[-0.4591873288154602]], [[0.16402234137058258]]], [[[-0.4972612261772156]], [[0.20304852724075317]], [[0.06481237709522247]], [[-0.5389021039009094]], [[-0.08519061654806137]], [[-0.1049710065126419]], [[-0.3544815480709076]], [[-0.07462479174137115]], [[0.22714386880397797]], [[-0.05126737803220749]], [[0.2237258404493332]], [[-0.4698214828968048]], [[0.38274839520454407]], [[0.3942374885082245]], [[-0.38079532980918884]], [[0.23753435909748077]], [[0.03937537968158722]], [[-0.1657179743051529]], [[0.015030461363494396]], [[0.3834218978881836]], [[-0.08798789978027344]], [[0.09117019176483154]], [[0.17791129648685455]], [[-0.09399067610502243]], [[0.48656705021858215]], [[0.296265572309494]], [[-0.0678786188364029]], [[-0.02528451755642891]], [[0.23013415932655334]], [[-0.13645102083683014]], [[0.1356305032968521]], [[0.03313460573554039]], [[-0.1709212213754654]], [[-0.21229323744773865]], [[-0.03817829489707947]], [[-0.22674019634723663]], [[0.2679096758365631]], [[0.27191823720932007]], [[-0.35823312401771545]], [[-0.0660073384642601]], [[0.07978245615959167]], [[-0.08316200226545334]], [[0.7213886380195618]], [[0.3736415505409241]], [[-0.5355562567710876]], [[0.18612347543239594]], [[0.025070613250136375]], [[-0.17621691524982452]]], [[[-0.036209095269441605]], [[0.09628981351852417]], [[0.12130407243967056]], [[0.07066746801137924]], [[-0.03592643141746521]], [[0.1668090671300888]], [[0.12012819945812225]], [[0.1874774843454361]], [[-0.18658387660980225]], [[-0.17157059907913208]], [[0.2206907719373703]], [[-0.06464515626430511]], [[0.2900170385837555]], [[0.15166354179382324]], [[0.2870562970638275]], [[-0.011856566183269024]], [[0.12542951107025146]], [[0.10693922638893127]], [[0.14503395557403564]], [[0.12722185254096985]], [[0.40389105677604675]], [[0.06974700838327408]], [[-0.00042961229337379336]], [[0.031829312443733215]], [[-0.11031436920166016]], [[-0.37245431542396545]], [[0.1822497695684433]], [[-0.001932794228196144]], [[-0.25312721729278564]], [[-0.3073846101760864]], [[0.08752398937940598]], [[0.05677426978945732]], [[0.07815051823854446]], [[0.056632522493600845]], [[-0.060186419636011124]], [[-0.36009567975997925]], [[-0.2241702377796173]], [[0.030768467113375664]], [[-0.055292434990406036]], [[-0.10055603832006454]], [[-0.035935770720243454]], [[-0.3028408885002136]], [[-0.13106343150138855]], [[-0.2086726278066635]], [[0.07153234630823135]], [[-0.08695413917303085]], [[-0.17383232712745667]], [[0.06906934827566147]]], [[[-0.12708821892738342]], [[-0.35865476727485657]], [[-0.511027991771698]], [[-0.3504151701927185]], [[-0.4144206643104553]], [[-0.18634247779846191]], [[-0.28884780406951904]], [[-0.4901300370693207]], [[-0.3756157159805298]], [[-0.3684747815132141]], [[-0.6308047771453857]], [[-0.44721469283103943]], [[-0.13599669933319092]], [[0.007021809928119183]], [[-0.06982511281967163]], [[0.1206955835223198]], [[-0.06756577640771866]], [[0.08021371811628342]], [[-0.16042570769786835]], [[-0.3602433204650879]], [[-0.12363775074481964]], [[-0.06389909982681274]], [[0.10024417191743851]], [[-0.3522506058216095]], [[0.24520288407802582]], [[-0.22047722339630127]], [[-0.2658723294734955]], [[0.012846777215600014]], [[-0.03713374212384224]], [[-0.25091418623924255]], [[0.10199631750583649]], [[0.13214817643165588]], [[0.1284155547618866]], [[-0.18318603932857513]], [[-0.20487305521965027]], [[-0.32241857051849365]], [[-0.1697213053703308]], [[-0.10142698884010315]], [[-0.12739253044128418]], [[-0.3014725148677826]], [[-0.013455362059175968]], [[-0.1444522738456726]], [[0.26018062233924866]], [[-0.2310434877872467]], [[-0.41003772616386414]], [[0.2848133146762848]], [[0.05330701544880867]], [[0.10348782688379288]]], [[[-0.24038150906562805]], [[-0.2880170941352844]], [[0.24179819226264954]], [[-0.30596378445625305]], [[-0.3689534664154053]], [[0.2704179286956787]], [[-0.10594580322504044]], [[-0.4408337473869324]], [[0.32913970947265625]], [[-0.3401474058628082]], [[-0.3293112516403198]], [[0.5226736068725586]], [[0.03836905583739281]], [[-0.07449594885110855]], [[0.2435520738363266]], [[-0.03518597036600113]], [[-0.23965974152088165]], [[0.04184142127633095]], [[0.04947945103049278]], [[-0.2825195789337158]], [[0.024734068661928177]], [[-0.19274933636188507]], [[0.17033904790878296]], [[-0.2296448051929474]], [[-0.00399287324398756]], [[-0.1433732807636261]], [[0.34399357438087463]], [[-0.0504366010427475]], [[0.34177032113075256]], [[0.04809214547276497]], [[0.2043808549642563]], [[-0.19176070392131805]], [[0.16189560294151306]], [[0.016731109470129013]], [[0.23509441316127777]], [[0.22567486763000488]], [[-0.21760660409927368]], [[-0.04358931630849838]], [[-0.1726580411195755]], [[0.11126144230365753]], [[-0.1257992535829544]], [[-0.5327158570289612]], [[0.06836795061826706]], [[0.33742424845695496]], [[-0.026115508750081062]], [[0.20571741461753845]], [[-0.1719689816236496]], [[-0.0559321865439415]]], [[[-0.18504628539085388]], [[-0.08697148412466049]], [[-0.04752456024289131]], [[-0.19174477458000183]], [[-0.2257867306470871]], [[0.029418108984827995]], [[-0.06184001639485359]], [[-0.1680406928062439]], [[0.058129485696554184]], [[-0.0648784190416336]], [[0.05110811069607735]], [[-0.2239965796470642]], [[-0.08201973140239716]], [[0.032205257564783096]], [[-0.2557387053966522]], [[-0.07129158079624176]], [[0.40495049953460693]], [[0.1594291776418686]], [[-0.2634434700012207]], [[0.03347894549369812]], [[-0.05045684799551964]], [[0.1841035634279251]], [[0.05438649281859398]], [[0.055221349000930786]], [[0.004345807712525129]], [[0.3866337835788727]], [[-0.34536799788475037]], [[0.11974682658910751]], [[0.046249259263277054]], [[0.1641053855419159]], [[-0.35814937949180603]], [[-0.05315354838967323]], [[-0.3793496787548065]], [[-0.10751184821128845]], [[0.2810032069683075]], [[0.025665953755378723]], [[0.1157723218202591]], [[-0.046973761171102524]], [[-0.08378275483846664]], [[0.1467662900686264]], [[0.07393590360879898]], [[0.3378034234046936]], [[-0.0242962334305048]], [[-0.24389100074768066]], [[0.03171175345778465]], [[-0.034326713532209396]], [[-0.20693978667259216]], [[-0.1444523185491562]]], [[[-0.026333358138799667]], [[-0.04185817390680313]], [[-0.19138847291469574]], [[-0.1270519644021988]], [[0.13189414143562317]], [[0.11395369470119476]], [[-0.160549595952034]], [[0.3523963391780853]], [[0.3109130561351776]], [[-0.20475372672080994]], [[-0.1889813393354416]], [[0.21321257948875427]], [[-0.15916916728019714]], [[-0.228655144572258]], [[0.15590332448482513]], [[0.09994485229253769]], [[0.22368936240673065]], [[0.2582120895385742]], [[-0.11625736206769943]], [[0.09777715802192688]], [[-0.08190765231847763]], [[-0.18790628015995026]], [[-0.14445438981056213]], [[0.07565534859895706]], [[0.02617334946990013]], [[0.17379730939865112]], [[0.07445403933525085]], [[0.14469362795352936]], [[0.02362419106066227]], [[0.07117823511362076]], [[-0.09504041820764542]], [[-0.3924964666366577]], [[0.1681881844997406]], [[0.16313309967517853]], [[-0.1042538583278656]], [[0.05141094699501991]], [[-0.021322591230273247]], [[-0.1490265130996704]], [[0.013309795409440994]], [[-0.08746420592069626]], [[0.0004159713280387223]], [[-0.01948249526321888]], [[-0.04231724143028259]], [[-0.1339191198348999]], [[-0.18682967126369476]], [[0.19531475007534027]], [[-0.03524792566895485]], [[-0.16395659744739532]]], [[[-0.1992986500263214]], [[-0.28719842433929443]], [[-0.21234481036663055]], [[-0.16543863713741302]], [[-0.4087449610233307]], [[-0.25980105996131897]], [[-0.12388727068901062]], [[-0.36314523220062256]], [[-0.23026476800441742]], [[-0.1089332178235054]], [[-0.3203308582305908]], [[-0.6021760106086731]], [[0.16144417226314545]], [[-0.4008847177028656]], [[-0.3616667687892914]], [[-0.05353313311934471]], [[-0.18626733124256134]], [[-0.2290492057800293]], [[0.06886488199234009]], [[-0.4112359881401062]], [[-0.010878261178731918]], [[-0.2542819380760193]], [[-0.21479015052318573]], [[0.5728898644447327]], [[0.2033812403678894]], [[-0.28620073199272156]], [[-0.3434428870677948]], [[-0.12825754284858704]], [[-0.04402589052915573]], [[-0.011257153004407883]], [[-0.19240552186965942]], [[-0.301139771938324]], [[0.05207088589668274]], [[-0.08807601034641266]], [[-0.08802787214517593]], [[-0.06270734965801239]], [[-0.08284436911344528]], [[-0.2538514733314514]], [[0.10781633853912354]], [[-0.05949907749891281]], [[-0.2911095917224884]], [[-0.16847093403339386]], [[-0.13758757710456848]], [[-0.038882482796907425]], [[-0.29658475518226624]], [[-0.06378954648971558]], [[-0.2474011331796646]], [[-0.33527272939682007]]], [[[-0.6072074770927429]], [[0.1801885962486267]], [[0.27074211835861206]], [[-0.5072869658470154]], [[0.15760110318660736]], [[0.2015334665775299]], [[-0.6706225275993347]], [[0.1319800764322281]], [[0.3194248378276825]], [[-0.6067569851875305]], [[0.02238740585744381]], [[0.13479183614253998]], [[0.150217205286026]], [[-0.11013858020305634]], [[-0.032404884696006775]], [[-0.12220434099435806]], [[0.19677066802978516]], [[0.056356415152549744]], [[-0.49544912576675415]], [[-0.022086163982748985]], [[0.03689560294151306]], [[0.1537414938211441]], [[-0.3422975540161133]], [[0.006331680342555046]], [[-0.08579455316066742]], [[0.3229254186153412]], [[0.053231075406074524]], [[-0.06573360413312912]], [[-0.06371518224477768]], [[-0.023135246708989143]], [[-0.020620029419660568]], [[-0.14812812209129333]], [[0.04391546547412872]], [[0.0721256360411644]], [[0.05097825452685356]], [[-0.1844136267900467]], [[0.09484384953975677]], [[-0.002121458761394024]], [[0.3560403883457184]], [[-0.07956873625516891]], [[-0.06946920603513718]], [[-0.10007741302251816]], [[0.08038508147001266]], [[-0.14436346292495728]], [[-0.16574130952358246]], [[0.07711825519800186]], [[0.2818458378314972]], [[-0.09316051006317139]]], [[[0.021741729229688644]], [[-0.1150553748011589]], [[-0.17657749354839325]], [[-0.09430805593729019]], [[0.19944295287132263]], [[-0.17970231175422668]], [[-0.12030204385519028]], [[-0.1816326230764389]], [[-0.08687648922204971]], [[-0.22244253754615784]], [[-0.21818286180496216]], [[0.029560845345258713]], [[0.06697998195886612]], [[0.05536198988556862]], [[0.04423156753182411]], [[-0.1686462014913559]], [[-0.2749135196208954]], [[-0.15092694759368896]], [[-0.28480830788612366]], [[-0.4383646249771118]], [[-0.04949890077114105]], [[0.0006702836835756898]], [[-0.43569323420524597]], [[-0.2791692018508911]], [[0.058207057416439056]], [[-0.2959299087524414]], [[-0.14241953194141388]], [[-0.13025303184986115]], [[-0.3084355294704437]], [[0.22287322580814362]], [[-0.03075830452144146]], [[-0.2346426099538803]], [[-0.38549935817718506]], [[-0.17374929785728455]], [[-0.29080531001091003]], [[-0.43632400035858154]], [[-0.0014106318121775985]], [[-0.14126703143119812]], [[-0.27278515696525574]], [[-0.1381763070821762]], [[-0.5212557315826416]], [[-0.1160169392824173]], [[0.007686718832701445]], [[-0.13404254615306854]], [[0.029168974608182907]], [[-0.04635055735707283]], [[-0.10930325090885162]], [[-0.1672157347202301]]], [[[-0.2815634608268738]], [[-0.0873887911438942]], [[-0.16794835031032562]], [[0.13159030675888062]], [[0.10709361732006073]], [[0.10459066182374954]], [[0.043069884181022644]], [[0.03762473911046982]], [[-0.1204323098063469]], [[-0.058497585356235504]], [[0.07081669569015503]], [[0.34486472606658936]], [[0.26245588064193726]], [[0.05468382313847542]], [[0.11288732290267944]], [[0.11868373304605484]], [[-0.12982532382011414]], [[0.035517916083335876]], [[0.31683090329170227]], [[0.007971961982548237]], [[0.06266672909259796]], [[0.14639189839363098]], [[0.17542585730552673]], [[-0.3080834448337555]], [[0.1797986924648285]], [[0.22875744104385376]], [[0.333472341299057]], [[-0.3476310670375824]], [[-0.011690154671669006]], [[0.018513699993491173]], [[-0.23338839411735535]], [[-0.16517578065395355]], [[0.4225197434425354]], [[-0.03584732115268707]], [[0.026573635637760162]], [[0.11599916964769363]], [[-0.390163779258728]], [[0.09413570165634155]], [[0.19911780953407288]], [[-0.2969615161418915]], [[-0.4283825755119324]], [[-0.00576007179915905]], [[-0.18000848591327667]], [[0.28716084361076355]], [[0.14195044338703156]], [[-0.17799833416938782]], [[-0.14321769773960114]], [[0.025427041575312614]]], [[[-0.09810806065797806]], [[0.28143978118896484]], [[0.3621928095817566]], [[-0.218839630484581]], [[0.3070937395095825]], [[0.35858291387557983]], [[-0.16867755353450775]], [[0.04766228049993515]], [[0.486050546169281]], [[-0.02728814072906971]], [[0.1723397821187973]], [[0.257190078496933]], [[0.0876268595457077]], [[-0.15605582296848297]], [[-0.31389546394348145]], [[-0.032620761543512344]], [[0.14594592154026031]], [[0.28522467613220215]], [[-0.17091968655586243]], [[0.10499013960361481]], [[0.21430690586566925]], [[0.021137747913599014]], [[-0.001279408228583634]], [[-0.04626605659723282]], [[0.09871140122413635]], [[0.17517860233783722]], [[-0.19129624962806702]], [[-0.2409381866455078]], [[-0.045147258788347244]], [[-0.007648521102964878]], [[0.00018930339138023555]], [[0.038286466151475906]], [[0.16631685197353363]], [[-0.13300731778144836]], [[-0.48248445987701416]], [[-0.12254953384399414]], [[-0.027869798243045807]], [[-0.2040114402770996]], [[0.330720454454422]], [[-0.13038283586502075]], [[0.07667136192321777]], [[0.26695504784584045]], [[0.21879735589027405]], [[-0.11092913150787354]], [[-0.24656836688518524]], [[0.01170304510742426]], [[-0.06789357960224152]], [[-0.12570641934871674]]], [[[-0.3804630935192108]], [[-0.3545397222042084]], [[-0.03930941969156265]], [[-0.4091731607913971]], [[-0.19860883057117462]], [[-0.18610544502735138]], [[-0.3848736882209778]], [[-0.322356641292572]], [[0.16309770941734314]], [[-0.19040514528751373]], [[0.14138507843017578]], [[0.15816111862659454]], [[0.18838536739349365]], [[0.4769289791584015]], [[0.16905194520950317]], [[0.2531513571739197]], [[0.11306994408369064]], [[-0.1352032870054245]], [[-0.06278645992279053]], [[0.25799402594566345]], [[0.20562604069709778]], [[0.22561432421207428]], [[0.42259451746940613]], [[0.29820722341537476]], [[0.20768892765045166]], [[0.5366991758346558]], [[0.15567585825920105]], [[-0.11366657167673111]], [[0.15446837246418]], [[0.05160544812679291]], [[0.069084532558918]], [[0.3448198139667511]], [[0.2753491997718811]], [[-0.09214900434017181]], [[0.13785527646541595]], [[0.060018010437488556]], [[-0.06277836859226227]], [[0.13007648289203644]], [[0.08347129076719284]], [[0.07295768707990646]], [[0.11693121492862701]], [[0.2510811686515808]], [[0.4601619839668274]], [[0.38323676586151123]], [[0.13998109102249146]], [[-0.03282150998711586]], [[0.30250751972198486]], [[0.1266450434923172]]], [[[-0.10846730321645737]], [[-0.31267639994621277]], [[0.4863399565219879]], [[-0.2445203810930252]], [[-0.19046953320503235]], [[-0.002137581119313836]], [[0.12871064245700836]], [[-0.07458501309156418]], [[0.15462131798267365]], [[0.08615639805793762]], [[0.13850705325603485]], [[0.02791762165725231]], [[-0.0664701759815216]], [[0.1565728336572647]], [[0.5214625000953674]], [[-0.058719418942928314]], [[-0.27799534797668457]], [[-0.15324044227600098]], [[0.39679601788520813]], [[-0.34327831864356995]], [[-0.06249867007136345]], [[-0.10541104525327682]], [[0.07581999152898788]], [[0.18453022837638855]], [[0.061091143637895584]], [[0.0320911705493927]], [[-0.6127310395240784]], [[-0.1153264120221138]], [[-0.11027421057224274]], [[0.06380260735750198]], [[0.25977814197540283]], [[0.2763356566429138]], [[-0.02287559024989605]], [[-0.4558316469192505]], [[0.04159484803676605]], [[-0.03925258666276932]], [[-0.2396254986524582]], [[0.17113323509693146]], [[0.18647785484790802]], [[0.27502572536468506]], [[-0.035521283745765686]], [[0.07058171927928925]], [[-0.2187470644712448]], [[-0.09855316579341888]], [[-0.04600659757852554]], [[0.12652964890003204]], [[-0.03882709518074989]], [[0.10587622970342636]]], [[[0.07994246482849121]], [[-0.09268689155578613]], [[-0.06873133778572083]], [[-0.03577513247728348]], [[-0.1402510106563568]], [[-0.00837824959307909]], [[-0.3335324823856354]], [[-0.31880396604537964]], [[-0.21208204329013824]], [[-0.02408224157989025]], [[-0.330335795879364]], [[-0.09750903397798538]], [[-0.007610708940774202]], [[0.1410176008939743]], [[-0.13439224660396576]], [[0.18867987394332886]], [[-0.25768595933914185]], [[-0.11663281917572021]], [[-0.13059256970882416]], [[-0.5552179217338562]], [[-0.19002661108970642]], [[-0.22314946353435516]], [[0.08123350143432617]], [[-0.14805836975574493]], [[-0.07746973633766174]], [[-0.21958805620670319]], [[0.1062363013625145]], [[-0.2069345861673355]], [[0.0163580272346735]], [[0.21082590520381927]], [[-0.12454111129045486]], [[0.13143309950828552]], [[-0.03866136819124222]], [[-0.14447656273841858]], [[-0.22134122252464294]], [[0.17056921124458313]], [[-0.13285915553569794]], [[-0.454646497964859]], [[-0.10202370584011078]], [[-0.021034853532910347]], [[-0.1253187656402588]], [[0.09723303467035294]], [[-0.1422473043203354]], [[0.08106023818254471]], [[0.32000333070755005]], [[0.09201796352863312]], [[0.20224954187870026]], [[0.5448203682899475]]], [[[-0.40759262442588806]], [[0.2824362814426422]], [[0.17407099902629852]], [[-0.054307304322719574]], [[0.37628862261772156]], [[0.3111545145511627]], [[-0.4089723527431488]], [[0.5146557092666626]], [[0.05315674468874931]], [[0.04642261937260628]], [[0.3854741156101227]], [[0.1169603243470192]], [[0.15330664813518524]], [[0.18773336708545685]], [[-0.23724892735481262]], [[-0.26713892817497253]], [[0.13808424770832062]], [[0.006699466612190008]], [[-0.14068539440631866]], [[0.10711996257305145]], [[-0.14607328176498413]], [[-0.07866261154413223]], [[-0.39656203985214233]], [[0.24998828768730164]], [[0.03717593476176262]], [[-0.0639943927526474]], [[0.16177576780319214]], [[0.03215266019105911]], [[-0.07345148921012878]], [[-0.052121974527835846]], [[-0.026695236563682556]], [[0.040999699383974075]], [[-0.13067325949668884]], [[0.04762541502714157]], [[-0.08473524451255798]], [[-0.07952749729156494]], [[-0.2187303900718689]], [[-0.2897375226020813]], [[0.2611614167690277]], [[-0.19426046311855316]], [[-0.12213973701000214]], [[0.21411080658435822]], [[0.2773473858833313]], [[0.04899636656045914]], [[-0.24600252509117126]], [[0.06250796467065811]], [[-0.015007070265710354]], [[-0.03239540010690689]]], [[[0.19435305893421173]], [[0.35183802247047424]], [[-0.07440496236085892]], [[-0.05395393446087837]], [[0.2044954001903534]], [[0.14564549922943115]], [[-0.15298917889595032]], [[0.08016352355480194]], [[0.022083647549152374]], [[0.06186104193329811]], [[-0.12741371989250183]], [[-0.18018539249897003]], [[0.16286487877368927]], [[0.18483857810497284]], [[-0.08387462794780731]], [[0.08371647447347641]], [[0.09743231534957886]], [[0.0006723180995322764]], [[0.20476704835891724]], [[-0.5652928352355957]], [[-0.19518667459487915]], [[-0.04661303758621216]], [[0.1491294503211975]], [[0.21346506476402283]], [[-0.02058657631278038]], [[0.08381879329681396]], [[-0.059650447219610214]], [[-0.005366761703044176]], [[-0.24932852387428284]], [[-0.24425549805164337]], 