{"channel_n": 16, "hidden_n": 128, "fire_rate": 0.5, "alpha_channel": 3, "living_threshold": 0.1, "identity_kernel": [[0.0, 0.0, 0.0], [0.0, 1.0, 0.0], [0.0, 0.0, 0.0]], "dx_kernel": [[-0.125, 0.0, 0.125], [-0.25, 0.0, 0.25], [-0.125, 0.0, 0.125]], "dy_kernel": [[-0.125, -0.25, -0.125], [0.0, 0.0, 0.0], [0.125, 0.25, 0.125]], "conv1_weight": [[[[-0.06733051687479019]], [[0.025695331394672394]], [[-0.17918804287910461]], [[-0.1526952087879181]], [[-0.08041802793741226]], [[0.0030208288226276636]], [[-0.026761388406157494]], [[0.014720446430146694]], [[-0.0039048497565090656]], [[0.032512541860342026]], [[-0.2430049329996109]], [[0.020905911922454834]], [[-0.11561551690101624]], [[-0.31939268112182617]], [[-0.15347230434417725]], [[-0.15292005240917206]], [[-0.2681805491447449]], [[0.42496418952941895]], [[-0.2537950277328491]], [[0.018234029412269592]], [[0.08502870798110962]], [[0.17297349870204926]], [[-0.017374780029058456]], [[0.5814745426177979]], [[-0.007552617229521275]], [[-0.16901364922523499]], [[0.03382846713066101]], [[-0.24288330972194672]], [[-0.20185613632202148]], [[0.17742009460926056]], [[-0.22955846786499023]], [[-0.055994365364313126]], [[0.11616051197052002]], [[-0.06322478502988815]], [[-0.33797967433929443]], [[0.12347190827131271]], [[-0.050005149096250534]], [[-0.2863907516002655]], [[0.09262644499540329]], [[0.028431054204702377]], [[-0.17258509993553162]], [[-0.33892515301704407]], [[0.11574669182300568]], [[0.09061478823423386]], [[-0.2542663812637329]], [[-0.01164315827190876]], [[0.22342871129512787]], [[-0.10337236523628235]]], [[[-0.19157034158706665]], [[-0.01733706332743168]], [[0.016052309423685074]], [[0.15075577795505524]], [[-0.06888806819915771]], [[0.1386362612247467]], [[0.05413182079792023]], [[0.0010908519616350532]], [[0.06637218594551086]], [[-0.35790321230888367]], [[-0.1612132042646408]], [[-0.14528144896030426]], [[-0.03781372681260109]], [[-0.04200304299592972]], [[0.2886784076690674]], [[-0.08947237581014633]], [[0.14525066316127777]], [[-0.23346465826034546]], [[0.052346713840961456]], [[0.28636449575424194]], [[0.17230640351772308]], [[0.17716336250305176]], [[-0.29763519763946533]], [[-0.17067627608776093]], [[0.056075889617204666]], [[0.1147671714425087]], [[0.08583460003137589]], [[0.037202730774879456]], [[0.17839282751083374]], [[-0.08018127083778381]], [[0.07924202084541321]], [[-0.0861569419503212]], [[-0.030114781111478806]], [[0.07428620755672455]], [[0.2441851645708084]], [[-0.2499575912952423]], [[-0.11852265894412994]], [[0.11908230185508728]], [[-0.2652776837348938]], [[-0.09666923433542252]], [[-0.010788381099700928]], [[-0.37061187624931335]], [[0.07871702313423157]], [[0.2761220932006836]], [[0.12429600954055786]], [[-0.048289425671100616]], [[0.002457153517752886]], [[-0.16380669176578522]]], [[[0.08011539280414581]], [[0.0006453675450757146]], [[-0.3299877345561981]], [[-0.0610651858150959]], [[0.31568658351898193]], [[0.06874190270900726]], [[-0.13867421448230743]], [[0.06076854467391968]], [[-0.22953636944293976]], [[-0.03649674355983734]], [[-0.16471228003501892]], [[-0.09222716093063354]], [[-0.0987434908747673]], [[0.0493314266204834]], [[-0.20834794640541077]], [[0.027916230261325836]], [[0.1333923637866974]], [[0.22934900224208832]], [[0.11763560026884079]], [[0.14768539369106293]], [[0.4078449010848999]], [[0.12960973381996155]], [[-0.21407224237918854]], [[0.2232707142829895]], [[-0.10233745723962784]], [[-0.44856202602386475]], [[0.2272287756204605]], [[0.03874356672167778]], [[-0.3543539047241211]], [[-0.08668380230665207]], [[-0.06383887678384781]], [[0.06326157599687576]], [[-0.2544398307800293]], [[-0.12036632746458054]], [[0.3422919809818268]], [[0.09421559423208237]], [[-0.09118291735649109]], [[-0.08402378857135773]], [[0.4444847106933594]], [[0.0960085541009903]], [[-0.307402640581131]], [[-0.4035157561302185]], [[0.19643643498420715]], [[-0.01340206153690815]], [[0.39359843730926514]], [[-0.00790527556091547]], [[0.11527372896671295]], [[0.14809519052505493]]], [[[-0.15702340006828308]], [[0.067425437271595]], [[0.33754172921180725]], [[-0.017201535403728485]], [[0.02787582203745842]], [[0.04803571105003357]], [[-0.14636710286140442]], [[0.032004568725824356]], [[0.14626078307628632]], [[0.06607094407081604]], [[-0.07168492674827576]], [[0.0035317083820700645]], [[0.1655977964401245]], [[-0.07885431498289108]], [[0.23871545493602753]], [[0.1594688892364502]], [[0.04210851341485977]], [[0.4625994861125946]], [[-0.2640191316604614]], [[-0.27356722950935364]], [[-0.244855597615242]], [[-0.06706514209508896]], [[0.05764704942703247]], [[-0.1548345386981964]], [[-0.09604070335626602]], [[0.0946582779288292]], [[0.2718351185321808]], [[-0.13358142971992493]], [[0.015650510787963867]], [[0.11741150170564651]], [[-0.23349851369857788]], [[0.034911416471004486]], [[0.2694016098976135]], [[-0.07212992012500763]], [[0.04391822963953018]], [[-0.02643010765314102]], [[-0.09240012615919113]], [[-0.007984990254044533]], [[0.23710820078849792]], [[0.04604644328355789]], [[-0.1975478231906891]], [[0.3083639442920685]], [[-0.07834820449352264]], [[0.30186912417411804]], [[0.031008072197437286]], [[0.08455371111631393]], [[-0.19334812462329865]], [[-0.07757540047168732]]], [[[-0.6171097755432129]], [[-0.2976573705673218]], [[-0.23210099339485168]], [[-0.4130252003669739]], [[-0.1278618425130844]], [[0.05886318162083626]], [[-0.46027326583862305]], [[-0.2300434410572052]], [[-0.13679242134094238]], [[0.14936141669750214]], [[-0.2177162617444992]], [[0.35346800088882446]], [[-0.02038073167204857]], [[-0.1168731227517128]], [[0.05694085359573364]], [[0.09945615381002426]], [[-0.22925077378749847]], [[-0.1351831555366516]], [[-0.11203064769506454]], [[0.24960047006607056]], [[0.24032898247241974]], [[-0.09981666505336761]], [[0.023538265377283096]], [[0.32399120926856995]], [[-0.10212188959121704]], [[-0.26697221398353577]], [[0.07487785816192627]], [[0.009963292628526688]], [[0.028775425627827644]], [[0.03284740447998047]], [[0.025637144222855568]], [[-0.22071580588817596]], [[-0.17247366905212402]], [[-0.07989554107189178]], [[-0.04262520745396614]], [[0.06964614242315292]], [[0.008791603147983551]], [[-0.0041648102924227715]], [[0.20949046313762665]], [[0.0667097419500351]], [[-0.16443154215812683]], [[-0.17451782524585724]], [[0.08363588899374008]], [[-0.13431717455387115]], [[-0.1490521878004074]], [[-0.0716373547911644]], [[0.029202628880739212]], [[-0.004671333823353052]]], [[[0.12983079254627228]], [[-0.05820654332637787]], [[-0.35980507731437683]], [[-0.09242405742406845]], [[0.03476308658719063]], [[-0.29036423563957214]], [[0.17256863415241241]], [[-0.21958474814891815]], [[-0.10235490649938583]], [[-0.008588648401200771]], [[-0.39459484815597534]], [[-0.026809776201844215]], [[0.027176139876246452]], [[0.05782879516482353]], [[-0.28306907415390015]], [[-0.04617496579885483]], [[0.12183388322591782]], [[0.1924462914466858]], [[-0.23267853260040283]], [[0.18420511484146118]], [[0.13491712510585785]], [[0.0072829509153962135]], [[-0.1901245266199112]], [[-0.006192112807184458]], [[-0.03652016445994377]], [[-0.37639474868774414]], [[-0.21761925518512726]], [[-0.02704337053000927]], [[0.2765616476535797]], [[-0.1419588029384613]], [[-0.12978345155715942]], [[-0.3424115478992462]], [[-0.48605623841285706]], [[0.018390139564871788]], [[-0.380720317363739]], [[-0.05815938487648964]], [[0.0293254517018795]], [[0.3144049346446991]], [[0.04990142211318016]], [[0.20923690497875214]], [[0.0739269107580185]], [[-0.10186530649662018]], [[-0.07856912910938263]], [[-0.10214992612600327]], [[-0.06538628041744232]], [[0.10350655764341354]], [[-0.04640418291091919]], [[0.39482784271240234]]], [[[-0.11102904379367828]], [[0.06419053673744202]], [[-0.630909264087677]], [[-0.011769539676606655]], [[-0.10019385069608688]], [[-0.22895961999893188]], [[-0.0851651057600975]], [[-0.129482239484787]], [[-0.3407195508480072]], [[-0.43353530764579773]], [[0.1515571027994156]], [[-0.5319156646728516]], [[-0.15610644221305847]], [[0.22102130949497223]], [[-0.309398353099823]], [[-0.03001757152378559]], [[0.009181372821331024]], [[0.27086544036865234]], [[0.09221682697534561]], [[-0.15352319180965424]], [[0.07996314764022827]], [[0.026331281289458275]], [[0.09434282779693604]], [[-0.06699471175670624]], [[0.021671010181307793]], [[-0.03121946007013321]], [[0.32720237970352173]], [[-0.015947602689266205]], [[-0.09672559052705765]], [[-0.0015852792421355844]], [[-0.027259374037384987]], [[0.08412454277276993]], [[0.012278147041797638]], [[-0.08511605113744736]], [[-0.3985932767391205]], [[-0.12700745463371277]], [[0.19245211780071259]], [[0.14039364457130432]], [[-0.2160460352897644]], [[-0.016918335109949112]], [[0.13199487328529358]], [[-0.0754956379532814]], [[-0.12472938001155853]], [[-0.16146345436573029]], [[-0.21157610416412354]], [[0.22541850805282593]], [[-0.02580198273062706]], [[-0.09160932153463364]]], [[[0.05152345821261406]], [[0.17422176897525787]], [[0.1692146509885788]], [[0.016240647062659264]], [[0.01826460286974907]], [[0.07203560322523117]], [[0.04932893067598343]], [[0.11790638417005539]], [[-0.07015808671712875]], [[0.2086639106273651]], [[-0.20330509543418884]], [[0.3550450801849365]], [[-0.14287078380584717]], [[-0.13424000144004822]], [[-0.02157481387257576]], [[0.16547620296478271]], [[-0.2071284055709839]], [[0.18302559852600098]], [[-0.21709667146205902]], [[0.29676535725593567]], [[0.285213440656662]], [[0.09768376499414444]], [[0.11661532521247864]], [[0.22933176159858704]], [[-0.09596574306488037]], [[-0.013523814268410206]], [[0.06310851126909256]], [[-0.047124773263931274]], [[-0.045164745301008224]], [[0.12208021432161331]], [[0.03628323972225189]], [[0.2286192625761032]], [[-0.06887059658765793]], [[-0.17754296958446503]], [[0.14053481817245483]], [[0.047763433307409286]], [[-0.18504644930362701]], [[-0.29746633768081665]], [[0.09021357446908951]], [[-0.0821836069226265]], [[0.002800425048917532]], [[-0.22198167443275452]], [[0.18321672081947327]], [[0.06650477647781372]], [[0.2414373904466629]], [[-0.21543297171592712]], [[0.22173237800598145]], [[0.1302611529827118]]], [[[0.19526420533657074]], [[0.02099682204425335]], [[0.0019540907815098763]], [[0.30807793140411377]], [[0.005200727842748165]], [[0.13302448391914368]], [[0.07618656009435654]], [[-0.12618222832679749]], [[-0.2079591602087021]], [[0.007982837036252022]], [[-0.1595514565706253]], [[0.13529755175113678]], [[0.07237379997968674]], [[-0.18833239376544952]], [[-0.10695113241672516]], [[0.11248529702425003]], [[-0.1400543600320816]], [[-0.06337568163871765]], [[-0.03993235528469086]], [[-0.024641867727041245]], [[0.12892262637615204]], [[-0.03382524475455284]], [[0.0776057317852974]], [[0.295635849237442]], [[-0.04330441728234291]], [[-0.15932731330394745]], [[-0.013580046594142914]], [[-0.026593279093503952]], [[0.059323232620954514]], [[0.25558996200561523]], [[-0.04622993990778923]], [[-0.33907952904701233]], [[-0.04834989458322525]], [[-0.042532362043857574]], [[-0.023441923782229424]], [[0.4136257767677307]], [[-0.020283449441194534]], [[0.2022312581539154]], [[0.28187552094459534]], [[0.22048944234848022]], [[0.19535726308822632]], [[-0.17693579196929932]], [[-0.12877056002616882]], [[-0.11838354915380478]], [[-0.05514373630285263]], [[0.06740552186965942]], [[0.09506764262914658]], [[-0.16836607456207275]]], [[[-0.1533222645521164]], [[0.26260265707969666]], [[0.23396669328212738]], [[-0.49970677495002747]], [[0.05483783036470413]], [[-0.35306763648986816]], [[-0.27337878942489624]], [[-0.0022985462564975023]], [[-0.22098584473133087]], [[-0.1358308345079422]], [[0.05662410333752632]], [[-0.0374583937227726]], [[0.3091045916080475]], [[-0.09445666521787643]], [[-0.1520318239927292]], [[0.14579442143440247]], [[-0.12040848284959793]], [[-0.1921345442533493]], [[0.1309533417224884]], [[-0.034974973648786545]], [[-0.07066060602664948]], [[0.4029216766357422]], [[0.04905505105853081]], [[0.1054881364107132]], [[0.39375537633895874]], [[0.20006299018859863]], [[-0.2198771983385086]], [[-0.17894601821899414]], [[0.016138877719640732]], [[-0.014629563316702843]], [[-0.1263662576675415]], [[-0.2526828646659851]], [[0.011062775738537312]], [[0.022513659670948982]], [[0.12254108488559723]], [[-0.033423926681280136]], [[-0.021313870325684547]], [[-0.15113940834999084]], [[0.07772134244441986]], [[0.333259254693985]], [[0.055217236280441284]], [[-0.2538948059082031]], [[0.31959691643714905]], [[-0.02851645089685917]], [[-0.12597621977329254]], [[0.47104206681251526]], [[-0.32318803668022156]], [[0.04410489276051521]]], [[[-0.1750205159187317]], [[-0.07719708234071732]], [[-0.1691788285970688]], [[0.05728505551815033]], [[-0.04036461561918259]], [[0.10658569633960724]], [[0.039221953600645065]], [[0.0886198878288269]], [[-0.004700611811131239]], [[-0.09501971304416656]], [[0.011432556435465813]], [[0.18232177197933197]], [[-0.05817931145429611]], [[0.12723109126091003]], [[0.3966766595840454]], [[-0.23216190934181213]], [[-0.18729178607463837]], [[-0.09788119792938232]], [[0.22658300399780273]], [[0.0904938355088234]], [[0.23171474039554596]], [[0.08137419819831848]], [[-0.08739247173070908]], [[0.04809539020061493]], [[0.1511576771736145]], [[0.1125265434384346]], [[0.24846962094306946]], [[0.03509290888905525]], [[-0.47818729281425476]], [[0.11097603291273117]], [[-0.14180658757686615]], [[-0.06817253679037094]], [[-0.07695718109607697]], [[-0.1977962851524353]], [[0.20298993587493896]], [[-0.11434995383024216]], [[-0.050503507256507874]], [[-0.19443686306476593]], [[0.1037868782877922]], [[-0.09208588302135468]], [[0.2609712481498718]], [[-0.17868512868881226]], [[0.10514859110116959]], [[-0.14105278253555298]], [[-0.17173558473587036]], [[-0.0995754525065422]], [[0.5658594965934753]], [[-0.2061607390642166]]], [[[-0.041869670152664185]], [[-0.08662491291761398]], [[0.06958530843257904]], [[0.15388785302639008]], [[-0.3546507656574249]], [[-0.14063353836536407]], [[-0.11662017554044724]], [[-0.18145489692687988]], [[-0.03429171442985535]], [[-0.1930617392063141]], [[-0.0653214380145073]], [[0.08134564012289047]], [[-0.13820596039295197]], [[-0.24297365546226501]], [[-0.21544387936592102]], [[0.1190861314535141]], [[0.10027919709682465]], [[0.3908388614654541]], [[-0.2516574561595917]], [[-0.1787797063589096]], [[0.053274594247341156]], [[-0.05390350520610809]], [[-0.20866477489471436]], [[-0.2508862018585205]], [[0.19426925480365753]], [[-0.3530859053134918]], [[0.37686818838119507]], [[-0.04373519867658615]], [[-0.04144137725234032]], [[-0.31339311599731445]], [[-0.05523291975259781]], [[0.05752585455775261]], [[0.055290043354034424]], [[-0.18628664314746857]], [[-0.3041435778141022]], [[-0.17310649156570435]], [[-0.04689199477434158]], [[-0.17594051361083984]], [[-0.09857475012540817]], [[-0.03851351514458656]], [[-0.09015077352523804]], [[0.279876708984375]], [[0.11018919944763184]], [[-0.11545983701944351]], [[0.0990762859582901]], [[0.05030893161892891]], [[-0.03355005383491516]], [[-0.14832566678524017]]], [[[-0.06097952276468277]], [[-0.047081295400857925]], [[0.06036433205008507]], [[0.26791858673095703]], [[-0.023264747112989426]], [[-0.16026571393013]], [[-0.2229728251695633]], [[0.14199352264404297]], [[0.025193845853209496]], [[-0.052579015493392944]], [[-0.11981674283742905]], [[0.1820601224899292]], [[0.10326561331748962]], [[0.02661300264298916]], [[0.4048238694667816]], [[-0.07168345898389816]], [[0.015421218238770962]], [[0.43455031514167786]], [[0.07087664306163788]], [[0.23181352019309998]], [[-0.5783059000968933]], [[0.12585078179836273]], [[-0.045648057013750076]], [[0.043955788016319275]], [[-0.12252835929393768]], [[-0.13355839252471924]], [[0.21028926968574524]], [[0.12876546382904053]], [[0.013442863710224628]], [[0.11574321985244751]], [[0.12503588199615479]], [[-0.14148259162902832]], [[0.07567311823368073]], [[-0.1292203813791275]], [[-0.4119047522544861]], [[0.11716824769973755]], [[0.04193427413702011]], [[0.05708649009466171]], [[-0.010732493363320827]], [[-0.0325319841504097]], [[0.2872607707977295]], [[0.2053685188293457]], [[0.09127414226531982]], [[-0.022438528016209602]], [[-0.4445870518684387]], [[0.014635981991887093]], [[0.2100677639245987]], [[-0.13617075979709625]]], [[[0.022178838029503822]], [[-0.20713737607002258]], [[-0.09723684191703796]], [[0.09469437599182129]], [[-0.0836244598031044]], [[-0.25985708832740784]], [[0.23198704421520233]], [[-0.009735174477100372]], [[-0.16391225159168243]], [[0.3814312815666199]], [[-0.2933136820793152]], [[0.08668647706508636]], [[-0.09402643889188766]], [[-0.022966282442212105]], [[0.10658585280179977]], [[0.11438409239053726]], [[-0.2373938411474228]], [[0.09179513156414032]], [[-0.08804355561733246]], [[-0.10619550198316574]], [[0.16735626757144928]], [[0.1035839170217514]], [[-0.20382505655288696]], [[0.2608148157596588]], [[-0.21182870864868164]], [[-0.16142167150974274]], [[-0.06889030337333679]], [[-0.029406122863292694]], [[-0.250113308429718]], [[0.26576173305511475]], [[-0.015450285747647285]], [[-0.2943752706050873]], [[0.0027626475784927607]], [[0.19604218006134033]], [[-0.019160613417625427]], [[-0.08795250952243805]], [[0.0021659675985574722]], [[-0.08519342541694641]], [[0.42052412033081055]], [[0.007361368741840124]], [[-0.34537702798843384]], [[0.140023335814476]], [[-0.07670105993747711]], [[-0.47487953305244446]], [[-0.4776444435119629]], [[0.08586210012435913]], [[0.11017347872257233]], [[0.012619933113455772]]], [[[-0.1852390617132187]], [[0.16164948046207428]], [[-0.13674063980579376]], [[-0.034724995493888855]], [[0.14257141947746277]], [[-0.03904573246836662]], [[0.012394027784466743]], [[0.03662678226828575]], [[0.13631078600883484]], [[-0.2933025360107422]], [[0.1773420125246048]], [[0.227854922413826]], [[0.024654505774378777]], [[0.19941119849681854]], [[0.26953256130218506]], [[-0.16032126545906067]], [[0.21972522139549255]], [[0.23870784044265747]], [[-0.05932029336690903]], [[-0.36592110991477966]], [[0.17331582307815552]], [[0.20845696330070496]], [[-0.18122665584087372]], [[0.1219729334115982]], [[0.13254179060459137]], [[0.23980994522571564]], [[0.40762633085250854]], [[-0.2281196117401123]], [[0.11086006462574005]], [[0.07762213796377182]], [[-0.2677001357078552]], [[-0.04419303312897682]], [[0.15535104274749756]], [[-0.011431326158344746]], [[0.31139475107192993]], [[0.35572826862335205]], [[-0.14495792984962463]], [[-0.1429857611656189]], [[0.02614201419055462]], [[0.08965756744146347]], [[0.27777794003486633]], [[0.33949047327041626]], [[0.08632628619670868]], [[0.18952080607414246]], [[0.2598632574081421]], [[0.17006024718284607]], [[-0.28627029061317444]], [[0.3100617825984955]]], [[[0.09602424502372742]], [[-0.04005488380789757]], [[0.024049721658229828]], [[-0.11606763303279877]], [[-0.052417561411857605]], [[0.25533726811408997]], [[0.18189814686775208]], [[-0.037441983819007874]], [[0.18583320081233978]], [[-0.09008490294218063]], [[0.17375735938549042]], [[0.13333897292613983]], [[-0.048047564923763275]], [[0.13449615240097046]], [[-0.2625426650047302]], [[0.3022429049015045]], [[0.06317431479692459]], [[-0.22363100945949554]], [[0.031200068071484566]], [[-0.3417195677757263]], [[-0.11620260775089264]], [[0.06127819046378136]], [[0.0643596276640892]], [[-0.3297452926635742]], [[0.1728750467300415]], [[0.06825366616249084]], [[-0.10010732710361481]], [[-0.24144627153873444]], [[-0.05970516428351402]], [[-0.146152064204216]], [[-0.1311885416507721]], [[-0.003068563062697649]], [[-0.12187414616346359]], [[0.16160167753696442]], [[-0.03989698365330696]], [[-0.20212499797344208]], [[-0.10556381195783615]], [[0.13179337978363037]], [[0.05620841309428215]], [[0.034819096326828]], [[-0.14711152017116547]], [[0.12618421018123627]], [[-0.20596535503864288]], [[0.27848607301712036]], [[0.35178059339523315]], [[-0.20781877636909485]], [[0.1895100176334381]], [[0.12833842635154724]]], [[[-0.3592448830604553]], [[-0.13088016211986542]], [[-0.09553048759698868]], [[-0.3582773804664612]], [[0.04834194481372833]], [[-0.005452803336083889]], [[-0.15557876229286194]], [[-0.13946297764778137]], [[0.1489678919315338]], [[-0.07957077771425247]], [[-0.04484377056360245]], [[-0.0773417055606842]], [[-0.1479802429676056]], [[0.021981537342071533]], [[0.28874027729034424]], [[-0.09347552806138992]], [[-0.0947706550359726]], [[-0.03765266016125679]], [[-0.08047137409448624]], [[0.06660881638526917]], [[0.22283059358596802]], [[-0.03902772441506386]], [[0.03873160481452942]], [[0.3282991647720337]], [[0.14464567601680756]], [[0.0058611733838915825]], [[-0.3274117112159729]], [[-0.10762687027454376]], [[-0.018425900489091873]], [[0.09406749159097672]], [[-0.018666204065084457]], [[-0.2794451415538788]], [[0.004062233492732048]], [[-0.09220019727945328]], [[0.10650434345006943]], [[0.2598443329334259]], [[0.030011946335434914]], [[0.26755663752555847]], [[0.4241650104522705]], [[-0.06858402490615845]], [[-0.17961443960666656]], [[0.12914124131202698]], [[-0.12193199247121811]], [[-0.27528873085975647]], [[-0.24016444385051727]], [[-0.06684208661317825]], [[0.1812952309846878]], [[-0.029367027804255486]]], [[[-0.03524298220872879]], [[0.08120202273130417]], [[0.029854238033294678]], [[0.14343929290771484]], [[0.1586853414773941]], [[-0.05713778734207153]], [[-0.0010622398694977164]], [[-0.0048860725946724415]], [[0.0628410205245018]], [[-0.12910239398479462]], [[0.09878984838724136]], [[-0.18179035186767578]], [[-0.09912527352571487]], [[-0.041801661252975464]], [[0.1797799915075302]], [[-0.2170851081609726]], [[0.27712878584861755]], [[-0.1539720892906189]], [[-0.3084229826927185]], [[0.41309958696365356]], [[0.022063175216317177]], [[0.007793385535478592]], [[0.010278921574354172]], [[-0.038365546613931656]], [[-0.143257275223732]], [[0.1897241473197937]], [[0.38987675309181213]], [[-0.016147054731845856]], [[0.2390017956495285]], [[0.06699658185243607]], [[-0.006605322472751141]], [[0.18822507560253143]], [[-0.2646764814853668]], [[-0.08359929174184799]], [[0.4315840005874634]], [[0.08060677349567413]], [[-0.005134789273142815]], [[0.08688058704137802]], [[0.32136985659599304]], [[-0.19971194863319397]], [[0.0843399241566658]], [[-0.6244043111801147]], [[0.10608544945716858]], [[-0.2999741733074188]], [[0.22380229830741882]], [[0.05959959328174591]], [[0.020915735512971878]], [[-0.011452758684754372]]], [[[-0.05599341168999672]], [[-0.08096934854984283]], [[-0.1513054072856903]], [[-0.3670998215675354]], [[-0.1197471097111702]], [[-0.048253122717142105]], [[-0.1778722107410431]], [[-0.05867847427725792]], [[-0.331423819065094]], [[-0.0973832756280899]], [[-0.14444668591022491]], [[-0.1052134707570076]], [[0.1978878378868103]], [[-0.008768895640969276]], [[0.11023133993148804]], [[-0.13799357414245605]], [[0.21130092442035675]], [[-0.04082325100898743]], [[-0.1422530859708786]], [[-0.22761832177639008]], [[0.22629320621490479]], [[0.18506349623203278]], [[0.10484649986028671]], [[0.0559382326900959]], [[-0.047961849719285965]], [[0.06862150877714157]], [[0.15588617324829102]], [[0.1081661507487297]], [[0.06428607553243637]], [[0.05787017568945885]], [[-0.16922977566719055]], [[0.285391241312027]], [[-0.15372443199157715]], [[0.027869699522852898]], [[-0.30615830421447754]], [[0.280098021030426]], [[0.16020014882087708]], [[0.36916929483413696]], [[-0.06043494865298271]], [[0.1541968137025833]], [[-0.19577395915985107]], [[-0.13811014592647552]], [[-0.2662643492221832]], [[0.0729963630437851]], [[-0.049772389233112335]], [[-0.0428275428712368]], [[-0.027341164648532867]], [[-0.11935387551784515]]], [[[-0.14825768768787384]], [[0.24047186970710754]], [[0.29937148094177246]], [[-0.27540552616119385]], [[0.16108858585357666]], [[-0.1768876612186432]], [[-0.09346631914377213]], [[0.3053538203239441]], [[0.32165518403053284]], [[-0.39891958236694336]], [[-0.3696247637271881]], [[-0.11063461750745773]], [[0.10617382824420929]], [[-0.4605691134929657]], [[-0.23643311858177185]], [[0.1079862043261528]], [[-0.3030657172203064]], [[-0.11473975330591202]], [[-0.14575359225273132]], [[-0.5602830648422241]], [[-0.1279173493385315]], [[0.08392544835805893]], [[-0.24351628124713898]], [[-0.006975020281970501]], [[0.09113819152116776]], [[-0.332690566778183]], [[-0.10043942928314209]], [[-0.37845441699028015]], [[-0.06768390536308289]], [[-0.07833502441644669]], [[-0.3096356689929962]], [[-0.05327287316322327]], [[-0.027894848957657814]], [[-0.14428704977035522]], [[-0.1733236014842987]], [[0.03096207231283188]], [[-0.03647087514400482]], [[-0.43689340353012085]], [[-0.33533596992492676]], [[0.19268228113651276]], [[-0.5373843908309937]], [[-0.22420310974121094]], [[-0.18352636694908142]], [[-0.10457097738981247]], [[-0.29074785113334656]], [[-0.1585705727338791]], [[-0.35918495059013367]], [[-0.09094102680683136]]], [[[-0.18475621938705444]], [[0.00099276436958462]], [[0.24810226261615753]], [[-0.22191022336483002]], [[-0.15915019810199738]], [[0.1570442169904709]], [[0.07999623566865921]], [[-0.10669142007827759]], [[0.23554164171218872]], [[0.0723661407828331]], [[0.16783562302589417]], [[0.12434488534927368]], [[0.11449294537305832]], [[0.1864394098520279]], [[0.01877535507082939]], [[-0.06474559009075165]], [[0.2801743149757385]], [[0.5017391443252563]], [[-0.23970168828964233]], [[0.052638813853263855]], [[0.033245962113142014]], [[0.009611858986318111]], [[-0.031946904957294464]], [[-0.028750628232955933]], [[-0.008204643614590168]], [[0.01094460766762495]], [[-0.1320088803768158]], [[-0.05959606170654297]], [[0.20103956758975983]], [[0.26642706990242004]], [[-0.18184822797775269]], [[0.13902926445007324]], [[0.20700210332870483]], [[-0.23472219705581665]], [[-0.1611965149641037]], [[0.18877403438091278]], [[-0.11293037980794907]], [[-0.06063894182443619]], [[0.040428657084703445]], [[-0.13351194560527802]], [[-0.03927244246006012]], [[0.10968097299337387]], [[-0.007471820805221796]], [[-0.3980586528778076]], [[-0.14171013236045837]], [[0.10758456587791443]], [[-0.28081950545310974]], [[-0.11274609714746475]]], [[[-0.16112710535526276]], [[0.13611552119255066]], [[-0.047596342861652374]], [[-0.03494643047451973]], [[0.19117902219295502]], [[-0.07758885622024536]], [[-0.07341355085372925]], [[0.19629359245300293]], [[-0.03489014506340027]], [[-0.06276749819517136]], [[0.06137387081980705]], [[0.09805013984441757]], [[0.3227047622203827]], [[-0.02684926614165306]], [[0.22166544198989868]], [[-0.13620072603225708]], [[0.15395362675189972]], [[0.21391363441944122]], [[-0.08569823950529099]], [[0.41920071840286255]], [[0.16019350290298462]], [[0.13768461346626282]], [[0.39143675565719604]], [[0.4912393093109131]], [[-0.06418430805206299]], [[-0.09903287887573242]], [[-0.3178322911262512]], [[-0.061626143753528595]], [[-0.06396758556365967]], [[-0.27810609340667725]], [[-0.16474512219429016]], [[0.23831573128700256]], [[0.25560200214385986]], [[-0.10839293152093887]], [[-0.23681415617465973]], [[-0.04235657677054405]], [[0.038168471306562424]], [[0.251995712518692]], [[-0.21883367002010345]], [[0.26499518752098083]], [[-0.18067263066768646]], [[0.2244577705860138]], [[-0.12718555331230164]], [[-0.4383448660373688]], [[0.12556596100330353]], [[0.18747636675834656]], [[-0.20557452738285065]], [[-0.3577507436275482]]], [[[0.1281737983226776]], [[0.1094573587179184]], [[0.17574048042297363]], [[-0.040509022772312164]], [[0.05296316742897034]], [[0.18875324726104736]], [[0.026041662320494652]], [[0.19841669499874115]], [[-0.13913290202617645]], [[-0.22861851751804352]], [[-0.1458202600479126]], [[0.16079239547252655]], [[-0.0048232125118374825]], [[-0.21018750965595245]], [[-0.09363383799791336]], [[-0.04397941753268242]], [[0.13588012754917145]], [[-0.1459423005580902]], [[0.20333844423294067]], [[0.31358611583709717]], [[0.19174596667289734]], [[0.019854681566357613]], [[-0.06478402763605118]], [[-0.23272232711315155]], [[0.025360088795423508]], [[-0.045760102570056915]], [[0.16419723629951477]], [[-0.06515450030565262]], [[0.3787806034088135]], [[0.20203687250614166]], [[-0.050638068467378616]], [[0.05372043326497078]], [[0.20301349461078644]], [[-0.09897173196077347]], [[0.20357638597488403]], [[-0.18173536658287048]], [[-0.15458627045154572]], [[0.36509227752685547]], [[0.3191104531288147]], [[-0.10043264925479889]], [[0.35128194093704224]], [[0.4126426875591278]], [[0.0977872908115387]], [[0.05903451517224312]], [[0.19872848689556122]], [[-0.1784275323152542]], [[0.36339855194091797]], [[0.3602825701236725]]], [[[-0.14824169874191284]], [[0.2556578814983368]], [[0.08753568679094315]], [[-0.12694713473320007]], [[0.059180621057748795]], [[0.21368153393268585]], [[-0.08140287548303604]], [[-0.04786256328225136]], [[0.07080182433128357]], [[0.050755951553583145]], [[0.1875167042016983]], [[-0.01903049647808075]], [[0.19399845600128174]], [[-0.22821329534053802]], [[-0.33406707644462585]], [[0.05480734258890152]], [[-0.20982447266578674]], [[-0.045809634029865265]], [[-0.2438265085220337]], [[-0.025945190340280533]], [[-0.4449063241481781]], [[-0.08259367197751999]], [[-0.014248929917812347]], [[-0.013189221732318401]], [[-0.0005591218359768391]], [[-0.011268114671111107]], [[0.04464151710271835]], [[0.05425853282213211]], [[-0.12136848270893097]], [[0.0001303696190007031]], [[-0.15956100821495056]], [[-0.09010473638772964]], [[0.006409331224858761]], [[-0.0778198391199112]], [[-0.4322018325328827]], [[0.002985517494380474]], [[-0.1848883181810379]], [[0.4074769616127014]], [[-0.20137783885002136]], [[-0.022022226825356483]], [[0.16362296044826508]], [[-0.5006083846092224]], [[0.0511939562857151]], [[-0.19265437126159668]], [[0.1402609646320343]], [[-0.15811479091644287]], [[0.15160363912582397]], [[-0.3491833209991455]]], [[[-0.23973506689071655]], [[-0.0570959635078907]], [[-0.0013435089495033026]], [[-0.16344662010669708]], [[-0.22681808471679688]], [[0.06802260875701904]], [[-0.05528424307703972]], [[-0.10596262663602829]], [[-0.1192854791879654]], [[-0.14373551309108734]], [[-0.5457144975662231]], [[-0.02919083647429943]], [[0.012310324236750603]], [[-0.11516185849905014]], [[0.10249731689691544]], [[-0.08101315051317215]], [[-0.3101779520511627]], [[-0.02423172816634178]], [[0.1708856225013733]], [[0.43734386563301086]], [[-0.057757098227739334]], [[-0.0448496975004673]], [[0.12494149059057236]], [[0.05347505211830139]], [[0.13488264381885529]], [[-0.1693800389766693]], [[0.021662672981619835]], [[-0.12662528455257416]], [[0.09113544225692749]], [[-0.20723751187324524]], [[0.1590525358915329]], [[-0.12234684079885483]], [[-0.26631960272789]], [[-0.19970166683197021]], [[-0.2958205044269562]], [[0.1743130087852478]], [[0.218953475356102]], [[-0.30602163076400757]], [[-0.06064682453870773]], [[-0.012971681542694569]], [[0.09897419810295105]], [[0.14426705241203308]], [[-0.008994566276669502]], [[0.4160309135913849]], [[-0.12313980609178543]], [[-0.13264694809913635]], [[0.2381368726491928]], [[0.18992698192596436]]], [[[-0.1677953153848648]], [[0.22141513228416443]], [[0.5901537537574768]], [[-0.30486494302749634]], [[0.06770716607570648]], [[-0.10156174004077911]], [[-0.22695407271385193]], [[0.08226045221090317]], [[0.3815895617008209]], [[-0.18165595829486847]], [[-0.009393855929374695]], [[-0.11226324737071991]], [[0.06038489565253258]], [[0.011791600845754147]], [[-0.18250390887260437]], [[0.018091829493641853]], [[0.08731269836425781]], [[0.007006378844380379]], [[-0.0871247798204422]], [[0.30319729447364807]], [[0.07242885231971741]], [[0.1402953565120697]], [[0.20426571369171143]], [[-0.12957274913787842]], [[0.07540564239025116]], [[-0.01168941892683506]], [[0.03405660763382912]], [[0.11105228960514069]], [[0.07599518448114395]], [[0.008252477273344994]], [[0.18561862409114838]], [[0.28219518065452576]], [[-0.032755035907030106]], [[0.020070279017090797]], [[0.08239255845546722]], [[-0.08129329234361649]], [[0.019452469423413277]], [[0.06262210011482239]], [[0.15563274919986725]], [[0.16987143456935883]], [[0.1732071042060852]], [[-0.17624923586845398]], [[0.05742397531867027]], [[-0.14198417961597443]], [[-0.04232141003012657]], [[-0.06391178071498871]], [[0.12503334879875183]], [[-0.04051116108894348]]], [[[0.07034861296415329]], [[0.07447351515293121]], [[0.0281690564006567]], [[0.08462470024824142]], [[0.18654881417751312]], [[-0.17003433406352997]], [[0.03537127003073692]], [[0.15688911080360413]], [[0.11457309871912003]], [[-0.17316240072250366]], [[0.04603907838463783]], [[0.33509185910224915]], [[-0.149484783411026]], [[0.17843566834926605]], [[0.5815255641937256]], [[-0.2360519915819168]], [[0.26079097390174866]], [[0.15187691152095795]], [[0.03260102495551109]], [[0.19829751551151276]], [[0.12474488466978073]], [[0.08986406773328781]], [[-0.0133338812738657]], [[0.5016841292381287]], [[-0.16169695556163788]], [[0.04397432506084442]], [[0.02637936733663082]], [[-0.01663951389491558]], [[0.4120940864086151]], [[0.4283749461174011]], [[0.042225711047649384]], [[0.3034377992153168]], [[0.08883323520421982]], [[-0.03191540390253067]], [[0.0047633289359509945]], [[0.08808362483978271]], [[0.02552597038447857]], [[-0.03882918134331703]], [[-0.15867505967617035]], [[-0.09795140475034714]], [[0.16358742117881775]], [[0.28081828355789185]], [[-0.02687448263168335]], [[-0.20891281962394714]], [[-0.48857882618904114]], [[-0.13648304343223572]], [[-0.2815723121166229]], [[-0.3544328510761261]]], [[[0.027145301923155785]], [[-0.17417390644550323]], [[0.1637927144765854]], [[-0.2901257872581482]], [[-0.005553308874368668]], [[-0.09852582961320877]], [[-0.060091204941272736]], [[0.0219238493591547]], [[0.1022597998380661]], [[-0.14661698043346405]], [[-0.02235516346991062]], [[-0.2538810074329376]], [[-0.26429784297943115]], [[0.06730423122644424]], [[-0.05539300665259361]], [[-0.18244631588459015]], [[-0.053999438881874084]], [[-0.4323200583457947]], [[-0.15212750434875488]], [[0.1421002745628357]], [[0.07269763946533203]], [[-0.1320798397064209]], [[0.21280181407928467]], [[-0.03003963641822338]], [[-0.19341585040092468]], [[0.2830364406108856]], [[-0.2469913214445114]], [[-0.13886871933937073]], [[-0.03536336123943329]], [[-0.13346800208091736]], [[-0.0324803926050663]], [[-0.045407485216856]], [[-0.08848339319229126]], [[-0.16157159209251404]], [[0.2593105435371399]], [[-0.20507507026195526]], [[-0.06458286941051483]], [[0.11309578269720078]], [[-0.12102171033620834]], [[-0.18451961874961853]], [[0.037839051336050034]], [[-0.4500122666358948]], [[0.09691151976585388]], [[0.12061654776334763]], [[0.10139387100934982]], [[0.057893622666597366]], [[0.16795437037944794]], [[0.09426230192184448]]], [[[-0.3390379548072815]], [[-0.1144973635673523]], [[0.29285886883735657]], [[-0.5337890982627869]], [[-0.02727493830025196]], [[0.2303401529788971]], [[-0.12319682538509369]], [[0.005945953074842691]], [[0.19094720482826233]], [[0.29180270433425903]], [[0.008824551478028297]], [[0.062470048666000366]], [[-0.0676606222987175]], [[0.09938555955886841]], [[0.23598292469978333]], [[-0.2536661624908447]], [[-0.144269198179245]], [[0.008647821843624115]], [[-0.09596307575702667]], [[0.007873915135860443]], [[0.09855882078409195]], [[0.06496825069189072]], [[-0.0871393010020256]], [[0.027226582169532776]], [[-0.13160476088523865]], [[-0.10181458294391632]], [[-0.10479845851659775]], [[0.00533486669883132]], [[0.006390699651092291]], [[-0.09067752957344055]], [[-0.019181733950972557]], [[-0.03588159754872322]], [[0.08951927721500397]], [[-0.037529878318309784]], [[-0.10204986482858658]], [[-0.06462372839450836]], [[0.10980212688446045]], [[-0.103671133518219]], [[0.2237633913755417]], [[-0.18169768154621124]], [[0.14626434445381165]], [[-0.10479561239480972]], [[0.0204166192561388]], [[-0.30347761511802673]], [[-0.051005613058805466]], [[0.29226428270339966]], [[-0.07771994918584824]], [[0.15408551692962646]]], [[[-0.0322110578417778]], [[0.12077951431274414]], [[-0.07564344257116318]], [[-0.20471414923667908]], [[0.08350474387407303]], [[-0.2852655351161957]], [[-0.07964137196540833]], [[-0.08598373085260391]], [[-0.15054570138454437]], [[-0.2768551707267761]], [[-0.4175229072570801]], [[-0.12465373426675797]], [[0.06062650680541992]], [[-0.12818552553653717]], [[0.045898307114839554]], [[0.09139014035463333]], [[-0.32393679022789]], [[0.12541384994983673]], [[0.07231315225362778]], [[-0.2799549400806427]], [[0.1238066777586937]], [[0.14451923966407776]], [[-0.2524241805076599]], [[-0.2676529884338379]], [[0.12802976369857788]], [[-0.36229845881462097]], [[-0.1743076592683792]], [[-0.12168174982070923]], [[-0.2916441857814789]], [[-0.2613118290901184]], [[-0.1272326558828354]], [[-0.1571657508611679]], [[-0.2987098693847656]], [[-0.14451120793819427]], [[-0.10067792981863022]], [[-0.1612221896648407]], [[-0.17995944619178772]], [[-0.2709810137748718]], [[-0.2735448181629181]], [[-0.07139725238084793]], [[-0.6352005004882812]], [[0.08310718089342117]], [[-0.07634108513593674]], [[-0.3245495557785034]], [[0.062319912016391754]], [[-0.04667780548334122]], [[-0.17736639082431793]], [[0.053062714636325836]]], [[[-0.3664465844631195]], [[0.4313868284225464]], [[-0.4305294454097748]], [[-0.4023074805736542]], [[0.22714799642562866]], [[-0.28983837366104126]], [[-0.2874249815940857]], [[0.4654797911643982]], [[-0.35631638765335083]], [[-0.3832351863384247]], [[0.4066864550113678]], [[-0.1845816820859909]], [[0.06992805004119873]], [[0.23814620077610016]], [[0.041548289358615875]], [[0.002840273780748248]], [[-0.20757609605789185]], [[0.20155207812786102]], [[-0.07706553488969803]], [[0.23988576233386993]], [[0.17100945115089417]], [[-0.1261604279279709]], [[-0.1622788906097412]], [[-0.23669156432151794]], [[-0.06559914350509644]], [[-0.312265545129776]], [[-0.24481020867824554]], [[0.10933855921030045]], [[-0.008102538995444775]], [[-0.23012560606002808]], [[0.02645878866314888]], [[0.2429683357477188]], [[-0.07252921164035797]], [[0.08217328786849976]], [[-0.47104910016059875]], [[-0.01178921852260828]], [[0.025279918685555458]], [[0.12749384343624115]], [[-0.16952329874038696]], [[0.12545795738697052]], [[0.29643961787223816]], [[-0.31882157921791077]], [[0.1463172435760498]], [[-0.07012020796537399]], [[0.26594996452331543]], [[0.0908733382821083]], [[-0.19423727691173553]], [[-0.0538712739944458]]], [[[0.14617669582366943]], [[0.06538943201303482]], [[0.10865447670221329]], [[0.08405354619026184]], [[0.0437922477722168]], [[-0.010540520772337914]], [[-0.12568505108356476]], [[0.10914062708616257]], [[0.0545448400080204]], [[-0.14708703756332397]], [[-0.03694908693432808]], [[0.07805673778057098]], [[0.154490664601326]], [[-0.47739824652671814]], [[0.6052756309509277]], [[-0.20095700025558472]], [[0.023265276104211807]], [[-0.11406826227903366]], [[-0.14886461198329926]], [[-0.2747468650341034]], [[-0.1795368641614914]], [[0.13062834739685059]], [[-0.1413079798221588]], [[-0.10653384029865265]], [[0.1889892816543579]], [[-0.19092965126037598]], [[-0.19900451600551605]], [[-0.20440518856048584]], [[-0.014496546238660812]], [[0.09165418148040771]], [[0.01193554699420929]], [[0.003487370442599058]], [[0.10084573924541473]], [[-0.12370401620864868]], [[-0.2605993449687958]], [[-0.18105480074882507]], [[0.251431405544281]], [[0.5001153349876404]], [[0.018972890451550484]], [[-0.07578764855861664]], [[0.030680835247039795]], [[-0.16586150228977203]], [[0.2883996367454529]], [[-0.2293192595243454]], [[-0.09567563980817795]], [[0.07963430136442184]], [[0.06997562199831009]], [[0.09527655690908432]]], [[[-0.10922828316688538]], [[-0.07447699457406998]], [[0.24595443904399872]], [[-0.02453191764652729]], [[0.10264189541339874]], [[0.03851976990699768]], [[0.0016585929552093148]], [[0.0020369512494653463]], [[0.13566072285175323]], [[-0.04406232386827469]], [[0.17406196892261505]], [[-0.2656485140323639]], [[-0.09667287766933441]], [[0.06706467270851135]], [[-0.16361986100673676]], [[0.03721269220113754]], [[-0.03322727233171463]], [[-0.32132041454315186]], [[-0.06051226705312729]], [[-0.06790332496166229]], [[-0.2153424471616745]], [[-0.1648251712322235]], [[0.15368804335594177]], [[-0.20855183899402618]], [[-0.10288317501544952]], [[0.4780538082122803]], [[0.08237617462873459]], [[-0.2582685351371765]], [[0.27793705463409424]], [[-0.02563466690480709]], [[-0.13132551312446594]], [[-0.12917013466358185]], [[0.052257146686315536]], [[-0.22331571578979492]], [[0.17171503603458405]], [[-0.17104686796665192]], [[-0.0036905945744365454]], [[0.008623635396361351]], [[-0.47785288095474243]], [[0.021361714228987694]], [[0.12440495938062668]], [[-0.44126269221305847]], [[-0.0787835642695427]], [[0.5945583581924438]], [[0.08323422819375992]], [[0.014692375436425209]], [[0.06960271298885345]], [[-0.10397771000862122]]], [[[-0.10572174936532974]], [[-0.047235678881406784]], [[0.007865882478654385]], [[-0.10838469117879868]], [[0.04014253616333008]], [[-0.00552337197586894]], [[-0.09609034657478333]], [[-0.02396554872393608]], [[-0.0994739681482315]], [[-0.2842211425304413]], [[0.14094138145446777]], [[-0.01380265410989523]], [[-0.17584839463233948]], [[-0.07240109890699387]], [[-0.0010236967355012894]], [[-0.4245952367782593]], [[-0.3146332800388336]], [[-0.26830151677131653]], [[0.04409748315811157]], [[-0.2155267894268036]], [[0.49770447611808777]], [[-0.13184776902198792]], [[-0.35302138328552246]], [[0.30906158685684204]], [[-0.06950723379850388]], [[0.1922408640384674]], [[-0.38735055923461914]], [[-0.15035781264305115]], [[-0.06914865970611572]], [[-0.15050475299358368]], [[-0.2083500623703003]], [[-0.42418771982192993]], [[0.24706624448299408]], [[-0.16050106287002563]], [[-0.06566748023033142]], [[0.0017482787370681763]], [[-0.08803912252187729]], [[-0.21949484944343567]], [[-0.17289942502975464]], [[0.14193610846996307]], [[-0.023647883906960487]], [[-0.32900840044021606]], [[0.21579371392726898]], [[0.4712841510772705]], [[0.06312962621450424]], [[0.22672046720981598]], [[-0.1908196359872818]], [[0.025254637002944946]]], [[[0.4799392521381378]], [[-0.1116735115647316]], [[-0.2986235022544861]], [[-0.2903289794921875]], [[0.2160259634256363]], [[0.16760917007923126]], [[0.37186166644096375]], [[-0.11368701606988907]], [[0.030427860096096992]], [[-0.18429650366306305]], [[-0.029984811320900917]], [[-0.01828804612159729]], [[0.15273542702198029]], [[0.004690486006438732]], [[0.14119061827659607]], [[0.007152675185352564]], [[0.10505872219800949]], [[0.08465459197759628]], [[0.13523578643798828]], [[-0.16487103700637817]], [[0.03937723487615585]], [[-0.20461620390415192]], [[-0.20708593726158142]], [[0.10839361697435379]], [[0.18900392949581146]], [[0.06772633641958237]], [[-0.15675882995128632]], [[0.03198542445898056]], [[-0.07514303922653198]], [[-0.2596419155597687]], [[0.0873766839504242]], [[-0.18676941096782684]], [[-0.23993787169456482]], [[0.08623633533716202]], [[0.191506028175354]], [[0.12967905402183533]], [[0.16231973469257355]], [[0.2552720308303833]], [[-0.016997648403048515]], [[0.15465356409549713]], [[-0.051239628344774246]], [[-0.23460638523101807]], [[-0.07333803176879883]], [[-0.19428369402885437]], [[0.0639575868844986]], [[-0.01658879593014717]], [[0.13564550876617432]], [[0.10611613839864731]]], [[[-0.15435589849948883]], [[0.21938133239746094]], [[-0.08264663070440292]], [[-0.09748482704162598]], [[-0.038635171949863434]], [[-0.019187966361641884]], [[-0.10807037353515625]], [[0.15090450644493103]], [[-0.07853062450885773]], [[0.07753735035657883]], [[0.13125984370708466]], [[-0.08451539278030396]], [[0.045885827392339706]], [[-0.062017496675252914]], [[0.03881973773241043]], [[0.0246114544570446]], [[0.4518762230873108]], [[0.1523030698299408]], [[-0.32398438453674316]], [[0.2506062388420105]], [[-0.3682771623134613]], [[-0.1583958864212036]], [[0.34826868772506714]], [[-0.21561431884765625]], [[-0.10964661091566086]], [[0.06510253250598907]], [[0.21017234027385712]], [[-0.026338564231991768]], [[0.21351109445095062]], [[0.30250874161720276]], [[0.03341212496161461]], [[0.2772296369075775]], [[0.12933383882045746]], [[-0.1544809192419052]], [[-0.20800535380840302]], [[0.308898001909256]], [[-0.03611411526799202]], [[0.3161987364292145]], [[0.15762954950332642]], [[-0.025607289746403694]], [[0.1686815321445465]], [[0.23051759600639343]], [[-0.04323505982756615]], [[-0.13600774109363556]], [[0.11931368708610535]], [[-0.0956580862402916]], [[0.11126036942005157]], [[0.1900123506784439]]], [[[0.057026296854019165]], [[-0.09637179225683212]], [[-0.01544420886784792]], [[0.12744562327861786]], [[0.19032049179077148]], [[0.1409754604101181]], [[0.01176097895950079]], [[0.08681119233369827]], [[0.031205620616674423]], [[-0.12655751407146454]], [[-0.01945866458117962]], [[0.41655150055885315]], [[-0.1599457859992981]], [[0.08649582415819168]], [[0.19698557257652283]], [[0.04659687727689743]], [[-0.28815966844558716]], [[-0.2745862901210785]], [[0.09975256025791168]], [[-0.042271871119737625]], [[0.12547613680362701]], [[-0.15295326709747314]], [[-0.2340327948331833]], [[0.140907421708107]], [[-0.03705114126205444]], [[-0.07755618542432785]], [[-0.13888637721538544]], [[-0.10411124676465988]], [[-0.015748633071780205]], [[-0.30587440729141235]], [[0.024167418479919434]], [[-0.23087799549102783]], [[-0.25028303265571594]], [[-0.10392318665981293]], [[-0.046243973076343536]], [[-0.3062729239463806]], [[0.08532296121120453]], [[-0.09796245396137238]], [[0.20133695006370544]], [[0.09208701550960541]], [[-0.2626541554927826]], [[-0.14398358762264252]], [[0.022493399679660797]], [[-0.17344090342521667]], [[-0.2382718324661255]], [[0.0481344573199749]], [[0.31016841530799866]], [[0.04245931655168533]]], [[[-0.13993526995182037]], [[0.020579325035214424]], [[0.07681900262832642]], [[0.14731472730636597]], [[0.13543200492858887]], [[0.03606486693024635]], [[0.06226348504424095]], [[0.038573190569877625]], [[0.11280606687068939]], [[-0.16155241429805756]], [[-0.040483929216861725]], [[-0.42771047353744507]], [[-0.057034432888031006]], [[0.048834946006536484]], [[0.009271866641938686]], [[0.18988549709320068]], [[0.00683320127427578]], [[0.150807723402977]], [[0.01385237742215395]], [[0.04226097837090492]], [[-0.013531477190554142]], [[0.15268638730049133]], [[0.19419093430042267]], [[0.30314332246780396]], [[-0.049995873123407364]], [[-0.1265469491481781]], [[-0.024482151493430138]], [[-0.11144882440567017]], [[-0.13517314195632935]], [[0.14831216633319855]], [[0.0868971049785614]], [[-0.085348941385746]], [[0.033721692860126495]], [[0.11291155219078064]], [[-0.22817568480968475]], [[0.15328215062618256]], [[0.02897573821246624]], [[0.1587500125169754]], [[0.023849938064813614]], [[0.28327083587646484]], [[0.2432851642370224]], [[0.2488505244255066]], [[0.013072622008621693]], [[-0.08231531828641891]], [[-0.15874505043029785]], [[-0.06267116963863373]], [[0.45569902658462524]], [[-0.3735659420490265]]], [[[-0.2630341053009033]], [[-0.03353823348879814]], [[-0.04461268335580826]], [[0.004008980467915535]], [[0.061935581266880035]], [[0.1562776118516922]], [[-0.2463926374912262]], [[0.03631970286369324]], [[-0.10469914227724075]], [[-0.0922459214925766]], [[0.009165451861917973]], [[0.015068789012730122]], [[0.1097702831029892]], [[0.01995518058538437]], [[-0.08497358113527298]], [[0.08488894253969193]], [[0.051539406180381775]], [[-0.18111401796340942]], [[0.06222114339470863]], [[0.4698908030986786]], [[0.22048409283161163]], [[-0.03941118344664574]], [[-0.30021563172340393]], [[0.017467398196458817]], [[0.1109081506729126]], [[0.18627846240997314]], [[-0.09726197272539139]], [[-0.2328396737575531]], [[0.19748236238956451]], [[-0.1886599212884903]], [[0.11307910084724426]], [[-0.012461187317967415]], [[0.038972388952970505]], [[0.03647306188941002]], [[-0.11263476312160492]], [[-0.1369529664516449]], [[-0.358020544052124]], [[0.770535409450531]], [[0.20649898052215576]], [[0.044136542826890945]], [[0.18209902942180634]], [[-0.253826767206192]], [[0.011707624420523643]], [[-0.0026568209286779165]], [[0.1362648755311966]], [[0.1750229001045227]], [[0.3422667980194092]], [[0.027518058195710182]]], [[[-0.11985282599925995]], [[-0.01952546276152134]], [[-0.1307334452867508]], [[-0.10574811697006226]], [[0.07381106913089752]], [[-0.22607111930847168]], [[-0.1748618185520172]], [[-0.022583352401852608]], [[-0.10310722887516022]], [[-0.13948509097099304]], [[-0.1023959293961525]], [[-0.3765445649623871]], [[0.18826083838939667]], [[0.05956340208649635]], [[0.12286479771137238]], [[-0.16683363914489746]], [[-0.2054237574338913]], [[0.196508526802063]], [[-0.07139502465724945]], [[0.6520482897758484]], [[0.13596147298812866]], [[-0.028699062764644623]], [[-0.18715040385723114]], [[-0.09396196156740189]], [[-0.07537457346916199]], [[-0.050612445920705795]], [[0.16927263140678406]], [[0.006245105527341366]], [[-0.22120030224323273]], [[0.09987352788448334]], [[-0.09366375207901001]], [[-0.16698653995990753]], [[-0.293911874294281]], [[-0.15643157064914703]], [[-0.05863843858242035]], [[-0.2433917373418808]], [[-0.1348276436328888]], [[-0.43338435888290405]], [[0.07978403568267822]], [[-0.1880761981010437]], [[0.4997830092906952]], [[0.292732834815979]], [[0.23539409041404724]], [[0.20834766328334808]], [[0.1817076951265335]], [[0.1383056491613388]], [[0.12013307958841324]], [[0.23048356175422668]]], [[[-0.12003251910209656]], [[-0.08782836049795151]], [[-0.12271739542484283]], [[0.10498663038015366]], [[-0.19605159759521484]], [[0.11406396329402924]], [[-0.060720045119524]], [[-0.03367746248841286]], [[-0.1167696937918663]], [[0.1124161034822464]], [[-0.5644416809082031]], [[-0.31791675090789795]], [[0.15025445818901062]], [[-0.23672190308570862]], [[0.06789969652891159]], [[-0.07998919486999512]], [[-0.14272311329841614]], [[0.1666744500398636]], [[-0.17472541332244873]], [[0.21493114531040192]], [[-0.11092782765626907]], [[0.046733785420656204]], [[0.042128026485443115]], [[-0.04542122781276703]], [[0.018854673951864243]], [[0.038295019418001175]], [[-0.10271096974611282]], [[0.019239451736211777]], [[0.22021779417991638]], [[-0.42500585317611694]], [[-0.009629635140299797]], [[-0.13688135147094727]], [[0.03594200313091278]], [[-0.1226930245757103]], [[0.03549788147211075]], [[-0.22776199877262115]], [[0.047168854624032974]], [[0.13530784845352173]], [[-0.34119096398353577]], [[0.03325963020324707]], [[0.13507984578609467]], [[0.08744561672210693]], [[0.07717858254909515]], [[0.6576595306396484]], [[0.2563059628009796]], [[-0.13210159540176392]], [[0.11036726832389832]], [[-0.0939515009522438]]], [[[-0.3288614749908447]], [[-0.13867884874343872]], [[0.02815886028110981]], [[-0.11527184396982193]], [[-0.025039179250597954]], [[0.09698130190372467]], [[-0.1499958336353302]], [[-0.06204982474446297]], [[0.16862644255161285]], [[0.045287493616342545]], [[0.08949439972639084]], [[-0.06741021573543549]], [[-0.1656912863254547]], [[-0.0794137641787529]], [[0.28891921043395996]], [[0.026243984699249268]], [[0.12335636466741562]], [[0.05041613057255745]], [[0.18576747179031372]], [[-0.1254974752664566]], [[-0.08694115281105042]], [[0.1167546883225441]], [[-0.18433012068271637]], [[-0.091062031686306]], [[0.03197325021028519]], [[0.024463199079036713]], [[-0.17553628981113434]], [[-0.035559311509132385]], [[0.009034810587763786]], [[-0.05995650216937065]], [[-0.07203744351863861]], [[0.015464234165847301]], [[-0.08089614659547806]], [[0.019970310851931572]], [[-0.29404109716415405]], [[-0.25979283452033997]], [[0.0801360011100769]], [[-0.08974094688892365]], [[-0.09839417040348053]], [[-0.04777956008911133]], [[0.26162245869636536]], [[0.2150987833738327]], [[-0.2641233205795288]], [[-0.318351149559021]], [[-0.2684018313884735]], [[0.06085161864757538]], [[-0.12634292244911194]], [[0.040687307715415955]]], [[[-0.26675909757614136]], [[0.13355562090873718]], [[-0.5864802598953247]], [[-0.2938726246356964]], [[-0.07352925091981888]], [[-0.4085462689399719]], [[-0.1729368269443512]], [[-0.05270225554704666]], [[-0.2642723619937897]], [[0.14219556748867035]], [[0.21416553854942322]], [[-0.1661970168352127]], [[-0.08422455936670303]], [[0.07577908784151077]], [[-0.17333251237869263]], [[-0.036346301436424255]], [[-0.26541370153427124]], [[0.18095332384109497]], [[-0.0007714721723459661]], [[0.23034025728702545]], [[0.05049258470535278]], [[-0.12996309995651245]], [[-0.325662225484848]], [[0.08353549242019653]], [[-0.24044926464557648]], [[0.05578653886914253]], [[0.09166361391544342]], [[0.06093987450003624]], [[-0.24063599109649658]], [[0.2590590715408325]], [[0.04295045882463455]], [[-0.04499213024973869]], [[-0.2619563043117523]], [[-0.029986398294568062]], [[0.04556688293814659]], [[0.2513679265975952]], [[-0.11716031283140182]], [[-0.0729440376162529]], [[-0.07684966921806335]], [[0.035235073417425156]], [[0.21462894976139069]], [[0.09662780165672302]], [[-0.1344003826379776]], [[0.3273831307888031]], [[-0.005370443686842918]], [[0.04185367375612259]], [[0.11695171147584915]], [[-0.2335871309041977]]], [[[-0.026296252384781837]], [[0.43799474835395813]], [[-0.008945321664214134]], [[-0.13047197461128235]], [[0.21505390107631683]], [[0.028609683737158775]], [[-0.0013074353337287903]], [[0.35538992285728455]], [[-0.07329094409942627]], [[0.036242105066776276]], [[0.4948860704898834]], [[-0.2703457772731781]], [[0.06960096955299377]], [[0.20776724815368652]], [[-0.21945038437843323]], [[0.10500336438417435]], [[-0.17313960194587708]], [[-0.10448259860277176]], [[0.023384464904665947]], [[0.21911980211734772]], [[0.039077114313840866]], [[0.1892034113407135]], [[-0.11903150379657745]], [[0.0018372349441051483]], [[0.00996739137917757]], [[0.1925046592950821]], [[-0.26391470432281494]], [[-0.20061802864074707]], [[0.11304435133934021]], [[-0.1651553511619568]], [[0.044334154576063156]], [[-0.05220141261816025]], [[-0.015510646626353264]], [[-0.2527931034564972]], [[-0.08317510783672333]], [[-0.2757861912250519]], [[-0.0640687569975853]], [[0.4831148684024811]], [[-0.015399821102619171]], [[0.0716131180524826]], [[0.15847812592983246]], [[0.12759444117546082]], [[-0.10439433157444]], [[0.49203750491142273]], [[0.19106829166412354]], [[0.09576503187417984]], [[0.33727312088012695]], [[-0.5651736259460449]]], [[[-0.023151159286499023]], [[0.16734863817691803]], [[0.39216336607933044]], [[-0.11061277985572815]], [[-0.06820835918188095]], [[0.1303282082080841]], [[0.07394703477621078]], [[0.13855290412902832]], [[0.23001128435134888]], [[0.037154074758291245]], [[0.03472920134663582]], [[0.04380346089601517]], [[0.06117744743824005]], [[0.07606113702058792]], [[0.06554143130779266]], [[0.20088551938533783]], [[0.2932283282279968]], [[-0.033520326018333435]], [[-0.24427205324172974]], [[-0.013669555075466633]], [[-0.29164978861808777]], [[0.11747714132070541]], [[-0.006918479222804308]], [[-0.2443450391292572]], [[-0.08037649095058441]], [[-0.03332909569144249]], [[0.4708329439163208]], [[-0.14889220893383026]], [[-0.2734261751174927]], [[0.18920935690402985]], [[-0.007693128660321236]], [[0.22101059556007385]], [[0.09795999526977539]], [[-0.11937412619590759]], [[-0.04799627140164375]], [[-0.1394340693950653]], [[-0.358441561460495]], [[-0.10677935183048248]], [[0.052659641951322556]], [[0.0612863264977932]], [[-0.03986096754670143]], [[0.18931002914905548]], [[-0.005639559123665094]], [[-0.21720221638679504]], [[0.33485978841781616]], [[-0.31654173135757446]], [[0.03414158150553703]], [[0.0674094557762146]]], [[[0.07128877192735672]], [[-0.12643051147460938]], [[-0.06964650005102158]], [[-0.032868776470422745]], [[-0.03153836354613304]], [[-0.02637369930744171]], [[-0.03266995772719383]], [[-0.058691609650850296]], [[0.04649074003100395]], [[0.09086619317531586]], [[0.003102055983617902]], [[0.2737903594970703]], [[0.23361457884311676]], [[-0.12224075198173523]], [[0.27010464668273926]], [[0.055066607892513275]], [[-0.1978132426738739]], [[-0.15918514132499695]], [[-0.2891065776348114]], [[-0.10929947346448898]], [[0.2779030501842499]], [[0.08555156737565994]], [[-0.11610002815723419]], [[0.3306507468223572]], [[-0.10481299459934235]], [[0.27779531478881836]], [[-0.38819748163223267]], [[-0.05054004490375519]], [[0.3249937891960144]], [[-0.16193458437919617]], [[-0.1893947869539261]], [[-0.14871245622634888]], [[-0.17989976704120636]], [[-0.2510722875595093]], [[-0.01703578419983387]], [[0.12419519573450089]], [[-0.03128932788968086]], [[0.2845587134361267]], [[-0.09606065601110458]], [[-0.11701256036758423]], [[-0.060108479112386703]], [[-0.05043160170316696]], [[-0.006389285903424025]], [[0.23460745811462402]], [[-0.021765053272247314]], [[-0.043778326362371445]], [[-0.08485909551382065]], [[-0.13266518712043762]]], [[[-0.39837950468063354]], [[-0.28392016887664795]], [[0.026379957795143127]], [[-0.29464444518089294]], [[0.2913856506347656]], [[-0.15050874650478363]], [[0.7330177426338196]], [[0.07218500226736069]], [[0.13333506882190704]], [[0.10679499059915543]], [[-0.012303630821406841]], [[0.04979569837450981]], [[0.08866936713457108]], [[-0.0342581532895565]], [[0.18277591466903687]], [[-0.07847882807254791]], [[0.09148252010345459]], [[-0.10608968138694763]], [[0.028436711058020592]], [[-0.06777463108301163]], [[-0.18939383327960968]], [[-0.12587669491767883]], [[-0.05538175255060196]], [[-0.10630852729082108]], [[0.03139274939894676]], [[-0.005692855920642614]], [[0.02314833551645279]], [[0.05829856917262077]], [[0.17962557077407837]], [[-0.07904887944459915]], [[0.04804607853293419]], [[-0.08982093632221222]], [[-0.05835555121302605]], [[-0.08619373291730881]], [[-0.1214698925614357]], [[0.004207684192806482]], [[0.07737613469362259]], [[0.13924142718315125]], [[-0.08910296857357025]], [[-0.029085500165820122]], [[0.13224177062511444]], [[-0.10065222531557083]], [[0.009321735240519047]], [[0.07072576135396957]], [[-0.0374225378036499]], [[0.03195159509778023]], [[-0.04082687571644783]], [[0.09122499823570251]]], [[[0.18735790252685547]], [[-0.09135487675666809]], [[-0.040843553841114044]], [[0.19518066942691803]], [[0.03237110376358032]], [[0.04438064619898796]], [[0.16920563578605652]], [[0.061677392572164536]], [[0.006435744930058718]], [[-0.2804906666278839]], [[-0.038641635328531265]], [[0.0004625533474609256]], [[-0.03036039136350155]], [[-0.19150815904140472]], [[0.23202404379844666]], [[-0.05405423790216446]], [[-0.0528884083032608]], [[-0.006233706139028072]], [[0.2306956648826599]], [[0.12524788081645966]], [[-0.040830694139003754]], [[0.07197877019643784]], [[0.032521095126867294]], [[-0.14181484282016754]], [[-0.02791023999452591]], [[0.18652381002902985]], [[0.18961679935455322]], [[-0.007046968676149845]], [[0.07333134859800339]], [[-0.1642843782901764]], [[0.06415022164583206]], [[-0.05223298817873001]], [[0.2008742243051529]], [[-0.07352565973997116]], [[-0.25134962797164917]], [[-0.024291060864925385]], [[0.1326238512992859]], [[-0.3129582107067108]], [[-0.053365014493465424]], [[0.003582727164030075]], [[0.09340883791446686]], [[0.025275591760873795]], [[0.13984283804893494]], [[0.22287459671497345]], [[-0.05734042823314667]], [[-0.217491015791893]], [[0.019366871565580368]], [[-0.07696666568517685]]], [[[-0.40620654821395874]], [[-0.15603232383728027]], [[0.21495696902275085]], [[-0.14901970326900482]], [[-0.041009221225976944]], [[0.13906507194042206]], [[0.13500715792179108]], [[0.11825447529554367]], [[-0.057925716042518616]], [[0.2274198979139328]], [[0.4004189074039459]], [[-0.2378455251455307]], [[-0.06306502968072891]], [[0.19421714544296265]], [[-0.04258628934621811]], [[-0.08599808067083359]], [[0.03838612139225006]], [[0.41792696714401245]], [[0.25422340631484985]], [[-0.01583348587155342]], [[-0.25730812549591064]], [[0.10501372069120407]], [[-0.07423191517591476]], [[-0.12793666124343872]], [[0.08139976114034653]], [[0.03872114047408104]], [[0.07691720128059387]], [[-0.07243391871452332]], [[-0.2769187390804291]], [[-0.10733063519001007]], [[0.039485085755586624]], [[0.1110057532787323]], [[0.2057018131017685]], [[0.18438802659511566]], [[-0.15962207317352295]], [[-0.10262403637170792]], [[-0.03823080286383629]], [[-0.03807080537080765]], [[-0.16765184700489044]], [[0.1855219453573227]], [[-0.003111861413344741]], [[0.2887347936630249]], [[-0.14494627714157104]], [[0.08595260232686996]], [[0.03425487503409386]], [[-0.17770779132843018]], [[0.15522919595241547]], [[-0.20877663791179657]]], [[[0.019022731110453606]], [[-0.2161896675825119]], [[-0.11340783536434174]], [[-0.08599960803985596]], [[0.10510798543691635]], [[0.022094113752245903]], [[0.045880015939474106]], [[0.08301380276679993]], [[-0.07491355389356613]], [[-0.01642991416156292]], [[-0.075978122651577]], [[0.0768972635269165]], [[-0.15436191856861115]], [[0.22927214205265045]], [[-0.3975456655025482]], [[-0.09136500954627991]], [[0.5008739233016968]], [[-0.01922372542321682]], [[-0.25233057141304016]], [[0.24327526986598969]], [[0.6723663210868835]], [[0.02376103773713112]], [[-0.0700688436627388]], [[0.2643953263759613]], [[-0.07836441695690155]], [[-0.013813448138535023]], [[0.06654556840658188]], [[0.03535020351409912]], [[0.1968279331922531]], [[0.38439464569091797]], [[-0.036401569843292236]], [[0.24318145215511322]], [[0.21878279745578766]], [[-0.07222634553909302]], [[-0.06618203222751617]], [[0.01469609048217535]], [[-0.05943254381418228]], [[0.09246556460857391]], [[0.4872274696826935]], [[-0.24407950043678284]], [[-0.13867349922657013]], [[0.3205830454826355]], [[0.07126935571432114]], [[-0.3761722147464752]], [[-0.23576591908931732]], [[-0.03676293417811394]], [[-0.13306868076324463]], [[0.04742021858692169]]], [[[0.10423281043767929]], [[0.11404112726449966]], [[0.02470320649445057]], [[0.05042842775583267]], [[0.005780389532446861]], [[0.13036179542541504]], [[-0.10296623408794403]], [[-0.06529892981052399]], [[0.0446074940264225]], [[-0.0793251097202301]], [[-0.14164182543754578]], [[0.3968932330608368]], [[0.010593368671834469]], [[-0.09420877695083618]], [[0.18718716502189636]], [[-0.2537510097026825]], [[-0.2244408130645752]], [[0.37722048163414]], [[-0.1423499882221222]], [[-0.08221238106489182]], [[0.3397725820541382]], [[-0.21810446679592133]], [[-0.06158515438437462]], [[0.372030645608902]], [[0.12676842510700226]], [[0.16323281824588776]], [[0.128122940659523]], [[-0.14861702919006348]], [[0.021190473809838295]], [[0.3409155011177063]], [[-0.12065895646810532]], [[-0.21720178425312042]], [[0.4782884418964386]], [[0.003901706775650382]], [[-0.2505158483982086]], [[0.39251965284347534]], [[-0.08841974288225174]], [[-0.09138869494199753]], [[0.20755469799041748]], [[-0.13434797525405884]], [[-0.011416341178119183]], [[0.3132399618625641]], [[-0.003947381395846605]], [[-0.13921308517456055]], [[-0.254768043756485]], [[0.14781540632247925]], [[-0.21631410717964172]], [[-0.0022380466107279062]]], [[[-0.07042918354272842]], [[-0.04254451394081116]], [[0.022521154955029488]], [[0.05897236987948418]], [[-0.15182356536388397]], [[-0.05881104990839958]], [[0.0812213346362114]], [[-0.050888825207948685]], [[-0.23761296272277832]], [[-0.08941192924976349]], [[0.0813601091504097]], [[0.021239979192614555]], [[0.023932814598083496]], [[-0.3420916497707367]], [[0.3433361053466797]], [[0.062064189463853836]], [[0.1739739179611206]], [[0.022051455453038216]], [[-0.04682430624961853]], [[0.1606224924325943]], [[-0.34897708892822266]], [[0.22577323019504547]], [[-0.03837146610021591]], [[-0.26778730750083923]], [[0.0043757203966379166]], [[-0.3149243891239166]], [[0.5119819045066833]], [[-0.2749064564704895]], [[0.11192993074655533]], [[-0.19466055929660797]], [[-0.1042615994811058]], [[0.06492559611797333]], [[-0.3763313591480255]], [[-0.06797445565462112]], [[-0.1182684674859047]], [[-0.07567127794027328]], [[-0.1874142736196518]], [[0.17083241045475006]], [[0.40632694959640503]], [[-0.06505193561315536]], [[0.4580579996109009]], [[-0.09262938797473907]], [[-0.08141979575157166]], [[-0.549811840057373]], [[0.2581981122493744]], [[0.06946776062250137]], [[0.0027975724078714848]], [[0.4674471914768219]]], [[[0.2655458450317383]], [[0.027350716292858124]], [[-0.04924370348453522]], [[0.16707181930541992]], [[-0.05258961766958237]], [[0.14946208894252777]], [[-0.1764260232448578]], [[0.08984828740358353]], [[-0.0010233268840238452]], [[-0.4708858132362366]], [[-0.007260443177074194]], [[0.03672793507575989]], [[-0.16395597159862518]], [[0.10771709680557251]], [[-0.07240676134824753]], [[0.09143804013729095]], [[0.06998467445373535]], [[0.15393488109111786]], [[-0.3679165542125702]], [[-0.008495194837450981]], [[-0.03665709123015404]], [[-0.06069834902882576]], [[-0.09907216578722]], [[0.08556324988603592]], [[-0.0598062202334404]], [[0.3023153245449066]], [[-0.2472761571407318]], [[-0.08851578086614609]], [[0.08368773758411407]], [[-0.043546147644519806]], [[0.09379535913467407]], [[-0.024163106456398964]], [[0.09275473654270172]], [[0.14173844456672668]], [[0.012376115657389164]], [[-0.17972247302532196]], [[-0.06178878992795944]], [[0.13216155767440796]], [[0.08362232148647308]], [[-0.0340360589325428]], [[0.02745015360414982]], [[-0.10547409951686859]], [[0.008525591343641281]], [[-0.016766026616096497]], [[-0.11256512254476547]], [[-0.2905993163585663]], [[0.12946845591068268]], [[0.06434324383735657]]], [[[-0.5060852766036987]], [[0.275829017162323]], [[-0.15658119320869446]], [[-0.09930364042520523]], [[-0.6126803755760193]], [[-0.0416981503367424]], [[-0.21725113689899445]], [[0.1622159481048584]], [[-0.23072867095470428]], [[-0.31051766872406006]], [[0.08740831911563873]], [[0.1784186065196991]], [[-0.1922156810760498]], [[-0.2984360456466675]], [[-0.23701055347919464]], [[-0.1893615424633026]], [[-0.6926077008247375]], [[-0.15141890943050385]], [[0.041691552847623825]], [[-0.0745767205953598]], [[0.06313124299049377]], [[0.03789186850190163]], [[-0.0318283811211586]], [[0.08100026100873947]], [[0.046192869544029236]], [[-0.12885087728500366]], [[-0.23839032649993896]], [[-0.09829561412334442]], [[-0.19934797286987305]], [[-0.030600808560848236]], [[-0.014972550794482231]], [[0.04435201361775398]], [[-0.21327508985996246]], [[0.1485939621925354]], [[-0.02886832319200039]], [[-0.21252211928367615]], [[-0.02181493304669857]], [[0.22755080461502075]], [[0.3309277594089508]], [[-0.07377975434064865]], [[0.06299281120300293]], [[0.11063531786203384]], [[0.06409231573343277]], [[-0.03678088262677193]], [[-0.12138627469539642]], [[0.10164181888103485]], [[0.5017072558403015]], [[0.044567007571458817]]], [[[-0.321566104888916]], [[0.011270415037870407]], [[-0.13861402869224548]], [[0.2934412360191345]], [[0.25131186842918396]], [[0.10361755639314651]], [[0.13827848434448242]], [[0.128301739692688]], [[0.24412399530410767]], [[-0.16523957252502441]], [[-0.2711818516254425]], [[-0.24941879510879517]], [[-0.137224018573761]], [[0.009960547089576721]], [[0.22377850115299225]], [[-0.13574248552322388]], [[-0.17367218434810638]], [[-0.08269248157739639]], [[-0.047686029225587845]], [[-0.027233656495809555]], [[-0.18001128733158112]], [[-0.037196237593889236]], [[-0.1519118994474411]], [[-0.08942971378564835]], [[-0.17300854623317719]], [[-0.2295115441083908]], [[-0.020520001649856567]], [[0.025824835523962975]], [[-0.3145815134048462]], [[0.139757439494133]], [[0.08457382768392563]], [[-0.20932535827159882]], [[-0.1505143940448761]], [[-0.2836620509624481]], [[-0.15701261162757874]], [[0.002216277876868844]], [[-0.13715194165706635]], [[-0.3437575697898865]], [[0.16305439174175262]], [[-0.032537464052438736]], [[0.033780645579099655]], [[-0.011599191464483738]], [[-0.023062968626618385]], [[0.10789946466684341]], [[-0.10127626359462738]], [[-0.10566145181655884]], [[0.27696704864501953]], [[0.01261480525135994]]], [[[0.0955566018819809]], [[-0.058649759739637375]], [[-0.07869117707014084]], [[0.08699891716241837]], [[0.20706240832805634]], [[-0.015271020121872425]], [[0.141854390501976]], [[0.12924319505691528]], [[0.022160885855555534]], [[0.12361925840377808]], [[-0.07570089399814606]], [[0.4671868085861206]], [[0.0911182090640068]], [[-0.061044108122587204]], [[-0.04781901836395264]], [[0.003524537431076169]], [[0.261812299489975]], [[-0.01982276141643524]], [[-0.03155045956373215]], [[0.3707234561443329]], [[0.16571037471294403]], [[0.16491270065307617]], [[0.010589470155537128]], [[0.34558096528053284]], [[0.12249740958213806]], [[0.0018144039204344153]], [[0.12403130531311035]], [[-0.05409769341349602]], [[0.17458464205265045]], [[0.4176788628101349]], [[0.0598536841571331]], [[0.0949293002486229]], [[0.11436004191637039]], [[-0.06981046497821808]], [[0.04828972369432449]], [[0.39238855242729187]], [[0.06542935222387314]], [[-0.07383306324481964]], [[0.3345169126987457]], [[-0.01922639086842537]], [[0.1256835162639618]], [[0.048003870993852615]], [[0.08164114505052567]], [[-0.35177063941955566]], [[-0.0780576691031456]], [[-0.09170717746019363]], [[-0.21620911359786987]], [[0.06168917194008827]]], [[[-0.09920717030763626]], [[0.0228581540286541]], [[-0.07185966521501541]], [[-0.09883401542901993]], [[-0.08862357586622238]], [[-0.09343501925468445]], [[-0.004962099250406027]], [[-0.02234630286693573]], [[-0.06802525371313095]], [[-0.19271355867385864]], [[0.10443531721830368]], [[0.2145102322101593]], [[0.18186452984809875]], [[0.3013376295566559]], [[-0.11262046545743942]], [[-0.2524336874485016]], [[-0.1720060259103775]], [[0.29021430015563965]], [[-0.09223558008670807]], [[-0.2947550415992737]], [[0.07034929096698761]], [[0.1399998515844345]], [[-0.03522771969437599]], [[0.02459471859037876]], [[-0.34442514181137085]], [[0.036340534687042236]], [[0.034622807055711746]], [[-0.19997800886631012]], [[-0.026359470561146736]], [[-0.025181883946061134]], [[-0.14992138743400574]], [[-0.13238148391246796]], [[0.0586790069937706]], [[0.18978182971477509]], [[-0.04423600807785988]], [[-0.17216984927654266]], [[0.10925615578889847]], [[-0.1417798399925232]], [[0.11354896426200867]], [[-0.22087928652763367]], [[-0.20150241255760193]], [[0.2918931543827057]], [[-0.01823965273797512]], [[-0.30861008167266846]], [[0.14509151875972748]], [[0.1411091834306717]], [[0.05593003332614899]], [[0.2084401398897171]]], [[[-0.2969915568828583]], [[-0.3913462162017822]], [[0.16305197775363922]], [[-0.19789408147335052]], [[0.004302425775676966]], [[-0.4435652196407318]], [[-0.27415144443511963]], [[-0.2581785023212433]], [[0.043137021362781525]], [[-0.08943153917789459]], [[0.4451153576374054]], [[0.07225123792886734]], [[0.2826261520385742]], [[0.461030513048172]], [[0.11399849504232407]], [[0.11371327191591263]], [[0.2808407247066498]], [[0.07196225225925446]], [[-0.002479167887941003]], [[0.33680298924446106]], [[0.10052065551280975]], [[0.47440019249916077]], [[0.12157034128904343]], [[0.16901154816150665]], [[0.3422449231147766]], [[0.1413145810365677]], [[0.055783335119485855]], [[-0.20732057094573975]], [[0.306605726480484]], [[-0.046152547001838684]], [[-0.04896540567278862]], [[0.13814547657966614]], [[0.050911884754896164]], [[-0.09679140150547028]], [[0.34504446387290955]], [[0.13384383916854858]], [[-0.011404229328036308]], [[0.13940837979316711]], [[0.13995756208896637]], [[0.21736396849155426]], [[0.3716963827610016]], [[0.21485285460948944]], [[0.2177751660346985]], [[0.42018261551856995]], [[0.17392423748970032]], [[0.4378601312637329]], [[0.051580801606178284]], [[0.48119595646858215]]], [[[0.008012893609702587]], [[0.06111328303813934]], [[0.04419160634279251]], [[0.13826407492160797]], [[0.10328573733568192]], [[0.20536281168460846]], [[0.08172361552715302]], [[0.04420555382966995]], [[0.10093794763088226]], [[-0.31630441546440125]], [[0.15513846278190613]], [[0.21394751965999603]], [[-0.048330605030059814]], [[-0.05042620003223419]], [[0.06579787284135818]], [[-0.03307900205254555]], [[-0.09266380220651627]], [[0.2548319399356842]], [[-0.0002931383205577731]], [[0.046168241649866104]], [[-0.22859275341033936]], [[0.1527840793132782]], [[0.021987302228808403]], [[0.12791569530963898]], [[-0.009543808177113533]], [[-0.04262665659189224]], [[0.09500990808010101]], [[0.11843539029359818]], [[-0.2622649669647217]], [[0.09516593813896179]], [[-0.021917445585131645]], [[0.02891511097550392]], [[0.1420641988515854]], [[0.14523935317993164]], [[-0.31861191987991333]], [[0.27444300055503845]], [[-0.061850402504205704]], [[0.20338693261146545]], [[-0.009826903231441975]], [[0.11648821830749512]], [[0.3381280303001404]], [[-0.0969831719994545]], [[-0.06562010198831558]], [[-0.07945926487445831]], [[0.040275294333696365]], [[-0.11952649056911469]], [[0.07643819600343704]], [[-0.16801036894321442]]], [[[0.19676557183265686]], [[0.08790624141693115]], [[0.08399556577205658]], [[0.08408807218074799]], [[0.0181626845151186]], [[0.02377573400735855]], [[0.020531607791781425]], [[0.07104391604661942]], [[0.14981992542743683]], [[-0.44457027316093445]], [[0.2146366387605667]], [[0.01965961419045925]], [[-0.04471205547451973]], [[0.1748688817024231]], [[0.033825136721134186]], [[-0.05209553614258766]], [[0.211172953248024]], [[0.267887145280838]], [[-0.16823135316371918]], [[0.1309097707271576]], [[-0.15151281654834747]], [[0.0018684393726289272]], [[0.28059616684913635]], [[-0.3116096556186676]], [[-0.0544232614338398]], [[0.050440654158592224]], [[0.17414216697216034]], [[0.007959657348692417]], [[0.12583690881729126]], [[0.038454197347164154]], [[-0.04313284158706665]], [[0.4008274972438812]], [[-0.13126686215400696]], [[-0.02684260904788971]], [[-0.08468478918075562]], [[-0.20370979607105255]], [[-0.24470143020153046]], [[-0.2110079973936081]], [[-0.0430360771715641]], [[-0.11528190970420837]], [[0.15436314046382904]], [[-0.008660868741571903]], [[-0.09246239811182022]], [[0.19881150126457214]], [[0.02388927899301052]], [[-0.11320149153470993]], [[0.22140641510486603]], [[-0.15057845413684845]]], [[[-0.1454777717590332]], [[-0.11339142173528671]], [[-0.25618213415145874]], [[-0.026219172403216362]], [[0.05047063156962395]], [[0.24502016603946686]], [[-0.1342586725950241]], [[-0.09980707615613937]], [[0.2161552608013153]], [[-0.1920149028301239]], [[0.21710678935050964]], [[0.07068357616662979]], [[0.03909321129322052]], [[0.32722222805023193]], [[0.14313794672489166]], [[0.11214025318622589]], [[0.2066611647605896]], [[0.11534768342971802]], [[0.06541846692562103]], [[-0.09071473032236099]], [[0.5299666523933411]], [[0.29790425300598145]], [[-0.07623463869094849]], [[0.30717745423316956]], [[0.10928613692522049]], [[0.18791916966438293]], [[-0.13186392188072205]], [[-0.19639605283737183]], [[0.21083779633045197]], [[0.03569084778428078]], [[-0.12257659435272217]], [[-0.05016655847430229]], [[0.21436192095279694]], [[-0.19512639939785004]], [[0.21285398304462433]], [[0.40844088792800903]], [[-0.22296224534511566]], [[-0.37582865357398987]], [[0.22629399597644806]], [[0.009689747355878353]], [[0.3006085455417633]], [[0.4663512408733368]], [[0.11725166440010071]], [[0.037259627133607864]], [[0.21040065586566925]], [[-0.09296981990337372]], [[-0.17484286427497864]], [[0.3673169016838074]]], [[[0.20513667166233063]], [[0.09556411951780319]], [[0.02848774567246437]], [[-0.5012493133544922]], [[0.22658757865428925]], [[0.11682405322790146]], [[-0.02847219631075859]], [[-0.12377776205539703]], [[0.13501562178134918]], [[0.1534588634967804]], [[0.20527644455432892]], [[0.043337225914001465]], [[-0.0916825607419014]], [[0.18652237951755524]], [[0.20599454641342163]], [[-0.21909619867801666]], [[0.032310619950294495]], [[0.16279461979866028]], [[0.13271653652191162]], [[0.14564135670661926]], [[-0.3507237136363983]], [[0.07446446269750595]], [[0.016829220578074455]], [[-0.07430747151374817]], [[0.002434404566884041]], [[0.05286264047026634]], [[0.12961648404598236]], [[0.013275787234306335]], [[0.03842904418706894]], [[0.11980923265218735]], [[0.10002044588327408]], [[0.22029142081737518]], [[0.19481413066387177]], [[-0.07381167262792587]], [[-0.2640487551689148]], [[0.042148981243371964]], [[-0.012243157252669334]], [[-0.24780775606632233]], [[-0.12063534557819366]], [[-0.09077095985412598]], [[0.19801262021064758]], [[0.29525718092918396]], [[0.03638501092791557]], [[0.30194059014320374]], [[-0.3768727481365204]], [[-0.07526028156280518]], [[0.10192679613828659]], [[-0.2776898145675659]]], [[[0.07183381170034409]], [[0.05198967829346657]], [[-0.012594877742230892]], [[0.019369887188076973]], [[0.16100792586803436]], [[0.0011513086501508951]], [[-0.1182829886674881]], [[-0.12334641069173813]], [[-0.1654510200023651]], [[0.029552284628152847]], [[0.023035302758216858]], [[-0.10760384798049927]], [[0.038128651678562164]], [[-0.07626567035913467]], [[0.06991379708051682]], [[-0.2307460606098175]], [[0.06708477437496185]], [[-0.6058923006057739]], [[0.02193388156592846]], [[0.007290723733603954]], [[0.3501397669315338]], [[-0.006229186896234751]], [[-0.1137503907084465]], [[0.18987460434436798]], [[-0.02746790088713169]], [[0.15015380084514618]], [[-0.17875461280345917]], [[-0.07580593228340149]], [[0.30155354738235474]], [[-0.3825139105319977]], [[-0.19174370169639587]], [[0.0168388020247221]], [[-0.07823657244443893]], [[-0.18442580103874207]], [[0.3189956545829773]], [[-0.03208823502063751]], [[-0.11924587190151215]], [[0.28608810901641846]], [[-0.27521806955337524]], [[0.16283755004405975]], [[0.12756796181201935]], [[-0.20715978741645813]], [[0.15532997250556946]], [[0.4410068392753601]], [[0.12053205817937851]], [[0.0740746259689331]], [[0.036853525787591934]], [[-0.0924244225025177]]], [[[-0.26629871129989624]], [[-0.05036115273833275]], [[-0.12336654216051102]], [[-0.49543583393096924]], [[-0.2633965313434601]], [[-0.2151346653699875]], [[0.08531469106674194]], [[-0.14503753185272217]], [[-0.21956051886081696]], [[-0.42995646595954895]], [[0.16690130531787872]], [[-0.07388810813426971]], [[-0.24108007550239563]], [[-0.13017304241657257]], [[-0.08781629055738449]], [[-0.1980150192975998]], [[0.030863815918564796]], [[0.1416199803352356]], [[0.19061477482318878]], [[-0.0149820726364851]], [[0.24341480433940887]], [[-0.06015236675739288]], [[-0.027352940291166306]], [[0.032841756939888]], [[-0.021849846467375755]], [[-0.005221812054514885]], [[-0.09771914780139923]], [[0.05017833039164543]], [[0.03554842993617058]], [[-0.06382034718990326]], [[-0.03445521369576454]], [[0.1307152658700943]], [[-0.0007712955120950937]], [[-0.023951683193445206]], [[-0.2675272822380066]], [[-0.12728632986545563]], [[0.20042634010314941]], [[-0.14703385531902313]], [[-0.014188037253916264]], [[-0.21508516371250153]], [[-0.057675544172525406]], [[0.3314741551876068]], [[0.2755548655986786]], [[0.3450250029563904]], [[-0.16199636459350586]], [[0.10527016222476959]], [[0.12619082629680634]], [[-0.09624450653791428]]], [[[0.10550986975431442]], [[0.2534254491329193]], [[-0.14908865094184875]], [[-0.16256198287010193]], [[0.05330068990588188]], [[0.06427198648452759]], [[0.035862766206264496]], [[-0.02900441735982895]], [[0.05241090804338455]], [[0.07841350883245468]], [[-0.04297405108809471]], [[0.16046574711799622]], [[-0.14223840832710266]], [[-0.10268992185592651]], [[0.37339311838150024]], [[-0.2154705822467804]], [[-0.1528659611940384]], [[0.22438709437847137]], [[-0.09778725355863571]], [[0.21722368896007538]], [[0.18730595707893372]], [[0.014063546434044838]], [[0.07999659329652786]], [[0.45176583528518677]], [[-0.18524205684661865]], [[-0.05791816487908363]], [[0.10450291633605957]], [[0.07097175717353821]], [[-0.2602848410606384]], [[0.16382025182247162]], [[0.03846266493201256]], [[0.018795372918248177]], [[0.3418155908584595]], [[-0.14454872906208038]], [[-0.41122040152549744]], [[0.21481697261333466]], [[-0.03886653482913971]], [[-0.21655648946762085]], [[0.13918709754943848]], [[-0.07125873118638992]], [[-0.01550279837101698]], [[0.2523893415927887]], [[-0.00960709247738123]], [[-0.21917685866355896]], [[-0.18825523555278778]], [[-0.1166454628109932]], [[0.12266477942466736]], [[-0.19144178926944733]]], [[[0.11673171818256378]], [[-0.110158272087574]], [[0.008702917024493217]], [[-0.20427359640598297]], [[0.18526996672153473]], [[-0.01189999096095562]], [[0.014916711486876011]], [[-0.10456673800945282]], [[0.1731131225824356]], [[-0.15210679173469543]], [[-0.5264373421669006]], [[0.25007420778274536]], [[0.014594676904380322]], [[-0.2500680685043335]], [[0.24144569039344788]], [[0.06841155141592026]], [[-0.07580983638763428]], [[-0.16191014647483826]], [[-0.035330794751644135]], [[0.07510066777467728]], [[0.010710936039686203]], [[0.2613637149333954]], [[0.41530799865722656]], [[0.39374056458473206]], [[-0.07534027844667435]], [[-0.13685624301433563]], [[0.15235331654548645]], [[0.017942434176802635]], [[-0.193945050239563]], [[-0.29227688908576965]], [[0.028795616701245308]], [[0.26307475566864014]], [[-0.04220709204673767]], [[-0.16872142255306244]], [[0.30949053168296814]], [[-0.17303051054477692]], [[-0.02519233711063862]], [[-0.031283117830753326]], [[-0.6313849091529846]], [[-0.21595411002635956]], [[0.08244933187961578]], [[-0.08646110445261002]], [[-0.10767480731010437]], [[0.11557432264089584]], [[-0.1435084491968155]], [[0.0395931601524353]], [[-0.025561148300766945]], [[-0.15261802077293396]]], [[[-0.16071586310863495]], [[0.010470593348145485]], [[0.12307548522949219]], [[-0.03901435434818268]], [[0.009939602576196194]], [[0.23759981989860535]], [[0.04664752632379532]], [[-0.1429060697555542]], [[0.2955636978149414]], [[-0.1154237911105156]], [[-0.15014302730560303]], [[0.018088096752762794]], [[-0.03553363308310509]], [[-0.12060060352087021]], [[-0.006494345609098673]], [[0.13884063065052032]], [[-0.03654932603240013]], [[0.296512246131897]], [[-0.047692153602838516]], [[0.02550842985510826]], [[-0.16324271261692047]], [[-0.10936532914638519]], [[-0.1377560943365097]], [[-0.12248942255973816]], [[0.018116800114512444]], [[0.09741871803998947]], [[0.12781871855258942]], [[0.12229878455400467]], [[-0.13712547719478607]], [[0.06851428002119064]], [[-0.13832420110702515]], [[0.0650717243552208]], [[-0.03840769827365875]], [[-0.1198105663061142]], [[-0.16363149881362915]], [[0.004269701894372702]], [[-0.20106221735477448]], [[0.044137660413980484]], [[-0.21100562810897827]], [[-0.5204001665115356]], [[0.10709594190120697]], [[0.009518623352050781]], [[-0.012019340880215168]], [[-0.09951332211494446]], [[-0.14780305325984955]], [[-0.18218813836574554]], [[-0.07467970252037048]], [[0.09075546264648438]]], [[[0.060485199093818665]], [[-0.12221407145261765]], [[0.04353208467364311]], [[0.17248281836509705]], [[-0.1738140881061554]], [[0.2328704297542572]], [[0.09515656530857086]], [[-0.01756596378982067]], [[-0.0462731309235096]], [[-0.3194689452648163]], [[0.35963475704193115]], [[-0.09954217076301575]], [[0.06726295500993729]], [[0.2422841340303421]], [[0.12324067950248718]], [[-0.06786597520112991]], [[0.2693958580493927]], [[-0.2378971129655838]], [[0.07401721179485321]], [[-0.24340902268886566]], [[-0.07274364680051804]], [[0.04007566347718239]], [[0.006319376640021801]], [[0.012245970778167248]], [[0.19251173734664917]], [[-0.2821640968322754]], [[0.22811877727508545]], [[-0.03574695810675621]], [[-0.20314429700374603]], [[-0.1738871932029724]], [[-0.005805350840091705]], [[0.1783851683139801]], [[-0.07843437045812607]], [[0.04031917825341225]], [[0.044588975608348846]], [[-0.07625368237495422]], [[-0.18441465497016907]], [[-0.15259525179862976]], [[0.05800500139594078]], [[0.2639690935611725]], [[-0.2871569097042084]], [[-0.038077957928180695]], [[-0.18736933171749115]], [[-0.13792964816093445]], [[0.18648558855056763]], [[-0.16044127941131592]], [[0.013755877502262592]], [[-0.03476232290267944]]], [[[0.07871629297733307]], [[-0.04008528217673302]], [[-0.2436978965997696]], [[-0.3566429913043976]], [[0.09361539781093597]], [[0.07339055836200714]], [[-0.4878891408443451]], [[0.10845158994197845]], [[-0.11631432175636292]], [[-0.4202510416507721]], [[0.16284048557281494]], [[-0.20280610024929047]], [[-0.2275678813457489]], [[0.062401529401540756]], [[-0.013085916638374329]], [[0.11330808699131012]], [[-0.06627257913351059]], [[-0.0940774530172348]], [[-0.130880668759346]], [[-0.23817600309848785]], [[0.018124135211110115]], [[-0.3025418221950531]], [[-0.26998820900917053]], [[0.05513853207230568]], [[0.3100295662879944]], [[-0.14673689007759094]], [[-0.02643362246453762]], [[0.15777082741260529]], [[0.009973535314202309]], [[-0.11744847893714905]], [[0.011285482905805111]], [[-0.06946323812007904]], [[-0.016506001353263855]], [[0.12230157107114792]], [[0.0038403328508138657]], [[-0.05243127793073654]], [[0.023462461307644844]], [[0.005642119795084]], [[-0.10504234582185745]], [[-0.25529640913009644]], [[-0.04784088581800461]], [[-0.18434704840183258]], [[0.06223655864596367]], [[-0.005886097904294729]], [[-0.011650623753666878]], [[0.2085123062133789]], [[-0.27204662561416626]], [[-0.3621833622455597]]], [[[-0.04402295500040054]], [[-0.22402797639369965]], [[0.11189015954732895]], [[-0.18042805790901184]], [[-0.3258412182331085]], [[0.15139037370681763]], [[0.023936310783028603]], [[-0.4948822259902954]], [[0.19561007618904114]], [[-0.22288933396339417]], [[-0.2638123333454132]], [[0.17516730725765228]], [[0.019987212494015694]], [[-0.2097574770450592]], [[0.18415430188179016]], [[-0.1793484091758728]], [[-0.2929137945175171]], [[-0.10754106193780899]], [[0.030703755095601082]], [[0.2247454971075058]], [[-0.05154453590512276]], [[-0.16521915793418884]], [[0.04742501303553581]], [[0.21925385296344757]], [[0.12571920454502106]], [[-0.4923287034034729]], [[0.27875271439552307]], [[-0.26260095834732056]], [[-0.015050134621560574]], [[0.1026894822716713]], [[-0.20028065145015717]], [[-0.10567719489336014]], [[0.1702640801668167]], [[0.028725137934088707]], [[-0.19173017144203186]], [[0.08377663046121597]], [[-0.10060840845108032]], [[-0.18475589156150818]], [[-0.24624550342559814]], [[0.12916487455368042]], [[-0.05825231969356537]], [[0.48835161328315735]], [[0.021802425384521484]], [[0.12844058871269226]], [[-0.08387226611375809]], [[0.07173065096139908]], [[0.09309040009975433]], [[-0.13521157205104828]]], [[[-0.13220994174480438]], [[-0.09965769201517105]], [[-0.34552714228630066]], [[-0.14817814528942108]], [[-0.05349639430642128]], [[-0.08146689087152481]], [[-0.11862257868051529]], [[-0.04332997649908066]], [[-0.2486138790845871]], [[-0.08359265327453613]], [[0.11296150833368301]], [[-0.427207887172699]], [[-0.04232695698738098]], [[-0.23705941438674927]], [[-0.054687757045030594]], [[-0.21032437682151794]], [[0.12755347788333893]], [[0.007890764623880386]], [[-0.08073758333921432]], [[-0.17861244082450867]], [[-0.2298726737499237]], [[0.11657696217298508]], [[0.22604453563690186]], [[-0.11670366674661636]], [[0.04667641967535019]], [[0.10147885978221893]], [[0.5575339198112488]], [[-0.20148305594921112]], [[0.14099933207035065]], [[0.4191647469997406]], [[-0.22776171565055847]], [[0.030899465084075928]], [[-0.7069893479347229]], [[-0.05027548968791962]], [[0.0881650522351265]], [[-0.0033098729327321053]], [[0.021543189883232117]], [[-0.05260613188147545]], [[0.21058452129364014]], [[0.033901140093803406]], [[0.2419239580631256]], [[-0.7650052905082703]], [[-0.15000542998313904]], [[-0.15317897498607635]], [[0.19118653237819672]], [[0.24183514714241028]], [[-0.1650751680135727]], [[0.15194480121135712]]], [[[-0.12932980060577393]], [[0.03977494314312935]], [[0.08329368382692337]], [[0.020768046379089355]], [[-0.10033509135246277]], [[0.14294220507144928]], [[-0.08246521651744843]], [[-0.045421302318573]], [[0.1274346113204956]], [[-0.11053011566400528]], [[-0.21875891089439392]], [[0.06948784738779068]], [[-0.01580066978931427]], [[-0.3876913785934448]], [[0.12903784215450287]], [[-0.024005621671676636]], [[-0.31297972798347473]], [[0.0689016729593277]], [[-0.1732342541217804]], [[0.09067589044570923]], [[0.01749955676496029]], [[-0.020050324499607086]], [[0.259030818939209]], [[0.508669376373291]], [[0.15951396524906158]], [[0.07674527913331985]], [[0.23926623165607452]], [[-0.07097529619932175]], [[0.11332949995994568]], [[-0.09182966500520706]], [[-0.39483842253685]], [[-0.05507207289338112]], [[0.4796261787414551]], [[0.09764090925455093]], [[-0.1151818186044693]], [[0.3462827205657959]], [[-0.041937753558158875]], [[0.41499173641204834]], [[-0.6044209003448486]], [[0.08770479261875153]], [[-0.048265233635902405]], [[-0.18719454109668732]], [[-0.08883650600910187]], [[-0.10414722561836243]], [[0.1582472026348114]], [[-0.01985391601920128]], [[-0.2751092314720154]], [[-0.016697285696864128]]], [[[-0.31089797616004944]], [[-0.026623988524079323]], [[-0.01754702813923359]], [[0.03213130682706833]], [[-0.17700165510177612]], [[-0.04096284508705139]], [[-0.1931738257408142]], [[-0.11447382718324661]], [[-0.05176631733775139]], [[-0.2746865749359131]], [[-0.17394481599330902]], [[-0.1780051290988922]], [[-0.19450576603412628]], [[-0.2362511157989502]], [[-0.23792673647403717]], [[-0.06303472071886063]], [[-0.3419881761074066]], [[0.08915266394615173]], [[-0.14574545621871948]], [[0.005613418761640787]], [[-0.08782856911420822]], [[-0.30026811361312866]], [[-0.055646445602178574]], [[-0.0574163943529129]], [[0.0961420089006424]], [[-0.41745537519454956]], [[0.05578025430440903]], [[-0.22820845246315002]], [[-0.061113711446523666]], [[-0.24763625860214233]], [[-0.5084440112113953]], [[-0.12505635619163513]], [[-0.26550543308258057]], [[-0.008968784473836422]], [[-0.26586899161338806]], [[0.11363736540079117]], [[0.14434531331062317]], [[0.060412369668483734]], [[-0.23427189886569977]], [[-0.1887141615152359]], [[-0.2891492545604706]], [[0.06107563525438309]], [[-0.10424429178237915]], [[0.08723390102386475]], [[0.11795201152563095]], [[0.01190620381385088]], [[-0.012622065842151642]], [[-0.10004968196153641]]], [[[-0.09447438269853592]], [[-0.01800595596432686]], [[0.06633082032203674]], [[0.1424594521522522]], [[-0.09466094523668289]], [[0.1089199110865593]], [[-0.0820472314953804]], [[-0.14573995769023895]], [[-0.007368776015937328]], [[0.001804254949092865]], [[-0.14077864587306976]], [[-0.18366625905036926]], [[0.03177521377801895]], [[-0.23700033128261566]], [[0.17342622578144073]], [[0.03017338365316391]], [[-0.3241428732872009]], [[0.31219393014907837]], [[-0.04433809593319893]], [[0.08924510329961777]], [[0.08694912493228912]], [[0.028713662177324295]], [[-0.06521335244178772]], [[0.3413536250591278]], [[0.0988435372710228]], [[-0.1703091263771057]], [[0.030124379321932793]], [[-0.1393750011920929]], [[-0.29576292634010315]], [[0.47387319803237915]], [[-0.04465080425143242]], [[-0.4267430007457733]], [[0.06538254767656326]], [[0.009340471588075161]], [[-0.6139406561851501]], [[0.18231579661369324]], [[-0.05150702968239784]], [[0.2638511657714844]], [[0.15075069665908813]], [[-0.0260411836206913]], [[0.007415883243083954]], [[0.33254578709602356]], [[0.05444691702723503]], [[-0.11218197643756866]], [[-0.08880267292261124]], [[0.08192277699708939]], [[0.0979413241147995]], [[-0.09697862714529037]]], [[[-0.01196666993200779]], [[0.06244779750704765]], [[-0.251635879278183]], [[-0.05892801657319069]], [[0.1889103502035141]], [[-0.13659173250198364]], [[-0.12653037905693054]], [[-0.01669822260737419]], [[-0.125119149684906]], [[-0.13793233036994934]], [[-0.3296591639518738]], [[-0.13096275925636292]], [[0.0855899229645729]], [[-0.2569141089916229]], [[-0.12265465408563614]], [[-0.03655679523944855]], [[-0.40602219104766846]], [[-0.25784918665885925]], [[-0.0003717069048434496]], [[0.27667978405952454]], [[0.11126655340194702]], [[0.12689201533794403]], [[-0.10572784394025803]], [[0.11909928917884827]], [[0.06605727970600128]], [[-0.4431536793708801]], [[0.295462042093277]], [[0.055952563881874084]], [[-0.4400583803653717]], [[0.2363746613264084]], [[-0.044692713767290115]], [[-0.3737965226173401]], [[-0.30781272053718567]], [[-0.17409095168113708]], [[-0.5046750903129578]], [[-0.05656826123595238]], [[0.15831515192985535]], [[-0.3406055271625519]], [[0.37422582507133484]], [[-0.12318248301744461]], [[0.11250109225511551]], [[0.07156713306903839]], [[-0.08591145277023315]], [[-0.2643424868583679]], [[-0.24909816682338715]], [[-0.009943458251655102]], [[0.16596798598766327]], [[0.0004800070892088115]]], [[[-0.20010696351528168]], [[-0.19079214334487915]], [[0.1003718227148056]], [[0.16505664587020874]], [[-0.0026311874389648438]], [[0.07168072462081909]], [[0.16221368312835693]], [[-0.003567000152543187]], [[-0.008510362356901169]], [[-0.07107693701982498]], [[0.06965720653533936]], [[0.013786054216325283]], [[-0.024609273299574852]], [[0.017455635592341423]], [[-0.21756254136562347]], [[-0.09080608934164047]], [[0.017333222553133965]], [[0.2227521538734436]], [[0.23328419029712677]], [[0.04974277317523956]], [[0.05379865691065788]], [[-0.007687400095164776]], [[-0.16648894548416138]], [[-0.17390568554401398]], [[-0.0921936184167862]], [[-0.06544993817806244]], [[0.20846077799797058]], [[-0.18497246503829956]], [[-0.44858551025390625]], [[0.2776935398578644]], [[0.023894857615232468]], [[-0.144462451338768]], [[0.13993537425994873]], [[-0.045618362724781036]], [[0.16177105903625488]], [[-0.025559598580002785]], [[-0.11231948435306549]], [[-0.15539811551570892]], [[0.18442930281162262]], [[-0.13471835851669312]], [[-0.06362029910087585]], [[-0.07341022789478302]], [[-0.2541614770889282]], [[-0.2022051364183426]], [[0.2205316424369812]], [[-0.13685999810695648]], [[0.36614444851875305]], [[0.06478144973516464]]], [[[-0.02717318944633007]], [[0.17450165748596191]], [[0.15283077955245972]], [[-0.15983504056930542]], [[0.0994417816400528]], [[0.10152298957109451]], [[-0.0644892156124115]], [[-0.051027704030275345]], [[0.2730123996734619]], [[0.01789107732474804]], [[0.2651076316833496]], [[0.10232717543840408]], [[0.071729876101017]], [[0.11404244601726532]], [[0.03476806730031967]], [[0.07036050409078598]], [[0.296891987323761]], [[0.26676106452941895]], [[0.024770211428403854]], [[-0.04957300052046776]], [[-0.1534404307603836]], [[-0.16904501616954803]], [[0.14059661328792572]], [[-0.03411867842078209]], [[-0.11788278073072433]], [[0.2669137120246887]], [[-0.2806023955345154]], [[-0.048546213656663895]], [[0.1940072923898697]], [[0.24545909464359283]], [[-0.006102235987782478]], [[-0.05116170644760132]], [[0.07518010586500168]], [[-0.17828360199928284]], [[-0.14703680574893951]], [[-0.30371201038360596]], [[-0.12609437108039856]], [[0.3987314701080322]], [[0.11595182865858078]], [[-0.010308599099516869]], [[0.028128350153565407]], [[0.2530553638935089]], [[0.10967211425304413]], [[-0.15670649707317352]], [[-0.28122520446777344]], [[-0.032801978290081024]], [[-0.29530230164527893]], [[-0.11143791675567627]]], [[[0.02042977698147297]], [[-0.2424595057964325]], [[-0.06712555140256882]], [[-0.15681572258472443]], [[-0.07766809314489365]], [[0.04843219742178917]], [[-0.051838941872119904]], [[-0.12933050096035004]], [[0.2525595426559448]], [[-0.05489727854728699]], [[0.05438870191574097]], [[0.27090197801589966]], [[-0.11627420783042908]], [[0.09893275052309036]], [[-0.01097047608345747]], [[0.17003606259822845]], [[-0.14240068197250366]], [[-0.09623924642801285]], [[0.03087237849831581]], [[0.43255364894866943]], [[-0.07948317378759384]], [[0.26369789242744446]], [[-0.0821242704987526]], [[-0.14815226197242737]], [[0.18855485320091248]], [[0.06620721518993378]], [[0.1780058592557907]], [[-0.11262205243110657]], [[-0.057415466755628586]], [[0.029687663540244102]], [[-0.08457765728235245]], [[-0.04245757311582565]], [[0.07963153719902039]], [[-0.05754274129867554]], [[0.08420424908399582]], [[-0.04766956344246864]], [[-0.21732400357723236]], [[0.20558567345142365]], [[-0.1603161245584488]], [[-0.1010565236210823]], [[0.19418738782405853]], [[0.11118631809949875]], [[0.13492687046527863]], [[-0.4037489891052246]], [[0.0021833491045981646]], [[-0.11236528307199478]], [[0.13922634720802307]], [[0.31942054629325867]]], [[[-0.24727284908294678]], [[-0.06419343501329422]], [[0.3731859028339386]], [[-0.34908443689346313]], [[0.10966368764638901]], [[0.22040791809558868]], [[-0.0962223932147026]], [[0.10122133046388626]], [[0.22997774183750153]], [[0.12558585405349731]], [[0.2975495159626007]], [[0.05520004779100418]], [[0.11854914575815201]], [[0.16442696750164032]], [[0.3337799310684204]], [[-0.18961955606937408]], [[0.1715782731771469]], [[-0.1261301040649414]], [[0.18956252932548523]], [[-0.3270585536956787]], [[0.273113489151001]], [[-0.09787120670080185]], [[-0.1839424967765808]], [[-0.03439844399690628]], [[-0.02369868755340576]], [[0.00907609611749649]], [[-0.3021394610404968]], [[-0.17551358044147491]], [[-0.1671006679534912]], [[-0.12049359828233719]], [[-0.041673168540000916]], [[0.12897588312625885]], [[-0.11969564110040665]], [[-0.18772996962070465]], [[0.3067983090877533]], [[-0.060434095561504364]], [[-0.16159233450889587]], [[-0.423923134803772]], [[0.05340392515063286]], [[0.17734141647815704]], [[-0.04917645454406738]], [[-0.20815366506576538]], [[-0.22650279104709625]], [[0.026222191751003265]], [[-0.3917429447174072]], [[0.13187818229198456]], [[-0.14544005692005157]], [[-0.28074923157691956]]], [[[0.10577765852212906]], [[0.14791741967201233]], [[0.1142200380563736]], [[0.005065574310719967]], [[0.043538883328437805]], [[0.3217594623565674]], [[-0.11079995334148407]], [[0.13901680707931519]], [[0.11238060146570206]], [[0.03654941916465759]], [[-0.18763074278831482]], [[-0.04741114377975464]], [[-0.048645440489053726]], [[-0.19327613711357117]], [[-0.21195515990257263]], [[0.11075771600008011]], [[-0.0501093715429306]], [[0.26237934827804565]], [[0.017026586458086967]], [[0.10090621560811996]], [[0.2475738376379013]], [[-0.07194007933139801]], [[-0.1640152782201767]], [[0.09329856932163239]], [[-0.09827689081430435]], [[0.06858111917972565]], [[0.1258050799369812]], [[-0.3652913570404053]], [[0.08173120766878128]], [[0.37725186347961426]], [[-0.12048667669296265]], [[0.1172688826918602]], [[0.3881276845932007]], [[-0.22141005098819733]], [[-0.21535685658454895]], [[0.13078896701335907]], [[-0.2953268885612488]], [[0.348269522190094]], [[0.11552169919013977]], [[0.07269971072673798]], [[0.04673595353960991]], [[0.034692369401454926]], [[-0.2383393943309784]], [[-0.23759342730045319]], [[-0.09850537776947021]], [[-0.020245201885700226]], [[0.05064694210886955]], [[-0.22555474936962128]]], [[[-0.25851327180862427]], [[-0.14713583886623383]], [[0.12642422318458557]], [[0.48767346143722534]], [[-0.051924414932727814]], [[0.1509658396244049]], [[-0.13217821717262268]], [[0.32550984621047974]], [[-0.0946916937828064]], [[0.1627541482448578]], [[0.2045789211988449]], [[0.23854278028011322]], [[0.0064534409902989864]], [[0.16036167740821838]], [[0.1687321960926056]], [[-0.22322721779346466]], [[0.18321563303470612]], [[-0.05762842297554016]], [[0.09940344095230103]], [[-0.008040124550461769]], [[0.106824591755867]], [[-0.19056358933448792]], [[-0.018986985087394714]], [[0.21223264932632446]], [[0.19870002567768097]], [[0.25012925267219543]], [[-0.01725626364350319]], [[0.04718640819191933]], [[0.3054651618003845]], [[-0.035657770931720734]], [[0.1299203485250473]], [[0.2218904048204422]], [[0.18170447647571564]], [[0.08137542754411697]], [[0.0524849034845829]], [[0.23031800985336304]], [[0.188001811504364]], [[0.01496976986527443]], [[-0.05666378140449524]], [[-0.15792736411094666]], [[0.08819948881864548]], [[0.22989176213741302]], [[0.060425929725170135]], [[0.0005987539771012962]], [[-0.35651257634162903]], [[0.04774947464466095]], [[-0.11576249450445175]], [[-0.14296351373195648]]], [[[0.18353401124477386]], [[0.08324757218360901]], [[0.050621144473552704]], [[0.0002804826362989843]], [[-0.015861092135310173]], [[0.11908408254384995]], [[-0.05335706099867821]], [[-0.0398620180785656]], [[-0.016801906749606133]], [[0.13566267490386963]], [[-0.27834653854370117]], [[0.19256284832954407]], [[0.04671376571059227]], [[-0.2711113393306732]], [[0.16020843386650085]], [[0.19569870829582214]], [[0.03888139873743057]], [[-0.03563837334513664]], [[0.10405013710260391]], [[0.19403576850891113]], [[0.24843701720237732]], [[0.05237193778157234]], [[0.2032078206539154]], [[0.028833642601966858]], [[-0.04741310700774193]], 